{"learner":{"attributes":{"best_iteration":"99","best_ntree_limit":"100","scikit_learn":"{\"n_estimators\": 100, \"objective\": \"reg:squarederror\", \"max_depth\": null, \"max_leaves\": null, \"max_bin\": null, \"grow_policy\": null, \"learning_rate\": 0.1, \"verbosity\": null, \"booster\": null, \"tree_method\": null, \"gamma\": null, \"min_child_weight\": null, \"max_delta_step\": null, \"subsample\": null, \"sampling_method\": null, \"colsample_bytree\": null, \"colsample_bylevel\": null, \"colsample_bynode\": null, \"reg_alpha\": null, \"reg_lambda\": null, \"scale_pos_weight\": null, \"base_score\": null, \"missing\": NaN, \"num_parallel_tree\": null, \"random_state\": null, \"n_jobs\": null, \"monotone_constraints\": null, \"interaction_constraints\": null, \"importance_type\": null, \"gpu_id\": null, \"validate_parameters\": null, \"predictor\": null, \"enable_categorical\": false, \"feature_types\": null, \"max_cat_to_onehot\": null, \"max_cat_threshold\": null, \"eval_metric\": null, \"early_stopping_rounds\": null, \"callbacks\": null, \"_estimator_type\": \"regressor\"}"},"feature_names":[],"feature_types":[],"gradient_booster":{"model":{"gbtree_model_param":{"num_parallel_tree":"1","num_trees":"100","size_leaf_vector":"0"},"tree_info":[0,0,0,0,0,0,0,0,0,0,0,0,0,0,0,0,0,0,0,0,0,0,0,0,0,0,0,0,0,0,0,0,0,0,0,0,0,0,0,0,0,0,0,0,0,0,0,0,0,0,0,0,0,0,0,0,0,0,0,0,0,0,0,0,0,0,0,0,0,0,0,0,0,0,0,0,0,0,0,0,0,0,0,0,0,0,0,0,0,0,0,0,0,0,0,0,0,0,0,0],"trees":[{"base_weights":[5.9180977E1,6.691162E1,4.3472294E1,7.289444E1,6.1797348E1,4.9174248E1,3.1007027E1,6.991489E1,7.568824E1,6.466176E1,5.9076572E1,5.2763474E1,4.4311554E1,3.4955956E1,2.4315693E1,7.060669E1,6.275345E1,7.6726944E1,6.91189E1,5.9068542E1,6.564563E1,5.693337E1,6.1194233E1,5.503127E1,4.945815E1,4.7479313E1,4.1311028E1,3.2109287E1,3.7809765E1,2.8462223E1,2.2714884E1,6.8429344E1,7.2091736E1,6.2906574E1,9.25E0,7.6740105E1,1.925E1,6.9181915E1,1.975E1,5.9726505E1,4.830263E1,6.3132915E1,6.714289E1,5.3694794E1,5.8414318E1,6.2030884E1,5.7250698E1,5.000901E1,5.6276367E1,5.1046085E1,4.5658432E1,4.9227978E1,4.4912834E1,3.9271404E1,4.3716526E1,2.9492733E1,3.4540615E1,4.1740826E1,3.590192E1,2.3992647E1,3.0205696E1,2.1304499E1,2.3956451E1,6.8560135E1,4.04375E1,7.216735E1,2.1875E1,1.475E1,6.3022568E1,6.924307E1,2.025E1,5.9958096E1,3.70625E1,1.675E1,6.315763E1,6.7163536E1,1.325E1,3.3333332E1,5.3901756E1,5.8889698E1,5.2857758E1,6.2049133E1,1.625E1,1.375E1,5.7333797E1,5.0169186E1,1.5666667E1,5.5042873E1,5.9258854E1,4.8932854E1,5.325399E1,4.5943954E1,2.1916666E1,1.9375E1,4.9349827E1,4.4974514E1,9.75E0,4.066076E1,3.6176315E1,1.9875E1,4.3825264E1,3.3657536E1,2.8266544E1,3.482235E1,1.9777779E1,3.7296513E1,4.430075E1,3.8139263E1,3.181686E1,2.5278847E1,3.2317757E1,2.6022728E1,2.0837687E1,2.2613157E1,2.586777E1],"categories":[],"categories_nodes":[],"categories_segments":[],"categories_sizes":[],"default_left":[1,1,1,1,1,1,1,1,1,1,1,1,1,1,1,1,1,1,1,1,1,1,1,1,1,1,1,1,1,1,1,1,1,1,0,0,0,1,0,1,0,1,1,1,1,1,1,1,1,1,1,1,1,1,1,1,1,1,1,0,1,1,1,0,0,0,0,0,0,0,0,0,0,0,0,0,0,0,0,0,0,0,0,0,0,0,0,0,0,0,0,0,0,0,0,0,0,0,0,0,0,0,0,0,0,0,0,0,0,0,0,0,0,0,0],"id":0,"left_children":[1,3,5,7,9,11,13,15,17,19,21,23,25,27,29,31,33,35,37,39,41,43,45,47,49,51,53,55,57,59,61,63,65,67,-1,-1,-1,69,-1,71,-1,73,75,77,79,81,83,85,87,89,91,93,95,97,99,101,103,105,107,-1,109,111,113,-1,-1,-1,-1,-1,-1,-1,-1,-1,-1,-1,-1,-1,-1,-1,-1,-1,-1,-1,-1,-1,-1,-1,-1,-1,-1,-1,-1,-1,-1,-1,-1,-1,-1,-1,-1,-1,-1,-1,-1,-1,-1,-1,-1,-1,-1,-1,-1,-1,-1,-1,-1],"loss_changes":[2.580816E6,4.31728E5,4.97431E5,4.9356E4,5.6136E4,8.17E4,5.744075E4,1.1372E4,1.7734E4,1.6688E4,1.4476E4,1.8004E4,1.75335E4,1.00375E4,4.80975E3,4.447E3,1.794E3,7.2E2,9.875E1,1.145625E3,7.684E3,6.3645E3,2.9715E3,7.3845E3,4.5175E3,2.2365E3,3.488875E3,3.4345E3,3.64625E3,1.0286094E3,5.3675E2,1.606E3,4.899E3,6.8475E2,0E0,0E0,0E0,4.5E0,0E0,5.70125E2,0E0,3.175E2,1.301E3,8.75E2,4.48E2,3.44E2,5.09375E2,1.04575E3,1.517E3,1.0895E3,1.325E3,1.149875E3,4.5725E2,1.0404375E3,3.68125E2,8.05375E2,7.9609375E2,8.279375E2,3.0730625E3,0E0,8.2715625E2,9.428125E1,2.1095312E2,0E0,0E0,0E0,0E0,0E0,0E0,0E0,0E0,0E0,0E0,0E0,0E0,0E0,0E0,0E0,0E0,0E0,0E0,0E0,0E0,0E0,0E0,0E0,0E0,0E0,0E0,0E0,0E0,0E0,0E0,0E0,0E0,0E0,0E0,0E0,0E0,0E0,0E0,0E0,0E0,0E0,0E0,0E0,0E0,0E0,0E0,0E0,0E0,0E0,0E0,0E0,0E0],"parents":[2147483647,0,0,1,1,2,2,3,3,4,4,5,5,6,6,7,7,8,8,9,9,10,10,11,11,12,12,13,13,14,14,15,15,16,16,17,17,18,18,19,19,20,20,21,21,22,22,23,23,24,24,25,25,26,26,27,27,28,28,29,29,30,30,31,31,32,32,33,33,37,37,39,39,41,41,42,42,43,43,44,44,45,45,46,46,47,47,48,48,49,49,50,50,51,51,52,52,53,53,54,54,55,55,56,56,57,57,58,58,60,60,61,61,62,62],"right_children":[2,4,6,8,10,12,14,16,18,20,22,24,26,28,30,32,34,36,38,40,42,44,46,48,50,52,54,56,58,60,62,64,66,68,-1,-1,-1,70,-1,72,-1,74,76,78,80,82,84,86,88,90,92,94,96,98,100,102,104,106,108,-1,110,112,114,-1,-1,-1,-1,-1,-1,-1,-1,-1,-1,-1,-1,-1,-1,-1,-1,-1,-1,-1,-1,-1,-1,-1,-1,-1,-1,-1,-1,-1,-1,-1,-1,-1,-1,-1,-1,-1,-1,-1,-1,-1,-1,-1,-1,-1,-1,-1,-1,-1,-1,-1,-1],"split_conditions":[1.14748314E-1,-1.180428E0,1.4935896E0,1.9164944E0,-1.9078356E-1,4.899016E-1,2.1053414E0,-5.430376E-1,-5.418417E-2,1.324107E-1,-3.9872676E-1,-1.2514292E0,1.6647041E-1,-1.1834792E0,6.632343E-3,8.8604206E-1,7.17099E-1,2.198244E0,-4.3788308E-1,7.165222E-1,6.416465E-1,1.4643136E-1,-6.046895E-1,1.6333714E-1,-3.1193256E-1,-5.6445736E-1,-7.9642904E-1,-2.3991078E-1,1.4199059E0,-1.2782985E0,-1.8112876E0,8.0519485E-1,1.1339324E0,-1.1035855E0,9.25E-1,7.6740108E0,1.9250001E0,2.1050136E0,1.975E0,1.9415724E0,4.830263E0,-1.2247338E0,7.177032E-1,-2.0883858E-1,-3.0935463E-1,1.5508622E0,-1.4982724E0,4.6318173E-1,-4.679494E-1,1.0681695E-1,7.060298E-1,-1.4263502E0,1.7535805E0,3.2612038E-1,-1.4141123E0,-8.444597E-2,-6.591606E-2,7.176432E-1,-5.93862E-1,2.3992648E0,-1.9653255E0,-3.545345E-1,-1.2805487E0,6.856014E0,4.0437503E0,7.2167354E0,2.1875E0,1.475E0,6.302257E0,6.9243073E0,2.025E0,5.9958096E0,3.70625E0,1.6750001E0,6.315763E0,6.716354E0,1.325E0,3.3333333E0,5.390176E0,5.88897E0,5.2857757E0,6.2049136E0,1.625E0,1.375E0,5.73338E0,5.0169187E0,1.5666667E0,5.5042872E0,5.9258857E0,4.8932853E0,5.325399E0,4.5943956E0,2.1916666E0,1.9375E0,4.934983E0,4.4974513E0,9.75E-1,4.066076E0,3.6176317E0,1.9875001E0,4.3825264E0,3.3657537E0,2.8266544E0,3.482235E0,1.9777778E0,3.7296512E0,4.430075E0,3.8139265E0,3.1816862E0,2.5278847E0,3.2317758E0,2.6022727E0,2.0837686E0,2.2613158E0,2.586777E0],"split_indices":[173,74,135,36,10,144,117,176,109,101,29,167,145,101,191,36,51,118,10,144,157,187,145,28,33,4,101,58,80,101,88,103,39,49,0,0,0,7,0,53,0,21,163,52,176,7,40,30,29,148,18,187,7,128,187,191,4,28,181,0,9,42,101,0,0,0,0,0,0,0,0,0,0,0,0,0,0,0,0,0,0,0,0,0,0,0,0,0,0,0,0,0,0,0,0,0,0,0,0,0,0,0,0,0,0,0,0,0,0,0,0,0,0,0,0],"split_type":[0,0,0,0,0,0,0,0,0,0,0,0,0,0,0,0,0,0,0,0,0,0,0,0,0,0,0,0,0,0,0,0,0,0,0,0,0,0,0,0,0,0,0,0,0,0,0,0,0,0,0,0,0,0,0,0,0,0,0,0,0,0,0,0,0,0,0,0,0,0,0,0,0,0,0,0,0,0,0,0,0,0,0,0,0,0,0,0,0,0,0,0,0,0,0,0,0,0,0,0,0,0,0,0,0,0,0,0,0,0,0,0,0,0,0],"sum_hessian":[2.1275E4,1.4256E4,7.019E3,6.564E3,7.692E3,4.814E3,2.205E3,3.189E3,3.375E3,3.736E3,3.956E3,2.764E3,2.05E3,1.384E3,8.21E2,2.9E3,2.89E2,2.905E3,4.7E2,5.68E2,3.168E3,1.98E3,1.976E3,1.63E3,1.134E3,9.9E2,1.06E3,6.99E2,6.85E2,2.24E2,5.97E2,1.195E3,1.705E3,2.88E2,1E0,2.904E3,1E0,4.69E2,1E0,5.31E2,3.7E1,1.199E3,1.969E3,6.33E2,1.347E3,1.618E3,3.58E2,3.32E2,1.298E3,7.91E2,3.43E2,5.78E2,4.12E2,5.83E2,4.77E2,3.43E2,3.56E2,2.17E2,4.68E2,6.7E1,1.57E2,2.88E2,3.09E2,1.188E3,7E0,1.702E3,3E0,1E0,2.87E2,4.68E2,1E0,5.24E2,7E0,1E0,1.198E3,1.968E3,1E0,8E0,6.25E2,1.232E3,1.15E2,1.617E3,1E0,1E0,3.57E2,3.3E2,2E0,9.32E2,3.66E2,4.16E2,3.75E2,3.38E2,5E0,3E0,5.75E2,4.11E2,1E0,3.94E2,1.89E2,3E0,4.74E2,7.2E1,2.71E2,3.48E2,8E0,8.5E1,1.32E2,2.97E2,1.71E2,5.1E1,1.06E2,2.1E1,2.67E2,1.89E2,1.2E2],"tree_param":{"num_deleted":"0","num_feature":"192","num_nodes":"115","size_leaf_vector":"0"}},{"base_weights":[5.3273262E1,6.022852E1,3.9140152E1,6.5447876E1,5.5466938E1,4.4269577E1,2.7926497E1,6.2790085E1,6.81439E1,5.7768677E1,5.265644E1,4.749979E1,3.9893272E1,3.2260807E1,2.2973537E1,6.379599E1,5.8423355E1,6.8928444E1,6.0726746E1,5.5724495E1,6.0230495E1,5.0790123E1,5.4884983E1,4.4849247E1,4.991455E1,4.274384E1,3.7193172E1,3.434927E1,2.9212479E1,3.176252E1,2.1816252E1,6.409375E1,5.4069443E1,4.480875E1,5.8892494E1,6.9398315E1,6.4950356E1,5.6461266E1,5.150906E1,5.6788692E1,6.1076283E1,4.7112232E1,5.2145515E1,5.3486366E1,5.680057E1,4.1209766E1,4.6275326E1,4.1856735E1,5.0616432E1,4.116362E1,4.5155334E1,3.4093082E1,3.8497818E1,3.1701168E1,3.6323627E1,2.7769081E1,3.198817E1,2.9317398E1,3.968568E1,2.4817352E1,2.0556486E1,6.193094E1,6.563197E1,5.4717373E1,1.725625E1,4.664281E1,1.52E1,5.8938755E1,1.4896875E1,6.945108E1,4.297274E1,5.479349E1,5.777121E1,5.1701725E1,2.211079E1,5.6927296E1,2.048783E1,1.59125E1,6.1096237E1,1.0554913E1,4.716352E1,5.217054E1,9.305515E0,5.3541615E1,1.9156694E1,5.3470383E1,5.8939625E1,1.4981251E1,4.137741E1,1.8259293E1,4.6404785E1,6.0873003E0,4.2104088E1,5.4777752E1,4.9800755E1,2.898137E1,4.1401154E1,6.782509E0,4.523825E1,2.0438265E1,3.4419373E1,3.9878063E1,3.5721684E1,2.6309473E1,3.3006866E1,3.570125E1,4.9461617E1,3.1670357E1,2.6518236E1,4.8875305E1,3.123705E1,2.9729515E1,1.2612418E1,1.1561485E1,4.162859E1,2.376283E1,3.0701744E1,2.2663794E1,1.978255E1],"categories":[],"categories_nodes":[],"categories_segments":[],"categories_sizes":[],"default_left":[1,1,1,1,1,1,1,1,1,1,1,1,1,1,1,1,1,1,0,1,1,1,1,1,1,1,1,1,1,1,1,1,1,1,1,1,0,1,1,1,1,1,1,1,1,1,1,1,1,1,1,1,1,1,1,1,1,1,1,1,1,0,0,0,0,0,0,0,0,0,0,0,0,0,0,0,0,0,0,0,0,0,0,0,0,0,0,0,0,0,0,0,0,0,0,0,0,0,0,0,0,0,0,0,0,0,0,0,0,0,0,0,0,0,0,0,0,0,0],"id":1,"left_children":[1,3,5,7,9,11,13,15,17,19,21,23,25,27,29,31,33,35,-1,37,39,41,43,45,47,49,51,53,55,57,59,61,63,65,67,69,-1,71,73,75,77,79,81,83,85,87,89,91,93,95,97,99,101,103,105,107,109,111,113,115,117,-1,-1,-1,-1,-1,-1,-1,-1,-1,-1,-1,-1,-1,-1,-1,-1,-1,-1,-1,-1,-1,-1,-1,-1,-1,-1,-1,-1,-1,-1,-1,-1,-1,-1,-1,-1,-1,-1,-1,-1,-1,-1,-1,-1,-1,-1,-1,-1,-1,-1,-1,-1,-1,-1,-1,-1,-1,-1],"loss_changes":[2.08906E6,3.50692E5,4.02552E5,4.4418E4,4.5232E4,6.6171E4,4.6616375E4,1.136E4,1.5378E4,1.7236E4,1.1233E4,1.54585E4,1.41965E4,6.470625E3,9.8140625E3,4.59E3,1.54475E3,1.162E3,0E0,4.0765E3,1.899E3,6.755E3,1.045E3,4.9855E3,6.01425E3,1.917625E3,2.978625E3,2.4611875E3,1.0508438E3,1.1225391E3,2.9529375E3,4.894E3,1.1786406E3,7.029375E2,4.0425E2,7.78E2,0E0,9.94E2,8.16625E2,7.355E2,3.5E2,4.54625E2,9.5225E2,6.7775E2,1.31475E3,1.0641875E3,2.58375E3,8.142656E2,1.74575E3,5.653125E2,9.085625E2,7.35625E2,1.40725E3,1.2647188E3,1.415E3,7.51E2,4.9007812E2,2.7217188E2,8.8478125E2,9.2103125E2,6.1340625E2,0E0,0E0,0E0,0E0,0E0,0E0,0E0,0E0,0E0,0E0,0E0,0E0,0E0,0E0,0E0,0E0,0E0,0E0,0E0,0E0,0E0,0E0,0E0,0E0,0E0,0E0,0E0,0E0,0E0,0E0,0E0,0E0,0E0,0E0,0E0,0E0,0E0,0E0,0E0,0E0,0E0,0E0,0E0,0E0,0E0,0E0,0E0,0E0,0E0,0E0,0E0,0E0,0E0,0E0,0E0,0E0,0E0,0E0],"parents":[2147483647,0,0,1,1,2,2,3,3,4,4,5,5,6,6,7,7,8,8,9,9,10,10,11,11,12,12,13,13,14,14,15,15,16,16,17,17,19,19,20,20,21,21,22,22,23,23,24,24,25,25,26,26,27,27,28,28,29,29,30,30,31,31,32,32,33,33,34,34,35,35,37,37,38,38,39,39,40,40,41,41,42,42,43,43,44,44,45,45,46,46,47,47,48,48,49,49,50,50,51,51,52,52,53,53,54,54,55,55,56,56,57,57,58,58,59,59,60,60],"right_children":[2,4,6,8,10,12,14,16,18,20,22,24,26,28,30,32,34,36,-1,38,40,42,44,46,48,50,52,54,56,58,60,62,64,66,68,70,-1,72,74,76,78,80,82,84,86,88,90,92,94,96,98,100,102,104,106,108,110,112,114,116,118,-1,-1,-1,-1,-1,-1,-1,-1,-1,-1,-1,-1,-1,-1,-1,-1,-1,-1,-1,-1,-1,-1,-1,-1,-1,-1,-1,-1,-1,-1,-1,-1,-1,-1,-1,-1,-1,-1,-1,-1,-1,-1,-1,-1,-1,-1,-1,-1,-1,-1,-1,-1,-1,-1,-1,-1,-1,-1],"split_conditions":[1.14748314E-1,-1.2954745E0,1.4935896E0,1.9283439E0,-7.3369E-1,4.899016E-1,1.4636261E0,-7.907859E-1,6.635755E-2,-3.614941E-1,-3.2476068E-1,1.3081603E0,1.6647041E-1,1.5521027E0,-8.7530196E-1,9.43912E-1,-1.0820584E0,6.2302697E-1,6.0726748E0,5.564935E-1,1.4899905E0,2.9836786E-1,-1.01842746E-1,-4.898377E-1,-1.7098624E0,8.101675E-2,1.1245121E0,-1.1588358E0,-1.0229691E0,-3.1363142E-1,6.632343E-3,8.8604206E-1,5.0864327E-1,4.2383432E-1,1.9803994E0,1.1493844E-1,6.4950356E0,4.476673E-1,2.6153997E-1,9.2918867E-1,-1.2247338E0,-2.664246E0,3.1913304E-1,1.7039894E0,2.226398E-1,-2.4633369E-1,4.9986026E-1,4.9623403E-1,-2.2376883E-1,2.944151E-1,-9.3434846E-1,4.2601824E-1,-4.997517E-1,5.25705E-1,6.2250954E-1,-3.965075E-1,-1.094674E0,2.1621788E0,-1.6486888E0,-1.0314479E0,3.2792108E0,6.193094E0,6.5631976E0,5.4717374E0,1.725625E0,4.6642814E0,1.52E0,5.8938756E0,1.4896876E0,6.945108E0,4.297274E0,5.479349E0,5.777121E0,5.1701727E0,2.2110791E0,5.6927295E0,2.048783E0,1.5912501E0,6.109624E0,1.0554913E0,4.716352E0,5.217054E0,9.305515E-1,5.3541617E0,1.9156694E0,5.3470383E0,5.8939624E0,1.4981251E0,4.137741E0,1.8259293E0,4.6404786E0,6.0873E-1,4.2104087E0,5.477775E0,4.9800754E0,2.898137E0,4.1401153E0,6.782509E-1,4.523825E0,2.0438266E0,3.4419372E0,3.9878063E0,3.5721684E0,2.6309474E0,3.3006866E0,3.5701249E0,4.9461617E0,3.1670358E0,2.6518238E0,4.887531E0,3.123705E0,2.9729517E0,1.2612418E0,1.1561486E0,4.162859E0,2.3762832E0,3.0701745E0,2.2663794E0,1.9782552E0],"split_indices":[173,138,135,36,173,144,117,176,109,36,29,165,145,144,64,7,61,112,0,64,165,143,22,148,92,143,1,101,52,22,191,36,153,114,53,19,0,157,158,55,21,5,57,36,101,79,89,9,138,21,38,137,167,39,183,43,116,115,88,116,53,0,0,0,0,0,0,0,0,0,0,0,0,0,0,0,0,0,0,0,0,0,0,0,0,0,0,0,0,0,0,0,0,0,0,0,0,0,0,0,0,0,0,0,0,0,0,0,0,0,0,0,0,0,0,0,0,0,0],"split_type":[0,0,0,0,0,0,0,0,0,0,0,0,0,0,0,0,0,0,0,0,0,0,0,0,0,0,0,0,0,0,0,0,0,0,0,0,0,0,0,0,0,0,0,0,0,0,0,0,0,0,0,0,0,0,0,0,0,0,0,0,0,0,0,0,0,0,0,0,0,0,0,0,0,0,0,0,0,0,0,0,0,0,0,0,0,0,0,0,0,0,0,0,0,0,0,0,0,0,0,0,0,0,0,0,0,0,0,0,0,0,0,0,0,0,0,0,0,0,0],"sum_hessian":[2.1275E4,1.4256E4,7.019E3,6.795E3,7.461E3,4.814E3,2.205E3,3.434E3,3.361E3,4.091E3,3.37E3,2.764E3,2.05E3,1.173E3,1.032E3,2.78E3,6.54E2,3.032E3,3.29E2,2.248E3,1.843E3,1.847E3,1.523E3,1.327E3,1.437E3,9.9E2,1.06E3,6.9E2,4.83E2,1.17E2,9.15E2,2.692E3,8.8E1,2.5E1,6.29E2,2.697E3,3.35E2,1.903E3,3.45E2,3.77E2,1.466E3,5.07E2,1.34E3,8.97E2,6.26E2,3.82E2,9.45E2,1.2E2,1.317E3,6.09E2,3.81E2,3.22E2,7.38E2,3.02E2,3.88E2,3.25E2,1.58E2,9.3E1,2.4E1,2.65E2,6.5E2,1.136E3,1.556E3,8.6E1,2E0,2.3E1,2E0,6.28E2,1E0,2.69E3,7E0,8.56E2,1.047E3,3.42E2,3E0,3.75E2,2E0,1E0,1.465E3,1E0,5.06E2,1.339E3,1E0,8.95E2,2E0,2.55E2,3.71E2,3E0,3.79E2,5E0,9.4E2,1E0,1.19E2,2.05E2,1.112E3,1.4E1,5.95E2,1E0,3.8E2,9E0,3.13E2,4.84E2,2.54E2,6.3E1,2.39E2,3.74E2,1.4E1,7.3E1,2.52E2,4E0,1.54E2,9E1,3E0,2E0,2.2E1,2.29E2,3.6E1,1.67E2,4.83E2],"tree_param":{"num_deleted":"0","num_feature":"192","num_nodes":"119","size_leaf_vector":"0"}},{"base_weights":[4.795637E1,5.4260307E1,3.533017E1,5.8609936E1,4.966863E1,3.991961E1,2.515539E1,5.5766407E1,6.0897614E1,5.1547314E1,4.721939E1,4.2812195E1,3.593152E1,2.8367188E1,1.9713179E1,5.6508953E1,5.138324E1,6.1909096E1,5.5638805E1,5.0039333E1,5.4127396E1,4.322127E1,4.8147396E1,3.8864105E1,4.4189686E1,3.8982243E1,3.385203E1,3.04025E1,2.5438545E1,2.308782E1,1.841049E1,5.4583385E1,5.7849304E1,1.2585276E1,5.1518394E1,5.905111E1,6.2443916E1,5.6543903E1,4.6797607E1,5.069251E1,4.5746975E1,5.4176704E1,2.3053356E1,4.24384E1,5.0965057E1,4.719605E1,5.0456585E1,3.671264E1,4.150653E1,4.544523E1,4.1193607E1,3.7383183E1,4.11898E1,3.1982798E1,3.579306E1,3.9974026E1,2.9841661E1,2.2078886E1,2.7231226E1,3.749664E1,2.2453148E1,2.0870275E1,1.7844269E1,5.786893E1,1.3037307E1,4.9934635E1,5.6913597E1,2.2737278E1,5.914232E1,6.2519356E1,4.532509E1,5.6784E1,3.1888641E1,4.7347527E1,5.2515087E0,5.1916363E1,4.8817036E1,4.08811E1,4.74073E1,5.4284275E1,3.833363E1,4.2546707E1,1.7559315E1,1.4078576E1,5.1450333E1,4.7719242E1,4.33244E1,4.6971645E1,5.2131184E1,1.5846971E1,3.703101E1,4.167394E1,9.702576E0,4.474953E1,4.939866E1,4.659618E1,3.988913E1,3.7500397E1,1.3737295E1,2.9234686E1,4.1578053E1,3.3221764E1,2.8938204E1,3.419717E1,3.8254482E1,1.6010277E1,4.0771957E1,2.6216267E1,3.0885683E1,2.051182E1,2.560905E1,2.8000154E1,2.2103853E1,3.418546E1,2.1901907E1,1.4158038E1,2.1576538E1,1.6760328E1,1.9543243E1],"categories":[],"categories_nodes":[],"categories_segments":[],"categories_sizes":[],"default_left":[1,1,1,1,1,1,1,1,1,1,1,1,1,1,1,1,1,1,1,1,1,1,1,1,1,1,1,1,1,1,1,0,1,0,1,1,1,1,1,1,1,1,0,1,1,1,1,1,1,1,1,1,1,1,1,1,1,1,1,0,1,1,1,0,0,0,0,0,0,0,0,0,0,0,0,0,0,0,0,0,0,0,0,0,0,0,0,0,0,0,0,0,0,0,0,0,0,0,0,0,0,0,0,0,0,0,0,0,0,0,0,0,0,0,0,0,0,0,0],"id":2,"left_children":[1,3,5,7,9,11,13,15,17,19,21,23,25,27,29,31,33,35,37,39,41,43,45,47,49,51,53,55,57,59,61,-1,63,-1,65,67,69,71,73,75,77,79,-1,81,83,85,87,89,91,93,95,97,99,101,103,105,107,109,111,-1,113,115,117,-1,-1,-1,-1,-1,-1,-1,-1,-1,-1,-1,-1,-1,-1,-1,-1,-1,-1,-1,-1,-1,-1,-1,-1,-1,-1,-1,-1,-1,-1,-1,-1,-1,-1,-1,-1,-1,-1,-1,-1,-1,-1,-1,-1,-1,-1,-1,-1,-1,-1,-1,-1,-1,-1,-1,-1],"loss_changes":[1.69154E6,2.80472E5,3.29981E5,4.3968E4,2.9356E4,5.4792E4,3.8E4,7.7E3,1.796E4,1.2461E4,9.09E3,1.3646E4,1.17425E4,7.48225E3,3.1885312E3,4.008E3,1.88425E3,1.457E3,2.627375E3,4.617E3,9.36E2,1.335125E3,2.968E3,2.677375E3,5.97875E3,1.383E3,3.32525E3,3.166E3,2.8558438E3,1.2156797E3,4.6046875E2,0E0,6.705E2,0E0,1.268125E3,4.7375E2,8.05E2,1.699625E3,1.2820938E3,2.3725E3,7.845E2,3.44E2,0E0,6.81E2,1.3485938E2,1.45725E3,1.613E3,2.176625E3,1.32075E3,1.80775E3,2.56E3,8.456875E2,3.53375E2,1.4415E3,1.033E3,1.5032031E2,2.1085E3,6.0877344E2,8.3984375E2,0E0,6.6114844E2,1.9702734E2,5.8034375E2,0E0,0E0,0E0,0E0,0E0,0E0,0E0,0E0,0E0,0E0,0E0,0E0,0E0,0E0,0E0,0E0,0E0,0E0,0E0,0E0,0E0,0E0,0E0,0E0,0E0,0E0,0E0,0E0,0E0,0E0,0E0,0E0,0E0,0E0,0E0,0E0,0E0,0E0,0E0,0E0,0E0,0E0,0E0,0E0,0E0,0E0,0E0,0E0,0E0,0E0,0E0,0E0,0E0,0E0,0E0,0E0],"parents":[2147483647,0,0,1,1,2,2,3,3,4,4,5,5,6,6,7,7,8,8,9,9,10,10,11,11,12,12,13,13,14,14,15,15,16,16,17,17,18,18,19,19,20,20,21,21,22,22,23,23,24,24,25,25,26,26,27,27,28,28,29,29,30,30,32,32,34,34,35,35,36,36,37,37,38,38,39,39,40,40,41,41,43,43,44,44,45,45,46,46,47,47,48,48,49,49,50,50,51,51,52,52,53,53,54,54,55,55,56,56,57,57,58,58,60,60,61,61,62,62],"right_children":[2,4,6,8,10,12,14,16,18,20,22,24,26,28,30,32,34,36,38,40,42,44,46,48,50,52,54,56,58,60,62,-1,64,-1,66,68,70,72,74,76,78,80,-1,82,84,86,88,90,92,94,96,98,100,102,104,106,108,110,112,-1,114,116,118,-1,-1,-1,-1,-1,-1,-1,-1,-1,-1,-1,-1,-1,-1,-1,-1,-1,-1,-1,-1,-1,-1,-1,-1,-1,-1,-1,-1,-1,-1,-1,-1,-1,-1,-1,-1,-1,-1,-1,-1,-1,-1,-1,-1,-1,-1,-1,-1,-1,-1,-1,-1,-1,-1,-1,-1],"split_conditions":[1.0193683E-1,-1.0731099E0,1.4935896E0,1.7144527E0,-6.6093206E-1,4.899016E-1,2.1053414E0,-1.4673069E0,-5.4140896E-2,-8.027065E-2,3.706017E-1,-3.9172137E-1,-7.654315E-2,1.2395889E0,6.632343E-3,2.5247765E-1,-2.284983E0,2.1135819E-1,3.531595E-1,5.564935E-1,9.999214E-1,1.1145345E0,-1.7878968E-1,-5.2651107E-2,-7.82079E-1,8.101675E-2,-7.9642904E-1,-2.4722293E-1,-1.8464135E0,1.7220855E0,3.2792108E0,5.4583387E0,3.259945E-1,1.2585276E0,1.5299739E0,-6.7295194E-1,2.0946374E0,1.4869859E0,1.0923511E0,-1.5100702E0,5.061034E-1,-2.8344104E-1,2.3053358E0,5.1873976E-1,-1.4354485E0,-3.1727824E-1,-1.1015881E0,-2.4633369E-1,6.5757257E-1,7.119127E-1,2.1431695E-1,9.5889926E-1,4.2760256E-1,3.2612038E-1,-1.2850165E-2,-1.607185E0,2.1789068E-1,-1.1411211E0,2.265294E0,3.749664E0,8.608544E-1,5.338794E-1,4.7097337E-1,5.7868934E0,1.3037307E0,4.9934635E0,5.69136E0,2.273728E0,5.914232E0,6.2519355E0,4.532509E0,5.6784E0,3.1888642E0,4.7347527E0,5.251509E-1,5.1916366E0,4.881704E0,4.08811E0,4.74073E0,5.4284277E0,3.833363E0,4.2546706E0,1.7559315E0,1.4078577E0,5.1450334E0,4.7719245E0,4.3324404E0,4.6971645E0,5.2131186E0,1.5846971E0,3.703101E0,4.167394E0,9.702576E-1,4.474953E0,4.939866E0,4.659618E0,3.988913E0,3.7500398E0,1.3737296E0,2.9234686E0,4.1578054E0,3.3221765E0,2.8938205E0,3.419717E0,3.8254483E0,1.6010277E0,4.0771956E0,2.6216266E0,3.0885684E0,2.051182E0,2.5609052E0,2.8000154E0,2.2103853E0,3.418546E0,2.1901908E0,1.4158038E0,2.1576538E0,1.6760329E0,1.9543244E0],"split_indices":[173,74,135,36,173,144,117,167,109,150,28,101,145,33,191,22,59,44,109,64,104,172,22,157,4,143,101,141,186,174,53,0,30,0,108,110,1,71,16,4,89,169,0,5,178,176,37,79,141,157,10,55,9,128,28,77,21,116,53,0,17,40,102,0,0,0,0,0,0,0,0,0,0,0,0,0,0,0,0,0,0,0,0,0,0,0,0,0,0,0,0,0,0,0,0,0,0,0,0,0,0,0,0,0,0,0,0,0,0,0,0,0,0,0,0,0,0,0,0],"split_type":[0,0,0,0,0,0,0,0,0,0,0,0,0,0,0,0,0,0,0,0,0,0,0,0,0,0,0,0,0,0,0,0,0,0,0,0,0,0,0,0,0,0,0,0,0,0,0,0,0,0,0,0,0,0,0,0,0,0,0,0,0,0,0,0,0,0,0,0,0,0,0,0,0,0,0,0,0,0,0,0,0,0,0,0,0,0,0,0,0,0,0,0,0,0,0,0,0,0,0,0,0,0,0,0,0,0,0,0,0,0,0,0,0,0,0,0,0,0,0],"sum_hessian":[2.1275E4,1.4188E4,7.087E3,7.28E3,6.908E3,4.882E3,2.205E3,3.257E3,4.023E3,3.898E3,3.01E3,2.824E3,2.058E3,1.384E3,8.21E2,2.775E3,4.82E2,3.365E3,6.58E2,2.473E3,1.425E3,5.76E2,2.434E3,7.38E2,2.086E3,8.27E2,1.231E3,8.11E2,5.73E2,2.24E2,5.97E2,1.156E3,1.619E3,2E0,4.8E2,5.48E2,2.817E3,5.92E2,6.6E1,2.137E3,3.36E2,1.422E3,3E0,5.29E2,4.7E1,1.739E3,6.95E2,4.15E2,3.23E2,1.46E3,6.26E2,4.9E2,3.37E2,6.36E2,5.95E2,4.1E1,7.7E2,2.04E2,3.69E2,7E0,2.17E2,1.05E2,4.92E2,1.618E3,1E0,3.79E2,1.01E2,2E0,5.46E2,2.802E3,1.5E1,5.85E2,7E0,6.5E1,1E0,1.277E3,8.6E2,9.2E1,2.44E2,1.41E3,1.2E1,5.26E2,3E0,1E0,4.6E1,1.522E3,2.17E2,2.35E2,4.6E2,7E0,4.08E2,3.21E2,2E0,1.252E3,2.08E2,1.15E2,5.11E2,4.87E2,3E0,1.3E1,3.24E2,4.45E2,1.91E2,3.7E2,2.25E2,2E0,3.9E1,1.78E2,5.92E2,1.46E2,5.8E1,3.17E2,5.2E1,7E0,2.1E2,1.2E1,9.3E1,3.07E2,1.85E2],"tree_param":{"num_deleted":"0","num_feature":"192","num_nodes":"119","size_leaf_vector":"0"}},{"base_weights":[4.3170666E1,4.884271E1,3.1810093E1,5.3503185E1,4.53498E1,3.5926735E1,2.2629202E1,5.1357063E1,5.5658604E1,4.7458324E1,4.3059975E1,3.224535E1,3.8487392E1,2.6159729E1,1.8625628E1,4.7339535E1,5.2422756E1,5.603437E1,5.0113487E1,4.325609E1,4.824434E1,3.950046E1,4.3863956E1,3.5262672E1,3.0120304E1,3.3456936E1,3.9615547E1,2.8530834E1,2.4203905E1,2.429945E1,1.7350975E1,3.375697E1,4.7716545E1,5.046503E1,5.3793476E1,5.4955242E1,5.7567688E1,3.745387E0,5.03266E1,3.94355E1,4.4349533E1,4.705888E1,5.063292E1,3.4426495E1,4.034652E1,4.2378822E1,4.5545895E1,3.117669E1,3.715852E1,2.792463E1,3.1659124E1,2.5986973E1,3.40582E1,3.6199127E1,4.0807755E1,2.786932E1,3.9601887E1,2.2857666E1,2.6771866E1,2.2428453E1,3.0614655E1,1.6948154E1,2.2738188E1,1.308562E1,3.6475216E1,4.9179146E1,4.482004E1,5.4480747E1,5.062977E1,1.4314472E1,5.4970963E1,5.759612E1,1.2548692E1,5.0617817E1,1.4330804E1,2.5260944E1,4.042076E1,4.4467007E1,9.439619E0,4.5234043E1,4.7941105E1,5.0969402E1,4.114793E1,1.4257769E1,3.5047215E1,3.5046223E1,4.1012836E1,4.2562912E1,2.9395723E1,4.1166546E1,4.620847E1,9.447293E0,3.1470139E1,3.771036E1,3.0498089E1,2.5077353E1,2.9162004E1,2.3653896E1,3.2024654E1,1.0470125E1,2.6866983E1,3.4328907E1,2.3179205E1,1.50892105E1,3.6416992E1,4.5598812E1,4.0187843E1,2.5199158E1,2.928916E1,4.164812E1,2.2268833E1,2.1479961E1,2.5444773E1,2.0207005E1,2.7762695E1,2.0257586E1,2.593741E1,3.327437E1,1.7756273E1,1.5243013E1,1.7897543E1,2.3788128E1,1.4612052E1],"categories":[],"categories_nodes":[],"categories_segments":[],"categories_sizes":[],"default_left":[1,1,1,1,1,1,1,1,1,1,1,1,1,1,1,1,1,1,1,1,1,1,1,1,1,1,1,1,1,1,1,1,1,0,1,1,1,0,1,1,1,1,1,1,1,1,1,1,1,1,1,1,1,1,1,1,1,1,1,1,1,1,1,0,0,0,0,0,0,0,0,0,0,0,0,0,0,0,0,0,0,0,0,0,0,0,0,0,0,0,0,0,0,0,0,0,0,0,0,0,0,0,0,0,0,0,0,0,0,0,0,0,0,0,0,0,0,0,0,0,0,0,0],"id":3,"left_children":[1,3,5,7,9,11,13,15,17,19,21,23,25,27,29,31,33,35,37,39,41,43,45,47,49,51,53,55,57,59,61,63,65,-1,67,69,71,-1,73,75,77,79,81,83,85,87,89,91,93,95,97,99,101,103,105,107,109,111,113,115,117,119,121,-1,-1,-1,-1,-1,-1,-1,-1,-1,-1,-1,-1,-1,-1,-1,-1,-1,-1,-1,-1,-1,-1,-1,-1,-1,-1,-1,-1,-1,-1,-1,-1,-1,-1,-1,-1,-1,-1,-1,-1,-1,-1,-1,-1,-1,-1,-1,-1,-1,-1,-1,-1,-1,-1,-1,-1,-1,-1,-1,-1],"loss_changes":[1.369424E6,2.28552E5,2.67074E5,2.5232E4,3.7146E4,4.4875E4,3.056675E4,1.06025E4,3.481E3,1.1839E4,9.434E3,1.1845125E4,1.50185E4,4.7120625E3,7.0491562E3,1.722875E3,3.742E3,1.499E3,1.7977188E3,1.06675E3,7.649E3,1.7405E3,5.9985E3,5.2400625E3,3.129875E3,1.5133125E3,8.0825E3,2.7119375E3,1.617875E3,1.5228984E3,1.4526875E3,7.0268555E2,4.69E2,0E0,2.855E2,2.84E2,7.4025E2,0E0,1.371125E3,1.1994844E3,1.6963125E3,1.6665E3,1.61125E3,8.899375E2,7.4875E2,2.812E3,2.37775E3,1.4115938E3,9.045625E2,1.02325E3,1.2644375E3,3.1951953E2,6.503125E2,2.2835E3,3.3115E3,1.1385625E3,3.0167969E1,9.8609375E2,8.440156E2,6.019531E2,7.7715234E2,1.0093125E3,1.3019727E2,0E0,0E0,0E0,0E0,0E0,0E0,0E0,0E0,0E0,0E0,0E0,0E0,0E0,0E0,0E0,0E0,0E0,0E0,0E0,0E0,0E0,0E0,0E0,0E0,0E0,0E0,0E0,0E0,0E0,0E0,0E0,0E0,0E0,0E0,0E0,0E0,0E0,0E0,0E0,0E0,0E0,0E0,0E0,0E0,0E0,0E0,0E0,0E0,0E0,0E0,0E0,0E0,0E0,0E0,0E0,0E0,0E0,0E0,0E0,0E0],"parents":[2147483647,0,0,1,1,2,2,3,3,4,4,5,5,6,6,7,7,8,8,9,9,10,10,11,11,12,12,13,13,14,14,15,15,16,16,17,17,18,18,19,19,20,20,21,21,22,22,23,23,24,24,25,25,26,26,27,27,28,28,29,29,30,30,31,31,32,32,34,34,35,35,36,36,38,38,39,39,40,40,41,41,42,42,43,43,44,44,45,45,46,46,47,47,48,48,49,49,50,50,51,51,52,52,53,53,54,54,55,55,56,56,57,57,58,58,59,59,60,60,61,61,62,62],"right_children":[2,4,6,8,10,12,14,16,18,20,22,24,26,28,30,32,34,36,38,40,42,44,46,48,50,52,54,56,58,60,62,64,66,-1,68,70,72,-1,74,76,78,80,82,84,86,88,90,92,94,96,98,100,102,104,106,108,110,112,114,116,118,120,122,-1,-1,-1,-1,-1,-1,-1,-1,-1,-1,-1,-1,-1,-1,-1,-1,-1,-1,-1,-1,-1,-1,-1,-1,-1,-1,-1,-1,-1,-1,-1,-1,-1,-1,-1,-1,-1,-1,-1,-1,-1,-1,-1,-1,-1,-1,-1,-1,-1,-1,-1,-1,-1,-1,-1,-1,-1,-1,-1,-1],"split_conditions":[1.0193683E-1,-1.2414546E0,1.4985652E0,9.2381823E-1,-1.9174516E-1,-3.7965363E-1,1.4636261E0,1.1326408E0,-4.5492274E-1,1.495688E-1,-6.782489E-1,3.7303203E-1,-1.9996059E-1,1.5142686E0,-3.5620764E-1,4.1191655E-1,5.888703E-1,2.2608752E0,-2.2641487E0,-4.8896995E-1,5.578559E-1,-5.6754607E-1,4.727943E-1,-8.7455857E-1,-8.907156E-1,-1.2768188E0,1.055007E-1,-1.1156172E0,-1.0201914E0,3.029297E-1,-1.1899688E0,-1.8790131E0,-1.8155485E-1,5.046503E0,-7.3371434E-1,-3.5039228E-1,2.198244E0,3.7453872E-1,2.115675E0,-2.1896769E-1,2.0021532E0,4.515009E-1,-8.693851E-1,-3.102942E-1,-7.248988E-1,4.8932615E-1,5.566573E-1,-3.9391524E-1,6.769672E-1,-2.0870471E-1,-1.2366006E0,-4.8138803E-1,4.0434098E-1,-1.3203087E0,-2.3711443E-1,4.1757065E-1,1.5597587E0,-4.517063E-1,-3.395521E0,1.7079361E-1,7.191757E-1,-1.8734484E0,1.795637E0,1.308562E0,3.6475217E0,4.917915E0,4.482004E0,5.448075E0,5.062977E0,1.4314473E0,5.4970965E0,5.759612E0,1.2548692E0,5.061782E0,1.4330804E0,2.5260944E0,4.042076E0,4.4467006E0,9.439619E-1,4.5234046E0,4.794111E0,5.0969405E0,4.1147933E0,1.4257768E0,3.5047214E0,3.5046222E0,4.1012836E0,4.2562914E0,2.9395723E0,4.116655E0,4.620847E0,9.447293E-1,3.147014E0,3.7710361E0,3.049809E0,2.5077353E0,2.9162004E0,2.3653896E0,3.2024655E0,1.0470126E0,2.6866984E0,3.4328907E0,2.3179204E0,1.508921E0,3.6416993E0,4.559881E0,4.0187845E0,2.5199158E0,2.928916E0,4.164812E0,2.2268834E0,2.1479962E0,2.5444772E0,2.0207005E0,2.7762697E0,2.0257585E0,2.5937412E0,3.327437E0,1.7756274E0,1.5243014E0,1.7897543E0,2.3788128E0,1.4612052E0],"split_indices":[173,74,135,44,10,101,117,143,145,101,92,141,28,144,128,189,22,36,59,29,150,28,157,148,101,28,152,37,52,87,180,186,5,0,176,42,118,0,1,133,53,157,167,22,29,145,50,132,168,15,112,69,125,114,74,28,49,122,96,21,33,88,128,0,0,0,0,0,0,0,0,0,0,0,0,0,0,0,0,0,0,0,0,0,0,0,0,0,0,0,0,0,0,0,0,0,0,0,0,0,0,0,0,0,0,0,0,0,0,0,0,0,0,0,0,0,0,0,0,0,0,0,0],"split_type":[0,0,0,0,0,0,0,0,0,0,0,0,0,0,0,0,0,0,0,0,0,0,0,0,0,0,0,0,0,0,0,0,0,0,0,0,0,0,0,0,0,0,0,0,0,0,0,0,0,0,0,0,0,0,0,0,0,0,0,0,0,0,0,0,0,0,0,0,0,0,0,0,0,0,0,0,0,0,0,0,0,0,0,0,0,0,0,0,0,0,0,0,0,0,0,0,0,0,0,0,0,0,0,0,0,0,0,0,0,0,0,0,0,0,0,0,0,0,0,0,0,0,0],"sum_hessian":[2.1275E4,1.4188E4,7.087E3,6.072E3,8.116E3,4.891E3,2.196E3,3.055E3,3.017E3,4.215E3,3.901E3,2.012E3,2.879E3,1.164E3,1.032E3,6.5E2,2.405E3,2.817E3,2E2,6.73E2,3.542E3,7.28E2,3.173E3,8.25E2,1.187E3,5.33E2,2.346E3,5.2E2,6.44E2,1.86E2,8.46E2,2E1,6.3E2,1.006E3,1.399E3,1.675E3,1.142E3,1E0,1.99E2,1.58E2,5.15E2,2.381E3,1.161E3,1.1E2,6.18E2,1.699E3,1.474E3,2.67E2,5.58E2,4.97E2,6.9E2,4.3E1,4.9E2,6.15E2,1.731E3,4.94E2,2.6E1,4.29E2,2.15E2,1.47E2,3.9E1,7.91E2,5.5E1,3E0,1.7E1,4.08E2,2.22E2,1.136E3,2.63E2,1E0,1.674E3,1.141E3,1E0,1.97E2,2E0,1.2E1,1.46E2,5.13E2,2E0,7.93E2,1.588E3,1.117E3,4.4E1,4E0,1.06E2,7.5E1,5.43E2,1.673E3,2.6E1,2.02E2,1.272E3,4E0,2.63E2,5.11E2,4.7E1,1.57E2,3.4E2,3.3E1,6.57E2,3E0,4E1,4.76E2,1.4E1,7E0,6.08E2,1.9E2,1.541E3,1.78E2,3.16E2,2.2E1,4E0,2.86E2,1.43E2,3.1E1,1.84E2,9.5E1,5.2E1,3.1E1,8E0,2.89E2,5.02E2,4.7E1,8E0],"tree_param":{"num_deleted":"0","num_feature":"192","num_nodes":"123","size_leaf_vector":"0"}},{"base_weights":[3.886267E1,4.392978E1,2.856629E1,4.7621048E1,4.030521E1,3.2286987E1,2.0383673E1,4.5464523E1,4.9599476E1,4.15646E1,3.7463215E1,3.457377E1,2.8872581E1,2.2999367E1,1.598029E1,4.604814E1,4.107532E1,5.053639E1,4.5963646E1,4.00606E1,4.3420937E1,3.4038982E1,3.822196E1,3.6269897E1,3.2200607E1,2.6580542E1,3.0820494E1,2.5164871E1,2.1031584E1,1.8850409E1,1.4873673E1,4.408275E1,4.698919E1,4.1949425E1,3.484747E1,5.0757366E1,4.5696365E1,4.687874E1,4.0043003E1,4.1051666E1,3.758056E1,4.5093685E1,4.2064163E1,3.511937E1,2.9955505E1,3.8690723E1,3.4445946E1,3.22862E1,3.733291E1,3.426766E1,3.0428831E1,2.3838905E1,2.7503908E1,2.8815525E1,3.2990356E1,2.4346296E1,3.253545E1,1.813484E1,2.268342E1,3.1963732E1,1.8282715E1,1.4691404E1,2.1945684E1,3.5581179E0,4.412043E1,4.7109604E1,3.5101933E1,3.0031046E1,4.2354237E1,3.5341557E1,3.8363628E0,5.0824142E1,3.771663E1,4.5910084E1,8.315472E0,8.075594E0,4.692572E1,1.0216343E1,4.050503E1,3.231678E1,4.1300514E1,3.8068336E1,3.166863E1,4.3641113E1,4.679541E1,4.2554077E1,3.7881004E1,3.524453E1,1.0145838E1,1.7057505E1,3.0807001E1,3.7467926E1,4.0162807E1,3.4842575E1,1.5219627E1,3.2516415E1,1.3284222E1,3.702077E1,4.6129158E1,2.9958769E1,3.554029E1,3.1424835E1,2.6497812E1,2.5871395E1,2.1002716E1,2.7880638E1,2.1397305E1,2.946729E1,2.455668E1,3.3672897E1,2.7878386E1,2.7079391E1,2.2903698E1,2.282703E0,3.2993973E1,1.6848545E1,2.0632046E1,2.3814354E1,1.9290077E1,1.5481564E1,1.9890226E1,1.3579744E1,1.5671065E1,2.2779543E1,5.9696946E0],"categories":[],"categories_nodes":[],"categories_segments":[],"categories_sizes":[],"default_left":[1,1,1,1,1,1,1,1,1,1,1,1,1,1,1,1,1,1,1,1,1,1,1,1,1,1,1,1,1,1,1,1,1,1,1,1,1,1,1,1,1,1,1,1,1,1,1,1,1,1,1,1,1,1,1,1,1,1,1,0,1,1,1,0,0,0,0,0,0,0,0,0,0,0,0,0,0,0,0,0,0,0,0,0,0,0,0,0,0,0,0,0,0,0,0,0,0,0,0,0,0,0,0,0,0,0,0,0,0,0,0,0,0,0,0,0,0,0,0,0,0,0,0,0,0],"id":4,"left_children":[1,3,5,7,9,11,13,15,17,19,21,23,25,27,29,31,33,35,37,39,41,43,45,47,49,51,53,55,57,59,61,63,65,67,69,71,73,75,77,79,81,83,85,87,89,91,93,95,97,99,101,103,105,107,109,111,113,115,117,-1,119,121,123,-1,-1,-1,-1,-1,-1,-1,-1,-1,-1,-1,-1,-1,-1,-1,-1,-1,-1,-1,-1,-1,-1,-1,-1,-1,-1,-1,-1,-1,-1,-1,-1,-1,-1,-1,-1,-1,-1,-1,-1,-1,-1,-1,-1,-1,-1,-1,-1,-1,-1,-1,-1,-1,-1,-1,-1,-1,-1,-1,-1,-1,-1],"loss_changes":[1.108772E6,1.88828E5,2.13066E5,2.7858E4,2.4213E4,3.6668E4,2.4937312E4,6.79E3,1.018E4,1.2164E4,4.46925E3,1.044075E4,7.846625E3,5.3341875E3,2.3304062E3,3.446E3,7.538125E2,7.9E2,2.256625E3,5.2505E3,3.13475E3,7.6565625E2,1.87125E3,5.8835E3,3.392375E3,1.6201875E3,3.587E3,3.1295312E3,3.0672812E3,1.0905859E3,4.4840625E2,1.342625E3,1.212E3,4.263125E2,7.2246094E2,4.98E2,7.1271875E2,8.15125E2,1.0883125E3,2.9345E3,1.104375E3,3.7775E2,9.2725E2,6.42625E2,4.958828E2,1.37875E3,1.0634844E3,1.1428438E3,1.90275E3,1.95675E3,1.7553125E3,8.0553125E2,9.3559375E2,8.0303125E2,7.84875E2,1.7020938E3,7.8472656E2,5.164453E2,1.3021094E3,0E0,6.737031E2,4.253828E2,3.7195312E1,0E0,0E0,0E0,0E0,0E0,0E0,0E0,0E0,0E0,0E0,0E0,0E0,0E0,0E0,0E0,0E0,0E0,0E0,0E0,0E0,0E0,0E0,0E0,0E0,0E0,0E0,0E0,0E0,0E0,0E0,0E0,0E0,0E0,0E0,0E0,0E0,0E0,0E0,0E0,0E0,0E0,0E0,0E0,0E0,0E0,0E0,0E0,0E0,0E0,0E0,0E0,0E0,0E0,0E0,0E0,0E0,0E0,0E0,0E0,0E0,0E0,0E0],"parents":[2147483647,0,0,1,1,2,2,3,3,4,4,5,5,6,6,7,7,8,8,9,9,10,10,11,11,12,12,13,13,14,14,15,15,16,16,17,17,18,18,19,19,20,20,21,21,22,22,23,23,24,24,25,25,26,26,27,27,28,28,29,29,30,30,31,31,32,32,33,33,34,34,35,35,36,36,37,37,38,38,39,39,40,40,41,41,42,42,43,43,44,44,45,45,46,46,47,47,48,48,49,49,50,50,51,51,52,52,53,53,54,54,55,55,56,56,57,57,58,58,60,60,61,61,62,62],"right_children":[2,4,6,8,10,12,14,16,18,20,22,24,26,28,30,32,34,36,38,40,42,44,46,48,50,52,54,56,58,60,62,64,66,68,70,72,74,76,78,80,82,84,86,88,90,92,94,96,98,100,102,104,106,108,110,112,114,116,118,-1,120,122,124,-1,-1,-1,-1,-1,-1,-1,-1,-1,-1,-1,-1,-1,-1,-1,-1,-1,-1,-1,-1,-1,-1,-1,-1,-1,-1,-1,-1,-1,-1,-1,-1,-1,-1,-1,-1,-1,-1,-1,-1,-1,-1,-1,-1,-1,-1,-1,-1,-1,-1,-1,-1,-1,-1,-1,-1,-1,-1,-1,-1,-1,-1],"split_conditions":[1.14748314E-1,-1.2553694E0,1.4985652E0,1.8435913E0,-4.0487114E-1,5.8887565E-1,2.1053414E0,1.8470228E-1,-1.6877303E-1,-1.7457956E-1,2.5541604E-1,-1.2514292E0,1.3629465E0,5.7036114E-1,6.632343E-3,2.0697507E-1,-4.3379968E-1,1.4368923E0,-6.7707175E-1,-1.3543932E0,-3.4457886E-1,3.044201E-1,-1.5541345E-1,1.6333714E-1,1.5238754E-1,2.1999836E-1,-3.7157917E-1,3.4932E-1,-1.8243306E0,1.7220855E0,5.696289E-1,-9.7197676E-1,-2.862752E-1,-1.3248976E0,2.0579667E0,2.0946374E0,-4.3848613E-1,-1.7579892E0,-4.086939E-1,-3.589059E-1,5.513747E-1,9.2613375E-1,1.0864247E0,5.798123E-1,-1.2801343E0,-3.4782892E-1,6.0014164E-1,4.3251204E-1,7.9754454E-1,-9.5887756E-1,6.4464843E-1,-4.95514E-1,-5.700016E-2,-3.0542997E-1,-3.054211E-1,1.4888608E0,-1.9179335E0,-1.0872467E0,-3.3759308E-1,3.1963732E0,-1.4192903E0,-1.8112876E0,4.8414618E-2,3.558118E-1,4.412043E0,4.7109604E0,3.5101933E0,3.0031047E0,4.2354236E0,3.5341556E0,3.836363E-1,5.082414E0,3.771663E0,4.5910087E0,8.315472E-1,8.0755943E-1,4.692572E0,1.0216343E0,4.0505033E0,3.231678E0,4.1300516E0,3.8068337E0,3.1668632E0,4.3641114E0,4.679541E0,4.255408E0,3.7881005E0,3.524453E0,1.0145838E0,1.7057505E0,3.0807002E0,3.7467926E0,4.0162807E0,3.4842575E0,1.5219628E0,3.2516415E0,1.3284222E0,3.7020772E0,4.612916E0,2.995877E0,3.5540292E0,3.1424835E0,2.6497812E0,2.5871396E0,2.1002717E0,2.7880638E0,2.1397305E0,2.9467292E0,2.4556682E0,3.3672898E0,2.7878387E0,2.7079391E0,2.2903697E0,2.2827029E-1,3.2993972E0,1.6848545E0,2.0632045E0,2.3814354E0,1.9290078E0,1.5481564E0,1.9890226E0,1.3579744E0,1.5671066E0,2.2779543E0,5.969695E-1],"split_indices":[173,138,135,36,173,144,117,109,109,150,28,167,1,0,191,22,2,48,167,4,169,144,176,28,138,165,101,183,186,174,119,65,144,37,1,1,0,27,106,58,128,157,124,0,129,29,83,30,150,84,145,98,2,105,41,16,20,52,167,0,37,88,5,0,0,0,0,0,0,0,0,0,0,0,0,0,0,0,0,0,0,0,0,0,0,0,0,0,0,0,0,0,0,0,0,0,0,0,0,0,0,0,0,0,0,0,0,0,0,0,0,0,0,0,0,0,0,0,0,0,0,0,0,0,0],"split_type":[0,0,0,0,0,0,0,0,0,0,0,0,0,0,0,0,0,0,0,0,0,0,0,0,0,0,0,0,0,0,0,0,0,0,0,0,0,0,0,0,0,0,0,0,0,0,0,0,0,0,0,0,0,0,0,0,0,0,0,0,0,0,0,0,0,0,0,0,0,0,0,0,0,0,0,0,0,0,0,0,0,0,0,0,0,0,0,0,0,0,0,0,0,0,0,0,0,0,0,0,0,0,0,0,0,0,0,0,0,0,0,0,0,0,0,0,0,0,0,0,0,0,0,0,0],"sum_hessian":[2.1275E4,1.4256E4,7.019E3,7.057E3,7.199E3,4.823E3,2.196E3,3.388E3,3.669E3,4.979E3,2.22E3,2.883E3,1.94E3,1.375E3,8.21E2,2.982E3,4.06E2,2.907E3,7.62E2,2.763E3,2.216E3,4.11E2,1.809E3,1.673E3,1.21E3,8.98E2,1.042E3,6.49E2,7.26E2,2.24E2,5.97E2,9.81E2,2.001E3,3.51E2,5.5E1,2.771E3,1.36E2,6.54E2,1.08E2,1.963E3,8E2,9.78E2,1.238E3,3.19E2,9.2E1,1.601E3,2.08E2,3.59E2,1.314E3,5.5E2,6.6E2,2.33E2,6.65E2,5.49E2,4.93E2,5.88E2,6.1E1,2.68E2,4.58E2,7E0,2.17E2,5.85E2,1.2E1,1E0,9.8E2,1.978E3,2.3E1,1.4E1,3.37E2,5.4E1,1E0,2.754E3,1.7E1,1.35E2,1E0,1E0,6.53E2,2E0,1.06E2,5.8E1,1.905E3,7.34E2,6.6E1,5.42E2,4.36E2,1.1E3,1.38E2,3.17E2,2E0,7E0,8.5E1,8.89E2,7.12E2,2.03E2,5E0,3.54E2,5E0,1.274E3,4E1,1.31E2,4.19E2,5.21E2,1.39E2,1.31E2,1.02E2,6.23E2,4.2E1,4.71E2,7.8E1,4.3E2,6.3E1,1.97E2,3.91E2,1E0,6E1,1.82E2,8.6E1,3.39E2,1.19E2,8.3E1,1.34E2,2.81E2,3.04E2,1.1E1,1E0],"tree_param":{"num_deleted":"0","num_feature":"192","num_nodes":"125","size_leaf_vector":"0"}},{"base_weights":[3.498477E1,3.931265E1,2.5218525E1,4.2466496E1,3.5612274E1,2.8684456E1,1.8332106E1,4.02614E1,4.4421375E1,3.6990215E1,3.338905E1,3.0565594E1,2.5365345E1,2.1217316E1,1.5077227E1,4.152235E1,3.7595196E1,4.499851E1,3.9670025E1,3.5195618E1,3.8234596E1,3.053888E1,3.4225487E1,3.218205E1,2.8312395E1,3.0116043E1,2.4473825E1,1.9463184E1,2.3110964E1,2.1340359E1,1.4253943E1,3.840034E1,4.200817E1,3.860673E1,3.438469E1,4.6478127E1,4.4227142E1,4.0732567E1,3.499329E1,3.547461E1,2.572493E1,3.9358227E1,3.6664726E1,3.0860077E1,1.7689495E1,3.4444E1,2.6811356E1,2.726555E1,3.2659046E1,2.7861742E1,3.69008E1,1.0841416E1,3.0390968E1,2.298384E1,2.6048824E1,1.8125431E1,2.1912233E1,2.2632275E1,3.229643E1,2.5927303E1,1.8561243E1,1.3818953E1,1.9646719E1,3.8548695E1,1.5819346E1,4.2018925E1,9.270922E0,3.7321842E1,4.0689747E1,3.3802118E0,3.4477077E1,6.3625584E0,4.6504875E1,4.059452E1,4.4612408E1,4.0816555E1,4.7866325E0,4.160489E0,3.5283207E1,3.223511E1,3.5912548E1,2.67102E1,1.0924299E1,3.8239475E1,4.1006027E1,3.8237244E1,3.524323E1,3.091071E1,6.4536285E-1,1.8914774E1,5.6666093E0,3.3328045E1,3.569207E1,2.8134836E1,1.2393327E1,2.7423754E0,2.7582703E1,3.030341E1,3.344963E1,2.9375538E1,2.6378685E1,1.0121833E1,3.7209267E1,3.0170765E0,1.2043232E1,3.289497E1,2.772132E1,2.101277E1,2.4817604E1,1.6723469E1,2.6384457E1,1.767913E1,2.409494E1,2.2207811E1,8.161264E0,1.7572638E1,2.340542E1,1.4473202E1,3.7163067E1,2.6821692E1,5.359699E0,1.51575365E1,2.2640198E1,1.3034116E1,1.603807E1,1.6698051E1,2.328746E1],"categories":[],"categories_nodes":[],"categories_segments":[],"categories_sizes":[],"default_left":[1,1,1,1,1,1,1,1,1,1,1,1,1,1,1,1,1,1,1,1,1,1,1,1,1,1,1,1,1,1,1,1,1,1,1,1,1,1,1,1,1,1,1,1,1,1,1,1,1,1,1,1,1,1,1,1,1,1,1,1,1,1,1,0,0,0,0,0,0,0,0,0,0,0,0,0,0,0,0,0,0,0,0,0,0,0,0,0,0,0,0,0,0,0,0,0,0,0,0,0,0,0,0,0,0,0,0,0,0,0,0,0,0,0,0,0,0,0,0,0,0,0,0,0,0,0,0],"id":5,"left_children":[1,3,5,7,9,11,13,15,17,19,21,23,25,27,29,31,33,35,37,39,41,43,45,47,49,51,53,55,57,59,61,63,65,67,69,71,73,75,77,79,81,83,85,87,89,91,93,95,97,99,101,103,105,107,109,111,113,115,117,119,121,123,125,-1,-1,-1,-1,-1,-1,-1,-1,-1,-1,-1,-1,-1,-1,-1,-1,-1,-1,-1,-1,-1,-1,-1,-1,-1,-1,-1,-1,-1,-1,-1,-1,-1,-1,-1,-1,-1,-1,-1,-1,-1,-1,-1,-1,-1,-1,-1,-1,-1,-1,-1,-1,-1,-1,-1,-1,-1,-1,-1,-1,-1,-1,-1,-1],"loss_changes":[8.98284E5,1.70524E5,1.5547425E5,3.2494E4,1.9562E4,2.636E4,2.0255812E4,1.104E4,9.748E3,7.9935E3,5.17225E3,9.174E3,5.9463125E3,3.4000625E3,5.0223125E3,2.2315E3,2.615125E3,2.2165E3,8.803125E2,3.6455E3,2.89275E3,1.934625E3,2.32975E3,2.8735E3,3.4809375E3,9.687969E2,2.5318125E3,1.5947812E3,1.6961875E3,1.02298047E3,1.87725E3,5.7271875E2,3.7925E2,9.3025E2,7.4278125E2,1.0595E3,1.661E3,9.276875E2,6.8452344E2,1.21575E3,4.8108984E2,1.048E3,9.77E2,8.749375E2,1.4325098E2,1.522E3,8.3439844E2,1.0754297E3,1.70175E3,1.719375E3,7.769531E1,1.0681763E1,6.991719E2,1.9869688E3,1.5650312E3,6.3703125E2,6.722969E2,1.6541562E3,1.6306094E3,6.2885156E2,7.2586523E2,1.2730938E3,3.1967773E2,0E0,0E0,0E0,0E0,0E0,0E0,0E0,0E0,0E0,0E0,0E0,0E0,0E0,0E0,0E0,0E0,0E0,0E0,0E0,0E0,0E0,0E0,0E0,0E0,0E0,0E0,0E0,0E0,0E0,0E0,0E0,0E0,0E0,0E0,0E0,0E0,0E0,0E0,0E0,0E0,0E0,0E0,0E0,0E0,0E0,0E0,0E0,0E0,0E0,0E0,0E0,0E0,0E0,0E0,0E0,0E0,0E0,0E0,0E0,0E0,0E0,0E0,0E0,0E0],"parents":[2147483647,0,0,1,1,2,2,3,3,4,4,5,5,6,6,7,7,8,8,9,9,10,10,11,11,12,12,13,13,14,14,15,15,16,16,17,17,18,18,19,19,20,20,21,21,22,22,23,23,24,24,25,25,26,26,27,27,28,28,29,29,30,30,31,31,32,32,33,33,34,34,35,35,36,36,37,37,38,38,39,39,40,40,41,41,42,42,43,43,44,44,45,45,46,46,47,47,48,48,49,49,50,50,51,51,52,52,53,53,54,54,55,55,56,56,57,57,58,58,59,59,60,60,61,61,62,62],"right_children":[2,4,6,8,10,12,14,16,18,20,22,24,26,28,30,32,34,36,38,40,42,44,46,48,50,52,54,56,58,60,62,64,66,68,70,72,74,76,78,80,82,84,86,88,90,92,94,96,98,100,102,104,106,108,110,112,114,116,118,120,122,124,126,-1,-1,-1,-1,-1,-1,-1,-1,-1,-1,-1,-1,-1,-1,-1,-1,-1,-1,-1,-1,-1,-1,-1,-1,-1,-1,-1,-1,-1,-1,-1,-1,-1,-1,-1,-1,-1,-1,-1,-1,-1,-1,-1,-1,-1,-1,-1,-1,-1,-1,-1,-1,-1,-1,-1,-1,-1,-1,-1,-1,-1,-1,-1,-1],"split_conditions":[1.9907716E-1,-1.1129713E0,1.4985652E0,1.3141547E0,-4.0487114E-1,6.1747193E-2,1.4636261E0,-1.3853787E0,1.2769762E-1,4.6579766E-1,3.6765492E-1,-7.796858E-1,-2.9898908E-2,-1.1544647E0,-8.7530196E-1,9.56952E-2,-1.2001061E0,-7.714494E-1,-6.615172E-1,5.7676864E-1,-3.0630547E-1,1.3851205E0,1.289549E0,-1.5110108E0,1.709342E0,-2.3517835E0,1.380008E0,5.409671E-1,5.782594E-1,-3.4563476E-1,-1.0314479E0,1.2713048E-1,6.2810814E-1,3.3884513E-1,-2.2723813E0,-2.883052E0,5.43403E-1,5.284594E-1,-4.054925E-1,-4.9279198E-1,1.1997708E0,-7.2577715E-2,-4.2582557E-2,3.66578E-1,-2.9432708E-1,-3.9867085E-1,7.653419E-1,-9.25964E-1,4.2519668E-1,-9.219142E-1,-1.0969598E0,3.7838608E-1,3.3511898E-1,-4.535963E-1,-1.4321533E0,2.1538924E-1,1.592658E0,2.049427E-1,-8.354253E-1,1.0032668E0,2.0989421E-1,-6.774344E-1,-1.1040982E0,3.8548696E0,1.5819347E0,4.2018924E0,9.270922E-1,3.7321842E0,4.068975E0,3.380212E-1,3.447708E0,6.3625586E-1,4.6504874E0,4.059452E0,4.461241E0,4.0816555E0,4.7866327E-1,4.160489E-1,3.5283208E0,3.2235112E0,3.591255E0,2.67102E0,1.09243E0,3.8239477E0,4.1006026E0,3.8237245E0,3.524323E0,3.091071E0,6.453629E-2,1.8914775E0,5.6666094E-1,3.3328044E0,3.569207E0,2.8134837E0,1.2393327E0,2.7423754E-1,2.7582703E0,3.030341E0,3.344963E0,2.937554E0,2.6378686E0,1.0121833E0,3.7209268E0,3.0170766E-1,1.2043232E0,3.2894971E0,2.772132E0,2.101277E0,2.4817605E0,1.672347E0,2.6384456E0,1.7679131E0,2.4094942E0,2.220781E0,8.1612647E-1,1.7572638E0,2.340542E0,1.4473202E0,3.7163067E0,2.6821692E0,5.359699E-1,1.5157536E0,2.2640197E0,1.3034116E0,1.6038071E0,1.6698052E0,2.328746E0],"split_indices":[173,138,135,86,173,145,117,173,109,157,28,4,5,101,64,119,167,181,167,64,105,104,112,20,165,156,1,58,183,42,116,126,32,8,59,5,93,11,106,157,114,22,102,28,18,29,16,138,28,145,47,1,136,52,114,119,177,56,181,123,25,25,124,0,0,0,0,0,0,0,0,0,0,0,0,0,0,0,0,0,0,0,0,0,0,0,0,0,0,0,0,0,0,0,0,0,0,0,0,0,0,0,0,0,0,0,0,0,0,0,0,0,0,0,0,0,0,0,0,0,0,0,0,0,0,0,0],"split_type":[0,0,0,0,0,0,0,0,0,0,0,0,0,0,0,0,0,0,0,0,0,0,0,0,0,0,0,0,0,0,0,0,0,0,0,0,0,0,0,0,0,0,0,0,0,0,0,0,0,0,0,0,0,0,0,0,0,0,0,0,0,0,0,0,0,0,0,0,0,0,0,0,0,0,0,0,0,0,0,0,0,0,0,0,0,0,0,0,0,0,0,0,0,0,0,0,0,0,0,0,0,0,0,0,0,0,0,0,0,0,0,0,0,0,0,0,0,0,0,0,0,0,0,0,0,0,0],"sum_hessian":[2.1275E4,1.474E4,6.535E3,7.952E3,6.788E3,4.345E3,2.19E3,3.747E3,4.205E3,4.181E3,2.607E3,2.768E3,1.577E3,1.158E3,1.032E3,2.534E3,1.213E3,3.742E3,4.63E2,1.724E3,2.457E3,6E2,2.007E3,1.604E3,1.164E3,2.44E2,1.333E3,6.07E2,5.51E2,1.17E2,9.15E2,3.52E2,2.182E3,9.14E2,2.99E2,1.262E3,2.48E3,3.71E2,9.2E1,1.672E3,5.2E1,1.418E3,1.039E3,5.84E2,1.6E1,1.946E3,6.1E1,1.47E2,1.457E3,1.11E3,5.4E1,4E0,2.4E2,6.93E2,6.4E2,3.98E2,2.09E2,5.27E2,2.4E1,4.1E1,7.6E1,8.5E2,6.5E1,3.49E2,3E0,2.181E3,1E0,5.77E2,3.37E2,1E0,2.98E2,1E0,1.261E3,2.48E2,2.232E3,3.7E2,1E0,1E0,9.1E1,2.08E2,1.464E3,4.8E1,4E0,8.59E2,5.59E2,4.81E2,5.58E2,5.83E2,1E0,1.4E1,2E0,1.042E3,9.04E2,5.5E1,6E0,2E0,1.45E2,3.76E2,1.081E3,5.4E2,5.7E2,1E0,5.3E1,1E0,3E0,1.18E2,1.22E2,3.4E2,3.53E2,2.4E1,6.16E2,3.74E2,2.4E1,2.04E2,5E0,7.3E1,4.54E2,6E0,1.8E1,3.9E1,2E0,4.4E1,3.2E1,6.33E2,2.17E2,3.9E1,2.6E1],"tree_param":{"num_deleted":"0","num_feature":"192","num_nodes":"127","size_leaf_vector":"0"}},{"base_weights":[3.1493507E1,3.5325542E1,2.256296E1,3.244547E1,3.8715088E1,2.6414988E1,1.7603859E1,3.4472576E1,3.0587322E1,3.936801E1,3.4097786E1,2.4811773E1,2.8808113E1,2.0072412E1,1.3828394E1,3.243924E1,3.5364346E1,2.9116526E1,3.2044983E1,3.704358E1,4.0353764E1,3.5415848E1,3.0753033E1,2.602524E1,2.2816618E1,2.5390045E1,3.0367575E1,1.7202904E1,2.1126055E1,1.9578703E1,1.297739E1,3.278488E1,2.4444775E1,3.6008465E1,3.271897E1,2.7089674E1,3.0361446E1,3.0386496E1,3.291442E1,3.768887E1,3.4122616E1,3.9316845E1,4.149463E1,-1.0982094E0,3.547802E1,1.2191337E1,3.1161175E1,2.3687454E1,2.6977896E1,2.4994947E1,2.1563465E1,1.9190119E1,2.6106318E1,4.1759193E1,3.0050491E1,1.6674995E1,2.1922318E1,2.6877672E1,2.061037E1,1.7928629E1,2.8665218E1,1.2425217E1,1.6930658E1,3.2890102E1,1.6001585E1,2.5598894E1,8.245459E0,3.866212E1,3.548282E1,2.5676933E1,3.320869E1,2.4204777E1,2.8317472E1,2.9794254E1,3.434815E1,3.044429E1,6.09812E0,3.0977446E1,3.379242E1,3.1884008E1,3.793233E1,3.4320877E1,1.4173397E1,4.0140114E1,3.7596348E1,4.183441E1,3.691548E1,4.3709145E0,3.552228E1,1.8137188E1,3.1976504E0,3.5709087E1,2.9189934E1,2.424625E1,1.5798974E1,2.5066668E1,2.8065502E1,2.5085327E1,-7.8835773E-1,2.19273E1,1.4987829E1,4.2204795E0,1.9714993E1,2.6248686E1,5.236217E0,3.083134E1,2.6857431E1,1.5269135E1,1.8306232E1,2.3207798E1,1.1995876E1,2.7426495E1,1.1184289E1,1.974535E1,2.4055614E1,1.38114805E1,1.9626726E1,1.9874397E1,4.2151833E1,1.4435977E1,1.1796305E1,2.8206247E1,1.583426E1],"categories":[],"categories_nodes":[],"categories_segments":[],"categories_sizes":[],"default_left":[1,1,1,1,1,1,1,1,1,1,1,1,1,1,1,1,1,1,1,1,1,1,1,1,1,1,1,1,1,1,1,1,1,1,1,1,1,1,1,1,1,1,1,0,1,1,1,1,1,1,1,1,1,0,1,1,1,1,1,1,1,1,1,0,0,0,0,0,0,0,0,0,0,0,0,0,0,0,0,0,0,0,0,0,0,0,0,0,0,0,0,0,0,0,0,0,0,0,0,0,0,0,0,0,0,0,0,0,0,0,0,0,0,0,0,0,0,0,0,0,0,0,0],"id":6,"left_children":[1,3,5,7,9,11,13,15,17,19,21,23,25,27,29,31,33,35,37,39,41,43,45,47,49,51,53,55,57,59,61,63,65,67,69,71,73,75,77,79,81,83,85,-1,87,89,91,93,95,97,99,101,103,-1,105,107,109,111,113,115,117,119,121,-1,-1,-1,-1,-1,-1,-1,-1,-1,-1,-1,-1,-1,-1,-1,-1,-1,-1,-1,-1,-1,-1,-1,-1,-1,-1,-1,-1,-1,-1,-1,-1,-1,-1,-1,-1,-1,-1,-1,-1,-1,-1,-1,-1,-1,-1,-1,-1,-1,-1,-1,-1,-1,-1,-1,-1,-1,-1,-1,-1],"loss_changes":[7.27314E5,1.44064E5,1.2161975E5,2.9282E4,1.9258E4,1.3078E4,2.579025E4,5.823E3,8.09525E3,1.2207E4,2.6758125E3,4.63575E3,6.88325E3,4.7431875E3,5.1728438E3,2.470125E3,3.356E3,4.494E3,2.035E3,2.09325E3,3.323E3,1.4145625E3,1.5064844E3,2.3363125E3,1.7130625E3,1.5240312E3,2.2885625E3,7.78E2,3.09725E3,1.6001445E3,1.9048438E3,1.472875E3,7.798086E2,1.5995E3,9.82E2,2.1871875E3,1.9095E3,8.48875E2,1.281375E3,8.525E2,8.3853125E2,1.62525E3,1.53E3,0E0,6.77875E2,3.1632947E2,1.1361406E3,1.358125E3,1.254625E3,7.072344E2,9.4175E2,3.175078E2,1.0688438E3,0E0,1.560625E3,6.7678125E2,2.7029102E2,5.373203E2,2.9045625E3,5.818711E2,1.5334258E3,9.096719E2,9.874297E2,0E0,0E0,0E0,0E0,0E0,0E0,0E0,0E0,0E0,0E0,0E0,0E0,0E0,0E0,0E0,0E0,0E0,0E0,0E0,0E0,0E0,0E0,0E0,0E0,0E0,0E0,0E0,0E0,0E0,0E0,0E0,0E0,0E0,0E0,0E0,0E0,0E0,0E0,0E0,0E0,0E0,0E0,0E0,0E0,0E0,0E0,0E0,0E0,0E0,0E0,0E0,0E0,0E0,0E0,0E0,0E0,0E0,0E0,0E0,0E0],"parents":[2147483647,0,0,1,1,2,2,3,3,4,4,5,5,6,6,7,7,8,8,9,9,10,10,11,11,12,12,13,13,14,14,15,15,16,16,17,17,18,18,19,19,20,20,21,21,22,22,23,23,24,24,25,25,26,26,27,27,28,28,29,29,30,30,31,31,32,32,33,33,34,34,35,35,36,36,37,37,38,38,39,39,40,40,41,41,42,42,44,44,45,45,46,46,47,47,48,48,49,49,50,50,51,51,52,52,54,54,55,55,56,56,57,57,58,58,59,59,60,60,61,61,62,62],"right_children":[2,4,6,8,10,12,14,16,18,20,22,24,26,28,30,32,34,36,38,40,42,44,46,48,50,52,54,56,58,60,62,64,66,68,70,72,74,76,78,80,82,84,86,-1,88,90,92,94,96,98,100,102,104,-1,106,108,110,112,114,116,118,120,122,-1,-1,-1,-1,-1,-1,-1,-1,-1,-1,-1,-1,-1,-1,-1,-1,-1,-1,-1,-1,-1,-1,-1,-1,-1,-1,-1,-1,-1,-1,-1,-1,-1,-1,-1,-1,-1,-1,-1,-1,-1,-1,-1,-1,-1,-1,-1,-1,-1,-1,-1,-1,-1,-1,-1,-1,-1,-1,-1,-1],"split_conditions":[2.2095469E-1,3.0266708E-1,1.4648954E0,-9.220489E-1,1.8135801E-1,1.2780974E0,1.2972258E0,4.505993E-1,4.3609974E-1,1.4883151E0,-8.3013886E-1,9.252563E-1,2.2999552E-1,-1.0645816E0,-8.79582E-1,-1.4479375E-1,4.9946332E-1,-5.29863E-1,-5.690073E-1,4.963658E-1,1.4799731E0,5.6237906E-1,-3.8058072E-1,2.0556508E-1,3.468871E-1,-1.1123501E0,-1.0799913E0,5.369063E-1,3.8379574E-1,-3.1225204E-2,-1.2303505E0,4.7132042E-1,1.1301918E0,-2.0092452E0,-1.3576365E-1,-6.168385E-2,1.1304332E0,2.4957234E-1,1.3734542E0,3.0898342E-1,1.4150666E0,2.6126623E-1,7.9234886E-1,-1.0982094E-1,-1.4998837E0,7.699468E-1,-6.940121E-1,-4.673726E-1,-4.6874285E-1,3.0050433E-1,1.6287422E0,-7.4370307E-1,4.360808E-1,4.1759195E0,1.1779654E0,1.8669629E-1,7.735817E-2,9.9977374E-1,4.9916178E-1,-6.0803413E-1,-4.2464536E-1,-7.106293E-3,1.4966842E0,3.2890103E0,1.6001586E0,2.5598896E0,8.2454586E-1,3.8662121E0,3.548282E0,2.5676935E0,3.3208692E0,2.4204776E0,2.8317473E0,2.9794254E0,3.434815E0,3.044429E0,6.09812E-1,3.0977447E0,3.379242E0,3.188401E0,3.7932332E0,3.4320877E0,1.4173397E0,4.0140114E0,3.7596347E0,4.183441E0,3.691548E0,4.3709144E-1,3.5522282E0,1.8137188E0,3.1976506E-1,3.5709088E0,2.9189935E0,2.4246252E0,1.5798974E0,2.506667E0,2.8065503E0,2.5085328E0,-7.883578E-2,2.19273E0,1.498783E0,4.2204794E-1,1.9714993E0,2.6248686E0,5.2362174E-1,3.0831342E0,2.685743E0,1.5269135E0,1.8306233E0,2.3207798E0,1.1995877E0,2.7426496E0,1.118429E0,1.974535E0,2.4055614E0,1.3811481E0,1.9626726E0,1.9874398E0,4.2151833E0,1.4435977E0,1.1796305E0,2.8206248E0,1.583426E0],"split_indices":[173,22,7,173,109,165,117,157,79,36,167,144,28,60,64,6,0,29,29,0,44,86,170,184,30,28,138,11,81,36,180,10,114,173,58,143,172,22,165,179,17,103,103,0,168,52,173,181,157,94,48,181,33,0,124,103,63,123,9,21,60,191,16,0,0,0,0,0,0,0,0,0,0,0,0,0,0,0,0,0,0,0,0,0,0,0,0,0,0,0,0,0,0,0,0,0,0,0,0,0,0,0,0,0,0,0,0,0,0,0,0,0,0,0,0,0,0,0,0,0,0,0,0],"split_type":[0,0,0,0,0,0,0,0,0,0,0,0,0,0,0,0,0,0,0,0,0,0,0,0,0,0,0,0,0,0,0,0,0,0,0,0,0,0,0,0,0,0,0,0,0,0,0,0,0,0,0,0,0,0,0,0,0,0,0,0,0,0,0,0,0,0,0,0,0,0,0,0,0,0,0,0,0,0,0,0,0,0,0,0,0,0,0,0,0,0,0,0,0,0,0,0,0,0,0,0,0,0,0,0,0,0,0,0,0,0,0,0,0,0,0,0,0,0,0,0,0,0,0],"sum_hessian":[2.1275E4,1.4885E4,6.39E3,8.053E3,6.832E3,3.594E3,2.796E3,3.843E3,4.21E3,5.979E3,8.53E2,2.159E3,1.435E3,1.688E3,1.108E3,1.183E3,2.66E3,2.106E3,2.104E3,1.792E3,4.187E3,6.05E2,2.48E2,1.335E3,8.24E2,4.55E2,9.8E2,4.58E2,1.23E3,1.4E2,9.68E2,1.131E3,5.2E1,2.129E3,5.31E2,8.1E2,1.296E3,7.36E2,1.368E3,1.458E3,3.34E2,2.212E3,1.975E3,1E0,6.04E2,6E0,2.42E2,3.94E2,9.41E2,2.94E2,5.3E2,5E1,4.05E2,2.3E1,9.57E2,4.16E2,4.2E1,9.7E1,1.133E3,1.21E2,1.9E1,8.53E2,1.15E2,1.123E3,8E0,4.8E1,4E0,3.4E2,1.789E3,3.8E1,4.93E2,2.48E2,5.62E2,1.142E3,1.54E2,7.34E2,2E0,4.38E2,9.3E2,6.4E1,1.394E3,3.3E2,4E0,1.481E3,7.31E2,1.831E3,1.44E2,1E0,6.03E2,3E0,3E0,6.8E1,1.74E2,3.66E2,2.8E1,3.5E2,5.91E2,2.93E2,1E0,5E2,3E1,2E0,4.8E1,4.02E2,3E0,7.62E2,1.95E2,2.29E2,1.87E2,3.6E1,6E0,9.3E1,4E0,9.11E2,2.22E2,3.8E1,8.3E1,1.3E1,6E0,1.98E2,6.55E2,8E0,1.07E2],"tree_param":{"num_deleted":"0","num_feature":"192","num_nodes":"123","size_leaf_vector":"0"}},{"base_weights":[2.8351019E1,3.143398E1,1.9341747E1,3.4492954E1,2.8336473E1,2.1876268E1,1.376754E1,3.603741E1,3.2732098E1,2.5684626E1,2.9472925E1,2.3399715E1,1.9107517E1,1.5624683E1,1.1183632E1,3.6518326E1,3.3079395E1,3.341529E1,3.0147097E1,2.6808506E1,2.2588045E1,2.546097E1,2.9929785E1,2.1946976E1,2.5251152E1,2.4170519E1,1.8657948E1,2.4797485E1,1.5087442E1,1.07241125E1,1.4457911E1,3.571358E1,3.7750763E1,3.3127872E1,1.94804E0,3.2227345E1,3.4843403E1,3.2247704E1,2.8939447E1,2.3937504E1,2.7582542E1,1.8189089E1,2.3500221E1,1.0227193E1,2.5742445E1,3.074683E1,2.7908195E1,2.3969107E1,2.1106127E1,2.4722303E1,3.0130886E1,2.2644022E1,3.4113873E1,2.0325321E1,1.7331333E1,1.4892707E1,2.7037004E1,1.4730118E1,2.3591524E1,1.0033743E1,1.3379404E1,1.140758E1,1.7453203E1,1.5507665E0,3.57283E1,3.7886482E1,2.5763617E1,4.1523685E0,3.3169174E1,2.6540573E1,3.245164E1,3.493914E1,1.4715555E1,2.2297976E1,3.2968346E1,1.760808E0,2.8989187E1,2.1733852E1,2.5747976E1,2.7770054E1,2.162254E1,1.8512226E1,6.2251408E-2,2.3088299E1,3.1137085E1,1.3272208E1,8.191099E-1,2.9259543E0,2.5901617E1,3.2424118E1,3.0147953E1,2.8734932E1,2.522786E1,2.44896E1,1.7596209E1,2.1420141E1,1.563212E1,2.1532434E1,2.5264145E1,8.094315E0,3.0741575E1,2.3000141E1,4.1749787E0,3.6506134E1,1.476838E1,1.4450445E1,2.0781813E1,1.4163804E1,1.8341576E1,1.6244585E1,1.10292435E-2,3.1515196E1,2.1533413E1,1.0774802E1,1.5189565E1,1.6547474E1,3.2350025E1,8.291122E0,1.0466096E1,9.567155E0,1.5730641E1,1.2845714E1,7.30559E0,2.6197645E1,1.453947E1],"categories":[],"categories_nodes":[],"categories_segments":[],"categories_sizes":[],"default_left":[1,1,1,1,1,1,1,1,1,1,1,1,1,1,1,1,1,1,1,1,1,1,1,1,1,1,1,1,1,1,1,1,1,1,0,1,1,1,1,1,1,1,1,1,1,1,1,1,1,1,1,1,1,1,1,1,1,1,1,1,1,1,1,0,0,0,0,0,0,0,0,0,0,0,0,0,0,0,0,0,0,0,0,0,0,0,0,0,0,0,0,0,0,0,0,0,0,0,0,0,0,0,0,0,0,0,0,0,0,0,0,0,0,0,0,0,0,0,0,0,0,0,0,0,0],"id":7,"left_children":[1,3,5,7,9,11,13,15,17,19,21,23,25,27,29,31,33,35,37,39,41,43,45,47,49,51,53,55,57,59,61,63,65,67,-1,69,71,73,75,77,79,81,83,85,87,89,91,93,95,97,99,101,103,105,107,109,111,113,115,117,119,121,123,-1,-1,-1,-1,-1,-1,-1,-1,-1,-1,-1,-1,-1,-1,-1,-1,-1,-1,-1,-1,-1,-1,-1,-1,-1,-1,-1,-1,-1,-1,-1,-1,-1,-1,-1,-1,-1,-1,-1,-1,-1,-1,-1,-1,-1,-1,-1,-1,-1,-1,-1,-1,-1,-1,-1,-1,-1,-1,-1,-1,-1,-1],"loss_changes":[5.90338E5,1.49206E5,7.6371125E4,2.0495E4,2.29935E4,1.5281875E4,7.9782188E3,4.818E3,5.589E3,7.6495E3,9.3375E3,5.903625E3,2.5740625E3,4.4848906E3,9.192344E2,2.256E3,8.454375E2,3.87325E3,1.0734375E3,3.195375E3,2.1325938E3,2.1808438E3,7.303E3,1.794625E3,1.9621875E3,8.2126953E2,2.357375E3,7.729883E2,2.4906562E3,1.020625E3,5.775156E2,1.05925E3,1.330875E3,5.8275E2,0E0,1.206625E3,2.038875E3,1.2725312E3,6.4109375E2,9.405E2,9.19375E2,6.6659766E2,9.326875E2,3.3290173E2,1.9543438E3,2.54725E3,2.4505E3,8.627031E2,1.3221875E3,1.1015E3,1.0699922E3,5.2223047E2,1.6216797E1,1.1398594E3,1.9450156E3,2.4123926E2,3.565078E2,1.4700312E3,1.6857188E3,2.929453E2,9.878672E2,1.7161865E2,6.637383E2,0E0,0E0,0E0,0E0,0E0,0E0,0E0,0E0,0E0,0E0,0E0,0E0,0E0,0E0,0E0,0E0,0E0,0E0,0E0,0E0,0E0,0E0,0E0,0E0,0E0,0E0,0E0,0E0,0E0,0E0,0E0,0E0,0E0,0E0,0E0,0E0,0E0,0E0,0E0,0E0,0E0,0E0,0E0,0E0,0E0,0E0,0E0,0E0,0E0,0E0,0E0,0E0,0E0,0E0,0E0,0E0,0E0,0E0,0E0,0E0,0E0,0E0],"parents":[2147483647,0,0,1,1,2,2,3,3,4,4,5,5,6,6,7,7,8,8,9,9,10,10,11,11,12,12,13,13,14,14,15,15,16,16,17,17,18,18,19,19,20,20,21,21,22,22,23,23,24,24,25,25,26,26,27,27,28,28,29,29,30,30,31,31,32,32,33,33,35,35,36,36,37,37,38,38,39,39,40,40,41,41,42,42,43,43,44,44,45,45,46,46,47,47,48,48,49,49,50,50,51,51,52,52,53,53,54,54,55,55,56,56,57,57,58,58,59,59,60,60,61,61,62,62],"right_children":[2,4,6,8,10,12,14,16,18,20,22,24,26,28,30,32,34,36,38,40,42,44,46,48,50,52,54,56,58,60,62,64,66,68,-1,70,72,74,76,78,80,82,84,86,88,90,92,94,96,98,100,102,104,106,108,110,112,114,116,118,120,122,124,-1,-1,-1,-1,-1,-1,-1,-1,-1,-1,-1,-1,-1,-1,-1,-1,-1,-1,-1,-1,-1,-1,-1,-1,-1,-1,-1,-1,-1,-1,-1,-1,-1,-1,-1,-1,-1,-1,-1,-1,-1,-1,-1,-1,-1,-1,-1,-1,-1,-1,-1,-1,-1,-1,-1,-1,-1,-1,-1,-1,-1,-1],"split_conditions":[-1.1272246E-1,-1.0951346E0,1.323549E0,-1.4193554E0,-6.101817E-1,6.4350235E-1,4.2331296E-1,-8.947617E-1,-6.9330156E-1,-4.4476974E-1,-7.406205E-2,1.13603786E-1,1.9895823E-1,-4.3320704E-1,9.5076007E-1,2.260973E0,6.9344056E-1,9.026528E-1,-9.240128E-2,-6.322377E-1,-3.3078092E-1,3.2978553E-1,2.0482521E-1,-9.1794854E-1,3.462448E-1,1.2909832E0,-8.3373964E-1,3.0918235E-1,-1.0495968E-1,-7.1794266E-1,-2.4319065E0,-2.2921872E0,2.0941703E0,-1.169159E0,1.94804E-1,-9.1686726E-1,8.060515E-3,-3.4475487E-1,-5.593059E-1,6.545374E-1,-1.6369593E-1,-3.9455768E-1,6.0822237E-1,6.0423553E-1,-7.3200405E-1,-1.3458006E0,-1.0553133E0,1.2941787E0,6.144793E-1,1.2022104E0,-1.776201E0,1.2119762E0,-5.134032E-1,-7.292527E-1,4.4611135E-1,8.433382E-2,-1.290635E0,-1.1038327E0,-1.1659325E0,9.25323E-1,5.618485E-1,1.0846362E0,1.5500367E0,1.5507665E-1,3.57283E0,3.7886484E0,2.5763617E0,4.1523686E-1,3.3169174E0,2.6540573E0,3.2451642E0,3.4939141E0,1.4715556E0,2.2297976E0,3.2968347E0,1.7608081E-1,2.8989189E0,2.1733854E0,2.5747976E0,2.7770054E0,2.162254E0,1.8512226E0,6.2251408E-3,2.30883E0,3.1137085E0,1.3272208E0,8.191099E-2,2.9259545E-1,2.5901618E0,3.2424119E0,3.0147953E0,2.8734932E0,2.522786E0,2.44896E0,1.7596209E0,2.1420143E0,1.563212E0,2.1532435E0,2.5264146E0,8.094315E-1,3.0741575E0,2.3000143E0,4.1749787E-1,3.6506135E0,1.476838E0,1.4450445E0,2.0781813E0,1.4163804E0,1.8341576E0,1.6244586E0,1.1029243E-3,3.1515195E0,2.1533413E0,1.0774802E0,1.5189565E0,1.6547474E0,3.2350025E0,8.2911223E-1,1.0466096E0,9.567155E-1,1.5730642E0,1.2845714E0,7.3055905E-1,2.6197646E0,1.453947E0],"split_indices":[144,138,46,74,29,145,181,176,176,176,101,143,10,33,38,36,13,36,95,123,50,131,10,4,93,28,4,21,36,25,9,59,1,180,0,122,135,17,33,52,110,43,9,68,53,176,4,104,46,1,77,28,14,111,9,5,76,21,52,187,187,145,49,0,0,0,0,0,0,0,0,0,0,0,0,0,0,0,0,0,0,0,0,0,0,0,0,0,0,0,0,0,0,0,0,0,0,0,0,0,0,0,0,0,0,0,0,0,0,0,0,0,0,0,0,0,0,0,0,0,0,0,0,0,0],"split_type":[0,0,0,0,0,0,0,0,0,0,0,0,0,0,0,0,0,0,0,0,0,0,0,0,0,0,0,0,0,0,0,0,0,0,0,0,0,0,0,0,0,0,0,0,0,0,0,0,0,0,0,0,0,0,0,0,0,0,0,0,0,0,0,0,0,0,0,0,0,0,0,0,0,0,0,0,0,0,0,0,0,0,0,0,0,0,0,0,0,0,0,0,0,0,0,0,0,0,0,0,0,0,0,0,0,0,0,0,0,0,0,0,0,0,0,0,0,0,0,0,0,0,0,0,0],"sum_hessian":[2.1275E4,1.5849E4,5.426E3,7.969E3,7.88E3,3.728E3,1.698E3,4.235E3,3.734E3,2.371E3,5.509E3,2.4E3,1.328E3,9.85E2,7.13E2,3.633E3,6.02E2,2.944E3,7.9E2,1.734E3,6.37E2,5.69E2,4.94E3,1.352E3,1.048E3,1.04E2,1.224E3,5.2E1,9.33E2,6.29E2,8.4E1,2.216E3,1.417E3,6.01E2,1E0,1.62E3,1.324E3,2.79E2,5.11E2,3.75E2,1.359E3,1.13E2,5.24E2,1.1E1,5.58E2,3.508E3,1.432E3,3.89E2,9.63E2,9.51E2,9.7E1,9.3E1,1.1E1,5.36E2,6.88E2,1.1E1,4.1E1,8.98E2,3.5E1,5.03E2,1.26E2,4.4E1,4E1,1E0,2.215E3,1.399E3,1.8E1,1E0,6E2,6.6E1,1.554E3,1.317E3,7E0,2.1E1,2.58E2,1E0,5.1E2,1.75E2,2E2,1.314E3,4.5E1,1.11E2,2E0,5.01E2,2.3E1,8E0,3E0,4E0,5.54E2,9.09E2,2.599E3,1.087E3,3.45E2,3.57E2,3.2E1,9.08E2,5.5E1,1.44E2,8.07E2,3E0,9.4E1,9.1E1,2E0,9E0,2E0,4.1E1,4.95E2,1.7E2,5.18E2,1E1,1E0,2E1,2.1E1,9.6E1,8.02E2,2.1E1,1.4E1,1.04E2,3.99E2,5E1,7.6E1,3.1E1,1.3E1,8E0,3.2E1],"tree_param":{"num_deleted":"0","num_feature":"192","num_nodes":"125","size_leaf_vector":"0"}},{"base_weights":[2.552167E1,2.9027813E1,1.9097576E1,2.67552E1,3.154872E1,2.1969177E1,1.4362821E1,2.8095028E1,2.5250547E1,3.223557E1,2.9037128E1,2.3153467E1,1.9624979E1,1.1059738E1,1.629713E1,2.6385862E1,2.8979626E1,2.3430185E1,2.6018112E1,2.9119394E1,3.2726048E1,2.9801626E1,2.5668253E1,2.1757229E1,2.4434656E1,1.7976227E1,2.0885422E1,2.1762276E1,1.0756586E1,1.4390689E1,1.7609867E1,2.0380562E1,2.6737778E1,2.9897087E1,2.7881697E1,2.0316116E1,2.4169828E1,2.5203342E1,2.7239891E1,2.724502E1,3.0435919E1,3.206068E1,3.413523E1,2.9840607E1,-7.357294E0,2.5945318E1,5.905631E0,2.0033312E1,2.288669E1,1.9627815E1,2.489374E1,1.3834634E1,1.859026E1,1.839673E1,2.1811821E1,2.3412127E1,6.010146E0,9.297617E0,1.2029503E1,1.2835883E1,1.5711065E1,2.5733936E1,1.721399E1,2.1042841E1,6.6351724E0,2.6771078E1,-7.2439613E0,2.9943941E1,1.1276519E1,2.6833935E1,2.909189E1,1.2448386E1,2.120364E1,1.9853514E1,2.4607853E1,2.4767101E1,2.8245138E1,1.3585019E1,2.7356426E1,2.7435083E1,-7.164154E-1,3.0863476E1,2.1992884E1,3.227839E1,2.9124321E1,3.1170313E1,3.458424E1,1.4978983E1,2.994544E1,2.8313625E0,2.6110952E1,-1.0695261E0,1.0912244E1,-2.69306E0,2.0113958E1,1.5608894E1,2.3217815E1,-1.7478873E0,1.9939E1,2.3441132E1,2.5830044E1,1.4736393E1,4.876399E0,4.998747E0,1.8742785E1,1.51602335E1,1.9719852E1,1.7571547E1,2.2317493E1,2.6743994E1,1.6740294E1,4.6458244E-2,7.982556E0,8.829254E0,1.2773286E1,1.0193518E1,1.3814698E1,1.2123086E1,1.7404139E1,1.2067129E1,1.6463413E1,8.960561E0,2.8445263E1,1.3969921E1,1.7817966E1],"categories":[],"categories_nodes":[],"categories_segments":[],"categories_sizes":[],"default_left":[1,1,1,1,1,1,1,1,1,1,1,1,1,1,1,1,1,1,1,1,1,1,1,1,1,1,1,1,1,1,1,1,1,1,1,1,1,1,1,1,1,1,1,1,0,1,1,1,1,1,1,1,1,1,1,1,1,1,1,1,1,1,1,0,0,0,0,0,0,0,0,0,0,0,0,0,0,0,0,0,0,0,0,0,0,0,0,0,0,0,0,0,0,0,0,0,0,0,0,0,0,0,0,0,0,0,0,0,0,0,0,0,0,0,0,0,0,0,0,0,0,0,0,0,0],"id":8,"left_children":[1,3,5,7,9,11,13,15,17,19,21,23,25,27,29,31,33,35,37,39,41,43,45,47,49,51,53,55,57,59,61,63,65,67,69,71,73,75,77,79,81,83,85,87,-1,89,91,93,95,97,99,101,103,105,107,109,111,113,115,117,119,121,123,-1,-1,-1,-1,-1,-1,-1,-1,-1,-1,-1,-1,-1,-1,-1,-1,-1,-1,-1,-1,-1,-1,-1,-1,-1,-1,-1,-1,-1,-1,-1,-1,-1,-1,-1,-1,-1,-1,-1,-1,-1,-1,-1,-1,-1,-1,-1,-1,-1,-1,-1,-1,-1,-1,-1,-1,-1,-1,-1,-1,-1,-1],"loss_changes":[4.78661E5,7.7999E4,1.0186075E5,1.38945E4,1.031E4,1.252725E4,1.7965062E4,5.0155E3,4.17175E3,6.8575E3,2.866625E3,5.015625E3,2.89975E3,3.1791094E3,4.2238438E3,2.2341875E3,1.69375E3,1.86975E3,1.7005E3,9.08E2,3.037E3,1.875125E3,1.3142031E3,2.4485E3,3.0620625E3,1.4975469E3,1.6437188E3,5.8697266E2,1.7917344E3,1.3072344E3,2.9500625E3,5.613262E2,1.5959375E3,8.4275E2,6.864375E2,1.1535547E3,1.0675E3,1.22725E3,1.1353125E3,1.6140156E3,7.8325E2,9.84E2,7.8325E2,1.3306875E3,0E0,9.367969E2,1.8628049E2,1.152E3,1.7944375E3,9.993594E2,1.387E3,6.7941016E2,1.1459844E3,7.587656E2,9.8228125E2,1.0803906E2,4.668048E1,6.718594E2,1.6421797E3,9.0589844E2,8.7875E2,1.8825879E3,1.7280625E3,0E0,0E0,0E0,0E0,0E0,0E0,0E0,0E0,0E0,0E0,0E0,0E0,0E0,0E0,0E0,0E0,0E0,0E0,0E0,0E0,0E0,0E0,0E0,0E0,0E0,0E0,0E0,0E0,0E0,0E0,0E0,0E0,0E0,0E0,0E0,0E0,0E0,0E0,0E0,0E0,0E0,0E0,0E0,0E0,0E0,0E0,0E0,0E0,0E0,0E0,0E0,0E0,0E0,0E0,0E0,0E0,0E0,0E0,0E0,0E0,0E0,0E0],"parents":[2147483647,0,0,1,1,2,2,3,3,4,4,5,5,6,6,7,7,8,8,9,9,10,10,11,11,12,12,13,13,14,14,15,15,16,16,17,17,18,18,19,19,20,20,21,21,22,22,23,23,24,24,25,25,26,26,27,27,28,28,29,29,30,30,31,31,32,32,33,33,34,34,35,35,36,36,37,37,38,38,39,39,40,40,41,41,42,42,43,43,45,45,46,46,47,47,48,48,49,49,50,50,51,51,52,52,53,53,54,54,55,55,56,56,57,57,58,58,59,59,60,60,61,61,62,62],"right_children":[2,4,6,8,10,12,14,16,18,20,22,24,26,28,30,32,34,36,38,40,42,44,46,48,50,52,54,56,58,60,62,64,66,68,70,72,74,76,78,80,82,84,86,88,-1,90,92,94,96,98,100,102,104,106,108,110,112,114,116,118,120,122,124,-1,-1,-1,-1,-1,-1,-1,-1,-1,-1,-1,-1,-1,-1,-1,-1,-1,-1,-1,-1,-1,-1,-1,-1,-1,-1,-1,-1,-1,-1,-1,-1,-1,-1,-1,-1,-1,-1,-1,-1,-1,-1,-1,-1,-1,-1,-1,-1,-1,-1,-1,-1,-1,-1,-1,-1,-1,-1,-1,-1,-1,-1],"split_conditions":[1.5453324E-2,3.5654137E-1,1.4648954E0,-9.865891E-1,-5.4249004E-2,5.234743E-1,-7.5654626E-2,-4.7991458E-1,-5.685228E-1,6.816949E-1,-8.2958853E-1,1.3528366E0,1.3629465E0,-1.1137162E0,-1.1587384E0,-1.6127491E-1,-1.6904742E0,2.5350034E-1,8.3290154E-1,9.622758E-1,1.8558415E0,5.196507E-1,1.1345489E0,5.938691E-2,-2.1909266E0,-1.113551E0,1.05155855E-1,-2.2856554E-1,-1.2853333E0,4.0433246E-1,-4.1613927E-1,1.118849E0,-1.10569775E-1,-2.5606477E-1,1.2061082E-1,2.6328504E-2,4.382636E-1,1.1304332E0,2.2439644E-2,7.972932E-1,3.8794947E-1,-1.3941807E0,6.4274824E-1,-8.479839E-1,-7.357294E-1,1.0583027E-1,3.5230038E-1,-7.3340476E-1,9.5980906E-1,-3.0560637E-1,-6.760294E-1,-1.0124135E0,-5.1720047E-1,-1.7489522E0,-1.9221382E0,-1.0145977E-1,2.5136083E-2,5.210094E-2,-1.1161557E0,3.0308968E-1,5.243354E-1,1.6751641E-1,-5.6784225E-1,2.104284E0,6.6351724E-1,2.6771078E0,-7.2439617E-1,2.994394E0,1.1276519E0,2.6833935E0,2.909189E0,1.2448386E0,2.120364E0,1.9853514E0,2.4607854E0,2.47671E0,2.824514E0,1.3585019E0,2.7356427E0,2.7435083E0,-7.164154E-2,3.0863476E0,2.1992884E0,3.227839E0,2.9124322E0,3.1170313E0,3.458424E0,1.4978983E0,2.994544E0,2.8313625E-1,2.6110952E0,-1.0695261E-1,1.0912244E0,-2.69306E-1,2.011396E0,1.5608895E0,2.3217816E0,-1.7478873E-1,1.9939E0,2.344113E0,2.5830045E0,1.4736394E0,4.876399E-1,4.9987468E-1,1.8742784E0,1.5160234E0,1.9719852E0,1.7571547E0,2.2317493E0,2.6743994E0,1.6740294E0,4.6458244E-3,7.982556E-1,8.8292545E-1,1.2773286E0,1.0193518E0,1.3814698E0,1.2123086E0,1.7404139E0,1.206713E0,1.6463413E0,8.960561E-1,2.8445263E0,1.3969921E0,1.7817967E0],"split_indices":[173,22,7,173,109,144,3,36,29,36,167,165,1,191,101,58,4,28,143,175,108,137,177,148,156,187,88,12,101,9,74,33,110,167,86,114,91,172,91,21,19,167,50,187,0,88,3,65,1,41,29,186,34,148,92,18,0,25,21,23,39,177,48,0,0,0,0,0,0,0,0,0,0,0,0,0,0,0,0,0,0,0,0,0,0,0,0,0,0,0,0,0,0,0,0,0,0,0,0,0,0,0,0,0,0,0,0,0,0,0,0,0,0,0,0,0,0,0,0,0,0,0,0,0,0],"split_type":[0,0,0,0,0,0,0,0,0,0,0,0,0,0,0,0,0,0,0,0,0,0,0,0,0,0,0,0,0,0,0,0,0,0,0,0,0,0,0,0,0,0,0,0,0,0,0,0,0,0,0,0,0,0,0,0,0,0,0,0,0,0,0,0,0,0,0,0,0,0,0,0,0,0,0,0,0,0,0,0,0,0,0,0,0,0,0,0,0,0,0,0,0,0,0,0,0,0,0,0,0,0,0,0,0,0,0,0,0,0,0,0,0,0,0,0,0,0,0,0,0,0,0,0,0],"sum_hessian":[2.1275E4,1.3761E4,7.514E3,7.243E3,6.518E3,4.675E3,2.839E3,3.822E3,3.421E3,5.109E3,1.409E3,3.1E3,1.575E3,1.051E3,1.788E3,1.314E3,2.508E3,1.024E3,2.397E3,7.03E2,4.406E3,1.142E3,2.67E2,1.492E3,1.608E3,6.89E2,8.86E2,2.7E1,1.024E3,7.34E2,1.054E3,7.6E1,1.238E3,1.352E3,1.156E3,2.02E2,8.22E2,1.451E3,9.46E2,2.99E2,4.04E2,3.009E3,1.397E3,1.141E3,1E0,2.63E2,4E0,5.98E2,8.94E2,1.44E2,1.464E3,9.2E1,5.97E2,2.46E2,6.4E2,2.4E1,3E0,4.81E2,5.43E2,3.42E2,3.92E2,4.6E1,1.008E3,7.2E1,4E0,1.237E3,1E0,1.348E3,4E0,6.32E2,5.24E2,2.2E1,1.8E2,8E1,7.42E2,1.277E3,1.74E2,9E0,9.37E2,2.97E2,2E0,3.82E2,2.2E1,2.792E3,2.17E2,1.93E2,1.204E3,9E0,1.132E3,2E0,2.61E2,2E0,2E0,2E0,5.96E2,4.1E1,8.53E2,2E0,1.42E2,5.84E2,8.8E2,8.3E1,9E0,7E0,5.9E2,7.5E1,1.71E2,7.2E1,5.68E2,1.4E1,1E1,1E0,2E0,4.27E2,5.4E1,2.71E2,2.72E2,2.99E2,4.3E1,7E1,3.22E2,7E0,3.9E1,1.62E2,8.46E2],"tree_param":{"num_deleted":"0","num_feature":"192","num_nodes":"125","size_leaf_vector":"0"}},{"base_weights":[2.2974512E1,2.5474651E1,1.5668414E1,2.7863216E1,2.2849106E1,1.7690004E1,1.1086121E1,2.641533E1,2.9257786E1,2.0745947E1,2.3792152E1,1.6543608E1,2.017409E1,1.5403003E1,1.0253722E1,2.7232306E1,2.4752241E1,3.0297646E1,2.778378E1,2.1776026E1,1.829618E1,2.0782185E1,2.4148003E1,1.5252962E1,1.810658E1,1.9346794E1,2.2970085E1,2.1046553E1,1.3973061E1,8.776214E0,1.1859841E1,2.5595781E1,2.7839367E1,2.7201973E1,2.3914558E1,3.199303E1,2.9768515E1,2.9327953E1,2.6589794E1,1.92555E1,2.2501415E1,1.45059805E1,1.9038443E1,1.5378386E1,2.1402365E1,2.5190535E1,2.3096891E1,1.6600101E1,1.3923904E1,1.5745164E1,1.9040117E1,2.0205128E1,1.5964953E1,2.932844E1,2.2033579E1,1.2093243E1,2.3153702E1,1.3186758E1,2.8852222E1,1.4449157E1,8.588336E0,6.374856E0,1.2227597E1,2.6004246E1,2.2227509E1,3.14265E1,2.7540419E1,1.9635416E1,2.7717775E1,2.8814118E0,2.3994688E1,3.2049694E1,1.0562509E1,2.9812008E1,1.1143027E1,2.9696163E1,2.0894363E1,1.106152E1,2.6703756E1,8.529627E0,1.9495947E1,2.3618317E1,2.1562223E1,1.3098549E1,1.927398E1,1.8342693E1,2.2335258E1,1.650916E1,7.010679E0,2.1736113E1,9.989692E0,2.4744606E1,2.7300259E1,2.1271164E1,2.3715328E1,2.8613453E1,1.6384525E1,1.34343195E1,1.8739893E1,1.290764E1,1.6688538E1,9.358599E0,1.9183064E1,2.1639051E1,1.903319E1,7.3240244E-1,1.6286867E1,-2.6245193E0,3.0481024E1,1.1465361E1,2.2403706E1,1.3317723E1,-6.8801785E-1,2.9063396E1,1.9371937E1,1.523482E1,1.0244097E1,3.667223E1,7.9541516E0,4.0039697E0,1.6547867E1,6.995965E0,9.012417E0,5.153132E0,1.0553436E1,1.1915889E1,2.4088562E1],"categories":[],"categories_nodes":[],"categories_segments":[],"categories_sizes":[],"default_left":[1,1,1,1,1,1,1,1,1,1,1,1,1,1,1,1,1,1,1,1,1,1,1,1,1,1,1,1,1,1,1,1,1,1,1,1,1,1,1,1,1,1,1,1,1,1,1,1,1,1,1,1,1,1,1,1,1,1,1,1,1,1,1,0,0,0,0,0,0,0,0,0,0,0,0,0,0,0,0,0,0,0,0,0,0,0,0,0,0,0,0,0,0,0,0,0,0,0,0,0,0,0,0,0,0,0,0,0,0,0,0,0,0,0,0,0,0,0,0,0,0,0,0,0,0,0,0],"id":9,"left_children":[1,3,5,7,9,11,13,15,17,19,21,23,25,27,29,31,33,35,37,39,41,43,45,47,49,51,53,55,57,59,61,63,65,67,69,71,73,75,77,79,81,83,85,87,89,91,93,95,97,99,101,103,105,107,109,111,113,115,117,119,121,123,125,-1,-1,-1,-1,-1,-1,-1,-1,-1,-1,-1,-1,-1,-1,-1,-1,-1,-1,-1,-1,-1,-1,-1,-1,-1,-1,-1,-1,-1,-1,-1,-1,-1,-1,-1,-1,-1,-1,-1,-1,-1,-1,-1,-1,-1,-1,-1,-1,-1,-1,-1,-1,-1,-1,-1,-1,-1,-1,-1,-1,-1,-1,-1,-1],"loss_changes":[3.88235E5,9.8762E4,5.0076875E4,1.59765E4,1.449275E4,1.038525E4,5.821453E3,4.8695E3,5.62025E3,5.524125E3,5.0785E3,4.9303125E3,2.2943125E3,1.8605898E3,3.2134375E3,1.995625E3,2.1300625E3,1.25525E3,2.45775E3,2.578E3,1.6959688E3,1.5409219E3,4.517E3,2.31125E3,2.2618125E3,2.3479688E3,9.3175E2,7.010293E2,2.1466328E3,6.5608594E2,1.2674766E3,4.5384375E2,1.2545E3,7.749375E2,1.646625E3,3.56125E2,1.198875E3,1.7271875E3,1.476E3,8.008281E2,8.26125E2,5.4610547E2,9.275781E2,4.6144043E2,1.6797188E3,1.51175E3,2.12525E3,1.3440312E3,1.44825E3,6.813281E2,9.6634375E2,8.14875E2,9.2465234E2,1.2216797E3,6.623594E2,1.9696765E2,3.5329688E2,1.0914688E3,1.3425352E3,4.1601416E2,4.1708203E2,1.7023999E2,2.0199922E3,0E0,0E0,0E0,0E0,0E0,0E0,0E0,0E0,0E0,0E0,0E0,0E0,0E0,0E0,0E0,0E0,0E0,0E0,0E0,0E0,0E0,0E0,0E0,0E0,0E0,0E0,0E0,0E0,0E0,0E0,0E0,0E0,0E0,0E0,0E0,0E0,0E0,0E0,0E0,0E0,0E0,0E0,0E0,0E0,0E0,0E0,0E0,0E0,0E0,0E0,0E0,0E0,0E0,0E0,0E0,0E0,0E0,0E0,0E0,0E0,0E0,0E0,0E0,0E0],"parents":[2147483647,0,0,1,1,2,2,3,3,4,4,5,5,6,6,7,7,8,8,9,9,10,10,11,11,12,12,13,13,14,14,15,15,16,16,17,17,18,18,19,19,20,20,21,21,22,22,23,23,24,24,25,25,26,26,27,27,28,28,29,29,30,30,31,31,32,32,33,33,34,34,35,35,36,36,37,37,38,38,39,39,40,40,41,41,42,42,43,43,44,44,45,45,46,46,47,47,48,48,49,49,50,50,51,51,52,52,53,53,54,54,55,55,56,56,57,57,58,58,59,59,60,60,61,61,62,62],"right_children":[2,4,6,8,10,12,14,16,18,20,22,24,26,28,30,32,34,36,38,40,42,44,46,48,50,52,54,56,58,60,62,64,66,68,70,72,74,76,78,80,82,84,86,88,90,92,94,96,98,100,102,104,106,108,110,112,114,116,118,120,122,124,126,-1,-1,-1,-1,-1,-1,-1,-1,-1,-1,-1,-1,-1,-1,-1,-1,-1,-1,-1,-1,-1,-1,-1,-1,-1,-1,-1,-1,-1,-1,-1,-1,-1,-1,-1,-1,-1,-1,-1,-1,-1,-1,-1,-1,-1,-1,-1,-1,-1,-1,-1,-1,-1,-1,-1,-1,-1,-1,-1,-1,-1,-1,-1,-1],"split_conditions":[-1.1272246E-1,-8.812139E-1,1.7356228E0,1.3141547E0,-6.101817E-1,1.1493644E-1,9.4557273E-1,-1.3853787E0,2.864977E-1,-5.4100925E-1,-7.403207E-2,-6.1408985E-1,-2.1937978E-1,-4.3320704E-1,-5.7883286E-1,8.0890054E-1,-7.4736744E-1,-4.583447E-1,-4.7317788E-1,-6.322377E-1,-3.3078092E-1,-1.5290532E0,-2.2059289E-1,1.4811488E0,-2.2382143E0,-6.153354E-1,-8.0577743E-1,3.0918235E-1,9.1565627E-1,-1.3019943E0,-6.5367174E-1,-2.7304357E-1,-1.6062409E0,-5.448614E-1,3.447048E-1,1.6018672E0,5.5723757E-1,-2.9001674E-1,-5.283865E-1,-2.0617933E0,1.2688234E0,5.4304695E-1,9.667414E-1,3.7071583E-1,1.4799234E0,1.1881758E0,-4.155324E-1,1.8459031E-1,5.181081E-1,9.554149E-1,-1.4186677E-1,-1.0206165E0,-5.4471904E-1,-1.0817198E0,-4.819743E-1,8.433382E-2,-1.1376648E0,-4.7360212E-1,2.0039537E0,-1.3005977E0,9.25323E-1,3.1283358E-1,-3.5831034E-1,2.6004245E0,2.222751E0,3.1426501E0,2.754042E0,1.9635416E0,2.7717776E0,2.881412E-1,2.399469E0,3.2049694E0,1.0562509E0,2.981201E0,1.1143028E0,2.9696164E0,2.0894363E0,1.1061519E0,2.6703756E0,8.529627E-1,1.9495947E0,2.3618317E0,2.1562223E0,1.3098549E0,1.927398E0,1.8342694E0,2.233526E0,1.650916E0,7.0106786E-1,2.1736114E0,9.989692E-1,2.4744606E0,2.730026E0,2.1271164E0,2.371533E0,2.8613453E0,1.6384525E0,1.343432E0,1.8739893E0,1.2907641E0,1.6688538E0,9.3585986E-1,1.9183064E0,2.1639051E0,1.903319E0,7.324024E-2,1.6286868E0,-2.6245195E-1,3.0481024E0,1.1465361E0,2.2403705E0,1.3317723E0,-6.880178E-2,2.9063396E0,1.9371938E0,1.5234821E0,1.0244097E0,3.667223E0,7.9541516E-1,4.0039697E-1,1.6547867E0,6.995965E-1,9.012417E-1,5.153132E-1,1.0553436E0,1.1915889E0,2.4088562E0],"split_indices":[144,74,174,86,29,143,161,173,103,176,101,101,86,33,25,157,181,169,109,123,50,20,74,16,156,117,181,21,161,52,172,190,176,183,21,37,62,128,101,92,58,36,189,131,7,157,92,3,75,1,149,4,38,0,146,5,12,66,51,180,187,35,101,0,0,0,0,0,0,0,0,0,0,0,0,0,0,0,0,0,0,0,0,0,0,0,0,0,0,0,0,0,0,0,0,0,0,0,0,0,0,0,0,0,0,0,0,0,0,0,0,0,0,0,0,0,0,0,0,0,0,0,0,0,0,0,0],"split_type":[0,0,0,0,0,0,0,0,0,0,0,0,0,0,0,0,0,0,0,0,0,0,0,0,0,0,0,0,0,0,0,0,0,0,0,0,0,0,0,0,0,0,0,0,0,0,0,0,0,0,0,0,0,0,0,0,0,0,0,0,0,0,0,0,0,0,0,0,0,0,0,0,0,0,0,0,0,0,0,0,0,0,0,0,0,0,0,0,0,0,0,0,0,0,0,0,0,0,0,0,0,0,0,0,0,0,0,0,0,0,0,0,0,0,0,0,0,0,0,0,0,0,0,0,0,0,0],"sum_hessian":[2.1275E4,1.5849E4,5.426E3,8.294E3,7.555E3,3.763E3,1.663E3,4.079E3,4.215E3,2.346E3,5.209E3,2.58E3,1.183E3,2.66E2,1.397E3,2.725E3,1.354E3,2.46E3,1.755E3,1.646E3,7E2,5.57E2,4.652E3,1.419E3,1.161E3,9.19E2,2.64E2,5.1E1,2.15E2,7.31E2,6.66E2,7.49E2,1.976E3,3.37E2,1.017E3,5.71E2,1.889E3,7.55E2,1E3,3.74E2,1.272E3,1.18E2,5.82E2,6E1,4.97E2,2.324E3,2.328E3,6.99E2,7.2E2,3.34E2,8.27E2,7.29E2,1.9E2,3E1,2.34E2,1.1E1,4E1,2.06E2,9E0,2.1E1,7.1E2,4.3E1,6.23E2,6.62E2,8.7E1,1.44E2,1.832E3,2.4E1,3.13E2,4E0,1.013E3,5.69E2,2E0,1.884E3,5E0,7.21E2,3.4E1,8E0,9.92E2,9E0,3.65E2,5.7E2,7.02E2,9.4E1,2.4E1,4.86E2,9.6E1,5.2E1,8E0,4.82E2,1.5E1,1.929E3,3.95E2,5.98E2,1.73E3,1E1,6.89E2,6.57E2,6.3E1,8.7E1,2.47E2,1.3E1,8.14E2,3.2E2,4.09E2,4E0,1.86E2,1E0,2.9E1,9E0,2.25E2,1E1,1E0,1.3E1,2.7E1,1.19E2,8.7E1,6E0,3E0,4E0,1.7E1,1.53E2,5.57E2,3.5E1,8E0,6.09E2,1.4E1],"tree_param":{"num_deleted":"0","num_feature":"192","num_nodes":"127","size_leaf_vector":"0"}},{"base_weights":[2.0682352E1,2.3524899E1,1.5474128E1,2.1628345E1,2.5544073E1,1.7799858E1,1.1639414E1,2.300114E1,2.0674007E1,2.5993748E1,2.2318777E1,1.6372766E1,1.9129168E1,1.3323142E1,9.07968E0,2.363066E1,2.0829218E1,2.1456411E1,1.9402029E1,2.5125975E1,2.7129072E1,1.9142094E1,2.2898748E1,2.1465994E1,1.5974869E1,1.73589E1,2.0045233E1,2.1503382E1,1.3079166E1,2.0320972E1,8.848492E0,2.222425E1,2.4179184E1,2.210941E1,1.9030277E1,1.56995535E1,2.1659681E1,2.0181536E1,1.7681168E1,2.3021217E1,2.5522505E1,2.8074656E1,2.590714E1,1.940058E1,-7.4889145E0,2.3001537E1,7.347201E0,1.8601244E1,2.5857367E1,1.3286373E1,1.6413345E1,1.971376E1,1.6369253E1,2.1075489E1,1.8875978E1,1.38355055E1,2.6486311E1,1.3616934E1,1.0505764E1,1.5161285E1,3.4831654E1,1.0830379E1,7.984061E0,2.2782797E1,1.9043884E1,2.4215755E1,7.647886E0,1.480863E1,2.2473871E1,2.0450191E1,1.6155642E1,1.7610409E1,9.874044E0,2.131198E1,2.3567144E1,2.1671768E1,1.9133726E1,1.7389107E1,2.5611721E1,1.3112487E1,2.326139E1,2.5545015E1,-3.883395E0,2.6907516E1,2.8919046E1,2.6040117E1,1.3627517E1,1.4933169E1,2.1539661E1,2.6886238E1,2.250854E1,8.632368E0,4.6068382E-1,3.7612467E0,1.933498E1,1.7964027E1,2.9000448E1,1.2623642E1,2.0071466E1,1.6933752E1,1.3628474E1,3.5143387E0,2.0042078E1,1.7046753E1,1.2605814E1,2.398185E1,2.0272932E1,1.9307693E1,1.43228E1,1.5586376E-1,1.6106787E1,2.7262634E1,2.7627907E0,1.4646265E1,1.2394028E1,1.0211967E1,2.9106129E1,1.847452E1,5.45573E0,1.4171425E1,9.82496E0,7.608873E0,1.1389366E1],"categories":[],"categories_nodes":[],"categories_segments":[],"categories_sizes":[],"default_left":[1,1,1,1,1,1,1,1,1,1,1,1,1,1,1,1,1,1,1,1,1,1,1,1,1,1,1,1,1,1,1,1,1,1,1,1,1,1,1,1,1,1,1,1,0,1,1,1,1,1,1,1,1,1,1,1,1,1,1,1,0,1,1,0,0,0,0,0,0,0,0,0,0,0,0,0,0,0,0,0,0,0,0,0,0,0,0,0,0,0,0,0,0,0,0,0,0,0,0,0,0,0,0,0,0,0,0,0,0,0,0,0,0,0,0,0,0,0,0,0,0,0,0],"id":10,"left_children":[1,3,5,7,9,11,13,15,17,19,21,23,25,27,29,31,33,35,37,39,41,43,45,47,49,51,53,55,57,59,61,63,65,67,69,71,73,75,77,79,81,83,85,87,-1,89,91,93,95,97,99,101,103,105,107,109,111,113,115,117,-1,119,121,-1,-1,-1,-1,-1,-1,-1,-1,-1,-1,-1,-1,-1,-1,-1,-1,-1,-1,-1,-1,-1,-1,-1,-1,-1,-1,-1,-1,-1,-1,-1,-1,-1,-1,-1,-1,-1,-1,-1,-1,-1,-1,-1,-1,-1,-1,-1,-1,-1,-1,-1,-1,-1,-1,-1,-1,-1,-1,-1,-1],"loss_changes":[3.14619E5,5.21485E4,6.6815375E4,8.83E3,9.079E3,8.5575E3,1.2119156E4,3.47825E3,3.763625E3,5.071E3,1.0760938E3,4.24125E3,3.568375E3,3.1335E3,2.7569062E3,1.19375E3,1.1015312E3,2.691875E3,1.802875E3,2.18575E3,2.18075E3,1.0608203E3,9.34E2,1.5444297E3,2.2598125E3,1.6139219E3,1.5115E3,1.4675566E3,2.15975E3,1.1190605E3,1.8134766E3,7.0653125E2,7.839375E2,6.783281E2,8.2066406E2,8.5023047E2,1.15575E3,1.3045E3,7.358906E2,9.729375E2,1.94425E3,6.085E2,1.4593125E3,9.397578E2,0E0,7.066875E2,4.9125153E1,1.0270273E3,9.9241016E2,1.0956328E3,2.38225E3,1.2113281E3,1.292E3,1.459125E3,1.2016875E3,6.499658E2,4.4035938E2,1.5467656E3,1.2984707E3,4.7803027E2,0E0,9.8272266E2,9.0477734E2,0E0,0E0,0E0,0E0,0E0,0E0,0E0,0E0,0E0,0E0,0E0,0E0,0E0,0E0,0E0,0E0,0E0,0E0,0E0,0E0,0E0,0E0,0E0,0E0,0E0,0E0,0E0,0E0,0E0,0E0,0E0,0E0,0E0,0E0,0E0,0E0,0E0,0E0,0E0,0E0,0E0,0E0,0E0,0E0,0E0,0E0,0E0,0E0,0E0,0E0,0E0,0E0,0E0,0E0,0E0,0E0,0E0,0E0,0E0,0E0],"parents":[2147483647,0,0,1,1,2,2,3,3,4,4,5,5,6,6,7,7,8,8,9,9,10,10,11,11,12,12,13,13,14,14,15,15,16,16,17,17,18,18,19,19,20,20,21,21,22,22,23,23,24,24,25,25,26,26,27,27,28,28,29,29,30,30,31,31,32,32,33,33,34,34,35,35,36,36,37,37,38,38,39,39,40,40,41,41,42,42,43,43,45,45,46,46,47,47,48,48,49,49,50,50,51,51,52,52,53,53,54,54,55,55,56,56,57,57,58,58,59,59,61,61,62,62],"right_children":[2,4,6,8,10,12,14,16,18,20,22,24,26,28,30,32,34,36,38,40,42,44,46,48,50,52,54,56,58,60,62,64,66,68,70,72,74,76,78,80,82,84,86,88,-1,90,92,94,96,98,100,102,104,106,108,110,112,114,116,118,-1,120,122,-1,-1,-1,-1,-1,-1,-1,-1,-1,-1,-1,-1,-1,-1,-1,-1,-1,-1,-1,-1,-1,-1,-1,-1,-1,-1,-1,-1,-1,-1,-1,-1,-1,-1,-1,-1,-1,-1,-1,-1,-1,-1,-1,-1,-1,-1,-1,-1,-1,-1,-1,-1,-1,-1,-1,-1,-1,-1,-1,-1],"split_conditions":[1.5453324E-2,6.2468314E-1,1.4648954E0,-1.2945912E0,1.8135801E-1,1.01514414E-1,1.2603588E0,5.199095E-1,-1.2887325E0,2.094396E0,-2.991178E-1,-1.0603857E0,1.0544774E-1,-4.190104E-1,4.348227E-1,-2.357975E-1,2.731736E-2,-1.2607838E0,5.515689E-1,8.133405E-1,1.0165035E0,8.831202E-1,1.6856928E0,-5.004717E-1,-8.8405097E-1,-1.0191696E0,3.598554E-1,-1.3072126E0,9.437048E-1,1.6033905E0,-1.0262349E-1,-1.4078927E-1,1.1653959E0,-1.3127068E0,-1.4459473E-1,-7.718399E-2,1.1494615E0,-4.8969918E-1,1.4428346E0,-8.385807E-1,1.6938215E0,5.1102483E-1,2.09557E0,-8.600679E-1,-7.488915E-1,-1.8864666E0,1.6444287E-1,-1.376293E0,2.0912564E-1,1.7043349E-1,-3.6760843E-1,-1.2917434E0,-7.20724E-1,-2.8875852E-1,-9.8030317E-1,3.3414024E-1,-2.4089992E-1,-5.349951E-1,2.7066858E0,9.324157E-2,3.4831655E0,-1.531939E0,-1.2370515E0,2.2782798E0,1.9043884E0,2.4215755E0,7.6478857E-1,1.480863E0,2.2473872E0,2.0450191E0,1.6155642E0,1.7610409E0,9.8740447E-1,2.131198E0,2.3567145E0,2.167177E0,1.9133726E0,1.7389107E0,2.5611722E0,1.3112487E0,2.3261392E0,2.5545015E0,-3.883395E-1,2.6907518E0,2.8919046E0,2.6040118E0,1.3627517E0,1.493317E0,2.1539662E0,2.688624E0,2.250854E0,8.6323684E-1,4.606838E-2,3.7612468E-1,1.933498E0,1.7964028E0,2.900045E0,1.2623643E0,2.0071466E0,1.6933752E0,1.3628474E0,3.5143387E-1,2.0042078E0,1.7046753E0,1.2605814E0,2.398185E0,2.0272932E0,1.9307693E0,1.43228E0,1.5586376E-2,1.6106787E0,2.7262635E0,2.7627906E-1,1.4646266E0,1.2394028E0,1.0211967E0,2.9106128E0,1.847452E0,5.45573E-1,1.4171425E0,9.8249596E-1,7.608873E-1,1.1389366E0],"split_indices":[173,86,7,173,109,143,117,0,4,36,101,5,24,74,10,183,38,37,141,157,39,9,7,164,187,4,0,29,168,51,127,62,40,129,134,108,79,18,44,65,40,75,1,13,0,167,0,129,57,24,167,129,181,103,176,8,4,167,53,5,0,128,180,0,0,0,0,0,0,0,0,0,0,0,0,0,0,0,0,0,0,0,0,0,0,0,0,0,0,0,0,0,0,0,0,0,0,0,0,0,0,0,0,0,0,0,0,0,0,0,0,0,0,0,0,0,0,0,0,0,0,0,0],"split_type":[0,0,0,0,0,0,0,0,0,0,0,0,0,0,0,0,0,0,0,0,0,0,0,0,0,0,0,0,0,0,0,0,0,0,0,0,0,0,0,0,0,0,0,0,0,0,0,0,0,0,0,0,0,0,0,0,0,0,0,0,0,0,0,0,0,0,0,0,0,0,0,0,0,0,0,0,0,0,0,0,0,0,0,0,0,0,0,0,0,0,0,0,0,0,0,0,0,0,0,0,0,0,0,0,0,0,0,0,0,0,0,0,0,0,0,0,0,0,0,0,0,0,0],"sum_hessian":[2.1275E4,1.3761E4,7.514E3,7.102E3,6.659E3,4.675E3,2.839E3,2.903E3,4.199E3,5.838E3,8.21E2,2.261E3,2.414E3,1.71E3,1.129E3,2.243E3,6.6E2,2.59E3,1.609E3,3.322E3,2.516E3,1.32E2,6.89E2,1.6E2,2.101E3,8.3E2,1.584E3,4.7E1,1.663E3,2.1E1,1.108E3,6.41E2,1.602E3,3.79E2,2.81E2,9.1E1,2.499E3,1.1E3,5.09E2,5.36E2,2.786E3,1.406E3,1.11E3,1.31E2,1E0,6.84E2,5E0,1E2,6E1,2.99E2,1.802E3,2.4E2,5.9E2,8.33E2,7.51E2,2E1,2.7E1,1.372E3,2.91E2,1.7E1,4E0,3.33E2,7.75E2,5.4E2,1.01E2,1.598E3,4E0,2E1,3.59E2,1.84E2,9.7E1,6.7E1,2.4E1,2.124E3,3.75E2,4.46E2,6.54E2,4.94E2,1.5E1,1.4E1,5.22E2,2.784E3,2E0,6.04E2,8.02E2,1.097E3,1.3E1,4.5E1,8.6E1,7.1E1,6.13E2,4E0,1E0,5E0,9.5E1,1.9E1,4.1E1,2.75E2,2.4E1,1.514E3,2.88E2,5E0,2.35E2,4.97E2,9.3E1,1.74E2,6.59E2,6.83E2,6.8E1,3E0,1.7E1,2.6E1,1E0,7.39E2,6.33E2,2.88E2,3E0,1.2E1,5E0,7.4E1,2.59E2,7.01E2,7.4E1],"tree_param":{"num_deleted":"0","num_feature":"192","num_nodes":"123","size_leaf_vector":"0"}},{"base_weights":[1.8618929E1,2.0819908E1,1.3130944E1,1.894369E1,2.2927118E1,9.149723E0,1.4802037E1,1.9834911E1,1.7168436E1,2.3322933E1,2.0185184E1,1.3027802E1,8.464598E0,1.6200611E1,1.3132747E1,1.8631565E1,2.05454E1,1.760979E1,1.4695245E1,2.1952885E1,2.4039978E1,2.2214874E1,1.9039358E1,1.2226754E1,2.1905571E1,6.774487E0,9.471608E0,1.7525248E1,1.5098408E1,1.489353E1,1.2454859E1,1.8809675E1,1.2775126E1,1.691482E1,2.0782747E1,1.8700317E1,1.6558273E1,1.7111214E1,1.3503687E1,1.9971281E1,2.2451086E1,2.4251238E1,2.1071148E1,2.2425653E1,4.3664293E0,1.6303558E1,2.0274496E1,9.990318E0,1.4133367E1,2.4768126E1,7.7917686E0,6.705837E0,2.3158468E1,7.2806325E0,1.0327225E1,1.4796305E1,1.8117294E1,1.4762075E1,1.9326986E1,1.4313383E1,2.0062735E1,1.177341E1,1.4209152E1,1.5031889E1,1.9024883E1,8.629542E0,1.6909431E1,7.032317E0,1.7320314E1,2.1180992E1,1.9196482E1,1.791369E1,2.0558184E1,1.4105608E1,1.7136938E1,2.0827784E1,1.4621379E1,-3.2640572E0,1.3695684E1,2.0048834E1,-7.1144695E0,2.2719898E1,1.8115469E1,2.3776115E1,2.5705862E1,1.3093513E0,2.1353832E1,2.2633633E1,9.952017E0,9.145949E0,-1.8685671E0,1.6618484E1,-2.3376846E0,1.1048554E1,2.0530699E1,6.7889833E0,1.21653385E1,1.6440695E1,1.0808975E1,2.7346155E1,9.552988E0,8.660163E0,6.2870417E0,1.1286268E1,6.8132935E0,2.2709034E1,1.0166606E1,1.4971582E1,-9.428532E0,-3.8161228E0,1.817287E1,1.6301033E1,1.3420968E1,1.6409642E0,2.0336163E1,1.4594494E1,4.4573E0,6.518883E0,2.1687609E1,1.2088709E1,7.770165E0,1.3640283E1,2.0001661E1],"categories":[],"categories_nodes":[],"categories_segments":[],"categories_sizes":[],"default_left":[1,1,1,1,1,1,1,1,1,1,1,1,1,1,1,1,1,1,1,1,1,1,1,1,1,1,1,1,1,1,1,1,1,1,1,1,1,1,1,1,1,1,1,1,1,1,1,1,1,1,0,1,0,1,1,1,1,1,1,1,1,1,1,0,0,0,0,0,0,0,0,0,0,0,0,0,0,0,0,0,0,0,0,0,0,0,0,0,0,0,0,0,0,0,0,0,0,0,0,0,0,0,0,0,0,0,0,0,0,0,0,0,0,0,0,0,0,0,0,0,0,0,0],"id":11,"left_children":[1,3,5,7,9,11,13,15,17,19,21,23,25,27,29,31,33,35,37,39,41,43,45,47,49,51,53,55,57,59,61,63,65,67,69,71,73,75,77,79,81,83,85,87,89,91,93,95,97,99,-1,101,-1,103,105,107,109,111,113,115,117,119,121,-1,-1,-1,-1,-1,-1,-1,-1,-1,-1,-1,-1,-1,-1,-1,-1,-1,-1,-1,-1,-1,-1,-1,-1,-1,-1,-1,-1,-1,-1,-1,-1,-1,-1,-1,-1,-1,-1,-1,-1,-1,-1,-1,-1,-1,-1,-1,-1,-1,-1,-1,-1,-1,-1,-1,-1,-1,-1,-1,-1],"loss_changes":[2.567185E5,5.95965E4,4.040125E4,1.237675E4,7.286E3,4.6828906E3,9.8028125E3,4.18725E3,2.6818125E3,5.6015E3,1.6910938E3,1.6451641E3,2.5500469E3,3.1373125E3,2.1551562E3,1.840625E3,2.536125E3,2.3060625E3,9.607344E2,1.679E3,2.05125E3,1.1134531E3,1.6563594E3,9.205469E2,6.5544434E2,4.936914E2,1.7244609E3,1.4315938E3,1.5336875E3,1.3322344E3,1.5326562E3,1.286375E3,9.167031E2,7.237422E2,1.577625E3,1.2568438E3,1.4188125E3,9.2620703E2,9.525664E2,1.0710625E3,1.586125E3,2.01975E3,1.530625E3,5.997344E2,1.6609125E2,1.1425273E3,7.210156E2,7.3904004E2,8.3479297E2,4.0558984E2,0E0,4.1698633E2,0E0,4.3415625E2,1.1373906E3,9.6065234E2,1.1176562E3,2.2351875E3,1.5908281E3,1.2897969E3,1.0029883E3,1.2061562E3,1.0221797E3,0E0,0E0,0E0,0E0,0E0,0E0,0E0,0E0,0E0,0E0,0E0,0E0,0E0,0E0,0E0,0E0,0E0,0E0,0E0,0E0,0E0,0E0,0E0,0E0,0E0,0E0,0E0,0E0,0E0,0E0,0E0,0E0,0E0,0E0,0E0,0E0,0E0,0E0,0E0,0E0,0E0,0E0,0E0,0E0,0E0,0E0,0E0,0E0,0E0,0E0,0E0,0E0,0E0,0E0,0E0,0E0,0E0,0E0,0E0,0E0],"parents":[2147483647,0,0,1,1,2,2,3,3,4,4,5,5,6,6,7,7,8,8,9,9,10,10,11,11,12,12,13,13,14,14,15,15,16,16,17,17,18,18,19,19,20,20,21,21,22,22,23,23,24,24,25,25,26,26,27,27,28,28,29,29,30,30,31,31,32,32,33,33,34,34,35,35,36,36,37,37,38,38,39,39,40,40,41,41,42,42,43,43,44,44,45,45,46,46,47,47,48,48,49,49,51,51,53,53,54,54,55,55,56,56,57,57,58,58,59,59,60,60,61,61,62,62],"right_children":[2,4,6,8,10,12,14,16,18,20,22,24,26,28,30,32,34,36,38,40,42,44,46,48,50,52,54,56,58,60,62,64,66,68,70,72,74,76,78,80,82,84,86,88,90,92,94,96,98,100,-1,102,-1,104,106,108,110,112,114,116,118,120,122,-1,-1,-1,-1,-1,-1,-1,-1,-1,-1,-1,-1,-1,-1,-1,-1,-1,-1,-1,-1,-1,-1,-1,-1,-1,-1,-1,-1,-1,-1,-1,-1,-1,-1,-1,-1,-1,-1,-1,-1,-1,-1,-1,-1,-1,-1,-1,-1,-1,-1,-1,-1,-1,-1,-1,-1,-1,-1,-1,-1],"split_conditions":[-3.8327324E-1,2.0885673E-1,4.8562655E-1,-1.2893522E0,-6.989528E-1,-3.4235162E-1,6.4356565E-2,-2.9477817E-1,5.0585485E-1,1.4729166E0,-9.8004684E-2,5.9259105E-1,-8.365665E-1,-8.94917E-1,1.3258842E0,-3.502668E-1,3.4756547E-1,2.1137106E-1,-1.568468E-2,-1.4279387E0,-9.4818246E-1,3.4538233E-1,8.0723923E-1,2.5317413E-1,1.7729101E0,1.6824331E0,-1.2952728E0,-8.354962E-3,8.778695E-1,1.1952581E0,-6.442981E-1,1.4675868E-1,-3.5865062E-1,-6.4088273E-1,-6.271503E-1,3.5474104E-1,3.9434475E-1,1.646716E-1,-4.7986165E-1,1.5676012E0,-1.1123562E-1,1.9409367E0,-1.6408159E-1,4.5773262E-1,-1.2172658E-2,8.627555E-2,3.444507E-1,1.5407706E0,-6.7787606E-1,6.240077E-1,7.791769E-1,1.176513E0,2.315847E0,1.9021928E-1,2.8745908E-1,-5.1255643E-1,-3.8160592E-1,-8.957648E-1,-1.1771963E0,-3.586925E-1,-8.6565435E-1,-7.937515E-2,5.871612E-2,1.503189E0,1.9024884E0,8.6295426E-1,1.6909431E0,7.0323175E-1,1.7320315E0,2.1180992E0,1.9196482E0,1.7913691E0,2.0558183E0,1.4105608E0,1.7136939E0,2.0827785E0,1.4621379E0,-3.2640573E-1,1.3695685E0,2.0048835E0,-7.1144694E-1,2.2719898E0,1.8115469E0,2.3776116E0,2.5705862E0,1.3093513E-1,2.1353834E0,2.2633634E0,9.952017E-1,9.1459495E-1,-1.8685672E-1,1.6618484E0,-2.3376846E-1,1.1048554E0,2.0530698E0,6.7889833E-1,1.2165339E0,1.6440696E0,1.0808976E0,2.7346156E0,9.5529884E-1,8.660163E-1,6.287042E-1,1.1286268E0,6.8132937E-1,2.2709033E0,1.0166606E0,1.4971583E0,-9.4285315E-1,-3.8161227E-1,1.8172871E0,1.6301033E0,1.3420968E0,1.6409642E-1,2.0336163E0,1.4594494E0,4.4573003E-1,6.518883E-1,2.168761E0,1.2088709E0,7.770165E-1,1.3640283E0,2.0001662E0],"split_indices":[144,22,25,4,176,191,145,150,103,36,95,55,21,4,16,2,27,10,30,156,167,160,189,21,135,104,101,174,27,28,101,147,62,40,188,3,175,188,32,7,145,108,70,3,5,96,3,7,167,21,0,81,0,115,74,14,144,145,114,126,176,167,15,0,0,0,0,0,0,0,0,0,0,0,0,0,0,0,0,0,0,0,0,0,0,0,0,0,0,0,0,0,0,0,0,0,0,0,0,0,0,0,0,0,0,0,0,0,0,0,0,0,0,0,0,0,0,0,0,0,0,0,0],"split_type":[0,0,0,0,0,0,0,0,0,0,0,0,0,0,0,0,0,0,0,0,0,0,0,0,0,0,0,0,0,0,0,0,0,0,0,0,0,0,0,0,0,0,0,0,0,0,0,0,0,0,0,0,0,0,0,0,0,0,0,0,0,0,0,0,0,0,0,0,0,0,0,0,0,0,0,0,0,0,0,0,0,0,0,0,0,0,0,0,0,0,0,0,0,0,0,0,0,0,0,0,0,0,0,0,0,0,0,0,0,0,0,0,0,0,0,0,0,0,0,0,0,0,0],"sum_hessian":[2.1275E4,1.5183E4,6.092E3,8.037E3,7.146E3,1.803E3,4.289E3,5.344E3,2.693E3,6.238E3,9.08E2,2.68E2,1.535E3,2.329E3,1.96E3,1.994E3,3.35E3,2.28E3,4.13E2,2.154E3,4.084E3,3.21E2,5.87E2,2.48E2,2E1,5.76E2,9.59E2,1.051E3,1.278E3,5.39E2,1.421E3,1.933E3,6.1E1,2.1E2,3.14E3,1.111E3,1.169E3,1.32E2,2.81E2,4.41E2,1.713E3,3.806E3,2.78E2,3.17E2,4E0,1.87E2,4E2,1.17E2,1.31E2,1.6E1,4E0,5.75E2,1E0,2.72E2,6.87E2,1.92E2,8.59E2,1.188E3,9E1,4.88E2,5.1E1,1.029E3,3.92E2,1.08E2,1.825E3,3.2E1,2.9E1,9E0,2.01E2,2.5E3,6.4E2,7.88E2,3.23E2,2.28E2,9.41E2,5E1,8.2E1,3E0,2.78E2,4.4E2,1E0,1.609E3,1.04E2,2.882E3,9.24E2,4E0,2.74E2,3.11E2,6E0,2E0,2E0,1.84E2,3E0,1.2E1,3.88E2,4.9E1,6.8E1,7.5E1,5.6E1,1.3E1,3E0,9.8E1,4.77E2,2.6E1,2.46E2,7E0,6.8E2,1.91E2,1E0,2E0,8.57E2,5.48E2,6.4E2,5E0,8.5E1,4.74E2,1.4E1,6E0,4.5E1,9.52E2,7.7E1,3.6E2,3.2E1],"tree_param":{"num_deleted":"0","num_feature":"192","num_nodes":"123","size_leaf_vector":"0"}},{"base_weights":[1.6760815E1,1.9163858E1,1.266661E1,2.1012886E1,1.7889336E1,1.4673814E1,9.410792E0,1.9956144E1,2.2060015E1,1.4713574E1,1.8232164E1,1.6027905E1,1.3373127E1,7.172267E0,1.0798601E1,1.9051033E1,2.1512783E1,2.2293076E1,1.876519E1,1.2137823E1,1.5844835E1,1.7237535E1,1.9124523E1,1.6680141E1,1.2462384E1,1.4291449E1,1.2413903E1,6.584844E0,9.606076E0,1.1656703E1,9.498052E0,1.8627865E1,2.1597029E1,2.1580452E1,6.7504673E0,2.2880238E1,2.1163225E1,1.900937E1,-2.5477169E0,1.013968E1,1.4564082E1,4.8178325E0,1.6002192E1,1.7398006E1,1.3102783E1,2.0389847E1,1.8579384E1,1.0165664E1,1.6800581E1,7.689467E0,1.3429193E1,1.7029314E1,1.3821545E1,1.1871246E1,1.6253014E1,1.3098931E1,6.405611E0,2.2846186E1,9.195723E0,1.0069756E1,1.2676911E1,1.7126217E1,9.306348E0,7.7395053E0,1.8710752E1,2.2003635E1,2.0043602E0,2.1824203E1,1.6854748E1,8.377963E0,2.3303173E0,2.1669285E1,2.3646059E1,1.1582992E1,2.1292767E1,1.9151724E1,-3.5918427E0,3.439659E0,-7.2612343E0,-5.6267977E0,1.0660079E1,4.8262277E-1,1.5249619E1,-1.9360037E0,8.517418E0,-9.166501E-1,1.6068014E1,1.7591244E1,1.42280655E1,-6.3880386E0,1.3301851E1,2.0647003E1,1.5397996E1,2.0314611E1,1.8104418E1,1.3469522E1,5.0977573E0,1.7050686E1,1.4102652E1,6.4908257E0,1.4426476E1,-8.957106E0,1.3531289E1,1.9305325E1,1.5035391E1,1.3511285E1,1.8482378E1,1.1711878E1,1.8108994E1,6.472305E0,1.7299568E1,1.5407356E1,1.245446E0,5.3994513E0,7.1445565E0,-1.0562267E0,2.7837914E1,8.479788E0,1.547398E1,5.1174364E0,1.044563E1,4.2652755E0,1.2888393E1,9.5291195E0,2.28204E1,9.156576E0,1.820909E1],"categories":[],"categories_nodes":[],"categories_segments":[],"categories_sizes":[],"default_left":[1,1,1,1,1,1,1,1,1,1,1,1,1,1,1,1,1,1,1,1,1,1,1,1,1,1,1,1,1,1,1,1,1,1,1,1,1,1,1,1,1,1,1,1,1,1,1,1,1,1,1,1,1,1,1,1,1,1,1,1,1,1,1,0,0,0,0,0,0,0,0,0,0,0,0,0,0,0,0,0,0,0,0,0,0,0,0,0,0,0,0,0,0,0,0,0,0,0,0,0,0,0,0,0,0,0,0,0,0,0,0,0,0,0,0,0,0,0,0,0,0,0,0,0,0,0,0],"id":12,"left_children":[1,3,5,7,9,11,13,15,17,19,21,23,25,27,29,31,33,35,37,39,41,43,45,47,49,51,53,55,57,59,61,63,65,67,69,71,73,75,77,79,81,83,85,87,89,91,93,95,97,99,101,103,105,107,109,111,113,115,117,119,121,123,125,-1,-1,-1,-1,-1,-1,-1,-1,-1,-1,-1,-1,-1,-1,-1,-1,-1,-1,-1,-1,-1,-1,-1,-1,-1,-1,-1,-1,-1,-1,-1,-1,-1,-1,-1,-1,-1,-1,-1,-1,-1,-1,-1,-1,-1,-1,-1,-1,-1,-1,-1,-1,-1,-1,-1,-1,-1,-1,-1,-1,-1,-1,-1,-1],"loss_changes":[2.090825E5,3.12145E4,5.1306125E4,5.606E3,8.3785E3,8.3593125E3,9.258031E3,3.4365E3,1.681875E3,2.0775625E3,6.029E3,5.327E3,2.015125E3,1.5851641E3,1.9572344E3,1.467E3,8.4928125E2,1.20675E3,1.0216094E3,1.025543E3,8.564219E2,2.026625E3,2.2195E3,1.4054375E3,1.613332E3,1.3920625E3,2.359125E3,1.0042383E3,9.960664E2,1.6727031E3,9.256797E2,1.2044062E3,1.8758125E3,7.736875E2,2.3639313E1,1.0316875E3,8.516875E2,6.640078E2,1.09640976E2,1.1758438E3,1.0255488E3,2.4136728E2,6.049531E2,1.7515625E3,5.9325195E2,1.1249375E3,1.8113125E3,5.843379E2,1.0895625E3,4.312517E2,8.2514844E2,5.3115234E2,1.3192812E3,8.585469E2,1.4132031E3,6.3752E2,6.372617E2,7.452893E2,8.441621E2,7.6558203E2,1.1422344E3,5.179492E2,8.012969E2,0E0,0E0,0E0,0E0,0E0,0E0,0E0,0E0,0E0,0E0,0E0,0E0,0E0,0E0,0E0,0E0,0E0,0E0,0E0,0E0,0E0,0E0,0E0,0E0,0E0,0E0,0E0,0E0,0E0,0E0,0E0,0E0,0E0,0E0,0E0,0E0,0E0,0E0,0E0,0E0,0E0,0E0,0E0,0E0,0E0,0E0,0E0,0E0,0E0,0E0,0E0,0E0,0E0,0E0,0E0,0E0,0E0,0E0,0E0,0E0,0E0,0E0,0E0,0E0],"parents":[2147483647,0,0,1,1,2,2,3,3,4,4,5,5,6,6,7,7,8,8,9,9,10,10,11,11,12,12,13,13,14,14,15,15,16,16,17,17,18,18,19,19,20,20,21,21,22,22,23,23,24,24,25,25,26,26,27,27,28,28,29,29,30,30,31,31,32,32,33,33,34,34,35,35,36,36,37,37,38,38,39,39,40,40,41,41,42,42,43,43,44,44,45,45,46,46,47,47,48,48,49,49,50,50,51,51,52,52,53,53,54,54,55,55,56,56,57,57,58,58,59,59,60,60,61,61,62,62],"right_children":[2,4,6,8,10,12,14,16,18,20,22,24,26,28,30,32,34,36,38,40,42,44,46,48,50,52,54,56,58,60,62,64,66,68,70,72,74,76,78,80,82,84,86,88,90,92,94,96,98,100,102,104,106,108,110,112,114,116,118,120,122,124,126,-1,-1,-1,-1,-1,-1,-1,-1,-1,-1,-1,-1,-1,-1,-1,-1,-1,-1,-1,-1,-1,-1,-1,-1,-1,-1,-1,-1,-1,-1,-1,-1,-1,-1,-1,-1,-1,-1,-1,-1,-1,-1,-1,-1,-1,-1,-1,-1,-1,-1,-1,-1,-1,-1,-1,-1,-1,-1,-1,-1,-1,-1,-1,-1],"split_conditions":[2.050441E-1,-1.3138647E0,1.2837303E0,1.0243454E0,-3.3626372E-1,-1.0598545E0,3.3195677E-1,1.76E0,-4.610176E-1,5.845194E-1,7.283268E-1,-4.5421928E-1,-9.087541E-1,-1.2291913E0,-5.005449E-1,1.0326436E0,-1.7338833E-1,-1.5044692E0,2.115675E0,6.853122E-1,-7.940507E-1,3.5441154E-1,-1.3603812E0,-2.1408246E0,-2.8796282E-1,-3.7399006E-1,8.486819E-1,-4.5412102E-1,-9.9753356E-1,1.1670891E0,-4.947582E-1,2.2044696E-2,1.1222996E0,1.4407318E0,9.672662E-1,-6.661001E-2,-9.84475E-1,2.1853552E0,-1.2202781E0,8.882098E-1,-1.1964027E0,1.5513434E0,3.3877075E-1,9.760203E-1,-1.804587E-1,-1.4138764E-1,6.213621E-3,1.5918829E-1,4.599666E-1,-5.5178034E-1,-9.940684E-3,1.1082793E0,2.2659734E-1,-1.0478343E-1,-5.6317675E-1,3.1638455E0,-8.589104E-1,1.974845E-1,7.3412335E-1,5.7860214E-1,-4.8637322E-1,-4.994237E-1,6.3700986E-1,7.739505E-1,1.8710753E0,2.2003636E0,2.0043603E-1,2.1824205E0,1.6854748E0,8.3779633E-1,2.3303173E-1,2.1669285E0,2.364606E0,1.1582992E0,2.1292768E0,1.9151725E0,-3.5918427E-1,3.4396592E-1,-7.2612345E-1,-5.6267977E-1,1.066008E0,4.826228E-2,1.5249618E0,-1.9360037E-1,8.517418E-1,-9.1665015E-2,1.6068014E0,1.7591244E0,1.4228066E0,-6.388039E-1,1.3301852E0,2.0647004E0,1.5397996E0,2.0314612E0,1.8104419E0,1.3469523E0,5.0977576E-1,1.7050686E0,1.4102652E0,6.490826E-1,1.4426476E0,-8.957106E-1,1.3531289E0,1.9305325E0,1.5035391E0,1.3511285E0,1.8482379E0,1.1711878E0,1.8108994E0,6.472305E-1,1.7299569E0,1.5407356E0,1.245446E-1,5.399451E-1,7.1445566E-1,-1.0562267E-1,2.7837913E0,8.479788E-1,1.547398E0,5.1174366E-1,1.044563E0,4.2652756E-1,1.2888393E0,9.52912E-1,2.28204E0,9.1565764E-1,1.8209089E0],"split_indices":[10,74,17,44,101,4,25,143,145,60,157,18,145,180,167,187,106,128,1,174,183,188,176,103,21,42,27,106,129,1,171,191,15,48,15,13,115,7,0,39,122,1,67,16,15,145,159,30,112,100,161,147,120,22,111,6,152,1,166,1,108,34,119,0,0,0,0,0,0,0,0,0,0,0,0,0,0,0,0,0,0,0,0,0,0,0,0,0,0,0,0,0,0,0,0,0,0,0,0,0,0,0,0,0,0,0,0,0,0,0,0,0,0,0,0,0,0,0,0,0,0,0,0,0,0,0,0],"split_type":[0,0,0,0,0,0,0,0,0,0,0,0,0,0,0,0,0,0,0,0,0,0,0,0,0,0,0,0,0,0,0,0,0,0,0,0,0,0,0,0,0,0,0,0,0,0,0,0,0,0,0,0,0,0,0,0,0,0,0,0,0,0,0,0,0,0,0,0,0,0,0,0,0,0,0,0,0,0,0,0,0,0,0,0,0,0,0,0,0,0,0,0,0,0,0,0,0,0,0,0,0,0,0,0,0,0,0,0,0,0,0,0,0,0,0,0,0,0,0,0,0,0,0,0,0,0,0],"sum_hessian":[2.1275E4,1.3404E4,7.871E3,5.463E3,7.941E3,4.867E3,3.004E3,2.729E3,2.734E3,7.78E2,7.163E3,2.379E3,2.488E3,1.152E3,1.852E3,1.734E3,9.95E2,2.548E3,1.86E2,2.41E2,5.37E2,3.397E3,3.766E3,2.008E3,3.71E2,1.264E3,1.224E3,9.31E2,2.21E2,1.111E3,7.41E2,1.494E3,2.4E2,9.9E2,5E0,1.664E3,8.84E2,1.84E2,2E0,1.35E2,1.06E2,8E0,5.29E2,3.267E3,1.3E2,1.123E3,2.643E3,3.8E1,1.97E3,6.4E1,3.07E2,1.8E2,1.084E3,1.076E3,1.48E2,2.3E1,9.08E2,5E0,2.16E2,4.39E2,6.72E2,1.6E1,7.25E2,1.2E1,1.482E3,2.35E2,5E0,9.38E2,5.2E1,3E0,2E0,6.56E2,1.008E3,1.3E1,8.71E2,1.83E2,1E0,1E0,1E0,4E0,1.31E2,5E0,1.01E2,3E0,5E0,2E0,5.27E2,3.075E3,1.92E2,1E0,1.29E2,1.065E3,5.8E1,5.59E2,2.084E3,2.2E1,1.6E1,1.798E3,1.72E2,5.6E1,8E0,1E0,3.06E2,8E1,1E2,1.02E3,6.4E1,1.052E3,2.4E1,1.5E1,1.33E2,1.9E1,4E0,3.88E2,5.2E2,1E0,4E0,1.96E2,2E1,3.2E1,4.07E2,1.7E1,6.55E2,8E0,8E0,7.15E2,1E1],"tree_param":{"num_deleted":"0","num_feature":"192","num_nodes":"127","size_leaf_vector":"0"}},{"base_weights":[1.5088084E1,1.7034687E1,1.0989609E1,1.5765474E1,1.877718E1,1.2891396E1,8.341975E0,1.6404732E1,1.399481E1,1.9391771E1,1.6972816E1,1.14404745E1,1.3905624E1,6.4404073E0,9.600068E0,1.5458807E1,1.7276237E1,1.243776E1,1.4771766E1,1.945439E1,1.0806462E1,1.8530306E1,1.5656404E1,7.4711742E0,1.1764593E1,1.4760016E1,1.2599517E1,5.9160013E0,8.630745E0,1.0388491E1,8.467553E0,1.5974036E1,1.3275644E1,1.681274E1,1.925501E1,1.279704E1,7.066021E0,1.0675709E1,1.5129396E1,1.9195244E1,2.1167845E1,-4.6231165E0,1.2946508E1,1.6198105E1,1.9480371E1,1.5795744E1,6.8746104E0,6.9754553E0,2.0970673E1,1.2123654E1,8.880067E0,8.779804E0,1.4923728E1,1.3343044E1,1.0994027E1,1.1858425E1,5.7516937E0,2.1007929E1,8.243391E0,1.40826645E1,9.913123E0,9.440158E0,7.032942E0,1.6104958E1,1.2057667E1,-1.1350724E1,1.3382528E1,1.7560349E1,1.5874197E1,1.932375E1,-7.967148E-1,2.4514412E1,1.2642863E1,3.1380516E-1,8.000893E0,8.861322E0,1.5501756E1,2.3524387E1,1.4998878E1,1.9776623E1,1.8291538E1,2.1289762E1,8.146613E0,1.3591385E-1,-7.841108E0,7.297348E0,1.6621048E1,1.6558348E1,-6.4939785E0,2.0059647E1,1.4260017E1,1.6732096E1,1.4339564E1,1.15475645E1,-1.15560256E-1,7.3083267E0,-4.8377705E0,1.0440317E1,1.2822174E1,8.521112E0,2.6260752E1,1.0098974E1,-3.786551E-1,1.3918886E1,1.5739606E1,1.3416272E1,-6.5069566E0,1.2595489E1,8.574063E0,9.270301E0,2.6885191E1,6.2436733E0,4.3566723E0,2.8658165E1,3.8049705E0,2.057049E1,7.850061E0,1.7869078E1,1.1409167E1,1.4521462E1,9.624961E0,1.0708242E1,7.1866956E0,6.828708E0,2.0030565E1],"categories":[],"categories_nodes":[],"categories_segments":[],"categories_sizes":[],"default_left":[1,1,1,1,1,1,1,1,1,1,1,1,1,1,1,1,1,1,1,1,1,1,1,1,1,1,1,1,1,1,1,1,1,1,1,1,1,1,1,1,1,1,1,1,1,1,1,1,0,1,1,1,1,1,1,1,1,1,1,1,1,1,1,0,0,0,0,0,0,0,0,0,0,0,0,0,0,0,0,0,0,0,0,0,0,0,0,0,0,0,0,0,0,0,0,0,0,0,0,0,0,0,0,0,0,0,0,0,0,0,0,0,0,0,0,0,0,0,0,0,0,0,0,0,0],"id":13,"left_children":[1,3,5,7,9,11,13,15,17,19,21,23,25,27,29,31,33,35,37,39,41,43,45,47,49,51,53,55,57,59,61,63,65,67,69,71,73,75,77,79,81,83,85,87,89,91,93,95,-1,97,99,101,103,105,107,109,111,113,115,117,119,121,123,-1,-1,-1,-1,-1,-1,-1,-1,-1,-1,-1,-1,-1,-1,-1,-1,-1,-1,-1,-1,-1,-1,-1,-1,-1,-1,-1,-1,-1,-1,-1,-1,-1,-1,-1,-1,-1,-1,-1,-1,-1,-1,-1,-1,-1,-1,-1,-1,-1,-1,-1,-1,-1,-1,-1,-1,-1,-1,-1,-1,-1,-1],"loss_changes":[1.695545E5,3.160175E4,3.4403938E4,9.223E3,6.4055E3,5.7080625E3,6.799422E3,4.786375E3,2.504375E3,2.221375E3,2.8899062E3,2.0297344E3,2.4275312E3,1.2641211E3,1.4513906E3,3.1050625E3,2.5946875E3,1.3493125E3,2.0020938E3,1.586875E3,1.2155537E3,1.2465469E3,9.2784375E2,7.0359863E2,1.466625E3,1.249375E3,9.670625E2,8.3690625E2,8.7678906E2,1.6375547E3,9.2846484E2,1.0266875E3,1.6496094E3,1.5356875E3,8.382656E2,9.5103906E2,3.0679956E2,9.309043E2,1.1329375E3,1.692625E3,7.4734375E2,7.7638306E1,5.2221045E2,1.8242109E3,1.213875E3,8.95875E2,4.913056E2,5.2295996E2,0E0,1.4523438E3,8.493125E2,4.8708667E2,9.049375E2,1.0074219E3,1.0585273E3,6.8415356E2,5.932324E2,6.805967E2,8.76124E2,9.400254E2,1.0553906E3,1.1289414E3,6.383457E2,0E0,0E0,0E0,0E0,0E0,0E0,0E0,0E0,0E0,0E0,0E0,0E0,0E0,0E0,0E0,0E0,0E0,0E0,0E0,0E0,0E0,0E0,0E0,0E0,0E0,0E0,0E0,0E0,0E0,0E0,0E0,0E0,0E0,0E0,0E0,0E0,0E0,0E0,0E0,0E0,0E0,0E0,0E0,0E0,0E0,0E0,0E0,0E0,0E0,0E0,0E0,0E0,0E0,0E0,0E0,0E0,0E0,0E0,0E0,0E0,0E0,0E0],"parents":[2147483647,0,0,1,1,2,2,3,3,4,4,5,5,6,6,7,7,8,8,9,9,10,10,11,11,12,12,13,13,14,14,15,15,16,16,17,17,18,18,19,19,20,20,21,21,22,22,23,23,24,24,25,25,26,26,27,27,28,28,29,29,30,30,31,31,32,32,33,33,34,34,35,35,36,36,37,37,38,38,39,39,40,40,41,41,42,42,43,43,44,44,45,45,46,46,47,47,49,49,50,50,51,51,52,52,53,53,54,54,55,55,56,56,57,57,58,58,59,59,60,60,61,61,62,62],"right_children":[2,4,6,8,10,12,14,16,18,20,22,24,26,28,30,32,34,36,38,40,42,44,46,48,50,52,54,56,58,60,62,64,66,68,70,72,74,76,78,80,82,84,86,88,90,92,94,96,-1,98,100,102,104,106,108,110,112,114,116,118,120,122,124,-1,-1,-1,-1,-1,-1,-1,-1,-1,-1,-1,-1,-1,-1,-1,-1,-1,-1,-1,-1,-1,-1,-1,-1,-1,-1,-1,-1,-1,-1,-1,-1,-1,-1,-1,-1,-1,-1,-1,-1,-1,-1,-1,-1,-1,-1,-1,-1,-1,-1,-1,-1,-1,-1,-1,-1,-1,-1,-1,-1,-1,-1],"split_conditions":[3.2084447E-1,9.827613E-1,1.2913864E0,-1.6523916E0,-9.0464836E-1,1.7467594E-1,3.3195677E-1,-4.2212576E-1,-5.722028E-1,1.5480902E0,-1.0272001E-1,5.812958E-2,-1.0598545E0,-1.2291913E0,-5.005449E-1,5.4769325E-1,1.2374022E0,2.5353223E-1,-6.6818297E-1,2.1433473E0,1.5396243E-1,1.0424727E-1,2.889219E-2,1.4103642E-1,-2.8843582E-1,-2.1408246E0,4.5692092E-1,-4.5412102E-1,-9.9753356E-1,-4.5855176E-1,-6.315569E-1,3.907035E-1,-3.1475478E-1,-1.6193786E0,-3.030467E-1,-1.1883078E0,-3.5911214E-1,2.0046973E-1,-6.969136E-1,-1.9151027E0,1.11676395E-1,-1.0751386E0,1.7161553E0,-1.4003184E-1,1.1151364E0,9.6954083E-1,1.3558211E0,-8.0826116E-1,2.0970674E0,-1.0715541E0,1.7031031E0,1.18412964E-1,7.6293844E-1,1.7313011E0,-3.0959943E-1,-3.6146086E-1,-3.5088375E-1,6.023153E-1,-1.2284286E0,-7.864966E-1,-3.6559993E-1,1.7224715E0,3.6115026E-1,1.6104958E0,1.2057667E0,-1.1350725E0,1.3382529E0,1.7560349E0,1.5874197E0,1.932375E0,-7.967148E-2,2.4514413E0,1.2642864E0,3.1380516E-2,8.000893E-1,8.8613224E-1,1.5501755E0,2.3524387E0,1.4998878E0,1.9776623E0,1.8291539E0,2.1289763E0,8.146613E-1,1.3591385E-2,-7.841108E-1,7.2973484E-1,1.6621048E0,1.6558348E0,-6.4939785E-1,2.0059648E0,1.4260018E0,1.6732095E0,1.4339565E0,1.1547564E0,-1.1556026E-2,7.308327E-1,-4.8377705E-1,1.0440317E0,1.2822174E0,8.521113E-1,2.6260753E0,1.0098975E0,-3.7865512E-2,1.3918886E0,1.5739607E0,1.3416272E0,-6.506957E-1,1.2595489E0,8.574063E-1,9.270301E-1,2.6885192E0,6.2436736E-1,4.3566725E-1,2.8658166E0,3.8049707E-1,2.057049E0,7.850061E-1,1.7869078E0,1.1409167E0,1.4521463E0,9.624961E-1,1.0708243E0,7.186696E-1,6.828708E-1,2.0030565E0],"split_indices":[10,36,17,167,176,101,25,36,29,7,95,21,4,180,167,68,172,128,84,44,119,17,158,36,167,103,155,106,129,128,4,112,86,4,41,112,108,51,14,167,19,4,165,12,177,130,165,37,0,129,49,140,28,7,169,44,171,9,180,182,191,174,23,0,0,0,0,0,0,0,0,0,0,0,0,0,0,0,0,0,0,0,0,0,0,0,0,0,0,0,0,0,0,0,0,0,0,0,0,0,0,0,0,0,0,0,0,0,0,0,0,0,0,0,0,0,0,0,0,0,0,0,0,0,0],"split_type":[0,0,0,0,0,0,0,0,0,0,0,0,0,0,0,0,0,0,0,0,0,0,0,0,0,0,0,0,0,0,0,0,0,0,0,0,0,0,0,0,0,0,0,0,0,0,0,0,0,0,0,0,0,0,0,0,0,0,0,0,0,0,0,0,0,0,0,0,0,0,0,0,0,0,0,0,0,0,0,0,0,0,0,0,0,0,0,0,0,0,0,0,0,0,0,0,0,0,0,0,0,0,0,0,0,0,0,0,0,0,0,0,0,0,0,0,0,0,0,0,0,0,0,0,0],"sum_hessian":[2.1275E4,1.4422E4,6.853E3,8.35E3,6.072E3,3.986E3,2.867E3,6.129E3,2.221E3,4.522E3,1.55E3,1.645E3,2.341E3,1.144E3,1.723E3,2.948E3,3.181E3,7.45E2,1.476E3,4.488E3,3.4E1,7.04E2,8.46E2,1.26E2,1.519E3,1.409E3,9.32E2,9.26E2,2.18E2,1.011E3,7.12E2,2.38E3,5.68E2,2.585E3,5.96E2,6.97E2,4.8E1,1.21E2,1.355E3,3.909E3,5.79E2,4E0,3E1,2.09E2,4.95E2,8.32E2,1.4E1,1.23E2,3E0,1.348E3,1.71E2,3.9E1,1.37E3,6.32E2,3E2,2.3E1,9.03E2,5E0,2.13E2,1.12E2,8.99E2,4.21E2,2.91E2,2.3E3,8E1,2E0,5.66E2,1.429E3,1.156E3,5.94E2,2E0,7E0,6.9E2,6E0,4.2E1,9E1,3.1E1,1.8E1,1.337E3,2.366E3,1.543E3,5.73E2,6E0,2E0,2E0,1.3E1,1.7E1,2.06E2,3E0,4.43E2,5.2E1,5E2,3.32E2,8E0,6E0,1.2E2,3E0,4E2,9.48E2,1.69E2,2E0,3.4E1,5E0,6.22E2,7.48E2,6.3E2,2E0,1.78E2,1.22E2,2.1E1,2E0,6.65E2,2.38E2,3E0,2E0,5E0,2.08E2,4.4E1,6.8E1,5E1,8.49E2,2.67E2,1.54E2,2.88E2,3E0],"tree_param":{"num_deleted":"0","num_feature":"192","num_nodes":"125","size_leaf_vector":"0"}},{"base_weights":[1.358264E1,9.817113E0,1.530793E1,1.1654249E1,7.7300563E0,1.3944728E1,1.675018E1,1.2397179E1,1.035287E1,9.176099E0,6.1826425E0,1.446692E1,1.1914009E1,1.7290625E1,1.4772082E1,7.409396E0,1.2588873E1,8.210639E0,1.0728719E1,8.898488E0,1.2794736E1,7.0545173E0,4.960519E0,1.3759046E1,1.5390603E1,1.2301048E1,8.269737E0,1.6628096E1,1.8019257E1,1.621785E1,1.3744097E1,5.048866E0,1.0704773E1,1.8194748E1,1.2440144E1,9.874634E0,6.3025756E0,1.1021343E1,7.754668E0,1.0392247E1,8.097837E0,1.064838E1,1.864458E1,6.798667E0,1.3059157E1,9.530747E0,4.819379E0,1.4033121E1,1.1520247E1,9.5000515E0,1.5474922E1,1.5000982E1,1.191285E1,2.6666609E1,7.843829E0,1.492878E1,1.7091097E1,1.9159433E1,1.7498158E1,1.6393715E1,6.623475E0,1.3160603E1,1.603364E1,1.1433804E0,6.6012683E0,1.1848261E1,5.364468E0,1.6360474E0,1.8476309E1,1.1132763E1,1.2843119E1,2.5190089E0,1.0630349E1,6.7796445E0,-6.245657E0,-1.0854244E-1,1.1099911E1,