{"learner":{"attributes":{"best_iteration":"99","best_ntree_limit":"100","scikit_learn":"{\"n_estimators\": 100, \"objective\": \"reg:squarederror\", \"max_depth\": null, \"max_leaves\": null, \"max_bin\": null, \"grow_policy\": null, \"learning_rate\": 0.1, \"verbosity\": null, \"booster\": null, \"tree_method\": null, \"gamma\": null, \"min_child_weight\": null, \"max_delta_step\": null, \"subsample\": null, \"sampling_method\": null, \"colsample_bytree\": null, \"colsample_bylevel\": null, \"colsample_bynode\": null, \"reg_alpha\": null, \"reg_lambda\": null, \"scale_pos_weight\": null, \"base_score\": null, \"missing\": NaN, \"num_parallel_tree\": null, \"random_state\": null, \"n_jobs\": null, \"monotone_constraints\": null, \"interaction_constraints\": null, \"importance_type\": null, \"gpu_id\": null, \"validate_parameters\": null, \"predictor\": null, \"enable_categorical\": false, \"feature_types\": null, \"max_cat_to_onehot\": null, \"max_cat_threshold\": null, \"eval_metric\": null, \"early_stopping_rounds\": null, \"callbacks\": null, \"_estimator_type\": \"regressor\"}"},"feature_names":[],"feature_types":[],"gradient_booster":{"model":{"gbtree_model_param":{"num_parallel_tree":"1","num_trees":"100","size_leaf_vector":"0"},"tree_info":[0,0,0,0,0,0,0,0,0,0,0,0,0,0,0,0,0,0,0,0,0,0,0,0,0,0,0,0,0,0,0,0,0,0,0,0,0,0,0,0,0,0,0,0,0,0,0,0,0,0,0,0,0,0,0,0,0,0,0,0,0,0,0,0,0,0,0,0,0,0,0,0,0,0,0,0,0,0,0,0,0,0,0,0,0,0,0,0,0,0,0,0,0,0,0,0,0,0,0,0],"trees":[{"base_weights":[5.9698326E1,6.438225E1,4.926858E1,6.658481E1,6.096335E1,4.1086075E1,5.2601845E1,6.757334E1,6.1971638E1,5.403663E1,6.170425E1,4.372578E1,3.4747253E1,5.4725925E1,4.826824E1,6.8287506E1,6.3780533E1,6.2019814E1,1.275E1,5.462218E1,2.78125E1,5.8055252E1,6.272173E1,4.989011E1,4.262636E1,2.4451612E1,3.5917694E1,5.1898724E1,5.6319298E1,5.1101044E1,4.6371147E1,6.942216E1,6.613756E1,6.391474E1,1.7333334E1,6.2068123E1,1.275E1,5.618834E1,4.544318E1,1.125E1,5.811978E1,6.3208714E1,5.7125E1,5.1666668E1,3.2272728E1,4.5555065E1,4.04429E1,6.75E0,2.4816668E1,3.398196E1,4.271E1,1.6E1,5.2000916E1,1.7333334E1,5.6384083E1,1.5666667E1,5.1294735E1,4.6439293E1,7.75E0,6.949015E1,3E1,1.625E1,6.617041E1,6.3991993E1,1.025E1,1.375E1,6.2113907E1,1.7333334E1,5.646154E1,1.9875E1,4.682927E1,4.2133335E1,5.84581E1,1.725E1,6.322507E1,5.8217533E1,3.6636364E1,5.205625E1,1.025E1,2.3142857E1,4.6058823E1,4.089013E1,2.4E1,3.495858E1,2.6326923E1,1.9125E1,4.380851E1,9.75E0,5.206055E1,5.642246E1,1.025E1,9.75E0,5.140669E1,4.665772E1,2.5857143E1],"categories":[],"categories_nodes":[],"categories_segments":[],"categories_sizes":[],"default_left":[1,1,1,1,1,1,1,1,1,1,1,1,1,1,1,1,1,1,0,1,0,1,1,1,1,1,1,1,1,1,1,1,1,1,0,1,0,1,1,0,1,1,1,1,0,1,1,0,0,1,1,0,1,0,1,0,1,1,0,0,0,0,0,0,0,0,0,0,0,0,0,0,0,0,0,0,0,0,0,0,0,0,0,0,0,0,0,0,0,0,0,0,0,0,0],"id":0,"left_children":[1,3,5,7,9,11,13,15,17,19,21,23,25,27,29,31,33,35,-1,37,-1,39,41,43,45,47,49,51,53,55,57,59,61,63,-1,65,-1,67,69,-1,71,73,75,77,-1,79,81,-1,-1,83,85,-1,87,-1,89,-1,91,93,-1,-1,-1,-1,-1,-1,-1,-1,-1,-1,-1,-1,-1,-1,-1,-1,-1,-1,-1,-1,-1,-1,-1,-1,-1,-1,-1,-1,-1,-1,-1,-1,-1,-1,-1,-1,-1],"loss_changes":[4.90332E5,4.8414E4,8.33435E4,1.5088E4,1.0737E4,1.374075E4,1.78305E4,5.044E3,1.00675E3,2.672875E3,5.529E3,2.21075E3,2.4115312E3,3.767E3,1.60725E3,2.497E3,2.414E3,1.01025E3,0E0,1.2705625E3,0E0,1.01325E3,1.6195E3,1.1807031E3,1.6746875E3,3.2810547E1,1.7435938E3,1.178375E3,1.3915E3,1.1661875E3,8.35E2,2.96E3,6.04E2,1.678E3,0E0,8.185E2,0E0,1.3885E3,6.286172E2,0E0,5.17125E2,2.295E2,1.5381875E3,7.733906E2,0E0,1.4969688E3,1.40125E3,0E0,0E0,5.300156E2,4.5758594E2,0E0,8.68125E2,0E0,1.079E3,0E0,8.243125E2,8.30125E2,0E0,0E0,0E0,0E0,0E0,0E0,0E0,0E0,0E0,0E0,0E0,0E0,0E0,0E0,0E0,0E0,0E0,0E0,0E0,0E0,0E0,0E0,0E0,0E0,0E0,0E0,0E0,0E0,0E0,0E0,0E0,0E0,0E0,0E0,0E0,0E0,0E0],"parents":[2147483647,0,0,1,1,2,2,3,3,4,4,5,5,6,6,7,7,8,8,9,9,10,10,11,11,12,12,13,13,14,14,15,15,16,16,17,17,19,19,21,21,22,22,23,23,24,24,25,25,26,26,27,27,28,28,29,29,30,30,31,31,32,32,33,33,35,35,37,37,38,38,40,40,41,41,42,42,43,43,45,45,46,46,49,49,50,50,52,52,54,54,56,56,57,57],"right_children":[2,4,6,8,10,12,14,16,18,20,22,24,26,28,30,32,34,36,-1,38,-1,40,42,44,46,48,50,52,54,56,58,60,62,64,-1,66,-1,68,70,-1,72,74,76,78,-1,80,82,-1,-1,84,86,-1,88,-1,90,-1,92,94,-1,-1,-1,-1,-1,-1,-1,-1,-1,-1,-1,-1,-1,-1,-1,-1,-1,-1,-1,-1,-1,-1,-1,-1,-1,-1,-1,-1,-1,-1,-1,-1,-1,-1,-1,-1,-1],"split_conditions":[-1.2874225E-1,-1.3641055E0,-9.517813E-2,-5.3417486E-1,-2.6406038E-1,6.235963E-1,4.8197162E-1,-1.2897854E0,1.67925E0,4.6496224E-1,-5.062393E-1,-6.007704E-1,-1.1814057E0,1.2339491E0,4.6631023E-1,-1.2185556E-1,3.7325093E-1,7.92363E-1,1.275E0,1.8236029E0,2.78125E0,-1.6449213E-1,-4.203712E-1,1.3008987E0,-2.8586578E-1,-9.2729276E-1,-2.3142219E-1,-1.6696115E0,3.196423E-1,2.9341614E-1,7.766385E-1,4.2076945E-1,-1.7891263E0,3.1348276E-1,1.7333335E0,-6.628759E0,1.275E0,-1.8621418E0,4.0477082E-2,1.125E0,-1.2021713E0,2.0808679E-1,6.778579E-1,5.11958E-1,3.2272727E0,-3.454194E-1,-1.0269185E0,6.75E-1,2.4816668E0,5.29572E-1,3.3734205E-1,1.6E0,-1.4471968E0,1.7333335E0,1.2723486E0,1.5666667E0,-1.5884203E-1,1.3533554E0,7.7500004E-1,6.949015E0,3E0,1.625E0,6.617041E0,6.3991995E0,1.025E0,1.375E0,6.211391E0,1.7333335E0,5.646154E0,1.9875001E0,4.682927E0,4.2133336E0,5.84581E0,1.725E0,6.3225074E0,5.8217535E0,3.6636364E0,5.205625E0,1.025E0,2.3142858E0,4.605882E0,4.089013E0,2.4E0,3.495858E0,2.6326923E0,1.9125E0,4.3808513E0,9.75E-1,5.206055E0,5.642246E0,1.025E0,9.75E-1,5.140669E0,4.665772E0,2.5857143E0],"split_indices":[55,2,48,146,109,141,77,8,5,104,88,126,112,48,46,6,58,128,0,161,0,30,187,149,8,20,25,106,39,45,2,99,164,109,0,186,0,92,26,0,59,30,72,39,0,81,176,0,0,123,26,0,9,0,46,0,38,141,0,0,0,0,0,0,0,0,0,0,0,0,0,0,0,0,0,0,0,0,0,0,0,0,0,0,0,0,0,0,0,0,0,0,0,0,0],"split_type":[0,0,0,0,0,0,0,0,0,0,0,0,0,0,0,0,0,0,0,0,0,0,0,0,0,0,0,0,0,0,0,0,0,0,0,0,0,0,0,0,0,0,0,0,0,0,0,0,0,0,0,0,0,0,0,0,0,0,0,0,0,0,0,0,0,0,0,0,0,0,0,0,0,0,0,0,0,0,0,0,0,0,0,0,0,0,0,0,0,0,0,0,0,0,0],"sum_hessian":[1.0101E4,6.967E3,3.134E3,4.226E3,2.741E3,9.11E2,2.223E3,3.469E3,7.57E2,2.72E2,2.469E3,6.39E2,2.72E2,1.484E3,7.39E2,2.905E3,5.64E2,7.56E2,1E0,2.65E2,7E0,5.51E2,1.918E3,9E1,5.49E2,3E1,2.42E2,5.47E2,9.37E2,2.86E2,4.53E2,1.881E3,1.024E3,5.62E2,2E0,7.55E2,1E0,2.22E2,4.3E1,1E0,5.5E2,1.755E3,1.63E2,8E1,1E1,2.26E2,3.23E2,1E0,2.9E1,1.93E2,4.9E1,2E0,5.45E2,2E0,9.35E2,2E0,2.84E2,4.52E2,1E0,1.877E3,4E0,1E0,1.023E3,5.61E2,1E0,1E0,7.54E2,2E0,2.2E2,3E0,4E1,1.4E1,5.36E2,1E0,1.754E3,1.53E2,1E1,7.9E1,1E0,6E0,2.2E2,3.13E2,1E1,1.68E2,2.5E1,3E0,4.6E1,1E0,5.44E2,9.34E2,1E0,1E0,2.83E2,4.46E2,6E0],"tree_param":{"num_deleted":"0","num_feature":"192","num_nodes":"95","size_leaf_vector":"0"}},{"base_weights":[5.3743675E1,5.7702415E1,4.3728622E1,5.9919575E1,5.4527714E1,3.6984947E1,4.6816948E1,6.109715E1,5.6644627E1,5.586831E1,5.066289E1,3.9376213E1,3.1275219E1,4.849831E1,4.2853565E1,6.196979E1,5.7783978E1,5.7115036E1,4.634343E1,5.1081768E1,5.643424E1,5.1745525E1,4.529803E1,4.500503E1,3.8362244E1,2.210828E1,3.232026E1,4.494127E1,4.952646E1,4.2968918E1,1.5125671E1,4.745422E1,6.2130062E1,1.0275493E1,5.7840134E1,5.714552E1,1.20504E1,4.7317608E1,1.3685092E1,5.1225407E1,8.088746E0,4.7498516E1,5.6705242E1,4.5986145E1,5.2798714E1,4.6472385E1,2.7408062E1,2.0618183E1,4.5889275E1,4.1095264E1,3.6350365E1,2.6170769E1,1.8165089E1,4.7221996E1,3.1406229E1,1.5137434E1,4.517706E1,1.186263E1,4.9586845E1,4.2013123E1,4.822628E1,7.7754927E0,4.8517662E1,6.2192352E1,3.1764227E1,5.8150444E1,4.0558025E1,5.7175945E1,1.21125E1,3.329096E1,4.9805412E1,5.2988087E1,4.316524E1,5.0167E1,2.5616995E1,5.003494E1,5.7028236E1,4.6522373E1,1.1889485E1,5.290341E1,1.656269E1,3.1501743E1,4.773859E1,4.677363E1,2.203117E1,2.4050505E1,4.1699715E1,3.669505E1,1.8234615E1,2.710014E1,7.5091667E0,5.5214878E1,2.4988989E1,2.5528963E1,3.2467087E1,4.5390854E1,1.720682E1,4.7378483E1,5.138838E1,4.2376904E1,2.7255955E1,2.7655827E1,5.0325993E1],"categories":[],"categories_nodes":[],"categories_segments":[],"categories_sizes":[],"default_left":[1,1,1,1,1,1,1,1,1,1,1,1,1,1,1,1,1,1,1,1,1,1,1,1,1,1,1,1,1,1,0,1,1,0,1,1,0,1,0,1,0,1,1,1,1,1,0,0,1,1,1,1,0,1,1,0,1,0,1,1,1,0,0,0,0,0,0,0,0,0,0,0,0,0,0,0,0,0,0,0,0,0,0,0,0,0,0,0,0,0,0,0,0,0,0,0,0,0,0,0,0,0,0],"id":1,"left_children":[1,3,5,7,9,11,13,15,17,19,21,23,25,27,29,31,33,35,37,39,41,43,45,47,49,51,53,55,57,59,-1,61,63,-1,65,67,-1,69,-1,71,-1,73,75,77,79,81,-1,-1,83,85,87,89,-1,91,93,-1,95,-1,97,99,101,-1,-1,-1,-1,-1,-1,-1,-1,-1,-1,-1,-1,-1,-1,-1,-1,-1,-1,-1,-1,-1,-1,-1,-1,-1,-1,-1,-1,-1,-1,-1,-1,-1,-1,-1,-1,-1,-1,-1,-1,-1,-1],"loss_changes":[3.9799E5,4.7674E4,5.7958E4,1.2934E4,1.2645E4,1.112475E4,1.09965E4,5.422E3,2.8675E3,3.0985E3,2.1865E3,1.8920625E3,1.8911875E3,2.7845E3,1.246875E3,2.754E3,1.17725E3,8.005E2,1.1022891E3,1.0925E3,2.065E3,1.466125E3,1.6465625E3,1.0161719E3,1.4973125E3,2.1201172E1,1.813125E3,1.550875E3,1.80675E3,9.385E2,0E0,9.308203E2,2.604E3,0E0,1.197E3,7.915E2,0E0,1.9139062E2,0E0,1.1651875E3,0E0,2.451875E3,1.2445E3,1.4032188E3,1.1575E3,9.4146875E2,0E0,0E0,8.05125E2,1.294625E3,1.3415E3,2.1966797E1,0E0,7.527051E2,6.114219E2,0E0,1.102625E3,0E0,1.74675E3,1.56675E3,2.2363281E3,0E0,0E0,0E0,0E0,0E0,0E0,0E0,0E0,0E0,0E0,0E0,0E0,0E0,0E0,0E0,0E0,0E0,0E0,0E0,0E0,0E0,0E0,0E0,0E0,0E0,0E0,0E0,0E0,0E0,0E0,0E0,0E0,0E0,0E0,0E0,0E0,0E0,0E0,0E0,0E0,0E0,0E0],"parents":[2147483647,0,0,1,1,2,2,3,3,4,4,5,5,6,6,7,7,8,8,9,9,10,10,11,11,12,12,13,13,14,14,15,15,16,16,17,17,18,18,19,19,20,20,21,21,22,22,23,23,24,24,25,25,26,26,27,27,28,28,29,29,31,31,32,32,34,34,35,35,37,37,39,39,41,41,42,42,43,43,44,44,45,45,48,48,49,49,50,50,51,51,53,53,54,54,56,56,58,58,59,59,60,60],"right_children":[2,4,6,8,10,12,14,16,18,20,22,24,26,28,30,32,34,36,38,40,42,44,46,48,50,52,54,56,58,60,-1,62,64,-1,66,68,-1,70,-1,72,-1,74,76,78,80,82,-1,-1,84,86,88,90,-1,92,94,-1,96,-1,98,100,102,-1,-1,-1,-1,-1,-1,-1,-1,-1,-1,-1,-1,-1,-1,-1,-1,-1,-1,-1,-1,-1,-1,-1,-1,-1,-1,-1,-1,-1,-1,-1,-1,-1,-1,-1,-1,-1,-1,-1,-1,-1,-1],"split_conditions":[8.9030355E-2,-1.3641055E0,-9.517813E-2,-1.0124089E0,-2.3968792E-1,6.235963E-1,5.318387E-1,-1.5655837E0,2.4242608E-1,-1.7119439E0,2.4432659E-1,-6.007704E-1,-1.1814057E0,1.3755354E-1,1.9368043E0,-1.0359926E0,-1.5633366E0,-4.2623836E-1,-1.9320944E-1,5.2667856E-2,-1.3388604E0,1.3107735E-1,6.286571E-1,6.266019E-1,-2.8586578E-1,4.3975878E-1,-9.6020496E-1,-9.495207E-1,3.1198287E-1,6.761651E-1,1.5125672E0,-8.479923E-1,8.240148E-1,1.0275493E0,-2.3272133E-1,7.92363E-1,1.20504E0,-1.2814839E0,1.3685092E0,2.4985908E-1,8.088746E-1,1.9556794E0,-3.5482895E-1,2.4526234E-1,1.5731233E0,-6.0003555E-1,2.7408063E0,2.0618184E0,1.6605371E-1,-8.583876E-3,4.4790974E0,7.085651E-1,1.8165089E0,-6.545694E-1,-1.0378482E0,1.5137434E0,6.105516E-1,1.186263E0,1.0547156E-3,5.735703E-1,-1.5809512E0,7.7754927E-1,4.851766E0,6.2192354E0,3.1764228E0,5.8150444E0,4.055803E0,5.7175946E0,1.2112501E0,3.3290958E0,4.980541E0,5.2988086E0,4.316524E0,5.0167003E0,2.5616996E0,5.003494E0,5.7028236E0,4.6522374E0,1.1889485E0,5.2903414E0,1.6562691E0,3.1501744E0,4.773859E0,4.677363E0,2.2031171E0,2.4050505E0,4.1699715E0,3.669505E0,1.8234615E0,2.710014E0,7.5091666E-1,5.5214877E0,2.498899E0,2.5528963E0,3.2467086E0,4.5390854E0,1.720682E0,4.7378483E0,5.138838E0,4.2376904E0,2.7255955E0,2.7655828E0,5.0325994E0],"split_indices":[55,2,48,145,145,141,77,181,58,173,97,126,112,155,161,183,181,14,21,109,93,4,65,182,8,45,88,68,39,4,0,10,158,0,127,128,0,139,0,122,0,191,112,40,5,5,0,0,51,189,122,11,0,54,149,0,157,0,43,46,106,0,0,0,0,0,0,0,0,0,0,0,0,0,0,0,0,0,0,0,0,0,0,0,0,0,0,0,0,0,0,0,0,0,0,0,0,0,0,0,0,0,0],"split_type":[0,0,0,0,0,0,0,0,0,0,0,0,0,0,0,0,0,0,0,0,0,0,0,0,0,0,0,0,0,0,0,0,0,0,0,0,0,0,0,0,0,0,0,0,0,0,0,0,0,0,0,0,0,0,0,0,0,0,0,0,0,0,0,0,0,0,0,0,0,0,0,0,0,0,0,0,0,0,0,0,0,0,0,0,0,0,0,0,0,0,0,0,0,0,0,0,0,0,0,0,0,0,0],"sum_hessian":[1.0101E4,7.236E3,2.865E3,4.25E3,2.986E3,9.04E2,1.961E3,3.113E3,1.137E3,2.207E3,7.79E2,6.33E2,2.71E2,1.369E3,5.92E2,2.45E3,6.63E2,1.083E3,5.4E1,2.43E2,1.964E3,6.41E2,1.38E2,9E1,5.43E2,3E1,2.41E2,3.17E2,1.052E3,5.89E2,3E0,3E1,2.42E3,1E0,6.62E2,1.082E3,1E0,5.2E1,2E0,2.42E2,1E0,6.3E1,1.901E3,1.06E2,5.35E2,1.28E2,1E1,4E0,8.6E1,2.22E2,3.21E2,1.2E1,1.8E1,1.1E1,2.3E2,3E0,3.14E2,2E0,1.05E3,5.06E2,8.3E1,1E0,2.9E1,2.414E3,6E0,6.48E2,1.4E1,1.081E3,1E0,1E1,4.2E1,1.94E2,4.8E1,5.5E1,8E0,9.5E1,1.806E3,1.04E2,2E0,5.33E2,2E0,1.2E1,1.16E2,8.2E1,4E0,9E0,2.13E2,3.14E2,7E0,1.1E1,1E0,7E0,4E0,3.9E1,1.91E2,3.11E2,3E0,4.84E2,5.66E2,4.92E2,1.4E1,9E0,7.4E1],"tree_param":{"num_deleted":"0","num_feature":"192","num_nodes":"103","size_leaf_vector":"0"}},{"base_weights":[4.8386246E1,5.1945427E1,3.9382004E1,5.3926746E1,4.9075806E1,3.3330772E1,4.215315E1,5.4763844E1,5.009201E1,5.036303E1,4.5728836E1,2.7517778E1,3.524782E1,4.328829E1,3.7265915E1,5.6478123E1,5.3543682E1,5.0968014E1,4.52072E1,5.2005806E1,4.8770096E1,4.1205444E1,4.6707397E1,2.0584923E1,2.8662445E1,3.7144077E1,3.2287796E1,4.6732277E1,4.2356663E1,3.494725E1,4.0432148E1,5.6591244E1,3.668979E1,5.489654E1,5.154378E1,5.102318E1,7.556093E0,1.6653898E1,4.57637E1,5.222507E1,3.5803608E1,4.8826996E1,1.1705827E1,4.153896E1,1.0238862E1,4.1398018E1,4.786566E1,5.5042458E0,2.0858536E1,2.6791634E1,3.3134003E1,3.8178844E1,3.0665823E1,1.6350428E1,3.2647083E1,1.2792114E1,4.690126E1,3.7508312E1,4.308933E1,3.931745E1,3.211595E1,9.202991E0,4.0784832E1,5.662852E1,2.0045277E1,4.0226566E1,1.3849523E1,5.4947617E1,1.5964446E1,1.999723E1,5.1669598E1,5.1132927E1,2.0515533E1,4.7263138E1,3.354585E1,5.2321964E1,2.211028E1,1.2715351E1,3.9842854E1,3.947569E1,4.9161858E1,1.0812864E1,4.1869934E1,4.192916E1,1.4317389E1,1.2279506E1,4.7972935E1,2.4047274E1,3.1509554E1,3.4459286E1,1.3519428E1,2.0844059E1,3.8579937E1,1.8421463E1,3.2166454E1,3.295474E1,1.3874256E1,6.900814E0,4.7003105E1,2.2651178E1,3.8573887E1,1.6900133E1,4.3194733E1,4.0022545E1,1.5209955E1,3.3903824E1,2.139158E1,1.0472261E1,4.112143E1],"categories":[],"categories_nodes":[],"categories_segments":[],"categories_sizes":[],"default_left":[1,1,1,1,1,1,1,1,1,1,1,1,1,1,1,1,1,1,1,1,1,1,1,1,1,1,1,1,1,1,1,1,1,1,1,1,0,0,1,1,1,1,0,1,0,1,1,0,0,1,1,1,1,0,1,0,1,1,1,1,1,0,1,0,0,0,0,0,0,0,0,0,0,0,0,0,0,0,0,0,0,0,0,0,0,0,0,0,0,0,0,0,0,0,0,0,0,0,0,0,0,0,0,0,0,0,0,0,0],"id":2,"left_children":[1,3,5,7,9,11,13,15,17,19,21,23,25,27,29,31,33,35,37,39,41,43,45,47,49,51,53,55,57,59,61,63,65,67,69,71,-1,-1,73,75,77,79,-1,81,-1,83,85,-1,-1,87,89,91,93,-1,95,-1,97,99,101,103,105,-1,107,-1,-1,-1,-1,-1,-1,-1,-1,-1,-1,-1,-1,-1,-1,-1,-1,-1,-1,-1,-1,-1,-1,-1,-1,-1,-1,-1,-1,-1,-1,-1,-1,-1,-1,-1,-1,-1,-1,-1,-1,-1,-1,-1,-1,-1,-1],"loss_changes":[3.21698E5,3.8502E4,4.66545E4,1.0967E4,1.048E4,9.1151875E3,9.2715E3,4.286E3,1.020875E3,3.045E3,1.771375E3,1.2272812E3,2.6006875E3,3.10925E3,1.3547188E3,1.136E3,2.7465E3,1.1735E3,1.255875E3,1.80725E3,1.74625E3,1.196125E3,2.194E3,3.3734375E1,7.351875E2,1.5508125E3,1.02371875E3,1.28125E3,2.856E3,1.5212812E3,1.3098125E3,8.065E2,3.314707E2,1.53625E3,2.3325E3,1.12725E3,0E0,0E0,6.862031E2,1.8165E3,1.0787891E3,1.4945E3,0E0,1.1235625E3,0E0,1.2552031E3,1.514375E3,0E0,0E0,1.0808594E3,9.1185547E2,1.6015312E3,5.2828125E2,0E0,1.0732812E3,0E0,1.0036875E3,1.8650781E3,2.2705E3,8.1908594E2,1.9974375E3,0E0,1.1100156E3,0E0,0E0,0E0,0E0,0E0,0E0,0E0,0E0,0E0,0E0,0E0,0E0,0E0,0E0,0E0,0E0,0E0,0E0,0E0,0E0,0E0,0E0,0E0,0E0,0E0,0E0,0E0,0E0,0E0,0E0,0E0,0E0,0E0,0E0,0E0,0E0,0E0,0E0,0E0,0E0,0E0,0E0,0E0,0E0,0E0,0E0],"parents":[2147483647,0,0,1,1,2,2,3,3,4,4,5,5,6,6,7,7,8,8,9,9,10,10,11,11,12,12,13,13,14,14,15,15,16,16,17,17,18,18,19,19,20,20,21,21,22,22,23,23,24,24,25,25,26,26,27,27,28,28,29,29,30,30,31,31,32,32,33,33,34,34,35,35,38,38,39,39,40,40,41,41,43,43,45,45,46,46,49,49,50,50,51,51,52,52,54,54,56,56,57,57,58,58,59,59,60,60,62,62],"right_children":[2,4,6,8,10,12,14,16,18,20,22,24,26,28,30,32,34,36,38,40,42,44,46,48,50,52,54,56,58,60,62,64,66,68,70,72,-1,-1,74,76,78,80,-1,82,-1,84,86,-1,-1,88,90,92,94,-1,96,-1,98,100,102,104,106,-1,108,-1,-1,-1,-1,-1,-1,-1,-1,-1,-1,-1,-1,-1,-1,-1,-1,-1,-1,-1,-1,-1,-1,-1,-1,-1,-1,-1,-1,-1,-1,-1,-1,-1,-1,-1,-1,-1,-1,-1,-1,-1,-1,-1,-1,-1,-1],"split_conditions":[8.9030355E-2,-1.3509223E0,-9.517813E-2,-5.3417486E-1,-3.3779377E-1,-8.223079E-1,7.526208E-1,-3.5939026E-1,5.41572E-1,-6.016436E-1,-2.6666355E-1,-1.1812495E0,-4.4362962E-2,-5.18415E-1,1.6823757E-1,2.89158E-1,-9.173249E-1,1.5958087E0,-9.502428E-1,3.8290188E-1,5.563718E0,4.6598732E-1,-1.298671E-1,-9.296313E-1,7.8477025E-1,7.597066E-1,-6.453297E-1,-1.474482E0,5.440086E-1,-1.7575061E0,-1.5638986E-1,-5.703914E-1,-4.8190072E-2,5.0206053E-1,-7.977519E-1,1.3559337E0,7.5560933E-1,1.6653899E0,4.347241E-2,-4.4097823E-1,3.069526E-1,-2.3303065E-1,1.1705827E0,-1.0440221E0,1.0238862E0,7.0765644E-1,-1.3469336E0,5.504246E-1,2.0858536E0,-3.5407332E-1,-4.075387E-2,-2.179232E-1,5.102973E-1,1.6350428E0,1.7304101E0,1.2792114E0,1.8207794E-1,1.235795E-2,-4.8659238E-1,4.4940007E-1,-7.936239E-1,9.2029905E-1,-1.3027287E-1,5.6628523E0,2.0045278E0,4.022657E0,1.3849523E0,5.494762E0,1.5964446E0,1.9997231E0,5.16696E0,5.1132927E0,2.0515535E0,4.726314E0,3.354585E0,5.2321963E0,2.2110279E0,1.2715352E0,3.9842854E0,3.947569E0,4.916186E0,1.0812864E0,4.1869936E0,4.1929164E0,1.4317389E0,1.2279506E0,4.7972937E0,2.4047275E0,3.1509554E0,3.4459286E0,1.3519429E0,2.084406E0,3.8579938E0,1.8421463E0,3.2166455E0,3.2954738E0,1.3874257E0,6.900814E-1,4.7003107E0,2.265118E0,3.8573887E0,1.6900133E0,4.3194733E0,4.0022545E0,1.5209955E0,3.3903825E0,2.139158E0,1.0472262E0,4.112143E0],"split_indices":[55,2,48,146,145,150,145,96,77,2,109,112,8,2,4,122,158,158,69,146,186,41,151,20,5,145,33,37,45,29,102,181,0,58,54,134,0,0,93,169,148,172,0,69,0,139,2,0,0,27,60,81,110,0,126,0,7,172,66,142,24,0,23,0,0,0,0,0,0,0,0,0,0,0,0,0,0,0,0,0,0,0,0,0,0,0,0,0,0,0,0,0,0,0,0,0,0,0,0,0,0,0,0,0,0,0,0,0,0],"split_type":[0,0,0,0,0,0,0,0,0,0,0,0,0,0,0,0,0,0,0,0,0,0,0,0,0,0,0,0,0,0,0,0,0,0,0,0,0,0,0,0,0,0,0,0,0,0,0,0,0,0,0,0,0,0,0,0,0,0,0,0,0,0,0,0,0,0,0,0,0,0,0,0,0,0,0,0,0,0,0,0,0,0,0,0,0,0,0,0,0,0,0,0,0,0,0,0,0,0,0,0,0,0,0,0,0,0,0,0,0],"sum_hessian":[1.0101E4,7.236E3,2.865E3,4.27E3,2.966E3,9.04E2,1.961E3,3.494E3,7.76E2,2.132E3,8.34E2,2.28E2,6.76E2,1.585E3,3.76E2,1.434E3,2.06E3,6.5E2,1.26E2,1.034E3,1.098E3,1.56E2,6.78E2,3.5E1,1.93E2,4.05E2,2.71E2,3.27E2,1.258E3,2.24E2,1.52E2,1.424E3,1E1,1.213E3,8.47E2,6.49E2,1E0,3E0,1.23E2,1.018E3,1.6E1,1.096E3,2E0,1.54E2,2E0,1.28E2,5.5E2,1E0,3.4E1,1.41E2,5.2E1,3.45E2,6E1,7E0,2.64E2,2E0,3.25E2,1.72E2,1.086E3,8.3E1,1.41E2,2E0,1.5E2,1.422E3,2E0,8E0,2E0,1.211E3,2E0,4E0,8.43E2,6.46E2,3E0,1.07E2,1.6E1,1.014E3,4E0,3E0,1.3E1,4.2E1,1.054E3,2E0,1.52E2,1.25E2,3E0,2E0,5.48E2,9.3E1,4.8E1,4.8E1,4E0,9E0,3.36E2,8E0,5.2E1,2.59E2,5E0,1E0,3.24E2,1.3E1,1.59E2,5E0,1.081E3,8E1,3E0,1.19E2,2.2E1,2E0,1.48E2],"tree_param":{"num_deleted":"0","num_feature":"192","num_nodes":"109","size_leaf_vector":"0"}},{"base_weights":[4.356266E1,4.6977757E1,3.595821E1,4.8437553E1,4.4242023E1,3.8800125E1,3.0895346E1,4.9553894E1,4.5731968E1,4.5212517E1,4.1589462E1,3.6353035E1,4.046073E1,3.46992E1,2.8611315E1,5.0711185E1,4.7874138E1,1.889387E1,4.5899624E1,4.613706E1,4.1310627E1,4.192562E1,2.985873E1,3.786509E1,3.1809404E1,4.0678677E1,2.6443153E1,3.5142708E1,2.1304161E1,2.610163E1,3.0803774E1,5.097295E1,4.034471E1,4.7922783E1,1.0513045E1,2.0626842E1,7.974656E0,1.8992476E1,4.6007378E1,2.6896807E1,4.6281525E1,4.1550297E1,1.6511164E1,4.2053516E1,1.7169975E1,3.295721E1,1.8510958E1,1.6414026E1,3.8086887E1,3.342261E1,2.5469233E1,3.569612E1,4.1324394E1,3.057984E1,1.1004795E1,2.5501205E1,3.5873684E1,1.154535E1,2.3594986E1,3.6905037E1,2.5235447E1,3.140101E1,2.288886E1,5.1023926E1,2.2202297E1,4.155881E1,7.0661845E0,3.9299652E1,4.824542E1,4.6129845E1,2.721799E1,1.200592E1,3.016348E1,7.5145416E0,4.6331184E1,2.3716135E0,4.1657295E1,4.2100212E1,6.1066117E0,2.0721844E1,1.4812489E0,2.4197031E1,3.8424263E1,3.379783E1,9.870539E0,2.8413757E1,1.5582489E1,3.5952553E1,1.1916051E1,4.4806313E1,4.0317154E1,1.2356782E1,3.2300507E1,1.2033449E1,2.9307637E0,8.619045E0,2.760512E1,3.6185223E1,1.4370976E1,1.10737295E1,3.883784E1,3.1138052E1,2.4118628E1,3.2287727E1,2.5223322E1,7.884018E0,2.4264065E1],"categories":[],"categories_nodes":[],"categories_segments":[],"categories_sizes":[],"default_left":[1,1,1,1,1,1,1,1,1,1,1,1,1,1,1,1,1,1,1,1,1,1,1,1,1,1,1,1,1,1,1,1,1,1,0,0,0,0,1,1,1,1,0,1,1,0,0,0,1,1,1,1,1,1,1,1,1,0,0,1,1,1,1,0,0,0,0,0,0,0,0,0,0,0,0,0,0,0,0,0,0,0,0,0,0,0,0,0,0,0,0,0,0,0,0,0,0,0,0,0,0,0,0,0,0,0,0],"id":3,"left_children":[1,3,5,7,9,11,13,15,17,19,21,23,25,27,29,31,33,35,37,39,41,43,45,47,49,51,53,55,57,59,61,63,65,67,-1,-1,-1,-1,69,71,73,75,-1,77,79,-1,-1,-1,81,83,85,87,89,91,93,95,97,-1,-1,99,101,103,105,-1,-1,-1,-1,-1,-1,-1,-1,-1,-1,-1,-1,-1,-1,-1,-1,-1,-1,-1,-1,-1,-1,-1,-1,-1,-1,-1,-1,-1,-1,-1,-1,-1,-1,-1,-1,-1,-1,-1,-1,-1,-1,-1,-1],"loss_changes":[2.6066E5,2.5684E4,4.390875E4,1.1424E4,4.3905E3,6.6725E3,8.842125E3,3.7875E3,5.14875E3,4.4865E3,1.3705E3,4.429125E3,2.544625E3,1.7464688E3,3.11925E3,3.0345E3,1.89875E3,2.4734863E1,2.97675E3,2.7135E3,1.38825E3,1.316875E3,1.634707E2,2.277125E3,1.3068594E3,2.27325E3,1.0046123E3,1.9395E3,8.52793E1,2.2409531E3,1.0539062E3,1.5445E3,1.7669141E3,1.77625E3,0E0,0E0,0E0,0E0,1.78625E3,2.7022754E2,2.37025E3,1.3475E3,0E0,8.17375E2,2.4792725E2,0E0,0E0,0E0,1.896E3,1.1245312E3,9.254961E2,4.3140625E2,1.78825E3,1.025625E2,1.45651245E1,8.98666E2,1.985375E3,0E0,0E0,7.182383E2,1.3387188E3,1.0809688E3,4.2774316E2,0E0,0E0,0E0,0E0,0E0,0E0,0E0,0E0,0E0,0E0,0E0,0E0,0E0,0E0,0E0,0E0,0E0,0E0,0E0,0E0,0E0,0E0,0E0,0E0,0E0,0E0,0E0,0E0,0E0,0E0,0E0,0E0,0E0,0E0,0E0,0E0,0E0,0E0,0E0,0E0,0E0,0E0,0E0,0E0],"parents":[2147483647,0,0,1,1,2,2,3,3,4,4,5,5,6,6,7,7,8,8,9,9,10,10,11,11,12,12,13,13,14,14,15,15,16,16,17,17,18,18,19,19,20,20,21,21,22,22,23,23,24,24,25,25,26,26,27,27,28,28,29,29,30,30,31,31,32,32,33,33,38,38,39,39,40,40,41,41,43,43,44,44,48,48,49,49,50,50,51,51,52,52,53,53,54,54,55,55,56,56,59,59,60,60,61,61,62,62],"right_children":[2,4,6,8,10,12,14,16,18,20,22,24,26,28,30,32,34,36,38,40,42,44,46,48,50,52,54,56,58,60,62,64,66,68,-1,-1,-1,-1,70,72,74,76,-1,78,80,-1,-1,-1,82,84,86,88,90,92,94,96,98,-1,-1,100,102,104,106,-1,-1,-1,-1,-1,-1,-1,-1,-1,-1,-1,-1,-1,-1,-1,-1,-1,-1,-1,-1,-1,-1,-1,-1,-1,-1,-1,-1,-1,-1,-1,-1,-1,-1,-1,-1,-1,-1,-1,-1,-1,-1,-1,-1],"split_conditions":[-1.2874225E-1,-1.0181935E0,3.0058423E-1,-1.33535E0,-4.6329337E-1,3.0910027E-1,-1.0202415E-1,-1.2324601E-1,4.897433E-1,-1.1069875E0,3.672402E-1,7.4699664E-1,1.8722816E0,1.0257385E0,-8.220059E-1,3.4413183E-1,1.305909E0,-2.2668209E-2,-5.964571E-1,-2.2634087E0,1.2777811E0,5.5743784E-1,-1.0442417E0,-1.0481205E-2,5.4878795E-1,-1.2986726E-1,4.742191E-2,-8.708577E-1,6.199511E-1,-1.0882988E0,-1.0412037E0,7.054225E-1,5.639512E-1,3.3837974E-1,1.0513046E0,2.0626843E0,7.974656E-1,1.8992475E0,1.026135E0,3.5061222E-1,1.3800621E-2,-9.047072E-1,1.6511164E0,6.725838E-1,-1.5009165E0,3.295721E0,1.8510958E0,1.6414026E0,-3.149395E-1,6.6408044E-1,2.0640425E-2,4.0404332E-1,1.13298744E-1,4.9974862E-1,-3.3482537E-2,-3.830032E-1,2.0602264E0,1.154535E0,2.3594987E0,1.0278528E0,1.605233E-1,1.3668298E0,-9.056506E-1,5.1023927E0,2.2202299E0,4.1558814E0,7.066185E-1,3.9299653E0,4.824542E0,4.6129847E0,2.7217991E0,1.200592E0,3.0163481E0,7.514542E-1,4.6331186E0,2.3716135E-1,4.1657295E0,4.2100215E0,6.106612E-1,2.0721843E0,1.4812489E-1,2.4197032E0,3.8424263E0,3.379783E0,9.870539E-1,2.8413758E0,1.5582489E0,3.5952554E0,1.1916051E0,4.4806314E0,4.0317154E0,1.2356782E0,3.2300508E0,1.203345E0,2.9307637E-1,8.6190456E-1,2.760512E0,3.6185224E0,1.4370977E0,1.107373E0,3.883784E0,3.1138053E0,2.4118629E0,3.2287729E0,2.5223322E0,7.884018E-1,2.4264066E0],"split_indices":[55,145,160,175,2,134,62,6,148,181,106,81,191,72,22,82,5,6,136,169,136,16,12,189,59,151,10,127,57,188,167,57,70,157,0,0,0,0,82,71,30,46,0,47,8,0,0,0,119,46,51,99,58,11,2,32,191,0,0,191,190,113,24,0,0,0,0,0,0,0,0,0,0,0,0,0,0,0,0,0,0,0,0,0,0,0,0,0,0,0,0,0,0,0,0,0,0,0,0,0,0,0,0,0,0,0,0],"split_type":[0,0,0,0,0,0,0,0,0,0,0,0,0,0,0,0,0,0,0,0,0,0,0,0,0,0,0,0,0,0,0,0,0,0,0,0,0,0,0,0,0,0,0,0,0,0,0,0,0,0,0,0,0,0,0,0,0,0,0,0,0,0,0,0,0,0,0,0,0,0,0,0,0,0,0,0,0,0,0,0,0,0,0,0,0,0,0,0,0,0,0,0,0,0,0,0,0,0,0,0,0,0,0,0,0,0,0],"sum_hessian":[1.0101E4,6.967E3,3.134E3,4.532E3,2.435E3,2.003E3,1.131E3,3.196E3,1.336E3,1.771E3,6.64E2,8.19E2,1.184E3,4.19E2,7.12E2,1.875E3,1.321E3,9E0,1.327E3,1.423E3,3.48E2,6.43E2,2.1E1,6.09E2,2.1E2,1.164E3,2E1,4.04E2,1.5E1,3.38E2,3.74E2,1.825E3,5E1,1.319E3,2E0,7E0,2E0,6E0,1.321E3,1.2E1,1.411E3,3.44E2,4E0,6.39E2,4E0,1.5E1,6E0,7E0,6.02E2,1.64E2,4.6E1,1.4E2,1.024E3,1.5E1,5E0,3.1E1,3.73E2,4E0,1.1E1,2.2E1,3.16E2,3.45E2,2.9E1,1.821E3,4E0,4.8E1,2E0,5.2E1,1.267E3,1.311E3,1E1,3E0,9E0,2E0,1.409E3,1E0,3.43E2,6.38E2,1E0,3E0,1E0,1.6E1,5.86E2,1.61E2,3E0,3.4E1,1.2E1,1.38E2,2E0,2.2E2,8.04E2,2E0,1.3E1,4E0,1E0,4E0,2.7E1,3.67E2,6E0,2E0,2E1,4.6E1,2.7E2,2.98E2,4.7E1,3E0,2.6E1],"tree_param":{"num_deleted":"0","num_feature":"192","num_nodes":"107","size_leaf_vector":"0"}},{"base_weights":[3.921922E1,4.2104866E1,3.191892E1,4.374457E1,3.9730312E1,2.6989983E1,3.4176193E1,4.4652145E1,4.1206722E1,4.0643776E1,3.653183E1,2.896931E1,2.3190708E1,3.56448E1,3.1524675E1,4.4982025E1,3.8281216E1,4.1302372E1,1.9851885E1,3.6660866E1,4.11271E1,3.687175E1,2.3657795E1,2.2502153E1,2.9551481E1,3.1718103E1,2.237842E1,3.233809E1,3.649726E1,3.368231E1,2.9616459E1,4.3801125E1,4.6662674E1,3.851683E1,2.9165554E-1,2.9133894E1,4.149503E1,3.834025E1,2.991844E1,3.9681423E1,4.22841E1,3.2360504E1,3.7948074E1,7.750491E0,2.6009054E1,1.2671234E1,2.5380423E1,2.3239523E1,3.0135248E1,1.6490978E1,3.5658722E1,1.5965319E1,2.313682E1,1.2175623E1,3.2836014E1,2.477753E1,3.6688805E1,3.3837795E1,5.7140293E0,3.5502567E1,2.8481869E1,4.3873367E1,1.5333662E1,3.2612835E1,4.689501E1,2.0644297E1,3.9199596E1,3.1692535E1,1.0336542E1,4.182984E1,3.4434467E1,2.0129337E0,3.851012E1,3.224906E1,1.7452341E1,3.8685783E1,4.3931522E1,4.2355392E1,1.1822613E1,1.472965E1,3.3229996E1,3.9952263E1,3.4441418E1,3.44178E0,2.7204397E1,1.3212299E1,2.8186893E0,2.7661865E1,1.4448575E1,2.5297497E1,1.4614479E1,3.195049E1,2.770432E1,1.0917626E1,3.7927227E1,1.2113692E1,1.9541292E1,2.2258076E1,3.2480972E1,6.960448E0,1.8547432E1,3.302754E1,5.4833283E0,2.6003267E1,1.3571453E0,4.084495E1,3.6010094E1,3.4030407E1,9.969616E0,3.7249947E1,1.4150294E1,2.869554E1,8.982366E0],"categories":[],"categories_nodes":[],"categories_segments":[],"categories_sizes":[],"default_left":[1,1,1,1,1,1,1,1,1,1,1,1,1,1,1,1,1,1,0,1,1,1,1,1,1,1,1,1,1,1,1,1,1,1,0,1,1,1,1,1,1,1,1,0,1,1,1,1,1,0,1,1,1,1,1,1,1,1,0,1,1,0,0,0,0,0,0,0,0,0,0,0,0,0,0,0,0,0,0,0,0,0,0,0,0,0,0,0,0,0,0,0,0,0,0,0,0,0,0,0,0,0,0,0,0,0,0,0,0,0,0,0,0],"id":4,"left_children":[1,3,5,7,9,11,13,15,17,19,21,23,25,27,29,31,33,35,-1,37,39,41,43,45,47,49,51,53,55,57,59,61,63,65,-1,67,69,71,73,75,77,79,81,-1,83,85,87,89,91,-1,93,95,97,99,101,103,105,107,-1,109,111,-1,-1,-1,-1,-1,-1,-1,-1,-1,-1,-1,-1,-1,-1,-1,-1,-1,-1,-1,-1,-1,-1,-1,-1,-1,-1,-1,-1,-1,-1,-1,-1,-1,-1,-1,-1,-1,-1,-1,-1,-1,-1,-1,-1,-1,-1,-1,-1,-1,-1,-1,-1],"loss_changes":[2.11467E5,2.644E4,3.09645E4,7.997E3,7.1835E3,6.1338125E3,6.51625E3,4.865E3,1.504625E3,2.91825E3,2.0553125E3,1.5600938E3,1.4721094E3,2.3575E3,1.9174375E3,3.858E3,1.4298594E3,1.444875E3,0E0,1.7743125E3,1.7375E3,1.9280625E3,5.4646094E2,1.1780879E3,1.28575E3,9.120586E2,1.0459688E3,2.2706562E3,1.31325E3,1.2199688E3,1.5532812E3,2.95325E3,2.42725E3,1.1432031E3,0E0,6.824199E2,1.18825E3,1.1751875E3,1.0641875E3,2.2105E3,1.929375E3,1.5340781E3,2.2715E3,0E0,3.649541E2,3.7391113E1,5.979414E2,5.177988E2,1.2770625E3,0E0,6.5230664E2,2.3157617E2,1.3955E3,1.3674243E2,1.1757188E3,5.1014746E2,1.271E3,1.1456562E3,0E0,1.6369062E3,1.1046875E3,0E0,0E0,0E0,0E0,0E0,0E0,0E0,0E0,0E0,0E0,0E0,0E0,0E0,0E0,0E0,0E0,0E0,0E0,0E0,0E0,0E0,0E0,0E0,0E0,0E0,0E0,0E0,0E0,0E0,0E0,0E0,0E0,0E0,0E0,0E0,0E0,0E0,0E0,0E0,0E0,0E0,0E0,0E0,0E0,0E0,0E0,0E0,0E0,0E0,0E0,0E0,0E0],"parents":[2147483647,0,0,1,1,2,2,3,3,4,4,5,5,6,6,7,7,8,8,9,9,10,10,11,11,12,12,13,13,14,14,15,15,16,16,17,17,19,19,20,20,21,21,22,22,23,23,24,24,25,25,26,26,27,27,28,28,29,29,30,30,31,31,32,32,33,33,35,35,36,36,37,37,38,38,39,39,40,40,41,41,42,42,44,44,45,45,46,46,47,47,48,48,50,50,51,51,52,52,53,53,54,54,55,55,56,56,57,57,59,59,60,60],"right_children":[2,4,6,8,10,12,14,16,18,20,22,24,26,28,30,32,34,36,-1,38,40,42,44,46,48,50,52,54,56,58,60,62,64,66,-1,68,70,72,74,76,78,80,82,-1,84,86,88,90,92,-1,94,96,98,100,102,104,106,108,-1,110,112,-1,-1,-1,-1,-1,-1,-1,-1,-1,-1,-1,-1,-1,-1,-1,-1,-1,-1,-1,-1,-1,-1,-1,-1,-1,-1,-1,-1,-1,-1,-1,-1,-1,-1,-1,-1,-1,-1,-1,-1,-1,-1,-1,-1,-1,-1,-1,-1,-1,-1,-1,-1],"split_conditions":[8.9030355E-2,-1.3509223E0,-9.517813E-2,-1.5659524E0,3.7094617E-1,6.227813E-1,4.8197162E-1,6.3250697E-1,5.715027E-1,-1.7119439E0,1.1335968E0,-6.137203E-1,-1.0882988E0,1.5240556E-1,-7.475819E-1,1.3752271E-2,3.3237818E-1,-9.2941785E-1,1.9851885E0,2.4985908E-1,2.561365E-1,1.2905467E-1,-1.4030936E0,7.321792E-1,-1.1648263E0,-9.949298E-2,-1.180723E0,-1.3068855E0,-4.7305882E-1,6.1916053E-1,-5.303179E-1,8.8519216E-1,-1.0302815E0,-1.2947235E-1,2.9165555E-2,5.770582E-1,8.360267E-1,6.759948E-1,1.2748134E0,-1.3672829E0,1.3496602E0,-7.2364256E-2,4.1729602E-1,7.7504915E-1,-6.016178E-1,6.9764274E-1,-3.1668204E-1,1.3013719E-1,6.690246E-1,1.6490978E0,3.7581968E-1,-1.425108E-1,1.8094441E-1,1.5972076E-1,7.672505E-1,5.163177E-1,-3.9407066E-1,6.063212E-1,5.7140297E-1,1.1152893E0,1.201409E0,4.3873367E0,1.5333662E0,3.2612836E0,4.6895013E0,2.0644298E0,3.9199598E0,3.1692536E0,1.0336542E0,4.1829844E0,3.4434469E0,2.0129338E-1,3.851012E0,3.2249062E0,1.7452341E0,3.8685784E0,4.393152E0,4.2355394E0,1.1822613E0,1.472965E0,3.3229997E0,3.9952264E0,3.4441419E0,3.4417802E-1,2.7204397E0,1.3212299E0,2.8186893E-1,2.7661865E0,1.4448575E0,2.5297496E0,1.461448E0,3.195049E0,2.7704322E0,1.0917627E0,3.7927227E0,1.2113693E0,1.9541292E0,2.2258077E0,3.2480972E0,6.960448E-1,1.8547432E0,3.302754E0,5.4833287E-1,2.6003268E0,1.3571453E-1,4.084495E0,3.6010094E0,3.4030406E0,9.969616E-1,3.7249947E0,1.4150294E0,2.869554E0,8.982366E-1],"split_indices":[55,2,48,181,81,77,77,13,90,173,88,109,188,165,80,171,62,62,0,122,155,4,8,17,48,166,48,179,117,46,2,158,183,87,0,66,66,162,66,173,134,15,172,0,5,11,66,10,35,0,26,38,74,19,81,0,66,157,0,94,5,0,0,0,0,0,0,0,0,0,0,0,0,0,0,0,0,0,0,0,0,0,0,0,0,0,0,0,0,0,0,0,0,0,0,0,0,0,0,0,0,0,0,0,0,0,0,0,0,0,0,0,0],"split_type":[0,0,0,0,0,0,0,0,0,0,0,0,0,0,0,0,0,0,0,0,0,0,0,0,0,0,0,0,0,0,0,0,0,0,0,0,0,0,0,0,0,0,0,0,0,0,0,0,0,0,0,0,0,0,0,0,0,0,0,0,0,0,0,0,0,0,0,0,0,0,0,0,0,0,0,0,0,0,0,0,0,0,0,0,0,0,0,0,0,0,0,0,0,0,0,0,0,0,0,0,0,0,0,0,0,0,0,0,0,0,0,0,0],"sum_hessian":[1.0101E4,7.236E3,2.865E3,4.27E3,2.966E3,9.04E2,1.961E3,3.133E3,1.137E3,2.298E3,6.68E2,5.9E2,3.14E2,1.254E3,7.07E2,2.973E3,1.6E2,1.131E3,6E0,2.57E2,2.041E3,6.49E2,1.9E1,5.2E1,5.38E2,2.4E1,2.9E2,2.65E2,9.89E2,3.24E2,3.83E2,1.762E3,1.211E3,1.59E2,1E0,2E1,1.111E3,2.02E2,5.5E1,9.23E2,1.118E3,1.31E2,5.18E2,3E0,1.6E1,1.3E1,3.9E1,4.9E1,4.89E2,6E0,1.8E1,3.3E1,2.57E2,7E0,2.58E2,1.8E1,9.71E2,3.22E2,2E0,5.7E1,3.26E2,1.757E3,5E0,2.2E1,1.189E3,7E0,1.52E2,1.7E1,3E0,1.056E3,5.5E1,1E0,2.01E2,4.5E1,1E1,7.56E2,1.67E2,1.115E3,3E0,7E0,1.24E2,3.23E2,1.95E2,1E0,1.5E1,1.2E1,1E0,3.1E1,8E0,3.8E1,1.1E1,2.73E2,2.16E2,2E0,1.6E1,1.8E1,1.5E1,2.38E2,1.9E1,5E0,2E0,2.56E2,2E0,1.7E1,1E0,1.28E2,8.43E2,3.19E2,3E0,5.2E1,5E0,3.22E2,4E0],"tree_param":{"num_deleted":"0","num_feature":"192","num_nodes":"113","size_leaf_vector":"0"}},{"base_weights":[3.5310574E1,3.791719E1,2.8779991E1,3.8867947E1,3.457393E1,2.5318151E1,3.1443258E1,4.0013325E1,3.652346E1,3.2184883E1,3.5766266E1,2.7522491E1,2.219993E1,3.2455208E1,2.795415E1,3.81691E1,4.0887657E1,3.724185E1,3.316915E1,9.511161E0,3.2504955E1,2.762838E1,3.6107185E1,2.3427336E1,2.8316544E1,3.2583458E1,2.1683058E1,3.4223526E1,3.0919327E1,2.5011232E1,3.1284313E1,3.4272038E1,3.933158E1,4.1843178E1,3.8803673E1,3.7585865E1,3.002104E1,3.6038754E0,3.33354E1,1.0458794E1,4.1296315E0,3.331995E1,2.7432793E1,2.9127192E1,4.2343516E0,3.2303745E1,3.682176E1,2.1972809E1,3.6503994E1,3.0444351E1,2.5335093E1,3.7713924E1,1.1761492E1,1.7892767E1,2.277989E1,1.3655805E1,3.445336E1,3.5436573E1,2.9940632E1,3.15395E1,2.3605127E1,8.9630127E-1,3.1457794E1,3.4726658E1,1.0996362E1,3.9896057E1,3.2419132E1,3.15057E1,4.208229E1,3.8889145E1,2.8198001E0,3.7707726E1,2.2436695E1,3.2359543E1,9.536344E0,7.623661E0,-2.2178478E0,6.5200973E0,3.34773E1,8.44572E0,3.3410526E1,1.4760471E1,2.903226E1,2.3028835E1,3.59393E1,1.0173292E0,4.9675827E0,3.064769E1,4.1032093E1,3.691413E1,1.3846529E1,2.255779E1,4.591657E0,2.1429882E1,3.1159445E1,1.8308416E1,2.6206352E1,3.8919666E1,8.608134E0,1.3052326E1,2.6536589E0,1.2972965E1,1.9979923E1,2.9939785E1,2.2182938E1,2.2072377E0,2.0083498E1,2.0505651E1,3.474364E1,-3.0706024E-1,3.5750057E1,2.9246761E1,3.7917664E1,1.4655924E1,3.4031E1,1.60048E1,2.4981382E1,7.457146E0,3.1699127E1],"categories":[],"categories_nodes":[],"categories_segments":[],"categories_sizes":[],"default_left":[1,1,1,1,1,1,1,1,1,1,1,1,1,1,1,1,1,1,1,1,1,1,1,1,1,1,1,1,1,1,1,1,1,1,1,1,1,1,1,0,0,1,1,1,1,1,1,1,0,1,1,1,1,1,1,1,1,1,1,1,1,0,1,0,0,0,0,0,0,0,0,0,0,0,0,0,0,0,0,0,0,0,0,0,0,0,0,0,0,0,0,0,0,0,0,0,0,0,0,0,0,0,0,0,0,0,0,0,0,0,0,0,0,0,0,0,0,0,0],"id":5,"left_children":[1,3,5,7,9,11,13,15,17,19,21,23,25,27,29,31,33,35,37,39,41,43,45,47,49,51,53,55,57,59,61,63,65,67,69,71,73,75,77,-1,-1,79,81,83,85,87,89,91,-1,93,95,97,99,101,103,105,107,109,111,113,115,-1,117,-1,-1,-1,-1,-1,-1,-1,-1,-1,-1,-1,-1,-1,-1,-1,-1,-1,-1,-1,-1,-1,-1,-1,-1,-1,-1,-1,-1,-1,-1,-1,-1,-1,-1,-1,-1,-1,-1,-1,-1,-1,-1,-1,-1,-1,-1,-1,-1,-1,-1,-1,-1,-1,-1,-1,-1],"loss_changes":[1.70872E5,2.1596E4,2.581225E4,1.3607E4,3.4265E3,8.04975E3,4.83725E3,4.5005E3,3.23E3,3.646E3,1.9515E3,1.7234375E3,2.1218906E3,2.350375E3,2.8730938E3,4.197E3,3.4265E3,2.6425E3,1.5313438E3,2.706482E0,1.3058125E3,1.5246406E3,1.5745E3,1.5754453E3,3.0985312E3,2.0134336E3,1.6918438E3,2.243E3,1.95425E3,1.1189219E3,8.7328125E2,2.6761875E3,2.358875E3,2.9405E3,2.38475E3,1.8215E3,3.2362656E3,8.7114365E1,1.052625E3,0E0,0E0,7.4971875E2,1.1929883E3,1.0002344E3,4.3816147E0,1.1852969E3,1.290625E3,1.0657031E3,0E0,1.594875E3,1.1119375E3,2.9666797E2,3.590381E1,9.5247266E2,9.942031E2,5.443739E2,1.583125E3,1.31075E3,2.029375E3,8.8940234E2,1.3888359E3,0E0,7.482656E2,0E0,0E0,0E0,0E0,0E0,0E0,0E0,0E0,0E0,0E0,0E0,0E0,0E0,0E0,0E0,0E0,0E0,0E0,0E0,0E0,0E0,0E0,0E0,0E0,0E0,0E0,0E0,0E0,0E0,0E0,0E0,0E0,0E0,0E0,0E0,0E0,0E0,0E0,0E0,0E0,0E0,0E0,0E0,0E0,0E0,0E0,0E0,0E0,0E0,0E0,0E0,0E0,0E0,0E0,0E0,0E0],"parents":[2147483647,0,0,1,1,2,2,3,3,4,4,5,5,6,6,7,7,8,8,9,9,10,10,11,11,12,12,13,13,14,14,15,15,16,16,17,17,18,18,19,19,20,20,21,21,22,22,23,23,24,24,25,25,26,26,27,27,28,28,29,29,30,30,31,31,32,32,33,33,34,34,35,35,36,36,37,37,38,38,41,41,42,42,43,43,44,44,45,45,46,46,47,47,49,49,50,50,51,51,52,52,53,53,54,54,55,55,56,56,57,57,58,58,59,59,60,60,62,62],"right_children":[2,4,6,8,10,12,14,16,18,20,22,24,26,28,30,32,34,36,38,40,42,44,46,48,50,52,54,56,58,60,62,64,66,68,70,72,74,76,78,-1,-1,80,82,84,86,88,90,92,-1,94,96,98,100,102,104,106,108,110,112,114,116,-1,118,-1,-1,-1,-1,-1,-1,-1,-1,-1,-1,-1,-1,-1,-1,-1,-1,-1,-1,-1,-1,-1,-1,-1,-1,-1,-1,-1,-1,-1,-1,-1,-1,-1,-1,-1,-1,-1,-1,-1,-1,-1,-1,-1,-1,-1,-1,-1,-1,-1,-1,-1,-1,-1,-1,-1,-1],"split_conditions":[7.198013E-2,-6.0236084E-1,6.7027E-1,-1.5807365E0,-1.6317327E-3,6.12342E-1,7.531245E-1,3.6837152E-1,-2.930972E-2,-4.6295488E-1,-2.3303065E-1,6.3484216E-1,-6.4817905E-1,2.0467391E-2,4.1238576E-1,-2.9693413E-1,-5.359301E-1,1.608083E0,-1.3510517E0,3.7998223E-1,5.182822E-1,1.1654747E0,-1.9004029E-1,7.219889E-1,-1.1946337E0,9.8539364E-1,-3.9436126E-1,-1.0370982E0,-5.3111565E-1,-5.050377E-1,-2.5466684E-1,1.2907803E0,1.7226276E0,-1.2343198E0,-1.2780327E-1,-5.130487E-1,6.8608296E-1,-1.04935095E-1,-2.5819354E0,1.0458794E0,4.1296315E-1,-1.4615276E0,2.1143961E-1,1.1386942E0,5.767595E-2,-1.4361396E0,8.012104E-1,6.132004E-1,3.6503994E0,-3.233902E-1,-5.4421695E-3,2.3066556E-1,-3.8617784E-1,1.9797802E-2,-1.0861435E0,-3.308193E-1,-2.6646984E0,-1.0073369E0,-6.8787396E-1,-3.874367E-1,7.101302E-1,8.963013E-2,-4.822173E-2,3.4726658E0,1.0996362E0,3.9896057E0,3.2419133E0,3.15057E0,4.208229E0,3.8889146E0,2.8198E-1,3.7707727E0,2.2436695E0,3.2359543E0,9.536344E-1,7.623661E-1,-2.2178479E-1,6.520097E-1,3.34773E0,8.44572E-1,3.3410528E0,1.4760472E0,2.9032261E0,2.3028836E0,3.59393E0,1.01732925E-1,4.9675828E-1,3.064769E0,4.1032095E0,3.6914132E0,1.384653E0,2.255779E0,4.5916572E-1,2.1429882E0,3.1159446E0,1.8308417E0,2.6206353E0,3.8919666E0,8.6081344E-1,1.3052326E0,2.653659E-1,1.2972965E0,1.9979924E0,2.9939785E0,2.218294E0,2.2072378E-1,2.00835E0,2.0505652E0,3.474364E0,-3.0706024E-2,3.5750058E0,2.9246762E0,3.7917664E0,1.4655924E0,3.4030998E0,1.6004801E0,2.4981382E0,7.457146E-1,3.1699128E0],"split_indices":[55,2,48,181,107,141,81,15,146,130,172,57,33,51,134,19,188,191,145,26,72,137,19,168,185,94,130,16,2,116,60,13,191,119,96,164,57,0,175,0,0,62,21,148,0,173,76,67,0,100,189,12,2,115,188,2,62,158,54,32,52,0,10,0,0,0,0,0,0,0,0,0,0,0,0,0,0,0,0,0,0,0,0,0,0,0,0,0,0,0,0,0,0,0,0,0,0,0,0,0,0,0,0,0,0,0,0,0,0,0,0,0,0,0,0,0,0,0,0],"split_type":[0,0,0,0,0,0,0,0,0,0,0,0,0,0,0,0,0,0,0,0,0,0,0,0,0,0,0,0,0,0,0,0,0,0,0,0,0,0,0,0,0,0,0,0,0,0,0,0,0,0,0,0,0,0,0,0,0,0,0,0,0,0,0,0,0,0,0,0,0,0,0,0,0,0,0,0,0,0,0,0,0,0,0,0,0,0,0,0,0,0,0,0,0,0,0,0,0,0,0,0,0,0,0,0,0,0,0,0,0,0,0,0,0,0,0,0,0,0,0],"sum_hessian":[1.0101E4,7.216E3,2.885E3,5.61E3,1.606E3,1.259E3,1.626E3,3.758E3,1.852E3,5.44E2,1.062E3,7.33E2,5.26E2,1.254E3,3.72E2,1.223E3,2.535E3,1.517E3,3.35E2,8E0,5.36E2,4.6E1,1.016E3,1.24E2,6.09E2,2.2E1,5.04E2,5.73E2,6.81E2,2.02E2,1.7E2,2.88E2,9.35E2,1.725E3,8.1E2,1.444E3,7.3E1,2E0,3.33E2,6E0,2E0,4.57E2,7.9E1,4.3E1,3E0,1.68E2,8.48E2,1.14E2,1E1,3.5E2,2.59E2,1.7E1,5E0,1.17E2,3.87E2,7E0,5.66E2,1.15E2,5.66E2,3.2E1,1.7E2,1E0,1.69E2,2.82E2,6E0,8.6E2,7.5E1,4.2E1,1.683E3,8.08E2,2E0,1.431E3,1.3E1,6.5E1,8E0,1E0,1E0,2E0,3.31E2,2E0,4.55E2,1E1,6.9E1,2.5E1,1.8E1,1E0,2E0,1.45E2,2.3E1,8.44E2,4E0,1.1E2,4E0,2.8E1,3.22E2,3.1E1,2.28E2,1.6E1,1E0,4E0,1E0,3.7E1,8E1,2.6E1,3.61E2,3E0,4E0,1.3E1,5.53E2,1E0,1.14E2,5.25E2,4.1E1,5E0,2.7E1,2.8E1,1.42E2,2E0,1.67E2],"tree_param":{"num_deleted":"0","num_feature":"192","num_nodes":"119","size_leaf_vector":"0"}},{"base_weights":[3.179226E1,3.4283916E1,2.6267054E1,3.2452034E1,3.5642906E1,2.8343794E1,2.2519978E1,3.0772202E1,3.390578E1,3.1370663E1,3.606371E1,2.6465345E1,2.9627499E1,2.5425224E1,2.0781939E1,2.6005796E1,3.1392471E1,2.6958569E1,3.4276608E1,3.1755568E1,1.7401752E1,3.3690735E1,3.6635967E1,2.8211918E1,2.4065512E1,2.9793983E1,1.458882E1,2.5793856E1,1.4574312E1,2.0119436E1,2.6551687E1,2.6871822E1,9.808602E0,3.192062E1,2.6258703E1,2.7800806E1,1.5376919E1,3.4346134E1,1.1228083E1,3.224079E1,2.1503431E1,2.3469297E1,-6.006632E-1,3.384135E1,1.6130955E1,3.4603325E1,3.7385067E1,2.9059032E1,2.0447195E1,2.4430101E1,7.294122E0,3.1809338E1,2.8552046E1,1.8227528E1,3.6659E0,2.288643E1,2.7488432E1,8.182736E0,1.7590984E1,1.965913E1,2.8265293E1,2.8889708E1,1.7563177E1,1.460642E1,2.8355066E1,2.454216E0,1.430249E1,2.7003256E1,3.252468E1,2.7641253E1,8.286539E0,1.8129593E1,2.879952E1,-1.2012329E0,1.791683E1,3.4284298E0,3.438523E1,-2.2930136E0,1.4390904E1,3.2467953E1,1.4335537E1,2.3866367E1,6.6758294E0,2.3698108E-1,-1.556798E0,2.1399841E1,3.4079422E1,3.2399548E1,3.697882E1,3.7668026E1,3.1998455E1,2.9628525E1,1.8309258E1,4.906047E0,2.2863054E1,2.3606125E1,3.2377377E1,-7.944746E-1,1.1470833E1,3.616865E1,3.0520483E1,3.216229E1,2.7355654E1,7.8496604E0,1.9661535E1,5.870522E0,2.3931122E-1,2.6995533E1,1.9582079E1,2.0346306E1,2.8798437E1,1.8618324E1,4.172464E0,1.6285246E1,2.0443666E1,1.0082405E1,3.1259071E1,1.3931612E1,3.082109E1,3.2384304E1,1.3428073E1],"categories":[],"categories_nodes":[],"categories_segments":[],"categories_sizes":[],"default_left":[1,1,1,1,1,1,1,1,1,1,1,1,1,1,1,1,1,1,1,1,1,1,1,1,1,1,1,1,1,1,1,1,1,1,1,1,1,1,1,1,1,0,1,1,0,1,1,1,1,1,1,1,1,1,1,1,1,0,1,1,1,1,1,0,0,0,0,0,0,0,0,0,0,0,0,0,0,0,0,0,0,0,0,0,0,0,0,0,0,0,0,0,0,0,0,0,0,0,0,0,0,0,0,0,0,0,0,0,0,0,0,0,0,0,0,0,0,0,0,0,0],"id":6,"left_children":[1,3,5,7,9,11,13,15,17,19,21,23,25,27,29,31,33,35,37,39,41,43,45,47,49,51,53,55,57,59,61,63,65,67,69,71,73,75,77,79,81,-1,83,85,-1,87,89,91,93,95,97,99,101,103,105,107,109,-1,111,113,115,117,119,-1,-1,-1,-1,-1,-1,-1,-1,-1,-1,-1,-1,-1,-1,-1,-1,-1,-1,-1,-1,-1,-1,-1,-1,-1,-1,-1,-1,-1,-1,-1,-1,-1,-1,-1,-1,-1,-1,-1,-1,-1,-1,-1,-1,-1,-1,-1,-1,-1,-1,-1,-1,-1,-1,-1,-1,-1,-1],"loss_changes":[1.38173E5,1.6168E4,2.382725E4,6.222E3,6.0325E3,4.0845E3,5.15725E3,3.296125E3,3.159125E3,1.4099062E3,3.6825E3,2.7958125E3,2.54725E3,1.2920625E3,2.17975E3,2.0649297E3,2.485875E3,4.0164844E2,2.019625E3,1.0677188E3,1.3248633E3,1.347875E3,3.13125E3,2.5235938E3,1.9986094E3,2.0376875E3,5.293594E2,1.3514688E3,1.645581E2,1.8478125E3,9.636758E2,2.4420781E3,2.9539648E2,2.41E3,2.752625E3,2.3125781E2,3.5837878E2,1.690375E3,2.895876E2,9.011875E2,5.0636816E2,0E0,3.5725348E0,1.37075E3,0E0,2.9689375E3,2.0125E3,2.0593438E3,1.7650957E3,1.5145312E3,3.1316687E2,1.3682812E3,2.3078125E3,9.365234E0,3.6366783E1,1.562375E3,1.7437344E3,0E0,6.0169434E1,1.2817031E3,1.4267715E3,1.1306641E3,6.0701855E2,0E0,0E0,0E0,0E0,0E0,0E0,0E0,0E0,0E0,0E0,0E0,0E0,0E0,0E0,0E0,0E0,0E0,0E0,0E0,0E0,0E0,0E0,0E0,0E0,0E0,0E0,0E0,0E0,0E0,0E0,0E0,0E0,0E0,0E0,0E0,0E0,0E0,0E0,0E0,0E0,0E0,0E0,0E0,0E0,0E0,0E0,0E0,0E0,0E0,0E0,0E0,0E0,0E0,0E0,0E0,0E0,0E0,0E0],"parents":[2147483647,0,0,1,1,2,2,3,3,4,4,5,5,6,6,7,7,8,8,9,9,10,10,11,11,12,12,13,13,14,14,15,15,16,16,17,17,18,18,19,19,20,20,21,21,22,22,23,23,24,24,25,25,26,26,27,27,28,28,29,29,30,30,31,31,32,32,33,33,34,34,35,35,36,36,37,37,38,38,39,39,40,40,42,42,43,43,45,45,46,46,47,47,48,48,49,49,50,50,51,51,52,52,53,53,54,54,55,55,56,56,58,58,59,59,60,60,61,61,62,62],"right_children":[2,4,6,8,10,12,14,16,18,20,22,24,26,28,30,32,34,36,38,40,42,44,46,48,50,52,54,56,58,60,62,64,66,68,70,72,74,76,78,80,82,-1,84,86,-1,88,90,92,94,96,98,100,102,104,106,108,110,-1,112,114,116,118,120,-1,-1,-1,-1,-1,-1,-1,-1,-1,-1,-1,-1,-1,-1,-1,-1,-1,-1,-1,-1,-1,-1,-1,-1,-1,-1,-1,-1,-1,-1,-1,-1,-1,-1,-1,-1,-1,-1,-1,-1,-1,-1,-1,-1,-1,-1,-1,-1,-1,-1,-1,-1,-1,-1,-1,-1,-1,-1],"split_conditions":[-1.3223556E-1,1.5402925E0,3.0102178E-1,2.5621504E-1,-4.8501487E-4,3.0910027E-1,-1.0202415E-1,-4.7251827E-1,-1.298672E-1,4.0017033E-1,-1.0388684E0,-3.9258268E-1,2.0012422E0,1.0257385E0,1.333013E0,1.1585437E0,5.5161947E-1,-1.298676E-1,1.3559628E0,3.101889E-1,-1.8561728E-2,1.263174E0,-6.1579687E-3,6.93596E-1,1.1360463E0,-4.207708E-1,-9.7981596E-1,-1.6914666E-1,5.5699325E-1,-3.617374E-2,-7.386991E-1,1.1618845E0,1.9917762E-1,-1.2968299E-1,1.4095626E0,2.6979482E-1,-1.03250585E-1,-1.5412194E-1,-1.1033465E-1,1.038334E0,1.7600598E0,2.3469298E0,2.1244764E-1,-2.5048864E0,1.6130955E0,1.37632545E-2,-3.9376324E-1,2.714839E-1,5.1044774E-1,1.3031893E0,6.1369896E-2,-3.6689103E-1,1.13319255E-1,1.7242521E-1,-1.057962E0,-1.4346191E0,-1.4489586E0,8.1827366E-1,4.6083975E-1,-3.9435992E-1,-7.954103E-1,1.9421247E-1,-5.43619E-1,1.460642E0,2.8355067E0,2.454216E-1,1.4302491E0,2.7003257E0,3.252468E0,2.7641253E0,8.2865393E-1,1.8129593E0,2.8799522E0,-1.2012329E-1,1.7916831E0,3.42843E-1,3.438523E0,-2.2930136E-1,1.4390905E0,3.2467954E0,1.4335537E0,2.3866367E0,6.675829E-1,2.3698108E-2,-1.556798E-1,2.1399841E0,3.4079423E0,3.2399547E0,3.6978822E0,3.7668025E0,3.1998456E0,2.9628525E0,1.8309258E0,4.906047E-1,2.2863054E0,2.3606126E0,3.2377377E0,-7.944746E-2,1.1470833E0,3.6168652E0,3.0520484E0,3.216229E0,2.7355654E0,7.8496605E-1,1.9661535E0,5.870522E-1,2.3931121E-2,2.6995533E0,1.958208E0,2.0346305E0,2.8798437E0,1.8618325E0,4.172464E-1,1.6285247E0,2.0443666E0,1.0082406E0,3.1259072E0,1.3931612E0,3.0821092E0,3.2384305E0,1.3428073E0],"split_indices":[55,4,160,155,107,134,62,109,151,53,184,32,191,72,122,148,59,151,134,97,67,122,189,57,150,2,8,98,159,27,31,30,45,87,4,155,1,51,0,82,7,0,0,28,0,171,183,103,110,44,4,71,58,0,12,37,37,0,9,130,50,81,1,0,0,0,0,0,0,0,0,0,0,0,0,0,0,0,0,0,0,0,0,0,0,0,0,0,0,0,0,0,0,0,0,0,0,0,0,0,0,0,0,0,0,0,0,0,0,0,0,0,0,0,0,0,0,0,0,0,0],"split_type":[0,0,0,0,0,0,0,0,0,0,0,0,0,0,0,0,0,0,0,0,0,0,0,0,0,0,0,0,0,0,0,0,0,0,0,0,0,0,0,0,0,0,0,0,0,0,0,0,0,0,0,0,0,0,0,0,0,0,0,0,0,0,0,0,0,0,0,0,0,0,0,0,0,0,0,0,0,0,0,0,0,0,0,0,0,0,0,0,0,0,0,0,0,0,0,0,0,0,0,0,0,0,0,0,0,0,0,0,0,0,0,0,0,0,0,0,0,0,0,0,0],"sum_hessian":[1.0101E4,6.958E3,3.143E3,2.974E3,3.984E3,2.018E3,1.125E3,1.39E3,1.584E3,3.64E2,3.62E3,8.28E2,1.19E3,4.16E2,7.09E2,1.65E2,1.225E3,8.4E1,1.5E3,3.53E2,1.1E1,7.15E2,2.905E3,4.73E2,3.55E2,1.176E3,1.4E1,4.01E2,1.5E1,6.4E2,6.9E1,1.56E2,9E0,1.106E3,1.19E2,7.7E1,7E0,1.495E3,5E0,3.35E2,1.8E1,8E0,3E0,7.08E2,7E0,7.95E2,2.11E3,4.24E2,4.9E1,3.47E2,8E0,4.39E2,7.37E2,1E1,4E0,1.53E2,2.48E2,6E0,9E0,6.09E2,3.1E1,5.3E1,1.6E1,1.8E1,1.38E2,4E0,5E0,1.26E2,9.8E2,1.1E2,9E0,9E0,6.8E1,1E0,6E0,2E0,1.493E3,1E0,4E0,3.3E2,5E0,1.5E1,3E0,2E0,1E0,1.5E1,6.93E2,4.2E2,3.75E2,1.999E3,1.11E2,4.01E2,2.3E1,7E0,4.2E1,3.18E2,2.9E1,3E0,5E0,9.4E1,3.45E2,1.77E2,5.6E2,2E0,8E0,2E0,2E0,6.5E1,8.8E1,4.1E1,2.07E2,8E0,1E0,1.19E2,4.9E2,5E0,2.6E1,7E0,4.6E1,2E0,1.4E1],"tree_param":{"num_deleted":"0","num_feature":"192","num_nodes":"121","size_leaf_vector":"0"}},{"base_weights":[2.8624678E1,3.1140823E1,2.4172247E1,3.2463665E1,2.9831175E1,2.6047964E1,2.0533796E1,3.0570879E1,3.380187E1,3.0587982E1,2.7333105E1,2.3831974E1,2.7004622E1,2.2891106E1,1.88162E1,3.149992E1,2.6453218E1,2.8522697E1,3.4394543E1,2.708184E1,3.123841E1,2.578852E1,2.9486168E1,2.4298624E1,1.350982E1,2.5483038E1,2.830513E1,2.2377228E1,3.304474E1,1.6160076E1,2.026038E1,3.2055946E1,2.63882E1,2.8144352E1,1.9058157E1,3.316644E1,2.5869154E1,3.44197E1,-3.8109264E0,5.8671265E0,2.7282837E1,3.2337513E1,2.9537085E1,2.765738E1,2.231519E1,3.0701698E1,2.135708E1,2.629681E1,2.1946123E1,2.9125245E0,1.6658506E1,3.757738E0,2.5674664E1,2.8398178E1,5.2592754E-1,1.451553E1,2.284916E1,9.021481E0,3.4903072E1,2.48114E1,1.52997055E1,1.6788088E1,2.1850462E1,3.2101593E1,-6.157297E0,5.3434415E0,2.7321663E1,2.4814611E1,3.2474876E1,9.378678E0,2.1868027E1,5.0252E0,3.3516685E1,2.7524776E1,1.612265E1,3.446969E1,1.08794775E1,8.279502E0,1.4990419E0,2.0317818E1,2.792828E1,3.243609E1,1.5020285E1,9.885074E0,2.9667711E1,2.814101E1,1.2788457E1,6.837682E0,2.2961718E1,3.0903316E1,2.4567096E0,7.232599E0,2.5298616E1,3.6300168E0,2.6532045E1,2.6613218E1,2.0481642E1,5.4742064E0,-1.6581297E0,7.7146454E0,2.1766254E1,7.7733474E0,-2.201208E0,9.825871E0,2.5911356E1,2.6215363E1,2.9649933E1,-5.6987095E0,4.500376E0,1.6567034E1,3.206421E0,2.1499792E1,2.6202509E1,7.3924084E0,3.5908985E1,1.3688214E1,2.908967E1,1.4195054E1,2.2289291E1,2.2500612E1,1.487051E1,2.657692E1,2.0666594E1],"categories":[],"categories_nodes":[],"categories_segments":[],"categories_sizes":[],"default_left":[1,1,1,1,1,1,1,1,1,1,1,1,1,1,1,1,1,1,1,1,1,1,1,1,1,1,1,1,1,1,1,1,1,1,1,1,1,1,0,1,1,1,1,1,1,1,1,1,1,1,1,1,1,1,1,1,1,0,1,1,1,1,1,0,0,0,0,0,0,0,0,0,0,0,0,0,0,0,0,0,0,0,0,0,0,0,0,0,0,0,0,0,0,0,0,0,0,0,0,0,0,0,0,0,0,0,0,0,0,0,0,0,0,0,0,0,0,0,0,0,0,0,0],"id":7,"left_children":[1,3,5,7,9,11,13,15,17,19,21,23,25,27,29,31,33,35,37,39,41,43,45,47,49,51,53,55,57,59,61,63,65,67,69,71,73,75,-1,77,79,81,83,85,87,89,91,93,95,97,99,101,103,105,107,109,111,-1,113,115,117,119,121,-1,-1,-1,-1,-1,-1,-1,-1,-1,-1,-1,-1,-1,-1,-1,-1,-1,-1,-1,-1,-1,-1,-1,-1,-1,-1,-1,-1,-1,-1,-1,-1,-1,-1,-1,-1,-1,-1,-1,-1,-1,-1,-1,-1,-1,-1,-1,-1,-1,-1,-1,-1,-1,-1,-1,-1,-1,-1,-1,-1],"loss_changes":[1.124195E5,1.02075E4,2.4389E4,7.067E3,5.31575E3,4.457125E3,4.61825E3,4.273875E3,4.851E3,4.83025E3,1.7869375E3,3.2072812E3,2.589375E3,1.979E3,2.4612969E3,2.235E3,2.6151406E3,1.5325469E3,1.73725E3,1.5327812E3,2.958625E3,2.3298125E3,2.437125E3,2.7180938E3,1.085978E3,3.1549688E3,2.29325E3,1.5197031E3,7.119199E2,1.5631094E3,2.2115781E3,1.8949375E3,2.0541875E3,2.1212969E3,1.1548105E3,4.919453E2,1.6217031E3,1.590375E3,0E0,4.027597E1,1.1992812E3,1.6655E3,1.8450625E3,1.7327344E3,1.4840781E3,1.4616406E3,2.2666016E3,1.8978594E3,1.69675E3,1.1445402E2,1.01983887E3,2.0854115E2,2.6489062E3,1.6545E3,1.2460434E2,6.661006E2,1.5588281E3,0E0,3.156836E2,6.48751E2,1.5366562E3,1.3194922E3,1.2245E3,0E0,0E0,0E0,0E0,0E0,0E0,0E0,0E0,0E0,0E0,0E0,0E0,0E0,0E0,0E0,0E0,0E0,0E0,0E0,0E0,0E0,0E0,0E0,0E0,0E0,0E0,0E0,0E0,0E0,0E0,0E0,0E0,0E0,0E0,0E0,0E0,0E0,0E0,0E0,0E0,0E0,0E0,0E0,0E0,0E0,0E0,0E0,0E0,0E0,0E0,0E0,0E0,0E0,0E0,0E0,0E0,0E0,0E0,0E0,0E0],"parents":[2147483647,0,0,1,1,2,2,3,3,4,4,5,5,6,6,7,7,8,8,9,9,10,10,11,11,12,12,13,13,14,14,15,15,16,16,17,17,18,18,19,19,20,20,21,21,22,22,23,23,24,24,25,25,26,26,27,27,28,28,29,29,30,30,31,31,32,32,33,33,34,34,35,35,36,36,37,37,39,39,40,40,41,41,42,42,43,43,44,44,45,45,46,46,47,47,48,48,49,49,50,50,51,51,52,52,53,53,54,54,55,55,56,56,58,58,59,59,60,60,61,61,62,62],"right_children":[2,4,6,8,10,12,14,16,18,20,22,24,26,28,30,32,34,36,38,40,42,44,46,48,50,52,54,56,58,60,62,64,66,68,70,72,74,76,-1,78,80,82,84,86,88,90,92,94,96,98,100,102,104,106,108,110,112,-1,114,116,118,120,122,-1,-1,-1,-1,-1,-1,-1,-1,-1,-1,-1,-1,-1,-1,-1,-1,-1,-1,-1,-1,-1,-1,-1,-1,-1,-1,-1,-1,-1,-1,-1,-1,-1,-1,-1,-1,-1,-1,-1,-1,-1,-1,-1,-1,-1,-1,-1,-1,-1,-1,-1,-1,-1,-1,-1,-1,-1,-1,-1,-1],"split_conditions":[-3.5437834E-1,-7.865527E-2,2.870959E-1,-4.2411348E-1,1.9302486E-1,9.7839236E-2,-2.5980818E-1,8.484596E-1,-1.0952048E0,-6.870497E-1,-1.0540332E0,1.8981771E0,7.825709E-1,1.0442108E-1,1.075345E0,1.9847474E-1,4.031919E-1,-5.9025824E-1,4.7244298E-1,4.712857E-1,2.0601116E-2,-5.947802E-1,1.0240264E0,-1.7851418E-1,-1.0205362E0,-1.3068418E-1,8.954341E-3,-6.4352043E-3,-1.6951718E0,-7.655804E-2,-9.3243444E-1,4.501996E-1,-1.166647E0,1.009758E0,-5.6972384E-2,-2.319592E0,2.0437795E-1,1.6837049E0,-3.8109264E-1,-8.588537E-1,-5.9165746E-1,1.0612841E-1,-1.0232248E0,1.1221384E0,1.2383205E-1,1.2650828E0,-1.5724353E0,-1.2778332E0,1.1795868E-1,-1.0283914E0,1.3903235E0,5.8687484E-1,-4.8616637E-2,-1.2981917E-1,-1.7055228E-2,4.6012712E-1,1.4919943E-1,9.0214807E-1,-3.928014E-1,-2.2346847E-2,1.4550571E0,1.8957102E-1,-6.6115394E-2,3.2101593E0,-6.1572975E-1,5.3434414E-1,2.7321663E0,2.4814613E0,3.2474878E0,9.378678E-1,2.1868026E0,5.0252E-1,3.3516686E0,2.7524776E0,1.612265E0,3.4469688E0,1.0879477E0,8.279502E-1,1.4990419E-1,2.031782E0,2.792828E0,3.243609E0,1.5020285E0,9.885074E-1,2.9667711E0,2.814101E0,1.2788457E0,6.837682E-1,2.296172E0,3.0903318E0,2.4567096E-1,7.2325987E-1,2.5298617E0,3.6300167E-1,2.6532047E0,2.6613219E0,2.0481641E0,5.474207E-1,-1.6581297E-1,7.714645E-1,2.1766255E0,7.7733475E-1,-2.2012082E-1,9.8258716E-1,2.5911357E0,2.6215363E0,2.9649932E0,-5.6987095E-1,4.5003763E-1,1.6567034E0,3.2064208E-1,2.1499794E0,2.620251E0,7.392408E-1,3.5908985E0,1.3688215E0,2.908967E0,1.4195055E0,2.2289293E0,2.2500613E0,1.487051E0,2.657692E0,2.0666595E0],"split_indices":[55,6,160,55,13,4,8,66,176,24,37,162,79,78,162,81,172,94,99,45,115,34,101,69,21,23,61,189,31,19,137,93,63,143,103,66,62,89,0,2,5,104,156,110,45,56,147,36,0,21,48,6,51,23,0,41,183,0,66,134,122,100,190,0,0,0,0,0,0,0,0,0,0,0,0,0,0,0,0,0,0,0,0,0,0,0,0,0,0,0,0,0,0,0,0,0,0,0,0,0,0,0,0,0,0,0,0,0,0,0,0,0,0,0,0,0,0,0,0,0,0,0,0],"split_type":[0,0,0,0,0,0,0,0,0,0,0,0,0,0,0,0,0,0,0,0,0,0,0,0,0,0,0,0,0,0,0,0,0,0,0,0,0,0,0,0,0,0,0,0,0,0,0,0,0,0,0,0,0,0,0,0,0,0,0,0,0,0,0,0,0,0,0,0,0,0,0,0,0,0,0,0,0,0,0,0,0,0,0,0,0,0,0,0,0,0,0,0,0,0,0,0,0,0,0,0,0,0,0,0,0,0,0,0,0,0,0,0,0,0,0,0,0,0,0,0,0,0,0],"sum_hessian":[1.0101E4,6.45E3,3.651E3,3.197E3,3.253E3,2.405E3,1.246E3,1.334E3,1.863E3,2.488E3,7.65E2,7.33E2,1.672E3,5.2E2,7.26E2,1.083E3,2.51E2,1.93E2,1.67E3,3.96E2,2.092E3,4.53E2,3.12E2,7E2,3.3E1,7.8E2,8.92E2,4.98E2,2.2E1,2.6E2,4.66E2,9.72E2,1.11E2,2.02E2,4.9E1,6.6E1,1.27E2,1.669E3,1E0,4E0,3.92E2,1.26E3,8.32E2,2.9E2,1.63E2,2.69E2,4.3E1,3.73E2,3.27E2,8E0,2.5E1,7E0,7.73E2,8.89E2,3E0,3E1,4.68E2,2E0,2E1,2.1E1,2.39E2,1.5E2,3.16E2,9.71E2,1E0,5E0,1.06E2,1.18E2,8.4E1,1.2E1,3.7E1,1E0,6.5E1,1.07E2,2E1,1.665E3,4E0,2E0,2E0,3.6E1,3.56E2,1.252E3,8E0,6E0,8.26E2,2.8E2,1E1,7E0,1.56E2,2.67E2,2E0,1E1,3.3E1,4E0,3.69E2,7.4E1,2.53E2,5E0,3E0,1E1,1.5E1,4E0,3E0,1.2E1,7.61E2,3.32E2,5.57E2,1E0,2E0,2.5E1,5E0,3.39E2,1.29E2,1E0,1.9E1,7E0,1.4E1,2.09E2,3E1,3.5E1,1.15E2,5.9E1,2.57E2],"tree_param":{"num_deleted":"0","num_feature":"192","num_nodes":"123","size_leaf_vector":"0"}},{"base_weights":[2.5772532E1,2.7675697E1,2.0964842E1,2.86683E1,2.4938778E1,2.2466713E1,1.7340872E1,2.9858305E1,2.7589422E1,1.5775306E1,2.5259346E1,1.7720154E1,2.2817955E1,1.5943065E1,1.9495514E1,3.0454584E1,2.7496212E1,2.6834179E1,2.9772562E1,1.6921967E1,3.3655534E0,2.5655554E1,2.115566E1,2.0729506E1,1.3743717E1,2.2280468E1,2.5492388E1,1.6271605E1,5.912943E0,1.4820905E1,2.0424046E1,2.6236113E1,3.0788445E1,2.3106174E1,2.8444633E1,2.6968704E1,1.35953665E1,2.9900145E1,9.8406925E0,1.858113E1,6.4362063E0,3.1025362E-1,5.579465E0,2.424999E1,2.698896E1,1.6877739E1,2.4053183E1,5.28281E0,2.2138327E1,2.5519693E0,1.4838608E1,1.864083E1,2.2793293E1,1.1103689E1,2.5888355E1,2.095982E1,1.5344286E1,1.2300584E0,9.536244E0,9.321209E0,1.7470186E1,1.2486909E1,2.1040817E1,6.785627E0,2.6712732E1,3.0932016E1,2.1980822E1,2.6664177E1,1.7131086E1,2.8540497E1,-5.8609962E0,2.4927456E1,2.7753508E1,2.6392387E1,6.3471446E0,2.9996664E1,5.5099516E0,-3.6544697E0,1.7501892E1,1.2403769E1,2.1949112E1,3.485616E0,1.2159045E1,2.2125244E-3,4.121965E-1,2.2894098E1,2.61703E1,2.1231728E0,2.707333E1,1.3586157E1,2.4756546E1,1.5866743E1,2.5676504E1,-2.1312363E0,8.109365E0,2.7039982E1,1.7418463E1,5.61774E0,-1.151794E0,1.8304888E1,1.0052466E1,1.6602003E1,2.4124372E1,2.2934769E1,9.334505E0,2.1523144E0,1.3072494E1,2.4549059E1,3.0332144E1,2.4243193E1,1.2288483E1,1.844373E1,1.417875E1,-2.5373777E-2,2.8056922E0,1.1105188E1,2.173647E0,1.2480268E1,2.6277063E0,1.820375E1,2.844036E0,1.7366426E1,4.8948455E0,2.7378124E1,1.9739712E1],"categories":[],"categories_nodes":[],"categories_segments":[],"categories_sizes":[],"default_left":[1,1,1,1,1,1,1,1,1,1,1,1,1,1,1,1,1,1,1,1,1,1,1,1,1,1,1,1,1,1,1,1,1,1,1,1,1,1,1,1,1,1,0,1,1,1,1,1,1,1,1,1,1,1,1,1,1,1,1,1,1,1,1,0,0,0,0,0,0,0,0,0,0,0,0,0,0,0,0,0,0,0,0,0,0,0,0,0,0,0,0,0,0,0,0,0,0,0,0,0,0,0,0,0,0,0,0,0,0,0,0,0,0,0,0,0,0,0,0,0,0,0,0,0,0],"id":8,"left_children":[1,3,5,7,9,11,13,15,17,19,21,23,25,27,29,31,33,35,37,39,41,43,45,47,49,51,53,55,57,59,61,63,65,67,69,71,73,75,77,79,81,83,-1,85,87,89,91,93,95,97,99,101,103,105,107,109,111,113,115,117,119,121,123,-1,-1,-1,-1,-1,-1,-1,-1,-1,-1,-1,-1,-1,-1,-1,-1,-1,-1,-1,-1,-1,-1,-1,-1,-1,-1,-1,-1,-1,-1,-1,-1,-1,-1,-1,-1,-1,-1,-1,-1,-1,-1,-1,-1,-1,-1,-1,-1,-1,-1,-1,-1,-1,-1,-1,-1,-1,-1,-1,-1,-1,-1],"loss_changes":[9.18515E4,1.8938E4,1.5225625E4,5.9835E3,5.27975E3,2.97175E3,2.2341562E3,2.6965E3,3.80775E3,9.106738E2,2.491125E3,1.4382812E3,2.1373125E3,1.61075E3,1.1209844E3,2.000375E3,1.4911875E3,3.348375E3,1.50875E3,9.590586E2,4.5618095E1,2.526E3,1.7012422E3,1.6239805E3,7.58625E2,2.5149375E3,1.467375E3,1.8564688E3,2.9368488E2,6.8223145E2,1.0639219E3,1.237125E3,1.649375E3,1.6053711E3,1.5484688E3,2.614625E3,1.9658643E3,1.492E3,6.8429486E2,8.3042773E2,1.2647577E2,1.2469837E-1,0E0,1.5775625E3,1.751E3,1.5308828E3,9.0823047E2,1.8493263E2,1.2178672E3,8.59547E1,7.9480664E2,1.8354844E3,2.405875E3,1.4809875E2,1.0348906E3,1.9797852E3,1.2629766E3,1.7874104E1,9.137622E1,4.1125403E2,3.559375E2,7.299973E2,1.5209297E3,0E0,0E0,0E0,0E0,0E0,0E0,0E0,0E0,0E0,0E0,0E0,0E0,0E0,0E0,0E0,0E0,0E0,0E0,0E0,0E0,0E0,0E0,0E0,0E0,0E0,0E0,0E0,0E0,0E0,0E0,0E0,0E0,0E0,0E0,0E0,0E0,0E0,0E0,0E0,0E0,0E0,0E0,0E0,0E0,0E0,0E0,0E0,0E0,0E0,0E0,0E0,0E0,0E0,0E0,0E0,0E0,0E0,0E0,0E0,0E0,0E0,0E0],"parents":[2147483647,0,0,1,1,2,2,3,3,4,4,5,5,6,6,7,7,8,8,9,9,10,10,11,11,12,12,13,13,14,14,15,15,16,16,17,17,18,18,19,19,20,20,21,21,22,22,23,23,24,24,25,25,26,26,27,27,28,28,29,29,30,30,31,31,32,32,33,33,34,34,35,35,36,36,37,37,38,38,39,39,40,40,41,41,43,43,44,44,45,45,46,46,47,47,48,48,49,49,50,50,51,51,52,52,53,53,54,54,55,55,56,56,57,57,58,58,59,59,60,60,61,61,62,62],"right_children":[2,4,6,8,10,12,14,16,18,20,22,24,26,28,30,32,34,36,38,40,42,44,46,48,50,52,54,56,58,60,62,64,66,68,70,72,74,76,78,80,82,84,-1,86,88,90,92,94,96,98,100,102,104,106,108,110,112,114,116,118,120,122,124,-1,-1,-1,-1,-1,-1,-1,-1,-1,-1,-1,-1,-1,-1,-1,-1,-1,-1,-1,-1,-1,-1,-1,-1,-1,-1,-1,-1,-1,-1,-1,-1,-1,-1,-1,-1,-1,-1,-1,-1,-1,-1,-1,-1,-1,-1,-1,-1,-1,-1,-1,-1,-1,-1,-1,-1,-1,-1,-1,-1,-1,-1],"split_conditions":[-3.0486414E-1,-6.6309345E-1,-2.95703E-1,-1.5815259E0,-1.0197128E0,-4.7904992E-1,1.8164608E0,-3.2491276E-1,1.9519612E-2,4.613893E-1,3.574788E-1,-4.8256576E-1,-1.0674299E0,1.1057034E0,9.849873E-1,-5.644357E-1,-1.7947085E0,2.905435E-1,1.2298083E0,5.2092946E-1,4.2105085E-1,-2.8843613E-4,-5.3075333E-3,4.0374476E-1,-1.6472409E0,-3.1678194E-1,-8.251833E-1,2.3648225E-2,1.7382319E0,4.5705295E-1,-4.7592145E-1,6.420007E-1,4.7129118E-1,-3.9739776E-1,7.049922E-1,-3.3553088E-1,2.3359028E-1,9.8540723E-1,-8.006768E-2,-8.3922446E-2,6.7285436E-1,8.829589E-2,5.579465E-1,-1.5384868E0,-2.6527786E0,-1.3661301E0,4.9213678E-2,-2.777163E-1,2.113451E-1,-1.0683581E0,-4.7412702E-1,-1.5903415E-1,9.883892E-1,1.302256E0,3.4731606E-1,1.1429918E-1,1.3398625E-1,7.6876855E-1,6.171973E-1,3.3106452E-1,3.783266E-1,5.371224E-1,-3.958242E-1,6.785627E-1,2.6712732E0,3.0932016E0,2.1980822E0,2.6664178E0,1.7131087E0,2.8540497E0,-5.860996E-1,2.4927456E0,2.7753508E0,2.6392388E0,6.347145E-1,2.9996665E0,5.509952E-1,-3.6544698E-1,1.7501892E0,1.2403768E0,2.1949112E0,3.485616E-1,1.2159046E0,2.2125244E-4,4.1219648E-2,2.2894099E0,2.61703E0,2.1231727E-1,2.707333E0,1.3586158E0,2.4756546E0,1.5866743E0,2.5676506E0,-2.1312363E-1,8.1093657E-1,2.7039983E0,1.7418463E0,5.61774E-1,-1.151794E-1,1.8304888E0,1.0052466E0,1.6602004E0,2.4124372E0,2.2934768E0,9.334505E-1,2.1523145E-1,1.3072494E0,2.454906E0,3.0332143E0,2.4243193E0,1.2288483E0,1.844373E0,1.417875E0,-2.5373779E-3,2.8056923E-1,1.1105188E0,2.173647E-1,1.2480267E0,2.6277062E-1,1.8203751E0,2.8440362E-1,1.7366427E0,4.8948455E-1,2.7378125E0,1.9739712E0],"split_indices":[141,2,8,14,112,114,186,188,107,76,190,76,37,5,162,24,12,158,25,110,9,107,189,139,157,109,150,126,161,41,139,52,82,32,57,19,143,144,0,103,84,0,0,173,62,37,0,1,69,31,188,101,190,7,104,109,147,0,146,3,160,82,99,0,0,0,0,0,0,0,0,0,0,0,0,0,0,0,0,0,0,0,0,0,0,0,0,0,0,0,0,0,0,0,0,0,0,0,0,0,0,0,0,0,0,0,0,0,0,0,0,0,0,0,0,0,0,0,0,0,0,0,0,0,0],"split_type":[0,0,0,0,0,0,0,0,0,0,0,0,0,0,0,0,0,0,0,0,0,0,0,0,0,0,0,0,0,0,0,0,0,0,0,0,0,0,0,0,0,0,0,0,0,0,0,0,0,0,0,0,0,0,0,0,0,0,0,0,0,0,0,0,0,0,0,0,0,0,0,0,0,0,0,0,0,0,0,0,0,0,0,0,0,0,0,0,0,0,0,0,0,0,0,0,0,0,0,0,0,0,0,0,0,0,0,0,0,0,0,0,0,0,0,0,0,0,0,0,0,0,0,0,0],"sum_hessian":[1.0101E4,7.233E3,2.868E3,5.301E3,1.932E3,2.024E3,8.44E2,2.508E3,2.793E3,6.7E1,1.865E3,1.43E2,1.881E3,5.17E2,3.27E2,1.993E3,5.15E2,2.085E3,7.08E2,6.1E1,6E0,1.696E3,1.69E2,7.9E1,6.4E1,1.574E3,3.07E2,5E2,1.7E1,5.7E1,2.7E2,1.52E2,1.841E3,9.6E1,4.19E2,2.063E3,2.2E1,7.03E2,5E0,5.2E1,9E0,3E0,3E0,8.35E2,8.61E2,7.1E1,9.8E1,7E0,7.2E1,6E0,5.8E1,1.99E2,1.375E3,9E0,2.98E2,7.9E1,4.21E2,8E0,9E0,2E1,3.7E1,2.1E1,2.49E2,4E0,1.48E2,1.809E3,3.2E1,5.8E1,3.8E1,4.18E2,1E0,5.82E2,1.481E3,7E0,1.5E1,7E2,3E0,2E0,3E0,2E1,3.2E1,7E0,2E0,1E0,2E0,4.97E2,3.38E2,3E0,8.58E2,5.2E1,1.9E1,1.8E1,8E1,2E0,5E0,3.3E1,3.9E1,3E0,3E0,3.2E1,2.6E1,1.48E2,5.1E1,1.36E3,1.5E1,2E0,7E0,2.34E2,6.4E1,5.6E1,2.3E1,1.11E2,3.1E2,5E0,3E0,7E0,2E0,1.3E1,7E0,3.5E1,2E0,1.2E1,9E0,3.9E1,2.1E2],"tree_param":{"num_deleted":"0","num_feature":"192","num_nodes":"125","size_leaf_vector":"0"}},{"base_weights":[2.3204374E1,2.5304352E1,1.9648088E1,2.6630688E1,2.4398012E1,2.1570168E1,1.7289284E1,2.7379642E1,2.4136385E1,2.4898682E1,2.2076727E1,2.3002258E1,2.0450657E1,1.4980712E1,1.8611723E1,2.3993986E1,2.7886127E1,2.4198835E1,-6.666954E0,2.2817244E1,2.549638E1,6.9921136E0,2.2314302E1,1.8620396E1,2.3726383E1,8.638315E0,2.0617617E1,1.7503355E1,1.3630336E1,2.1959703E1,1.7715414E1,2.4976414E1,1.3642214E1,2.799765E1,1.4370599E1,5.5109706E0,2.431501E1,1.832511E1,2.4088257E1,2.555373E1,7.4018283E0,1.1930714E1,6.506157E-2,7.433643E0,2.255177E1,2.0481922E1,1.0622533E1,2.3818771E1,1.4871693E-1,-1.8813416E0,1.1778313E1,2.112118E1,1.7220396E1,1.5492386E1,2.3137646E1,1.4728419E1,1.0352527E1,2.3588625E1,1.5392687E1,2.061758E1,1.6687944E1,1.4541443E1,2.5610268E1,1.8448795E1,1.122128E0,2.837418E1,2.4060335E1,8.4654674E-2,2.2933699E1,1.6661644E1,-7.4766927E0,2.550796E1,2.1967068E1,1.5909571E1,2.4471458E1,3.4408429E0,2.4273409E1,1.2994393E1,2.562212E1,1.376349E1,-3.9911213E0,-5.348707E0,2.2175567E0,1.189704E1,-4.467411E0,2.6150953E1,2.155515E1,1.9124218E1,3.0468979E1,4.022348E0,1.6463966E1,1.524949E1,2.4100006E1,1.843038E0,-2.467123E0,-5.274906E-1,-2.0879316E0,1.3447123E1,1.1769727E0,2.1932856E1,1.8618168E1,1.2475212E1,2.0116522E1,1.6766428E1,6.7385573E0,1.738427E1,3.135084E1,5.725313E0,1.527503E1,1.2638178E1,7.0965004E0,1.2510058E1,2.4618294E1,1.7001074E1,1.5685269E0,1.8215675E1,2.4232338E1,1.6994822E1,5.258836E0],"categories":[],"categories_nodes":[],"categories_segments":[],"categories_sizes":[],"default_left":[1,1,1,1,1,1,1,1,1,1,1,1,1,1,1,1,1,1,0,1,1,1,1,1,1,1,1,1,1,1,1,1,1,1,1,1,1,1,1,1,1,0,1,1,1,1,1,1,1,1,1,1,1,1,1,1,1,1,1,1,1,0,0,0,0,0,0,0,0,0,0,0,0,0,0,0,0,0,0,0,0,0,0,0,0,0,0,0,0,0,0,0,0,0,0,0,0,0,0,0,0,0,0,0,0,0,0,0,0,0,0,0,0,0,0,0,0,0,0],"id":9,"left_children":[1,3,5,7,9,11,13,15,17,19,21,23,25,27,29,31,33,35,-1,37,39,41,43,45,47,49,51,53,55,57,59,61,63,65,67,69,71,73,75,77,79,-1,81,83,85,87,89,91,93,95,97,99,101,103,105,107,109,111,113,115,117,-1,-1,-1,-1,-1,-1,-1,-1,-1,-1,-1,-1,-1,-1,-1,-1,-1,-1,-1,-1,-1,-1,-1,-1,-1,-1,-1,-1,-1,-1,-1,-1,-1,-1,-1,-1,-1,-1,-1,-1,-1,-1,-1,-1,-1,-1,-1,-1,-1,-1,-1,-1,-1,-1,-1,-1,-1,-1],"loss_changes":[7.49455E4,6.98125E3,1.66515E4,4.13275E3,3.84675E3,2.84025E3,4.8836875E3,2.70225E3,1.3174375E3,3.279875E3,2.2809375E3,2.4075625E3,2.1254375E3,1.876875E3,2.824875E3,2.3339375E3,2.166125E3,1.168625E3,0E0,3.5667188E3,2.304625E3,4.0974304E2,2.196375E3,1.7476758E3,1.66725E3,6.167296E2,1.6053125E3,2.0549102E3,1.3196328E3,2.0116797E3,2.1905312E3,1.2083906E3,1.4837681E3,1.82125E3,1.9553706E3,8.4867993E2,1.1090625E3,1.9713047E3,1.996125E3,1.72425E3,7.0723456E2,0E0,8.177973E1,6.905784E2,1.7965625E3,8.5460547E2,9.74749E2,1.4737188E3,2.2275291E1,2.9709435E-1,2.3185571E2,1.6192188E3,1.8654102E3,1.6714609E3,2.0066836E3,1.4085938E3,6.9918066E2,1.6996953E3,1.0183594E3,1.4513281E3,2.1307656E3,0E0,0E0,0E0,0E0,0E0,0E0,0E0,0E0,0E0,0E0,0E0,0E0,0E0,0E0,0E0,0E0,0E0,0E0,0E0,0E0,0E0,0E0,0E0,0E0,0E0,0E0,0E0,0E0,0E0,0E0,0E0,0E0,0E0,0E0,0E0,0E0,0E0,0E0,0E0,0E0,0E0,0E0,0E0,0E0,0E0,0E0,0E0,0E0,0E0,0E0,0E0,0E0,0E0,0E0,0E0,0E0,0E0,0E0],"parents":[2147483647,0,0,1,1,2,2,3,3,4,4,5,5,6,6,7,7,8,8,9,9,10,10,11,11,12,12,13,13,14,14,15,15,16,16,17,17,19,19,20,20,21,21,22,22,23,23,24,24,25,25,26,26,27,27,28,28,29,29,30,30,31,31,32,32,33,33,34,34,35,35,36,36,37,37,38,38,39,39,40,40,42,42,43,43,44,44,45,45,46,46,47,47,48,48,49,49,50,50,51,51,52,52,53,53,54,54,55,55,56,56,57,57,58,58,59,59,60,60],"right_children":[2,4,6,8,10,12,14,16,18,20,22,24,26,28,30,32,34,36,-1,38,40,42,44,46,48,50,52,54,56,58,60,62,64,66,68,70,72,74,76,78,80,-1,82,84,86,88,90,92,94,96,98,100,102,104,106,108,110,112,114,116,118,-1,-1,-1,-1,-1,-1,-1,-1,-1,-1,-1,-1,-1,-1,-1,-1,-1,-1,-1,-1,-1,-1,-1,-1,-1,-1,-1,-1,-1,-1,-1,-1,-1,-1,-1,-1,-1,-1,-1,-1,-1,-1,-1,-1,-1,-1,-1,-1,-1,-1,-1,-1,-1,-1,-1,-1,-1,-1],"split_conditions":[-3.7139338E-1,-1.0054004E0,2.2878698E-1,6.7679656E-1,-1.3366017E0,-2.702784E-1,-7.9048204E-1,-1.6374665E0,-3.6071014E-1,-1.7072716E0,-1.0270869E0,6.462842E-1,-8.639965E-3,5.1222396E-1,2.9356307E-1,8.715199E-1,3.917166E-1,-2.0722213E0,-6.666954E-1,1.8544337E-1,6.8820834E-1,-1.6108987E0,-7.639887E-1,7.130061E-1,-8.7925863E-1,-4.9523506E-3,1.6234148E0,-7.8986216E-1,6.245626E-1,1.5909398E-1,9.8253906E-1,-9.126371E-2,-1.4749085E0,1.2223313E0,6.4937025E-2,3.5364705E-1,4.1447926E-1,4.5137218E-1,-7.3238003E-1,-8.769056E-1,-1.4287112E0,1.1930714E0,-8.824903E-2,-7.646472E-1,-9.180093E-1,6.06624E-1,8.4912516E-2,-1.2984822E0,-8.604709E-3,2.8746662E-1,3.7118578E-1,6.875696E-1,-1.3784821E0,1.1238501E0,5.2858865E-1,4.1590297E-1,1.0245719E0,-5.008016E-1,7.88151E-2,-3.486406E-2,7.517556E-1,1.4541444E0,2.5610268E0,1.8448795E0,1.122128E-1,2.837418E0,2.4060335E0,8.465468E-3,2.29337E0,1.6661644E0,-7.476693E-1,2.550796E0,2.1967068E0,1.590957E0,2.447146E0,3.440843E-1,2.427341E0,1.2994393E0,2.562212E0,1.376349E0,-3.9911214E-1,-5.3487074E-1,2.2175567E-1,1.1897041E0,-4.467411E-1,2.6150954E0,2.155515E0,1.9124218E0,3.046898E0,4.022348E-1,1.6463966E0,1.524949E0,2.4100006E0,1.843038E-1,-2.4671231E-1,-5.2749064E-2,-2.0879316E-1,1.3447123E0,1.17697276E-1,2.1932857E0,1.8618168E0,1.2475213E0,2.0116522E0,1.6766428E0,6.738557E-1,1.738427E0,3.135084E0,5.7253134E-1,1.527503E0,1.2638178E0,7.0965004E-1,1.2510059E0,2.4618294E0,1.7001075E0,1.5685269E-1,1.8215675E0,2.4232337E0,1.6994822E0,5.258836E-1],"split_indices":[55,81,160,35,175,128,48,185,50,173,158,57,189,72,174,140,82,2,0,165,35,14,77,6,63,134,178,20,13,103,56,101,14,85,16,1,116,5,62,101,29,0,0,77,76,13,131,108,1,0,6,57,37,5,104,75,191,82,132,155,64,0,0,0,0,0,0,0,0,0,0,0,0,0,0,0,0,0,0,0,0,0,0,0,0,0,0,0,0,0,0,0,0,0,0,0,0,0,0,0,0,0,0,0,0,0,0,0,0,0,0,0,0,0,0,0,0,0,0],"split_type":[0,0,0,0,0,0,0,0,0,0,0,0,0,0,0,0,0,0,0,0,0,0,0,0,0,0,0,0,0,0,0,0,0,0,0,0,0,0,0,0,0,0,0,0,0,0,0,0,0,0,0,0,0,0,0,0,0,0,0,0,0,0,0,0,0,0,0,0,0,0,0,0,0,0,0,0,0,0,0,0,0,0,0,0,0,0,0,0,0,0,0,0,0,0,0,0,0,0,0,0,0,0,0,0,0,0,0,0,0,0,0,0,0,0,0,0,0,0,0],"sum_hessian":[1.0101E4,6.347E3,3.754E3,2.565E3,3.782E3,2.064E3,1.69E3,1.965E3,6E2,3.103E3,6.79E2,8.97E2,1.167E3,6.2E2,1.07E3,2.62E2,1.703E3,5.99E2,1E0,7.01E2,2.402E3,1.1E1,6.68E2,1.31E2,7.66E2,1.7E1,1.15E3,2.12E2,4.08E2,2.21E2,8.49E2,2.38E2,2.4E1,1.688E3,1.5E1,4E0,5.95E2,1.58E2,5.43E2,2.394E3,8E0,6E0,5E0,1.1E1,6.57E2,1.05E2,2.6E1,7.63E2,3E0,4E0,1.3E1,9.97E2,1.53E2,1.59E2,5.3E1,3.03E2,1.05E2,1.75E2,4.6E1,2.17E2,6.32E2,1.5E1,2.23E2,1.7E1,7E0,1.535E3,1.53E2,6E0,9E0,2E0,2E0,3.88E2,2.07E2,1.16E2,4.2E1,5E0,5.38E2,1.4E1,2.38E3,5E0,3E0,1E0,4E0,8E0,3E0,1.37E2,5.2E2,9.5E1,1E1,1.3E1,1.3E1,2.6E1,7.37E2,2E0,1E0,1E0,3E0,1.1E1,2E0,7.47E2,2.5E2,6E1,9.3E1,1.38E2,2.1E1,3.3E1,2E1,1.8E1,2.85E2,6E1,4.5E1,1.6E1,1.59E2,4.1E1,5E0,1.34E2,8.3E1,6.15E2,1.7E1],"tree_param":{"num_deleted":"0","num_feature":"192","num_nodes":"119","size_leaf_vector":"0"}},{"base_weights":[2.0891787E1,2.2450542E1,1.69542E1,2.3234749E1,2.0077217E1,1.8167711E1,1.4026022E1,2.4702366E1,2.2510063E1,1.25875225E1,2.0358866E1,1.6271408E1,1.8842855E1,1.3590793E1,1.9697302E1,2.584653E1,2.3270966E1,2.3748577E1,2.1738567E1,2.0453724E1,1.0536663E1,1.9512814E1,2.2178402E1,1.8883623E1,1.4410684E1,2.2702349E1,1.8317442E1,8.221854E0,1.3958949E1,3.2216046E0,2.1190828E1,1.9284727E1,2.6382927E1,2.336641E1,-1.6357298E0,1.2973386E1,2.4058462E1,2.317794E1,2.0936518E1,6.6456175E0,2.3931595E1,1.2474384E1,5.3575144E0,2.7329386E1,1.9253185E1,2.3200275E1,1.884614E1,1.945793E1,4.8199825E0,1.4830278E1,2.4401977E0,2.49121E1,1.5607355E1,1.9336353E1,1.642179E1,4.3449025E0,1.2390244E1,1.0657786E1,1.4610397E1,-2.1725795E0,6.4618416E0,5.135764E0,2.2051416E1,1.2730307E1,2.3567577E1,2.6481565E1,7.173356E0,2.017128E1,2.4133675E1,3.2746086E0,-4.3640456E0,1.6349659E1,-8.477715E-1,2.4396128E1,1.7124802E1,1.2945008E1,2.350538E1,2.1068916E1,1.0854389E1,7.2076955E0,1.6455872E1,-1.5138906E0,9.24318E0,2.9054049E1,1.0825666E1,1.2082791E1,1.9505335E1,2.3849638E1,1.8646305E1,1.9509016E1,4.1273417E0,7.1056395E0,1.9907501E1,-1.6266203E0,7.8151865E0,1.6948309E1,1.2916372E1,4.6904354E0,-1.648222E0,2.605699E1,1.2515638E1,5.641801E0,1.8372465E1,1.9459576E1,1.7343854E0,1.3596132E1,1.8387163E1,-3.9630467E-3,6.001802E0,1.9181171E1,4.6462207E0,6.482664E0,1.2546283E1,1.48817E1,7.644969E0,8.7578297E-1,6.26383E0,2.2957333E1,9.306697E0],"categories":[],"categories_nodes":[],"categories_segments":[],"categories_sizes":[],"default_left":[1,1,1,1,1,1,1,1,1,1,1,1,1,1,1,1,1,1,1,1,1,1,1,1,1,1,1,1,1,1,1,1,1,1,1,1,1,1,1,0,0,1,1,1,1,1,1,1,1,1,1,1,1,1,1,1,1,1,1,0,0,1,1,0,0,0,0,0,0,0,0,0,0,0,0,0,0,0,0,0,0,0,0,0,0,0,0,0,0,0,0,0,0,0,0,0,0,0,0,0,0,0,0,0,0,0,0,0,0,0,0,0,0,0,0,0,0,0,0],"id":10,"left_children":[1,3,5,7,9,11,13,15,17,19,21,23,25,27,29,31,33,35,37,39,41,43,45,47,49,51,53,55,57,59,61,63,65,67,69,71,73,75,77,-1,-1,79,81,83,85,87,89,91,93,95,97,99,101,103,105,107,109,111,113,-1,-1,115,117,-1,-1,-1,-1,-1,-1,-1,-1,-1,-1,-1,-1,-1,-1,-1,-1,-1,-1,-1,-1,-1,-1,-1,-1,-1,-1,-1,-1,-1,-1,-1,-1,-1,-1,-1,-1,-1,-1,-1,-1,-1,-1,-1,-1,-1,-1,-1,-1,-1,-1,-1,-1,-1,-1,-1,-1],"loss_changes":[6.1623E4,1.299725E4,9.93975E3,5.22025E3,3.5491875E3,2.2859375E3,1.818E3,2.321875E3,2.9685E3,8.8149414E2,2.2411875E3,2.34775E3,2.5995625E3,1.4427969E3,1.3589297E3,2.9510625E3,1.947125E3,4.325875E3,2.122625E3,4.6525586E2,4.951704E2,1.8969062E3,1.4151562E3,1.6911875E3,1.5660703E3,2.3391875E3,2.2204375E3,8.0267944E2,1.4270938E3,1.18909485E2,6.1903906E2,1.8895625E3,1.52675E3,1.4744062E3,6.787836E1,1.9270854E3,2.7405625E3,2.3729062E3,1.7215625E3,0E0,0E0,7.2016064E2,4.6789288E2,7.101504E2,1.8598438E3,7.7365625E2,1.2171289E3,1.0358281E3,2.0580127E2,1.0296328E3,1.18129875E2,1.5331016E3,1.1088047E3,1.8077188E3,2.3379297E3,2.0898706E2,1.2256077E3,9.042549E2,1.0427266E3,0E0,0E0,1.3736397E1,3.63625E2,0E0,0E0,0E0,0E0,0E0,0E0,0E0,0E0,0E0,0E0,0E0,0E0,0E0,0E0,0E0,0E0,0E0,0E0,0E0,0E0,0E0,0E0,0E0,0E0,0E0,0E0,0E0,0E0,0E0,0E0,0E0,0E0,0E0,0E0,0E0,0E0,0E0,0E0,0E0,0E0,0E0,0E0,0E0,0E0,0E0,0E0,0E0,0E0,0E0,0E0,0E0,0E0,0E0,0E0,0E0,0E0],"parents":[2147483647,0,0,1,1,2,2,3,3,4,4,5,5,6,6,7,7,8,8,9,9,10,10,11,11,12,12,13,13,14,14,15,15,16,16,17,17,18,18,19,19,20,20,21,21,22,22,23,23,24,24,25,25,26,26,27,27,28,28,29,29,30,30,31,31,32,32,33,33,34,34,35,35,36,36,37,37,38,38,41,41,42,42,43,43,44,44,45,45,46,46,47,47,48,48,49,49,50,50,51,51,52,52,53,53,54,54,55,55,56,56,57,57,58,58,61,61,62,62],"right_children":[2,4,6,8,10,12,14,16,18,20,22,24,26,28,30,32,34,36,38,40,42,44,46,48,50,52,54,56,58,60,62,64,66,68,70,72,74,76,78,-1,-1,80,82,84,86,88,90,92,94,96,98,100,102,104,106,108,110,112,114,-1,-1,116,118,-1,-1,-1,-1,-1,-1,-1,-1,-1,-1,-1,-1,-1,-1,-1,-1,-1,-1,-1,-1,-1,-1,-1,-1,-1,-1,-1,-1,-1,-1,-1,-1,-1,-1,-1,-1,-1,-1,-1,-1,-1,-1,-1,-1,-1,-1,-1,-1,-1,-1,-1,-1,-1,-1,-1,-1],"split_conditions":[-3.0486414E-1,-5.9007144E-1,-2.95703E-1,-2.1173558E0,-1.0197128E0,-1.298589E-1,1.897025E-1,-5.704757E-1,-9.3215954E-1,-5.07879E-1,7.438735E-1,-4.8828095E-1,-1.6494045E0,1.2375271E-1,-7.356904E-1,-1.7470814E-2,-1.363889E-1,-1.5198087E0,-1.6292371E-1,1.0799959E0,1.2048987E0,-7.555751E-1,4.1376466E-1,-1.050389E0,-7.1554303E-1,4.6748483E-1,2.0423787E-2,-2.608099E-1,9.2630064E-1,-7.8634274E-1,-1.7306646E0,1.0053846E-1,-9.277916E-1,-7.642787E-3,1.9699335E-1,-9.158909E-1,9.825013E-1,-1.6893749E0,1.0363605E0,6.6456175E-1,2.3931596E0,5.526501E-1,2.845732E-1,1.659666E-1,-1.777916E-1,8.229823E-1,6.8876314E-1,-2.3774466E-1,-6.7334557E-1,-1.2866291E0,-6.513052E-1,8.213347E-1,-4.893602E-3,1.191664E0,-4.5525292E-1,8.2799125E-1,2.0401919E-1,3.4825623E-2,1.8233228E-2,-2.1725796E-1,6.4618415E-1,2.8223714E-1,9.229714E-2,1.2730306E0,2.3567579E0,2.6481566E0,7.1733564E-1,2.017128E0,2.4133675E0,3.2746086E-1,-4.3640456E-1,1.6349659E0,-8.4777154E-2,2.4396129E0,1.7124802E0,1.2945008E0,2.350538E0,2.1068916E0,1.085439E0,7.207696E-1,1.6455872E0,-1.5138906E-1,9.24318E-1,2.9054048E0,1.0825666E0,1.2082791E0,1.9505335E0,2.3849638E0,1.8646306E0,1.9509016E0,4.1273418E-1,7.1056396E-1,1.9907502E0,-1.6266203E-1,7.8151864E-1,1.6948309E0,1.2916373E0,4.6904355E-1,-1.648222E-1,2.605699E0,1.2515639E0,5.641801E-1,1.8372465E0,1.9459575E0,1.7343853E-1,1.3596133E0,1.8387164E0,-3.9630468E-4,6.001802E-1,1.9181172E0,4.6462208E-1,6.4826643E-1,1.2546283E0,1.48817E0,7.644969E-1,8.75783E-2,6.26383E-1,2.2957332E0,9.306697E-1],"split_indices":[141,2,8,181,112,151,1,188,158,117,140,40,180,122,139,138,96,55,6,7,56,11,172,185,24,157,179,181,162,2,76,58,14,125,0,180,144,164,101,0,0,45,4,146,172,52,57,5,80,93,133,140,189,104,101,136,62,135,43,0,0,0,78,0,0,0,0,0,0,0,0,0,0,0,0,0,0,0,0,0,0,0,0,0,0,0,0,0,0,0,0,0,0,0,0,0,0,0,0,0,0,0,0,0,0,0,0,0,0,0,0,0,0,0,0,0,0,0,0],"split_type":[0,0,0,0,0,0,0,0,0,0,0,0,0,0,0,0,0,0,0,0,0,0,0,0,0,0,0,0,0,0,0,0,0,0,0,0,0,0,0,0,0,0,0,0,0,0,0,0,0,0,0,0,0,0,0,0,0,0,0,0,0,0,0,0,0,0,0,0,0,0,0,0,0,0,0,0,0,0,0,0,0,0,0,0,0,0,0,0,0,0,0,0,0,0,0,0,0,0,0,0,0,0,0,0,0,0,0,0,0,0,0,0,0,0,0,0,0,0,0],"sum_hessian":[1.0101E4,7.233E3,2.868E3,5.43E3,1.803E3,2.024E3,8.44E2,1.784E3,3.646E3,6.7E1,1.736E3,5.38E2,1.486E3,7.87E2,5.7E1,9.82E2,8.02E2,1.388E3,2.258E3,1.2E1,5.5E1,1.193E3,5.43E2,2.2E2,3.18E2,1.73E2,1.313E3,5.2E1,7.35E2,5E0,5.2E1,7.7E1,9.05E2,7.99E2,3E0,4E1,1.348E3,7.98E2,1.46E3,3E0,9E0,3.9E1,1.6E1,3.5E1,1.158E3,4.11E2,1.32E2,2.11E2,9E0,3.07E2,1.1E1,1.3E2,4.3E1,8.48E2,4.65E2,2.8E1,2.4E1,1.24E2,6.11E2,2E0,3E0,3E0,4.9E1,3.2E1,4.5E1,9E2,5E0,1.6E2,6.39E2,1E0,2E0,3.2E1,8E0,1.283E3,6.5E1,2.6E1,7.72E2,1.44E3,2E1,1.8E1,2.1E1,6E0,1E1,3.1E1,4E0,4.1E1,1.117E3,3.56E2,5.5E1,1.26E2,6E0,8E0,2.03E2,3E0,6E0,1.42E2,1.65E2,7E0,4E0,1.18E2,1.2E1,1E1,3.3E1,8.42E2,6E0,1.94E2,2.71E2,8E0,2E1,1.2E1,1.2E1,4E1,8.4E1,5.87E2,2.4E1,1E0,2E0,4.5E1,4E0],"tree_param":{"num_deleted":"0","num_feature":"192","num_nodes":"119","size_leaf_vector":"0"}},{"base_weights":[1.8809885E1,2.0533342E1,1.5923212E1,2.1584518E1,1.9679628E1,1.7550285E1,1.3886678E1,1.8260557E1,2.2053703E1,1.8388248E1,2.0553444E1,1.780075E1,1.2626675E1,1.4968562E1,1.2066727E1,2.3892513E1,1.693981E1,1.969848E1,2.288099E1,1.8007847E1,2.323707E1,1.7982376E1,2.1067072E1,2.0448473E1,1.7293707E1,2.5383224E0,1.5118545E1,1.5943794E1,1.2915049E1,2.6277275E1,1.1865847E1,2.4839785E1,3.2366652E0,1.750492E1,7.3964896E0,2.0495256E1,1.34215355E1,2.297242E1,8.397905E0,1.4772265E1,1.875909E1,2.4362202E1,7.252783E0,2.0515163E1,1.6075409E1,2.1514112E1,1.7526403E1,8.19603E0,2.0906668E1,1.769112E1,1.3240822E1,5.2701592E0,-5.6249356E0,1.7513483E1,7.099758E0,1.4871145E1,1.8580784E1,5.49871E0,1.3554791E1,1.1298743E1,1.6428705E1,2.5359873E1,6.158117E0,6.224333E0,-2.8631687E0,1.7693272E1,-5.4075227E0,1.0508712E1,-6.1234655E0,2.0871202E1,8.415208E0,1.5165263E1,3.9640713E-1,2.3526672E1,2.0895473E1,1.3942497E1,-3.9453378E-1,1.919409E1,1.2312539E1,1.8923363E1,5.0166273E0,3.3998692E0,2.4785551E1,-8.978404E0,1.4159579E1,4.4737754E0,2.092969E1,1.7099028E1,8.331173E0,2.1594244E1,7.1827674E0,3.9192228E0,1.8378632E1,6.4653206E-1,1.0396226E1,6.088975E0,2.133956E1,1.880758E1,1.6203894E1,1.169917E1,2.195895E1,9.777482E0,1.137285E0,-3.0156708E-1,-6.6292963E0,1.9100613E1,4.0159855E0,1.2544664E1,-1.5539678E0,1.5802628E1,1.0418812E1,1.2790427E1,2.0216694E1,2.3859224E0,1.494091E1,1.2884776E1,2.116978E1,5.449642E0,1.1702123E1,1.1090008E1,2.0717861E1],"categories":[],"categories_nodes":[],"categories_segments":[],"categories_sizes":[],"default_left":[1,1,1,1,1,1,1,1,1,1,1,1,1,1,1,1,1,1,1,1,1,1,1,1,1,1,1,1,1,0,1,1,1,1,1,1,1,1,1,1,1,1,1,1,1,1,1,1,1,1,1,1,1,1,1,1,1,1,1,1,1,0,0,0,0,0,0,0,0,0,0,0,0,0,0,0,0,0,0,0,0,0,0,0,0,0,0,0,0,0,0,0,0,0,0,0,0,0,0,0,0,0,0,0,0,0,0,0,0,0,0,0,0,0,0,0,0,0,0,0,0],"id":11,"left_children":[1,3,5,7,9,11,13,15,17,19,21,23,25,27,29,31,33,35,37,39,41,43,45,47,49,51,53,55,57,-1,59,61,63,65,67,69,71,73,75,77,79,81,83,85,87,89,91,93,95,97,99,101,103,105,107,109,111,113,115,117,119,-1,-1,-1,-1,-1,-1,-1,-1,-1,-1,-1,-1,-1,-1,-1,-1,-1,-1,-1,-1,-1,-1,-1,-1,-1,-1,-1,-1,-1,-1,-1,-1,-1,-1,-1,-1,-1,-1,-1,-1,-1,-1,-1,-1,-1,-1,-1,-1,-1,-1,-1,-1,-1,-1,-1,-1,-1,-1,-1,-1],"loss_changes":[4.9931E4,5.2485E3,1.2285E4,4E3,3.5715E3,2.3624375E3,3.1351562E3,2.2358984E3,4.359875E3,2.204375E3,2.3665625E3,2.323375E3,2.601205E3,1.9008594E3,1.4951641E3,1.1914375E3,1.4398906E3,2.9707656E3,2.2184375E3,2.9387188E3,1.62175E3,1.3751875E3,2.3565E3,1.5970781E3,2.4716875E3,5.2025946E2,1.488834E3,1.7291406E3,1.5575938E3,0E0,1.4342266E3,4.4622656E2,9.071843E1,1.2781719E3,8.2173755E2,2.4311719E3,1.7201211E3,1.5908125E3,6.392571E2,2.5262969E3,2.320625E3,7.410508E2,1.0239745E3,8.905E2,1.4905352E3,1.6008125E3,2.2356562E3,2.0921338E2,1.8136406E3,2.2306875E3,1.8129082E3,3.0555957E2,3.0080307E1,1.2943203E3,1.0089873E3,1.9463281E3,1.6453906E3,8.1670746E2,1.3395156E3,1.2575E3,1.3044375E3,0E0,0E0,0E0,0E0,0E0,0E0,0E0,0E0,0E0,0E0,0E0,0E0,0E0,0E0,0E0,0E0,0E0,0E0,0E0,0E0,0E0,0E0,0E0,0E0,0E0,0E0,0E0,0E0,0E0,0E0,0E0,0E0,0E0,0E0,0E0,0E0,0E0,0E0,0E0,0E0,0E0,0E0,0E0,0E0,0E0,0E0,0E0,0E0,0E0,0E0,0E0,0E0,0E0,0E0,0E0,0E0,0E0,0E0,0E0,0E0],"parents":[2147483647,0,0,1,1,2,2,3,3,4,4,5,5,6,6,7,7,8,8,9,9,10,10,11,11,12,12,13,13,14,14,15,15,16,16,17,17,18,18,19,19,20,20,21,21,22,22,23,23,24,24,25,25,26,26,27,27,28,28,30,30,31,31,32,32,33,33,34,34,35,35,36,36,37,37,38,38,39,39,40,40,41,41,42,42,43,43,44,44,45,45,46,46,47,47,48,48,49,49,50,50,51,51,52,52,53,53,54,54,55,55,56,56,57,57,58,58,59,59,60,60],"right_children":[2,4,6,8,10,12,14,16,18,20,22,24,26,28,30,32,34,36,38,40,42,44,46,48,50,52,54,56,58,-1,60,62,64,66,68,70,72,74,76,78,80,82,84,86,88,90,92,94,96,98,100,102,104,106,108,110,112,114,116,118,120,-1,-1,-1,-1,-1,-1,-1,-1,-1,-1,-1,-1,-1,-1,-1,-1,-1,-1,-1,-1,-1,-1,-1,-1,-1,-1,-1,-1,-1,-1,-1,-1,-1,-1,-1,-1,-1,-1,-1,-1,-1,-1,-1,-1,-1,-1,-1,-1,-1,-1,-1,-1,-1,-1,-1,-1,-1,-1,-1,-1],"split_conditions":[-3.906113E-1,-1.6303785E-1,2.2861654E-1,-1.0763202E0,1.344283E-1,1.8728919E0,6.1298263E-1,-1.0326576E0,-5.5990887E-1,7.587183E-1,-6.850498E-1,-3.9408207E-1,5.2801895E-1,2.8193033E-1,-1.0740316E0,-1.6456413E-1,-8.236898E-1,1.0016026E0,1.5737469E0,-5.2683493E-3,-1.064609E0,-7.0982856E-1,1.3510323E-1,-1.2960347E0,-1.1449342E0,2.9244918E-1,-1.8499684E-1,5.1492214E-1,-2.0487449E-1,2.6277275E0,4.352758E-1,1.0936183E-1,2.5708526E-1,3.3588302E-1,6.884929E-1,1.0366867E0,-4.9091992E-1,8.1549585E-1,-1.0018167E0,-5.590193E-1,5.16199E-1,-2.065534E0,-1.2420247E-1,-1.416076E0,-1.2502382E0,1.8210192E0,2.7326298E-1,-1.2759423E-1,-1.3067558E-1,5.382079E-1,4.106441E-1,2.1045834E-2,-1.2866694E-1,3.1209582E-1,4.915142E-1,8.821671E-1,-3.8992208E-1,-1.1151755E-1,1.7331108E-1,-1.1812495E0,1.0269299E0,2.5359874E0,6.158117E-1,6.224333E-1,-2.8631687E-1,1.7693272E0,-5.407523E-1,1.0508713E0,-6.123466E-1,2.0871203E0,8.415208E-1,1.5165263E0,3.9640713E-2,2.3526673E0,2.0895474E0,1.3942498E0,-3.945338E-2,1.919409E0,1.231254E0,1.8923362E0,5.0166273E-1,3.3998692E-1,2.4785552E0,-8.9784044E-1,1.4159579E0,4.4737753E-1,2.092969E0,1.7099028E0,8.331173E-1,2.1594245E0,7.1827674E-1,3.919223E-1,1.8378632E0,6.465321E-2,1.0396227E0,6.088975E-1,2.133956E0,1.8807582E0,1.6203893E0,1.169917E0,2.195895E0,9.777482E-1,1.137285E-1,-3.0156707E-2,-6.6292965E-1,1.9100612E0,4.0159854E-1,1.2544664E0,-1.5539679E-1,1.5802628E0,1.0418812E0,1.2790427E0,2.0216694E0,2.3859225E-1,1.494091E0,1.2884777E0,2.1169782E0,5.4496425E-1,1.1702123E0,1.1090008E0,2.0717862E0],"split_indices":[183,6,160,176,91,162,141,158,55,68,24,66,110,121,22,96,28,66,89,189,180,88,117,108,167,0,139,82,139,0,53,2,0,23,57,73,108,52,184,176,2,29,6,119,170,37,159,151,23,81,90,179,1,23,45,49,130,114,65,112,191,0,0,0,0,0,0,0,0,0,0,0,0,0,0,0,0,0,0,0,0,0,0,0,0,0,0,0,0,0,0,0,0,0,0,0,0,0,0,0,0,0,0,0,0,0,0,0,0,0,0,0,0,0,0,0,0,0,0,0,0],"split_type":[0,0,0,0,0,0,0,0,0,0,0,0,0,0,0,0,0,0,0,0,0,0,0,0,0,0,0,0,0,0,0,0,0,0,0,0,0,0,0,0,0,0,0,0,0,0,0,0,0,0,0,0,0,0,0,0,0,0,0,0,0,0,0,0,0,0,0,0,0,0,0,0,0,0,0,0,0,0,0,0,0,0,0,0,0,0,0,0,0,0,0,0,0,0,0,0,0,0,0,0,0,0,0,0,0,0,0,0,0,0,0,0,0,0,0,0,0,0,0,0,0],"sum_hessian":[1.0101E4,6.321E3,3.78E3,2.822E3,3.499E3,2.097E3,1.683E3,3.54E2,2.468E3,1.421E3,2.078E3,1.993E3,1.04E2,1.051E3,6.32E2,6.4E1,2.9E2,6.48E2,1.82E3,1.322E3,9.9E1,3.52E2,1.726E3,3.14E2,1.679E3,2.1E1,8.3E1,7.08E2,3.43E2,7E0,6.25E2,6.1E1,3E0,2.73E2,1.7E1,5.73E2,7.5E1,1.808E3,1.2E1,2.53E2,1.069E3,9.2E1,7E0,1.47E2,2.05E2,1.528E3,1.98E2,1.2E1,3.02E2,1.526E3,1.53E2,1.6E1,5E0,6.3E1,2E1,5.08E2,2E2,2.8E1,3.15E2,5.59E2,6.6E1,5.9E1,2E0,2E0,1E0,2.71E2,2E0,1.4E1,3E0,5.55E2,1.8E1,6.6E1,9E0,1.419E3,3.89E2,7E0,5E0,8.8E1,1.65E2,1.056E3,1.3E1,2E0,9E1,2E0,5E0,4E0,1.43E2,1.8E2,2.5E1,1.519E3,9E0,1.2E1,1.86E2,3E0,9E0,9E0,2.93E2,8.65E2,6.61E2,1.32E2,2.1E1,7E0,9E0,1E0,4E0,5.6E1,7E0,1.2E1,8E0,4.18E2,9E1,4.6E1,1.54E2,2.2E1,6E0,2.92E2,2.3E1,3.7E1,5.22E2,3.1E1,3.5E1],"tree_param":{"num_deleted":"0","num_feature":"192","num_nodes":"121","size_leaf_vector":"0"}},{"base_weights":[1.6935589E1,1.8207718E1,1.3722095E1,1.8862032E1,1.620719E1,1.4708631E1,1.1341673E1,1.7705692E1,1.9583817E1,1.4222269E1,1.7017519E1,1.5727255E1,1.3742114E1,9.432904E0,1.2327266E1,1.7831917E1,5.5152564E0,1.9952778E1,1.7400042E1,1.3828487E1,2.398149E1,1.7224535E1,9.244333E0,1.6673748E1,1.2693621E1,2.0170122E1,1.33447485E1,1.5758947E1,8.728896E0,6.7249355E0,1.2869709E1,1.9032787E1,1.6491877E1,1.9977114E1,1.4192278E0,1.9978546E1,-3.395918E0,2.7621124E0,1.7698622E1,6.037055E0,1.4254178E1,2.625382E1,8.896794E0,1.4790865E1,1.7838354E1,1.3638802E1,-4.9662185E0,1.4432193E1,1.8167583E1,1.4187478E1,8.050283E0,2.0967045E1,-1.6947988E0,1.4264284E1,1.1531487E1,2.2227907E1,9.517984E0,5.6098557E0,1.041065E1,5.0844765E0,1.6310041E1,1.3390932E1,7.977461E0,1.5238052E1,1.9736217E1,1.6848927E1,7.8078194E0,-2.2563024E0,8.042466E0,2.0481895E1,1.860202E1,-7.1857414E0,2.6260376E-1,-4.095256E0,1.1810005E1,1.8258104E1,1.1415983E1,2.7820046E0,1.1617946E1,1.4352657E1,-6.1882443E0,2.7137764E1,6.497343E0,5.5166755E0,1.5734621E1,1.7898277E1,-7.6231704E0,3.5298934E0,1.9377577E1,-6.4461904E0,1.4245479E-1,1.4705556E1,-4.746682E0,1.296188E1,1.9179161E1,1.4654622E1,-4.906611E0,1.5831823E1,6.1773386E0,2.1693367E1,5.9199514E0,-4.0087385E0,1.4383267E1,1.2100941E1,1.3337848E0,6.2801514E0,2.303354E1,5.328062E0,1.4143875E1,7.3202686E0,2.4487288E-1,1.3436749E1,7.0403676E0,3.9125595E0,2.0187124E1,6.187702E0,1.3814054E1,-1.775275E0,1.0109602E1],"categories":[],"categories_nodes":[],"categories_segments":[],"categories_sizes":[],"default_left":[1,1,1,1,1,1,1,1,1,1,1,1,1,1,1,1,1,1,1,1,1,1,1,1,1,1,1,1,1,1,1,1,1,0,1,1,1,1,1,1,1,1,0,1,1,1,1,1,1,1,1,1,0,1,1,1,1,1,1,1,0,1,1,0,0,0,0,0,0,0,0,0,0,0,0,0,0,0,0,0,0,0,0,0,0,0,0,0,0,0,0,0,0,0,0,0,0,0,0,0,0,0,0,0,0,0,0,0,0,0,0,0,0,0,0,0,0,0,0],"id":12,"left_children":[1,3,5,7,9,11,13,15,17,19,21,23,25,27,29,31,33,35,37,39,41,43,45,47,49,51,53,55,57,59,61,63,65,-1,67,69,71,73,75,77,79,81,-1,83,85,87,89,91,93,95,97,99,-1,101,103,105,107,109,111,113,-1,115,117,-1,-1,-1,-1,-1,-1,-1,-1,-1,-1,-1,-1,-1,-1,-1,-1,-1,-1,-1,-1,-1,-1,-1,-1,-1,-1,-1,-1,-1,-1,-1,-1,-1,-1,-1,-1,-1,-1,-1,-1,-1,-1,-1,-1,-1,-1,-1,-1,-1,-1,-1,-1,-1,-1,-1,-1],"loss_changes":[4.1047E4,9.1635E3,6.570625E3,4.19775E3,2.6370625E3,1.7775E3,1.4733984E3,3.137625E3,2.346375E3,1.6859453E3,1.8780312E3,2.5993594E3,2.4051562E3,1.1628887E3,1.5970234E3,3.034875E3,1.3340798E3,1.784375E3,2.0970781E3,1.5955391E3,4.176953E2,1.5765312E3,2.2534067E3,2.2257656E3,1.5297344E3,1.0635898E3,1.4845312E3,9.188667E2,1.3316445E3,7.189946E2,1.1783438E3,2.6115E3,2.9411562E3,0E0,4.8068054E2,1.59375E3,5.7347607E1,7.30857E2,1.4822812E3,4.7632916E2,1.0551328E3,1.0309375E2,0E0,2.1363516E3,1.6301875E3,1.4979438E3,6.896451E1,1.6531289E3,2.0789688E3,1.6596094E3,7.766655E2,4.9453125E2,0E0,1.4752188E3,1.9466602E3,2.2370117E1,2.3475452E2,8.699592E2,1.6493965E3,7.174739E2,0E0,1.29825E3,1.0784517E3,0E0,0E0,0E0,0E0,0E0,0E0,0E0,0E0,0E0,0E0,0E0,0E0,0E0,0E0,0E0,0E0,0E0,0E0,0E0,0E0,0E0,0E0,0E0,0E0,0E0,0E0,0E0,0E0,0E0,0E0,0E0,0E0,0E0,0E0,0E0,0E0,0E0,0E0,0E0,0E0,0E0,0E0,0E0,0E0,0E0,0E0,0E0,0E0,0E0,0E0,0E0,0E0,0E0,0E0,0E0,0E0],"parents":[2147483647,0,0,1,1,2,2,3,3,4,4,5,5,6,6,7,7,8,8,9,9,10,10,11,11,12,12,13,13,14,14,15,15,16,16,17,17,18,18,19,19,20,20,21,21,22,22,23,23,24,24,25,25,26,26,27,27,28,28,29,29,30,30,31,31,32,32,34,34,35,35,36,36,37,37,38,38,39,39,40,40,41,41,43,43,44,44,45,45,46,46,47,47,48,48,49,49,50,50,51,51,53,53,54,54,55,55,56,56,57,57,58,58,59,59,61,61,62,62],"right_children":[2,4,6,8,10,12,14,16,18,20,22,24,26,28,30,32,34,36,38,40,42,44,46,48,50,52,54,56,58,60,62,64,66,-1,68,70,72,74,76,78,80,82,-1,84,86,88,90,92,94,96,98,100,-1,102,104,106,108,110,112,114,-1,116,118,-1,-1,-1,-1,-1,-1,-1,-1,-1,-1,-1,-1,-1,-1,-1,-1,-1,-1,-1,-1,-1,-1,-1,-1,-1,-1,-1,-1,-1,-1,-1,-1,-1,-1,-1,-1,-1,-1,-1,-1,-1,-1,-1,-1,-1,-1,-1,-1,-1,-1,-1,-1,-1,-1,-1,-1],"split_conditions":[-3.0486414E-1,-3.9376664E-1,-2.95703E-1,-5.4848798E-2,-1.0226235E0,1.8720102E-2,1.075345E0,1.2736624E0,1.832358E0,2.424057E-1,1.9625397E0,4.5909476E-1,4.0824914E-1,-7.655804E-2,-1.037766E0,-1.5948415E-3,4.220184E-1,1.3558705E0,-7.927375E-1,-5.561561E-1,-3.813007E-1,-4.572456E-3,-2.4686462E-1,4.863577E-1,1.8292302E-1,2.043196E0,-1.2503209E0,2.0462904E-2,1.2197095E-1,-1.1382399E0,-1.3599402E0,-1.24106795E-1,-2.9766098E-1,1.9977114E0,9.698741E-1,8.169905E-1,2.7097088E-1,1.1272693E-1,8.2603467E-1,-3.6110917E-1,1.8635696E0,3.6475614E-1,8.8967943E-1,9.772173E-1,8.855365E-3,-1.7846149E-1,3.8064426E-1,4.8564577E-1,-1.5513536E-2,3.174851E-1,6.393255E-1,5.909965E-1,-1.6947989E-1,-7.7582955E-1,1.1803186E0,-9.5219886E-1,-7.395288E-1,6.7145014E-1,1.8290088E-1,6.4838517E-1,1.6310042E0,-4.9430197E-1,-7.909864E-1,1.5238053E0,1.9736217E0,1.6848927E0,7.807819E-1,-2.2563024E-1,8.042466E-1,2.0481896E0,1.8602021E0,-7.1857417E-1,2.6260376E-2,-4.095256E-1,1.1810006E0,1.8258104E0,1.1415983E0,2.7820048E-1,1.1617945E0,1.4352658E0,-6.188244E-1,2.7137764E0,6.497343E-1,5.516676E-1,1.5734621E0,1.7898277E0,-7.6231706E-1,3.5298935E-1,1.9377577E0,-6.4461905E-1,1.4245479E-2,1.4705557E0,-4.7466823E-1,1.296188E0,1.9179162E0,1.4654622E0,-4.906611E-1,1.5831823E0,6.177339E-1,2.1693368E0,5.919952E-1,-4.0087387E-1,1.4383267E0,1.2100941E0,1.3337849E-1,6.2801516E-1,2.303354E0,5.328062E-1,1.4143876E0,7.320269E-1,2.4487289E-2,1.343675E0,7.040368E-1,3.9125594E-1,2.0187125E0,6.1877024E-1,1.3814054E0,-1.775275E-1,1.0109602E0],"split_indices":[141,119,8,27,176,115,162,136,162,131,162,41,52,19,149,103,39,134,50,48,32,125,66,36,58,182,185,51,135,176,180,151,187,0,144,52,1,95,52,32,113,1,0,178,61,172,9,36,138,109,35,157,0,42,153,9,153,35,62,47,0,139,16,0,0,0,0,0,0,0,0,0,0,0,0,0,0,0,0,0,0,0,0,0,0,0,0,0,0,0,0,0,0,0,0,0,0,0,0,0,0,0,0,0,0,0,0,0,0,0,0,0,0,0,0,0,0,0,0],"split_type":[0,0,0,0,0,0,0,0,0,0,0,0,0,0,0,0,0,0,0,0,0,0,0,0,0,0,0,0,0,0,0,0,0,0,0,0,0,0,0,0,0,0,0,0,0,0,0,0,0,0,0,0,0,0,0,0,0,0,0,0,0,0,0,0,0,0,0,0,0,0,0,0,0,0,0,0,0,0,0,0,0,0,0,0,0,0,0,0,0,0,0,0,0,0,0,0,0,0,0,0,0,0,0,0,0,0,0,0,0,0,0,0,0,0,0,0,0,0,0],"sum_hessian":[1.0101E4,7.233E3,2.868E3,5.444E3,1.789E3,2.024E3,8.44E2,2.102E3,3.342E3,5.24E2,1.265E3,9.78E2,1.046E3,2.91E2,5.53E2,2.08E3,2.2E1,2.852E3,4.9E2,5.06E2,1.8E1,1.231E3,3.4E1,7.42E2,2.36E2,5.8E1,9.88E2,2.7E1,2.64E2,5E1,5.03E2,1.09E3,9.9E2,4E0,1.8E1,2.849E3,3E0,1E1,4.8E2,2.7E1,4.79E2,1.5E1,3E0,2.53E2,9.78E2,2.6E1,8E0,3.01E2,4.41E2,1.77E2,5.9E1,5.6E1,2E0,6.51E2,3.37E2,1.2E1,1.5E1,9.4E1,1.7E2,4.4E1,6E0,4.53E2,5E1,1.74E2,9.16E2,9.5E2,4E1,1.2E1,6E0,2.076E3,7.73E2,1E0,2E0,6E0,4E0,4.39E2,4.1E1,1.8E1,9E0,4.77E2,2E0,1.4E1,1E0,2.4E1,2.29E2,9.76E2,2E0,1E1,1.6E1,6E0,2E0,2.97E2,4E0,7.4E1,3.67E2,1.73E2,4E0,1E1,4.9E1,5.3E1,3E0,4E0,6.47E2,3.19E2,1.8E1,1E0,1.1E1,9E0,6E0,7.1E1,2.3E1,8.8E1,8.2E1,4.2E1,2E0,2.6E1,4.27E2,9E0,4.1E1],"tree_param":{"num_deleted":"0","num_feature":"192","num_nodes":"119","size_leaf_vector":"0"}},{"base_weights":[1.524735E1,1.6390654E1,1.2359266E1,1.6930145E1,1.43799715E1,1.324387E1,1.0224733E1,1.7836685E1,1.6113514E1,1.4686768E1,9.161394E0,1.3083903E1,1.9061764E1,9.86338E0,1.4957858E1,1.9170532E1,1.6875015E1,1.5556622E1,1.7861591E1,1.238436E1,1.5397138E1,1.2609361E1,6.8633523E0,1.4991917E1,1.2560142E1,8.487266E0,2.202193E1,1.6065516E1,9.588173E0,1.2588259E0,1.6226469E1,-3.0670133E0,1.9233002E1,1.2434336E1,1.7136301E1,1.7817749E1,1.4970414E1,1.3375985E1,1.8401392E1,1.6744244E1,1.05514345E1,1.7070133E1,1.4388036E1,1.8435102E1,8.125087E0,-2.7479587E0,8.803564E0,1.66058E1,1.1499647E1,1.1777776E1,1.4282559E1,1.21910095E1,-2.8939123E0,-4.680265E-1,2.321793E1,1.7939304E1,-1.5358295E0,8.796685E0,1.2058343E1,-3.4611034E0,4.4840665E0,6.3865013E0,1.7585018E1,-3.5048103E-1,-3.855697E0,1.9442968E1,1.1506265E1,1.35742855E1,-1.0894248E0,1.6401632E1,1.8827827E1,7.6143236E0,1.847744E1,1.0186006E1,1.5253782E1,1.4222929E1,-6.4834146E0,2.9200206E0,1.8543297E1,1.9157196E1,1.0395018E1,2.1012428E0,1.1206467E1,1.7154114E1,-8.638834E0,1.6675438E1,1.3041004E1,2.0017143E1,5.961904E0,1.2686584E1,2.8249452E0,-5.366112E0,2.5207996E0,4.641728E0,1.2113838E1,1.2487378E1,1.869734E1,7.422979E0,1.4435849E1,-1.1224117E0,1.1924459E1,1.2901904E1,1.619076E1,4.3616586E0,1.360314E1,-1.1554794E0,4.534397E-1,2.5937466E1,1.3009481E1,-2.266013E0,1.951992E1,-3.1572914E-1,-1.8372866E0,5.6174426E0,9.516814E0,2.4067028E1,1.0907513E1,5.1415706E0,1.2557774E0,8.185973E0,6.587226E-1,2.779906E0,1.8194798E1],"categories":[],"categories_nodes":[],"categories_segments":[],"categories_sizes":[],"default_left":[1,1,1,1,1,1,1,1,1,1,1,1,1,1,1,1,1,1,1,1,1,1,1,1,1,1,1,1,1,1,1,1,1,1,1,1,1,1,1,1,1,1,1,1,1,1,1,1,1,1,1,1,0,1,1,1,1,1,1,0,1,1,1,0,0,0,0,0,0,0,0,0,0,0,0,0,0,0,0,0,0,0,0,0,0,0,0,0,0,0,0,0,0,0,0,0,0,0,0,0,0,0,0,0,0,0,0,0,0,0,0,0,0,0,0,0,0,0,0,0,0,0,0],"id":13,"left_children":[1,3,5,7,9,11,13,15,17,19,21,23,25,27,29,31,33,35,37,39,41,43,45,47,49,51,53,55,57,59,61,63,65,67,69,71,73,75,77,79,81,83,85,87,89,91,93,95,97,99,101,103,-1,105,107,109,111,113,115,-1,117,119,121,-1,-1,-1,-1,-1,-1,-1,-1,-1,-1,-1,-1,-1,-1,-1,-1,-1,-1,-1,-1,-1,-1,-1,-1,-1,-1,-1,-1,-1,-1,-1,-1,-1,-1,-1,-1,-1,-1,-1,-1,-1,-1,-1,-1,-1,-1,-1,-1,-1,-1,-1,-1,-1,-1,-1,-1,-1,-1,-1,-1],"loss_changes":[3.315375E4,7.6035E3,5.281875E3,3.931E3,2.32625E3,1.6352188E3,1.2976953E3,3.12825E3,2.6504375E3,2.1809062E3,6.107324E2,1.7844062E3,1.4408145E3,1.1909688E3,9.8754004E2,1.614875E3,1.610875E3,2.7673125E3,1.4972344E3,2.5963203E3,1.6181719E3,7.38437E2,1.0498308E3,2.176211E3,1.92725E3,5.8326843E2,1.0867812E3,1.0829502E3,1.3739531E3,1.06857254E2,5.9620215E2,7.21859E0,1.5884688E3,1.4176807E3,1.5329062E3,2.996E3,2.3175625E3,1.4546152E3,1.351875E3,1.3482168E3,1.3436309E3,1.0333984E3,1.9239844E3,1.5692334E2,4.718694E2,1.5147107E2,5.775039E2,2.2214688E3,1.5207539E3,2.0475469E3,1.0583359E3,5.122827E1,0E0,2.424334E0,7.1753516E2,9.7040137E2,8.9114666E-1,1.2675625E3,2.2388984E3,0E0,2.0337906E0,7.706354E1,3.6470117E2,0E0,0E0,0E0,0E0,0E0,0E0,0E0,0E0,0E0,0E0,0E0,0E0,0E0,0E0,0E0,0E0,0E0,0E0,0E0,0E0,0E0,0E0,0E0,0E0,0E0,0E0,0E0,0E0,0E0,0E0,0E0,0E0,0E0,0E0,0E0,0E0,0E0,0E0,0E0,0E0,0E0,0E0,0E0,0E0,0E0,0E0,0E0,0E0,0E0,0E0,0E0,0E0,0E0,0E0,0E0,0E0,0E0,0E0,0E0,0E0],"parents":[2147483647,0,0,1,1,2,2,3,3,4,4,5,5,6,6,7,7,8,8,9,9,10,10,11,11,12,12,13,13,14,14,15,15,16,16,17,17,18,18,19,19,20,20,21,21,22,22,23,23,24,24,25,25,26,26,27,27,28,28,29,29,30,30,31,31,32,32,33,33,34,34,35,35,36,36,37,37,38,38,39,39,40,40,41,41,42,42,43,43,44,44,45,45,46,46,47,47,48,48,49,49,50,50,51,51,53,53,54,54,55,55,56,56,57,57,58,58,60,60,61,61,62,62],"right_children":[2,4,6,8,10,12,14,16,18,20,22,24,26,28,30,32,34,36,38,40,42,44,46,48,50,52,54,56,58,60,62,64,66,68,70,72,74,76,78,80,82,84,86,88,90,92,94,96,98,100,102,104,-1,106,108,110,112,114,116,-1,118,120,122,-1,-1,-1,-1,-1,-1,-1,-1,-1,-1,-1,-1,-1,-1,-1,-1,-1,-1,-1,-1,-1,-1,-1,-1,-1,-1,-1,-1,-1,-1,-1,-1,-1,-1,-1,-1,-1,-1,-1,-1,-1,-1,-1,-1,-1,-1,-1,-1,-1,-1,-1,-1,-1,-1,-1,-1,-1,-1,-1,-1],"split_conditions":[-3.0486414E-1,-4.2212307E-1,-2.95703E-1,-1.5815259E0,-2.9582036E-1,7.1745515E-1,1.897025E-1,2.336505E-1,1.9519612E-2,2.4280247E-1,-7.762477E-1,1.2920363E0,3.812478E-1,-2.3595712E-1,-7.356904E-1,-9.036986E-1,9.881768E-1,-6.6817874E-1,-2.0309358E0,-1.7852597E0,-3.5296172E-2,7.5638646E-1,-2.7518952E-1,-3.8029334E-1,1.8484467E-1,2.468482E-1,-8.267635E-1,3.349359E-1,-8.38659E-3,-7.8634274E-1,-1.5059437E0,6.232746E-2,4.7250265E-1,-1.7689314E-1,1.9388102E0,-7.531595E-2,-8.168521E-1,1.2212344E0,-3.773141E-2,1.6753669E0,-1.256151E0,4.9440098E-1,-5.144541E-2,5.9716666E-1,1.531749E-1,-1.1575909E0,6.724733E-1,-3.4339833E-1,3.8949013E-1,-5.9262943E-1,8.0755234E-1,2.0101893E-1,-2.8939125E-1,2.7262652E-1,-7.5636655E-3,-1.9489415E0,-2.176308E-1,-3.9436033E-1,-5.5780113E-3,-3.4611034E-1,3.8303852E-1,2.413258E-1,7.2326857E-1,-3.5048105E-2,-3.855697E-1,1.9442968E0,1.1506265E0,1.3574286E0,-1.0894249E-1,1.6401633E0,1.8827828E0,7.6143235E-1,1.847744E0,1.0186006E0,1.5253782E0,1.422293E0,-6.483415E-1,2.9200205E-1,1.8543297E0,1.9157196E0,1.0395018E0,2.1012428E-1,1.1206467E0,1.7154114E0,-8.6388344E-1,1.6675438E0,1.3041004E0,2.0017145E0,5.961904E-1,1.2686585E0,2.8249452E-1,-5.3661126E-1,2.5207996E-1,4.641728E-1,1.2113838E0,1.2487378E0,1.869734E0,7.422979E-1,1.4435849E0,-1.1224117E-1,1.192446E0,1.2901905E0,1.619076E0,4.3616587E-1,1.360314E0,-1.1554795E-1,4.5343973E-2,2.5937467E0,1.3009481E0,-2.2660129E-1,1.951992E0,-3.1572916E-2,-1.8372867E-1,5.617443E-1,9.5168144E-1,2.4067028E0,1.0907513E0,5.1415706E-1,1.2557773E-1,8.185973E-1,6.587226E-2,2.779906E-1,1.8194798E0],"split_indices":[141,2,8,14,28,11,1,9,107,15,82,161,81,40,139,126,48,129,175,169,160,21,100,2,91,81,53,100,166,2,99,0,82,104,4,121,9,88,106,178,108,55,62,45,75,63,11,159,53,42,71,1,0,0,166,29,1,2,166,0,1,1,17,0,0,0,0,0,0,0,0,0,0,0,0,0,0,0,0,0,0,0,0,0,0,0,0,0,0,0,0,0,0,0,0,0,0,0,0,0,0,0,0,0,0,0,0,0,0,0,0,0,0,0,0,0,0,0,0,0,0,0,0],"split_type":[0,0,0,0,0,0,0,0,0,0,0,0,0,0,0,0,0,0,0,0,0,0,0,0,0,0,0,0,0,0,0,0,0,0,0,0,0,0,0,0,0,0,0,0,0,0,0,0,0,0,0,0,0,0,0,0,0,0,0,0,0,0,0,0,0,0,0,0,0,0,0,0,0,0,0,0,0,0,0,0,0,0,0,0,0,0,0,0,0,0,0,0,0,0,0,0,0,0,0,0,0,0,0,0,0,0,0,0,0,0,0,0,0,0,0,0,0,0,0,0,0,0,0],"sum_hessian":[1.0101E4,7.233E3,2.868E3,5.697E3,1.536E3,2.024E3,8.44E2,2.69E3,3.007E3,1.449E3,8.7E1,1.973E3,5.1E1,7.87E2,5.7E1,1.119E3,1.571E3,2.288E3,7.19E2,3.46E2,1.103E3,3.3E1,5.4E1,4.19E2,1.554E3,1.2E1,3.9E1,3.1E1,7.56E2,5E0,5.2E1,3E0,1.116E3,9E1,1.481E3,4.65E2,1.823E3,8E1,6.39E2,1E2,2.46E2,4.09E2,6.94E2,1.3E1,2E1,9E0,4.5E1,2.84E2,1.35E2,1.074E3,4.8E2,9E0,3E0,2E0,3.7E1,2.8E1,3E0,5.76E2,1.8E2,2E0,3E0,7E0,4.5E1,1E0,2E0,1.085E3,3.1E1,8.3E1,7E0,1.04E3,4.41E2,2.9E1,4.36E2,1.04E2,1.719E3,7.7E1,3E0,6E0,6.33E2,7.1E1,2.9E1,1.8E1,2.28E2,4.08E2,1E0,2.53E2,4.41E2,1.1E1,2E0,1E1,1E1,6E0,3E0,2.1E1,2.4E1,9.8E1,1.86E2,5.8E1,7.7E1,1.2E1,1.062E3,2.83E2,1.97E2,2E0,7E0,1E0,1E0,2.8E1,9E0,2E0,2.6E1,1E0,2E0,1.08E2,4.68E2,1.4E1,1.66E2,2E0,1E0,5E0,2E0,2E0,4.3E1],"tree_param":{"num_deleted":"0","num_feature":"192","num_nodes":"123","size_leaf_vector":"0"}},{"base_weights":[1.3727919E1,1.4993862E1,1.1584128E1,1.6184467E1,1.4462679E1,1.0181649E1,1.2790149E1,1.7615814E1,1.5101273E1,1.5898633E1,1.3823711E1,1.1599183E1,9.035041E0,9.894115E0,1.3150467E1,1.2633992E1,1.81131E1,1.0222772E1,1.5565662E1,1.0020669E0,1.606551E1,1.1669579E1,1.4294676E1,7.3386755E0,1.2300355E1,3.6195402E0,9.264815E0,7.761089E0,1.3432946E1,1.4892351E1,1.2610191E1,1.3924929E1,-5.636859E-1,1.8226826E1,3.340556E0,1.2688552E1,4.0463314E0,1.28113365E1,1.6261389E1,-2.4587948E0,9.107721E0,1.673702E1,1.2755098E1,7.419187E0,1.2591476E1,1.6196232E1,1.3679036E1,6.3676906E0,2.3431465E1,2.7804413E0,1.2546194E1,2.3625917E0,1.2197051E1,8.703138E0,1.1470551E1,1.7610992E1,6.7322264E0,-1.4755097E-1,1.5064573E1,7.2288513E0,1.5445083E1,1.296441E1,9.155609E0,1.6374329E1,6.7377744E0,3.3644943E0,-2.4338284E0,1.8287413E1,-2.9547234E0,-2.438632E0,8.284605E0,-1.5789073E0,1.40298395E1,9.836664E0,-4.2823086E0,4.6881986E0,1.3984214E1,1.3997703E1,1.727807E1,-6.389745E-2,-7.2326155E0,1.8948305E1,1.5952662E1,-4.604506E0,1.3242821E1,-4.9911413E0,8.687492E0,1.29435215E1,-2.7310011E0,1.7889164E1,1.4277379E1,1.4042665E1,9.506411E0,1.051669E1,3.73371E0,9.08032E0,-1.1261917E0,1.3562946E1,9.682012E0,-2.4742734E0,3.5736694E0,1.1082554E0,1.4692186E1,9.185469E0,4.861272E0,1.5105474E1,7.38001E0,7.007538E0,1.8901846E1,1.0189302E1,3.1207666E0,3.9764085E0,-3.559592E0,9.988413E0,1.8047623E1,-1.1280639E1,8.953837E0,8.265017E0,1.6065523E1,1.3440226E1,1.0006117E1,1.1194121E1,4.4077997E0],"categories":[],"categories_nodes":[],"categories_segments":[],"categories_sizes":[],"default_left":[1,1,1,1,1,1,1,1,1,1,1,1,1,1,1,1,1,1,1,1,1,1,1,1,1,1,1,1,1,1,1,1,1,1,1,1,1,1,1,1,0,1,1,1,1,1,1,1,0,1,1,1,1,1,1,1,1,1,1,1,1,1,1,0,0,0,0,0,0,0,0,0,0,0,0,0,0,0,0,0,0,0,0,0,0,0,0,0,0,0,0,0,0,0,0,0,0,0,0,0,0,0,0,0,0,0,0,0,0,0,0,0,0,0,0,0,0,0,0,0,0,0,0],"id":14,"left_children":[1,3,5,7,9,11,13,15,17,19,21,23,25,27,29,31,33,35,37,39,41,43,45,47,49,51,53,55,57,59,61,63,65,67,69,71,73,75,77,79,-1,81,83,85,87,89,91,93,-1,95,97,99,101,103,105,107,109,111,113,115,117,119,121,-1,-1,-1,-1,-1,-1,-1,-1,-1,-1,-1,-1,-1,-1,-1,-1,-1,-1,-1,-1,-1,-1,-1,-1,-1,-1,-1,-1,-1,-1,-1,-1,-1,-1,-1,-1,-1,-1,-1,-1,-1,-1,-1,-1,-1,-1,-1,-1,-1,-1,-1,-1,-1,-1,-1,-1,-1,-1,-1,-1],"loss_changes":[2.724225E4,3.780625E3,6.2210312E3,2.7573125E3,3.8164375E3,2.7249531E3,1.9725312E3,1.8373125E3,2.3714688E3,3.3348438E3,2.9295E3,2.2249297E3,1.1697422E3,1.6092402E3,1.4958438E3,1.3538018E3,1.2092031E3,1.4716318E3,1.7424375E3,4.7123486E2,2.7497812E3,2.0734688E3,2.7050938E3,1.6008921E3,1.519125E3,4.1322443E2,1.0486328E3,1.3407627E3,1.8635195E3,1.6589297E3,1.5601875E3,1.1571758E3,6.695866E1,1.0165E3,2.2021121E2,1.3808613E3,1.4888915E3,1.9352031E3,1.62E3,1.3673157E2,0E0,1.6142812E3,1.9998438E3,1.6331089E3,2.478914E3,1.7131719E3,2.7417812E3,1.1300708E3,0E0,4.532299E2,1.7528516E3,2.2558154E2,1.22057556E2,1.3321641E3,2.639248E3,4.548169E1,1.6162344E3,1.5486557E2,9.5541406E2,1.0588635E3,1.6001484E3,1.6137656E3,1.2185361E3,0E0,0E0,0E0,0E0,0E0,0E0,0E0,0E0,0E0,0E0,0E0,0E0,0E0,0E0,0E0,0E0,0E0,0E0,0E0,0E0,0E0,0E0,0E0,0E0,0E0,0E0,0E0,0E0,0E0,0E0,0E0,0E0,0E0,0E0,0E0,0E0,0E0,0E0,0E0,0E0,0E0,0E0,0E0,0E0,0E0,0E0,0E0,0E0,0E0,0E0,0E0,0E0,0E0,0E0,0E0,0E0,0E0,0E0,0E0,0E0],"parents":[2147483647,0,0,1,1,2,2,3,3,4,4,5,5,6,6,7,7,8,8,9,9,10,10,11,11,12,12,13,13,14,14,15,15,16,16,17,17,18,18,19,19,20,20,21,21,22,22,23,23,24,24,25,25,26,26,27,27,28,28,29,29,30,30,31,31,32,32,33,33,34,34,35,35,36,36,37,37,38,38,39,39,41,41,42,42,43,43,44,44,45,45,46,46,47,47,49,49,50,50,51,51,52,52,53,53,54,54,55,55,56,56,57,57,58,58,59,59,60,60,61,61,62,62],"right_children":[2,4,6,8,10,12,14,16,18,20,22,24,26,28,30,32,34,36,38,40,42,44,46,48,50,52,54,56,58,60,62,64,66,68,70,72,74,76,78,80,-1,82,84,86,88,90,92,94,-1,96,98,100,102,104,106,108,110,112,114,116,118,120,122,-1,-1,-1,-1,-1,-1,-1,-1,-1,-1,-1,-1,-1,-1,-1,-1,-1,-1,-1,-1,-1,-1,-1,-1,-1,-1,-1,-1,-1,-1,-1,-1,-1,-1,-1,-1,-1,-1,-1,-1,-1,-1,-1,-1,-1,-1,-1,-1,-1,-1,-1,-1,-1,-1,-1,-1,-1,-1,-1,-1],"split_conditions":[-3.7139338E-1,-2.1532173E0,-5.93552E-2,-6.172352E-1,2.0221695E-2,4.9819285E-1,-8.5806865E-3,-1.6780112E-2,-4.5247155E-1,-1.8274848E0,-4.122917E-1,6.294776E-1,-1.180723E0,1.9330837E-1,-6.5142083E-1,1.473845E0,-4.8162276E-1,2.8662974E-1,-5.427566E-2,-3.8849175E-1,1.4566064E-1,1.17428765E-1,-1.2881064E0,7.219889E-1,-8.756045E-1,6.1416316E-1,-1.8475604E-1,2.254442E-1,-2.2515562E-1,-7.4182606E-1,4.9404192E-1,-1.6541828E0,1.1819067E0,9.811232E-1,-1.6618632E-1,-7.616861E-1,-1.5174596E0,1.01773545E-1,-5.967139E-3,-6.8214464E-1,9.1077214E-1,-2.1761209E-1,-5.4294527E-1,2.0487137E-2,1.2614405E0,2.3918045E-1,-1.9128439E-1,-7.096546E-1,2.3431466E0,6.047727E-1,-1.1976172E0,-4.127692E-2,3.5193396E-1,2.2828496E-1,7.025081E-2,-5.389711E-1,-1.4303913E0,5.3280793E-2,-1.0515867E0,1.1408192E0,-2.1255255E-1,6.3633874E-2,2.7506385E0,1.6374329E0,6.7377746E-1,3.3644944E-1,-2.4338284E-1,1.8287413E0,-2.9547235E-1,-2.4386321E-1,8.284605E-1,-1.5789072E-1,1.402984E0,9.836664E-1,-4.2823085E-1,4.6881986E-1,1.3984214E0,1.3997703E0,1.727807E0,-6.3897455E-3,-7.2326154E-1,1.8948306E0,1.5952662E0,-4.6045062E-1,1.324282E0,-4.9911413E-1,8.6874926E-1,1.2943522E0,-2.731001E-1,1.7889165E0,1.427738E0,1.4042665E0,9.506411E-1,1.051669E0,3.73371E-1,9.0803206E-1,-1.1261918E-1,1.3562946E0,9.6820116E-1,-2.4742734E-1,3.5736695E-1,1.1082554E-1,1.4692186E0,9.1854686E-1,4.861272E-1,1.5105475E0,7.3800105E-1,7.007538E-1,1.8901846E0,1.0189303E0,3.1207666E-1,3.9764085E-1,-3.559592E-1,9.988413E-1,1.8047622E0,-1.1280639E0,8.953838E-1,8.2650167E-1,1.6065524E0,1.3440226E0,1.0006117E0,1.1194122E0,4.4077998E-1],"split_indices":[55,181,112,188,51,46,134,138,55,95,19,57,48,165,33,48,8,1,88,159,117,26,75,168,100,42,78,60,172,34,39,28,25,74,6,24,14,122,125,85,0,72,109,51,56,94,108,129,0,47,185,179,0,142,76,108,37,1,49,7,172,102,186,0,0,0,0,0,0,0,0,0,0,0,0,0,0,0,0,0,0,0,0,0,0,0,0,0,0,0,0,0,0,0,0,0,0,0,0,0,0,0,0,0,0,0,0,0,0,0,0,0,0,0,0,0,0,0,0,0,0,0,0],"split_type":[0,0,0,0,0,0,0,0,0,0,0,0,0,0,0,0,0,0,0,0,0,0,0,0,0,0,0,0,0,0,0,0,0,0,0,0,0,0,0,0,0,0,0,0,0,0,0,0,0,0,0,0,0,0,0,0,0,0,0,0,0,0,0,0,0,0,0,0,0,0,0,0,0,0,0,0,0,0,0,0,0,0,0,0,0,0,0,0,0,0,0,0,0,0,0,0,0,0,0,0,0,0,0,0,0,0,0,0,0,0,0,0,0,0,0,0,0,0,0,0,0,0,0],"sum_hessian":[1.0101E4,6.347E3,3.754E3,1.949E3,4.398E3,1.74E3,2.014E3,8.33E2,1.116E3,1.347E3,3.051E3,7.74E2,9.66E2,2.26E2,1.788E3,7.8E1,7.55E2,9.9E1,1.017E3,1.5E1,1.332E3,5.52E2,2.499E3,1.11E2,6.63E2,4E1,9.26E2,1.43E2,8.3E1,4.17E2,1.371E3,7.1E1,7E0,7.49E2,6E0,7E1,2.9E1,2.09E2,8.08E2,1.1E1,4E0,1.104E3,2.28E2,1E2,4.52E2,6.05E2,1.894E3,1.06E2,5E0,1.7E1,6.46E2,3.6E1,4E0,7.42E2,1.84E2,1.2E1,1.31E2,9E0,7.4E1,2.9E1,3.88E2,1.241E3,1.3E2,5.2E1,1.9E1,2E0,5E0,7.47E2,2E0,3E0,3E0,6E0,6.4E1,1.7E1,1.2E1,2.7E1,1.82E2,2.55E2,5.53E2,8E0,3E0,2.83E2,8.21E2,6E0,2.22E2,9E0,9.1E1,4.42E2,1E1,3.17E2,2.88E2,1.74E3,1.54E2,4E1,6.6E1,6E0,1.1E1,4.74E2,1.72E2,7E0,2.9E1,1E0,3E0,6.58E2,8.4E1,9.6E1,8.8E1,2E0,1E1,6.6E1,6.5E1,4E0,5E0,2.9E1,4.5E1,2E0,2.7E1,3.2E1,3.56E2,1.066E3,1.75E2,9E1,4E1],"tree_param":{"num_deleted":"0","num_feature":"192","num_nodes":"123","size_leaf_vector":"0"}},{"base_weights":[1.2359871E1,1.359881E1,1.0546589E1,1.4223831E1,1.2524148E1,1.1777481E1,9.202702E0,8.828878E0,1.4330514E1,1.2654413E1,5.6529894E0,1.1114006E1,1.321873E1,9.679886E0,6.1148477E0,3.3253577E0,1.3964901E1,1.507752E1,1.3413956E1,1.2711471E1,-2.4707913E0,1.2352275E1,1.6229342E0,1.2180261E1,8.954463E0,1.2639698E1,1.7048319E1,9.219026E0,1.2007386E1,