{"learner":{"attributes":{"best_iteration":"99","best_ntree_limit":"100","scikit_learn":"{\"n_estimators\": 100, \"objective\": \"reg:squarederror\", \"max_depth\": null, \"max_leaves\": null, \"max_bin\": null, \"grow_policy\": null, \"learning_rate\": 0.1, \"verbosity\": null, \"booster\": null, \"tree_method\": null, \"gamma\": null, \"min_child_weight\": null, \"max_delta_step\": null, \"subsample\": null, \"sampling_method\": null, \"colsample_bytree\": null, \"colsample_bylevel\": null, \"colsample_bynode\": null, \"reg_alpha\": null, \"reg_lambda\": null, \"scale_pos_weight\": null, \"base_score\": null, \"missing\": NaN, \"num_parallel_tree\": null, \"random_state\": null, \"n_jobs\": null, \"monotone_constraints\": null, \"interaction_constraints\": null, \"importance_type\": null, \"gpu_id\": null, \"validate_parameters\": null, \"predictor\": null, \"enable_categorical\": false, \"feature_types\": null, \"max_cat_to_onehot\": null, \"max_cat_threshold\": null, \"eval_metric\": null, \"early_stopping_rounds\": null, \"callbacks\": null, \"_estimator_type\": \"regressor\"}"},"feature_names":[],"feature_types":[],"gradient_booster":{"model":{"gbtree_model_param":{"num_parallel_tree":"1","num_trees":"100","size_leaf_vector":"0"},"tree_info":[0,0,0,0,0,0,0,0,0,0,0,0,0,0,0,0,0,0,0,0,0,0,0,0,0,0,0,0,0,0,0,0,0,0,0,0,0,0,0,0,0,0,0,0,0,0,0,0,0,0,0,0,0,0,0,0,0,0,0,0,0,0,0,0,0,0,0,0,0,0,0,0,0,0,0,0,0,0,0,0,0,0,0,0,0,0,0,0,0,0,0,0,0,0,0,0,0,0,0,0],"trees":[{"base_weights":[5.9180977E1,6.58957E1,4.1346016E1,6.0082264E1,7.216171E1,3.0466114E1,4.751764E1,5.6935394E1,6.3209465E1,7.5527435E1,6.8873245E1,3.4375095E1,2.415E1,5.1224148E1,4.2922775E1,5.872637E1,5.43125E1,6.119229E1,6.541824E1,7.343508E1,7.7529396E1,6.3617214E1,6.986543E1,3.265282E1,4.024055E1,2.274876E1,2.8148058E1,5.0728863E1,6.927885E1,3.973692E1,4.5019577E1,5.4091667E1,5.936939E1,5.5005142E1,4.849727E1,6.120776E1,1.425E1,6.664402E1,6.337244E1,8.75E0,7.3466E1,7.7553696E1,1.625E1,5.6975E1,6.4792564E1,4.3541668E1,6.994351E1,2.9762638E1,3.4955116E1,3.872549E1,4.9594593E1,2.4651709E1,2.1490591E1,2.7012886E1,4.2923077E1,4.9070694E1,5.3519756E1,1.375E1,7.009804E1,3.792804E1,4.231835E1,4.170397E1,4.623264E1,5.4283558E1,1.7E1,1.4333333E1,5.9405994E1,5.181739E1,5.5942997E1,4.1034092E1,5.049643E1,6.2469765E1,5.9756958E1,1.825E1,6.66698E1,6.341325E1,1.675E1,6.9430595E1,7.439327E1,1.675E1,7.7577484E1,5.7433674E1,2.3E1,4.855E1,1.2333333E1,6.754498E1,7.0973E1,3.1628262E1,2.7732302E1,1.8083334E1,3.507518E1,2.590625E1,3.941875E1,5.0319443E1,1.175E1,2.3925581E1,3.1225E1,2.0324257E1,2.274269E1,4.1E1,2.619086E1,5.5285713E1,2.4428572E1,4.7734806E1,5.227486E1,5.3636116E1,1.8875E1,2.6416666E1,3.836658E1,2.275E1,4.260496E1,1.7E1,4.182182E1,4.711414E1,4.202612E1],"categories":[],"categories_nodes":[],"categories_segments":[],"categories_sizes":[],"default_left":[1,1,1,1,1,1,1,1,1,1,1,1,1,1,1,1,1,1,1,1,1,1,1,1,1,1,1,1,1,1,1,1,1,1,1,1,0,1,1,0,1,1,0,1,0,1,1,1,1,1,1,1,1,1,1,1,1,0,0,1,1,1,1,0,0,0,0,0,0,0,0,0,0,0,0,0,0,0,0,0,0,0,0,0,0,0,0,0,0,0,0,0,0,0,0,0,0,0,0,0,0,0,0,0,0,0,0,0,0,0,0,0,0,0,0],"id":0,"left_children":[1,3,5,7,9,11,13,15,17,19,21,23,25,27,29,31,33,35,37,39,41,43,45,47,49,51,53,55,57,59,61,63,65,67,69,71,-1,73,75,-1,77,79,-1,81,-1,83,85,87,89,91,93,95,97,99,101,103,105,-1,-1,107,109,111,113,-1,-1,-1,-1,-1,-1,-1,-1,-1,-1,-1,-1,-1,-1,-1,-1,-1,-1,-1,-1,-1,-1,-1,-1,-1,-1,-1,-1,-1,-1,-1,-1,-1,-1,-1,-1,-1,-1,-1,-1,-1,-1,-1,-1,-1,-1,-1,-1,-1,-1,-1,-1],"loss_changes":[2.545224E6,5.5864E5,3.8948E5,7.5354E4,7.7068E4,5.1265E4,6.10375E4,1.5643E4,1.3887E4,9.65E3,1.5222E4,1.1828625E4,3.8975E3,1.4817E4,9.3265E3,3.852E3,3.938E3,6.63E2,5.46E2,2.977E3,1.501E3,1.0705E3,3.453E3,5.686875E3,2.2035E3,9.1875E2,2.2955781E3,6.6245E3,1.4015781E3,1.519E3,2.07775E3,1.212375E3,2.563E3,1.46E3,6.583125E2,1.355E2,0E0,2.43E2,3.3275E2,0E0,1.604E3,1.381E3,0E0,2.37375E2,0E0,1.2768379E3,2.987E3,8.46375E2,4.940625E2,1.2450312E3,4.2371875E2,3.698125E2,8.103125E1,1.15675E3,1.6217812E3,2.92375E3,1.9465E3,0E0,0E0,1.020875E3,5.2821875E2,9.54375E1,6.89875E2,0E0,0E0,0E0,0E0,0E0,0E0,0E0,0E0,0E0,0E0,0E0,0E0,0E0,0E0,0E0,0E0,0E0,0E0,0E0,0E0,0E0,0E0,0E0,0E0,0E0,0E0,0E0,0E0,0E0,0E0,0E0,0E0,0E0,0E0,0E0,0E0,0E0,0E0,0E0,0E0,0E0,0E0,0E0,0E0,0E0,0E0,0E0,0E0,0E0,0E0,0E0,0E0],"parents":[2147483647,0,0,1,1,2,2,3,3,4,4,5,5,6,6,7,7,8,8,9,9,10,10,11,11,12,12,13,13,14,14,15,15,16,16,17,17,18,18,19,19,20,20,21,21,22,22,23,23,24,24,25,25,26,26,27,27,28,28,29,29,30,30,31,31,32,32,33,33,34,34,35,35,37,37,38,38,40,40,41,41,43,43,45,45,46,46,47,47,48,48,49,49,50,50,51,51,52,52,53,53,54,54,55,55,56,56,59,59,60,60,61,61,62,62],"right_children":[2,4,6,8,10,12,14,16,18,20,22,24,26,28,30,32,34,36,38,40,42,44,46,48,50,52,54,56,58,60,62,64,66,68,70,72,-1,74,76,-1,78,80,-1,82,-1,84,86,88,90,92,94,96,98,100,102,104,106,-1,-1,108,110,112,114,-1,-1,-1,-1,-1,-1,-1,-1,-1,-1,-1,-1,-1,-1,-1,-1,-1,-1,-1,-1,-1,-1,-1,-1,-1,-1,-1,-1,-1,-1,-1,-1,-1,-1,-1,-1,-1,-1,-1,-1,-1,-1,-1,-1,-1,-1,-1,-1,-1,-1,-1,-1],"split_conditions":[7.172738E-1,1.3644087E-1,-1.5182092E0,4.065886E-3,-2.1710262E0,1.0192182E0,3.1709224E-1,4.9710882E-1,3.192692E-1,2.6261215E0,8.648249E-1,-8.1763256E-1,-7.157115E-1,5.449172E-1,2.3936921E-1,-6.532815E-1,1.0879481E0,1.129751E0,5.5276656E-1,-8.5000145E-1,7.47607E-1,1.3066056E0,-4.6857488E-1,-1.8898534E0,1.0031709E-1,5.635248E-1,4.2011976E-2,-3.516636E-1,7.1443796E-2,7.297452E-1,-5.7987654E-1,1.0845984E0,-2.5861094E0,-5.891345E-1,7.4105835E-1,3.835103E-1,1.4250001E0,-1.339671E0,2.9142924E-2,8.75E-1,1.4825034E-1,-8.2362294E-2,1.625E0,5.985772E0,6.4792566E0,-4.8626494E-1,1.8616214E0,1.4374428E0,-3.2224795E-1,-1.4811962E0,-1.8575963E0,9.575066E-2,-2.914375E-1,-2.0710378E0,8.964672E-1,1.9884303E-2,1.8493645E0,1.375E0,7.009804E0,-5.768634E-1,-1.2339764E0,-3.4383464E0,-1.17936075E-1,5.4283557E0,1.7E0,1.4333333E0,5.9405994E0,5.1817393E0,5.5943E0,4.1034093E0,5.049643E0,6.2469764E0,5.975696E0,1.825E0,6.6669803E0,6.3413253E0,1.6750001E0,6.9430594E0,7.4393272E0,1.6750001E0,7.7577486E0,5.7433677E0,2.3E0,4.855E0,1.2333333E0,6.7544985E0,7.0973E0,3.1628263E0,2.7732303E0,1.8083334E0,3.507518E0,2.590625E0,3.9418752E0,5.0319443E0,1.1750001E0,2.392558E0,3.1225002E0,2.0324256E0,2.2742689E0,4.1E0,2.619086E0,5.5285716E0,2.4428573E0,4.773481E0,5.227486E0,5.3636117E0,1.8875E0,2.6416667E0,3.8366582E0,2.275E0,4.260496E0,1.7E0,4.182182E0,4.711414E0,4.202612E0],"split_indices":[35,84,151,86,12,139,145,116,189,16,178,149,85,0,21,39,33,41,19,28,34,21,157,151,39,70,92,85,11,16,135,24,120,39,135,147,0,102,57,0,42,14,0,1,0,8,16,17,165,179,87,129,161,48,35,118,43,0,0,79,72,1,180,0,0,0,0,0,0,0,0,0,0,0,0,0,0,0,0,0,0,0,0,0,0,0,0,0,0,0,0,0,0,0,0,0,0,0,0,0,0,0,0,0,0,0,0,0,0,0,0,0,0,0,0],"split_type":[0,0,0,0,0,0,0,0,0,0,0,0,0,0,0,0,0,0,0,0,0,0,0,0,0,0,0,0,0,0,0,0,0,0,0,0,0,0,0,0,0,0,0,0,0,0,0,0,0,0,0,0,0,0,0,0,0,0,0,0,0,0,0,0,0,0,0,0,0,0,0,0,0,0,0,0,0,0,0,0,0,0,0,0,0,0,0,0,0,0,0,0,0,0,0,0,0,0,0,0,0,0,0,0,0,0,0,0,0,0,0,0,0,0,0],"sum_hessian":[2.1275E4,1.5454E4,5.821E3,8.022E3,7.432E3,2.109E3,3.712E3,4.008E3,4.014E3,3.662E3,3.77E3,1.3E3,8.09E2,2.049E3,1.663E3,2.369E3,1.639E3,2.113E3,1.901E3,1.809E3,1.853E3,6.09E2,3.161E3,1.01E3,2.9E2,6.04E2,2.05E2,1.998E3,5.1E1,6.68E2,9.95E2,2.99E2,2.07E3,1.457E3,1.82E2,2.112E3,1E0,1.169E3,7.32E2,1E0,1.808E3,1.852E3,1E0,9.9E1,5.1E2,1.1E1,3.15E3,4.54E2,5.56E2,2.54E2,3.6E1,2.33E2,3.71E2,1.93E2,1.2E1,1.265E3,7.33E2,1E0,5E1,4.02E2,2.66E2,2.76E2,7.19E2,2.97E2,2E0,2E0,2.068E3,3.44E2,1.113E3,4.3E1,1.39E2,1.107E3,1.005E3,1E0,1.168E3,7.31E2,1E0,3.52E2,1.456E3,1E0,1.851E3,9.7E1,2E0,9E0,2E0,9.66E2,2.184E3,2.29E2,2.25E2,5E0,5.51E2,1.5E1,2.39E2,3.5E1,1E0,2.14E2,1.9E1,2.01E2,1.7E2,8E0,1.85E2,6E0,6E0,9.04E2,3.61E2,7.3E2,3E0,1.7E1,3.85E2,5E0,2.61E2,2E0,2.74E2,5.86E2,1.33E2],"tree_param":{"num_deleted":"0","num_feature":"192","num_nodes":"115","size_leaf_vector":"0"}},{"base_weights":[5.3273563E1,5.8323917E1,3.4055378E1,5.2985268E1,6.482656E1,2.6542965E1,3.946194E1,4.8552795E1,5.5617584E1,6.7836426E1,6.1694454E1,3.0245583E1,2.1677334E1,3.5476734E1,4.16684E1,4.7575043E1,5.2370026E1,5.3951805E1,5.843372E1,6.607911E1,6.982641E1,5.795702E1,6.2936012E1,2.9318745E1,3.9487736E1,2.6683794E1,2.0814009E1,3.3545753E1,3.834214E1,4.058516E1,4.7466446E1,4.584896E1,4.9232426E1,5.2415123E1,1.0535822E1,5.4617863E1,5.013755E1,5.8777153E1,5.1131905E1,6.243894E1,6.689277E1,1.4371126E1,6.9849335E1,5.0145645E1,5.875268E1,6.0792038E1,6.421724E1,2.5904222E1,3.0700737E1,3.9761112E1,7.1685867E0,3.2479935E1,2.384986E1,1.852592E1,2.1680822E1,2.8913908E1,3.4551094E1,3.723377E1,4.3158306E1,4.179758E1,3.7274757E1,4.5844986E1,5.7651615E1,4.5870865E1,7.9528503E0,5.0261166E1,4.6410435E1,4.7230465E1,5.3331707E1,5.5845367E1,5.2910828E1,2.8048199E1,5.040884E1,6.2797003E0,5.8799812E1,1.195285E1,5.1396236E1,1.377847E1,6.2527924E1,6.6928604E1,2.458713E1,6.987109E1,1.54375E1,2.9586748E1,5.171407E1,2.7637447E1,5.886713E1,2.33166E1,6.0911682E1,2.5139168E1,6.427063E1,2.8116806E1,2.357321E1,2.0387981E1,3.098321E1,1.0954687E1,3.9957287E1,3.2968143E1,7.940457E0,1.7634037E1,2.079538E1,2.3064234E1,2.0456747E1,7.3316708E0,2.9049627E1,3.1908354E1,3.6571857E1,3.7861282E1,2.9977661E1,2.5958687E1,4.4875374E1,3.5020786E1,4.220926E1,3.8360218E1,3.220919E1,5.0481003E1,4.3409904E1],"categories":[],"categories_nodes":[],"categories_segments":[],"categories_sizes":[],"default_left":[1,1,1,1,1,1,1,1,1,1,1,1,1,1,1,1,1,1,1,1,1,1,1,1,1,1,1,1,1,1,1,1,1,1,0,1,1,1,1,1,1,0,1,1,1,1,1,1,1,1,0,1,0,1,1,1,1,1,1,1,1,1,0,0,0,0,0,0,0,0,0,0,0,0,0,0,0,0,0,0,0,0,0,0,0,0,0,0,0,0,0,0,0,0,0,0,0,0,0,0,0,0,0,0,0,0,0,0,0,0,0,0,0,0,0,0,0],"id":1,"left_children":[1,3,5,7,9,11,13,15,17,19,21,23,25,27,29,31,33,35,37,39,41,43,45,47,49,51,53,55,57,59,61,63,65,67,-1,69,71,73,75,77,79,-1,81,83,85,87,89,91,93,95,-1,97,-1,99,101,103,105,107,109,111,113,115,-1,-1,-1,-1,-1,-1,-1,-1,-1,-1,-1,-1,-1,-1,-1,-1,-1,-1,-1,-1,-1,-1,-1,-1,-1,-1,-1,-1,-1,-1,-1,-1,-1,-1,-1,-1,-1,-1,-1,-1,-1,-1,-1,-1,-1,-1,-1,-1,-1,-1,-1,-1,-1,-1,-1],"loss_changes":[2.063036E6,5.81408E5,1.78883E5,1.05308E5,6.738E4,3.279925E4,2.11555E4,1.0411E4,2.406E4,8.886E3,1.3665E4,7.85375E3,2.9282812E3,3.82625E3,8.443E3,5.647E3,7.59E2,6.554E3,2.3705E3,1.952E3,1.276E3,2.91475E3,3.757E3,3.7348125E3,5.3665625E2,1.1143438E3,9.708125E2,1.6086875E3,3.414375E2,4.053E3,1.5516875E3,7.7075E2,1.72E3,7.79125E2,0E0,3.547E3,1.918125E3,2.059E3,4.6271875E2,8.40375E2,8.965E2,0E0,1.043E3,1.5009844E3,1.4E3,3.3415E3,1.9895E3,7.9678125E2,1.343375E3,8.2171875E1,0E0,1.5752734E2,0E0,3.2039062E1,3.6809375E2,9.750781E1,1.2629375E3,2.4921875E2,6.66125E2,1.353375E3,8.758125E2,3.3740625E2,0E0,0E0,0E0,0E0,0E0,0E0,0E0,0E0,0E0,0E0,0E0,0E0,0E0,0E0,0E0,0E0,0E0,0E0,0E0,0E0,0E0,0E0,0E0,0E0,0E0,0E0,0E0,0E0,0E0,0E0,0E0,0E0,0E0,0E0,0E0,0E0,0E0,0E0,0E0,0E0,0E0,0E0,0E0,0E0,0E0,0E0,0E0,0E0,0E0,0E0,0E0,0E0,0E0,0E0,0E0],"parents":[2147483647,0,0,1,1,2,2,3,3,4,4,5,5,6,6,7,7,8,8,9,9,10,10,11,11,12,12,13,13,14,14,15,15,16,16,17,17,18,18,19,19,20,20,21,21,22,22,23,23,24,24,25,25,26,26,27,27,28,28,29,29,30,30,31,31,32,32,33,33,35,35,36,36,37,37,38,38,39,39,40,40,42,42,43,43,44,44,45,45,46,46,47,47,48,48,49,49,51,51,53,53,54,54,55,55,56,56,57,57,58,58,59,59,60,60,61,61],"right_children":[2,4,6,8,10,12,14,16,18,20,22,24,26,28,30,32,34,36,38,40,42,44,46,48,50,52,54,56,58,60,62,64,66,68,-1,70,72,74,76,78,80,-1,82,84,86,88,90,92,94,96,-1,98,-1,100,102,104,106,108,110,112,114,116,-1,-1,-1,-1,-1,-1,-1,-1,-1,-1,-1,-1,-1,-1,-1,-1,-1,-1,-1,-1,-1,-1,-1,-1,-1,-1,-1,-1,-1,-1,-1,-1,-1,-1,-1,-1,-1,-1,-1,-1,-1,-1,-1,-1,-1,-1,-1,-1,-1,-1,-1,-1,-1,-1,-1],"split_conditions":[-1.382376E-1,1.1365162E-1,-1.693461E0,-9.634158E-2,-2.148859E0,1.0192182E0,2.3936921E-1,-2.5832564E-1,3.145919E-1,2.6607332E0,1.0722734E0,-9.9663585E-1,7.218374E-1,7.297452E-1,-4.544592E-1,-6.5857446E-1,4.0185678E-1,3.5526666E-1,-8.559542E-1,1.4825034E-1,-1.9214762E0,-6.7218196E-1,1.9031076E0,-1.9383233E0,5.31404E-1,-4.699382E-2,9.6175075E-2,5.3644496E-1,-1.9470337E-1,-2.5372493E-1,-1.3134442E-1,2.286952E0,-6.0158026E-1,-6.310775E-1,1.0535822E0,3.44723E-1,-1.1317124E0,-1.1622607E0,6.0932398E-2,-7.050803E-1,4.7196555E-1,1.4371127E0,7.47607E-1,7.131422E-1,-8.235943E-2,-1.7001202E0,-6.498126E-1,1.411311E0,-1.2990057E-1,1.0791546E0,7.168587E-1,1.2058535E0,2.384986E0,1.9286458E0,4.825582E-1,-4.3259346E-1,3.4803033E-2,7.251569E-1,-5.1729918E-2,4.535787E-1,6.0794425E-1,-2.1491522E-1,5.7651615E0,4.5870867E0,7.9528505E-1,5.026117E0,4.6410437E0,4.723047E0,5.333171E0,5.584537E0,5.291083E0,2.8048198E0,5.040884E0,6.2797004E-1,5.8799815E0,1.1952851E0,5.1396236E0,1.3778471E0,6.2527924E0,6.6928606E0,2.458713E0,6.9871097E0,1.54375E0,2.958675E0,5.171407E0,2.7637448E0,5.886713E0,2.33166E0,6.0911684E0,2.5139167E0,6.427063E0,2.8116806E0,2.357321E0,2.038798E0,3.098321E0,1.0954688E0,3.9957287E0,3.2968144E0,7.940457E-1,1.7634038E0,2.079538E0,2.3064234E0,2.0456748E0,7.331671E-1,2.9049628E0,3.1908355E0,3.6571858E0,3.7861283E0,2.9977663E0,2.5958688E0,4.4875374E0,3.5020788E0,4.220926E0,3.836022E0,3.2209191E0,5.0481005E0,4.3409905E0],"split_indices":[145,84,151,39,12,139,21,84,189,16,178,7,76,16,39,166,48,41,180,42,54,110,16,151,6,48,15,15,64,180,31,2,180,66,0,27,93,8,3,142,5,0,34,21,14,32,157,145,21,17,0,68,0,78,134,58,21,132,21,15,4,188,0,0,0,0,0,0,0,0,0,0,0,0,0,0,0,0,0,0,0,0,0,0,0,0,0,0,0,0,0,0,0,0,0,0,0,0,0,0,0,0,0,0,0,0,0,0,0,0,0,0,0,0,0,0,0],"split_type":[0,0,0,0,0,0,0,0,0,0,0,0,0,0,0,0,0,0,0,0,0,0,0,0,0,0,0,0,0,0,0,0,0,0,0,0,0,0,0,0,0,0,0,0,0,0,0,0,0,0,0,0,0,0,0,0,0,0,0,0,0,0,0,0,0,0,0,0,0,0,0,0,0,0,0,0,0,0,0,0,0,0,0,0,0,0,0,0,0,0,0,0,0,0,0,0,0,0,0,0,0,0,0,0,0,0,0,0,0,0,0,0,0,0,0,0,0],"sum_hessian":[2.1275E4,1.6846E4,4.429E3,9.256E3,7.59E3,1.856E3,2.573E3,3.456E3,5.8E3,3.86E3,3.73E3,1.051E3,8.05E2,9.23E2,1.65E3,2.762E3,6.94E2,3.657E3,2.143E3,2.068E3,1.792E3,9.42E2,2.788E3,9.59E2,9.2E1,1.14E2,6.91E2,5.59E2,3.64E2,1.397E3,2.53E2,1.367E3,1.395E3,6.93E2,1E0,3.102E3,5.55E2,2.04E3,1.03E2,3.92E2,1.676E3,1E0,1.791E3,9.3E1,8.49E2,1.061E3,1.727E3,2.82E2,6.77E2,9.1E1,1E0,3.4E1,8E1,1.96E2,4.95E2,1.05E2,4.54E2,3.03E2,6.1E1,1.014E3,3.83E2,2.23E2,3E1,1.366E3,1E0,1.01E3,3.85E2,1.12E2,5.81E2,1.786E3,1.316E3,8E0,5.47E2,1E0,2.039E3,1E0,1.02E2,1E0,3.91E2,1.674E3,2E0,1.79E3,1E0,8E0,8.5E1,4E0,8.45E2,4E0,1.057E3,3E0,1.724E3,1.39E2,1.43E2,2E1,6.57E2,1E0,9E1,3.3E1,1E0,1.47E2,4.9E1,2.24E2,2.71E2,1E0,1.04E2,2.04E2,2.5E2,2.75E2,2.8E1,7E0,5.4E1,6.3E1,9.51E2,3.1E2,7.3E1,7E1,1.53E2],"tree_param":{"num_deleted":"0","num_feature":"192","num_nodes":"117","size_leaf_vector":"0"}},{"base_weights":[4.7955784E1,3.3696415E1,5.348432E1,2.4787346E1,3.8954666E1,4.875174E1,5.844448E1,1.9855532E1,2.817952E1,4.1737156E1,3.5038837E1,4.596337E1,5.112536E1,6.1355255E1,5.5885834E1,2.3350206E1,1.8614288E1,2.9830425E1,2.576432E1,4.052735E1,4.410427E1,3.0723246E1,3.577399E1,4.676552E1,4.04066E1,5.2571945E1,4.886352E1,5.9138493E1,6.2639927E1,5.664403E1,5.033856E1,2.0962727E1,2.6210964E1,1.9680965E1,1.6769947E1,2.8590754E1,3.263423E1,2.6580158E1,2.1038488E1,4.2304733E1,3.863891E1,4.3427134E0,4.4153126E1,3.2843933E1,2.7553083E1,3.6578842E1,3.241351E1,4.7812172E1,4.4652794E1,4.197878E1,3.5495853E1,5.2955597E1,4.6663666E1,4.7065525E1,4.990425E1,2.4953856E1,5.9198414E1,5.8465813E1,6.3278515E1,5.4685738E1,5.78771E1,3.6179226E1,5.089661E1,1.7076101E1,2.2136902E1,1.621393E1,2.7617151E1,1.6638565E1,2.0380909E1,1.6309677E1,2.0018515E1,2.384887E1,2.9372192E1,3.602696E1,2.9868164E1,2.5442202E1,3.0736048E1,1.3447176E1,2.155397E1,4.235027E1,4.350201E0,3.5378147E1,3.9946777E1,4.423595E1,1.8164618E1,1.1844812E1,3.3231453E1,2.7695505E1,6.726688E0,3.776072E1,3.3935528E1,3.4379463E1,2.8825888E1,4.784526E1,8.768016E0,7.5552073E0,4.4680664E1,3.920706E1,4.5970345E1,1.8279808E1,3.640864E1,5.4187515E1,5.1337116E1,1.80264E1,4.7129505E1,5.9739197E1,5.3559917E1,5.8612015E1,7.083143E0,5.475967E1,1.571063E1,5.9462376E1,5.660215E1,4.005373E1,1.4995166E1,4.7954636E1,5.3783092E1],"categories":[],"categories_nodes":[],"categories_segments":[],"categories_sizes":[],"default_left":[1,1,1,1,1,1,1,1,1,1,1,1,1,1,1,1,1,1,1,1,1,1,1,1,1,1,1,1,1,1,1,1,1,1,1,1,1,1,1,1,1,0,1,1,1,1,1,1,1,1,1,1,0,1,0,0,1,1,0,1,1,1,1,0,0,0,0,0,0,0,0,0,0,0,0,0,0,0,0,0,0,0,0,0,0,0,0,0,0,0,0,0,0,0,0,0,0,0,0,0,0,0,0,0,0,0,0,0,0,0,0,0,0,0,0,0,0],"id":2,"left_children":[1,3,5,7,9,11,13,15,17,19,21,23,25,27,29,31,33,35,37,39,41,43,45,47,49,51,53,55,57,59,61,63,65,67,69,71,73,75,77,79,81,-1,83,85,87,89,91,93,95,97,99,101,-1,103,-1,-1,105,107,-1,109,111,113,115,-1,-1,-1,-1,-1,-1,-1,-1,-1,-1,-1,-1,-1,-1,-1,-1,-1,-1,-1,-1,-1,-1,-1,-1,-1,-1,-1,-1,-1,-1,-1,-1,-1,-1,-1,-1,-1,-1,-1,-1,-1,-1,-1,-1,-1,-1,-1,-1,-1,-1,-1,-1,-1,-1],"loss_changes":[1.67546E6,2.77629E5,3.57012E5,3.6412875E4,3.92655E4,4.961E4,5.2278E4,3.4866875E3,4.4428125E3,4.45575E3,3.847E3,1.4246E4,1.1279E4,6.231E3,1.3939E4,1.0419375E3,9.919844E2,1.7433125E3,1.5150312E3,3.24925E3,1.2185E3,6.682344E2,2.40075E3,4.846E3,2.0923125E3,3.3495E3,7.67E2,1.1815E3,2.144E3,5.296E3,2.0225E3,2.24375E2,9.8610156E2,5.5528125E2,5.1789062E1,1.307875E3,1.073E3,1.3698125E3,3.8867188E1,1.092875E3,1.6445E3,0E0,7.57125E2,7.049531E2,1.1032031E2,2.036375E3,8.7803125E2,2.2895E3,7.595E2,2.0255625E3,1.2045E3,2.0115E3,0E0,3.1725E2,0E0,0E0,7.495E2,1.8685E3,0E0,3.09325E3,9.455E2,1.2050996E3,1.395125E3,0E0,0E0,0E0,0E0,0E0,0E0,0E0,0E0,0E0,0E0,0E0,0E0,0E0,0E0,0E0,0E0,0E0,0E0,0E0,0E0,0E0,0E0,0E0,0E0,0E0,0E0,0E0,0E0,0E0,0E0,0E0,0E0,0E0,0E0,0E0,0E0,0E0,0E0,0E0,0E0,0E0,0E0,0E0,0E0,0E0,0E0,0E0,0E0,0E0,0E0,0E0,0E0,0E0,0E0],"parents":[2147483647,0,0,1,1,2,2,3,3,4,4,5,5,6,6,7,7,8,8,9,9,10,10,11,11,12,12,13,13,14,14,15,15,16,16,17,17,18,18,19,19,20,20,21,21,22,22,23,23,24,24,25,25,26,26,27,27,28,28,29,29,30,30,31,31,32,32,33,33,34,34,35,35,36,36,37,37,38,38,39,39,40,40,42,42,43,43,44,44,45,45,46,46,47,47,48,48,49,49,50,50,51,51,53,53,56,56,57,57,59,59,60,60,61,61,62,62],"right_children":[2,4,6,8,10,12,14,16,18,20,22,24,26,28,30,32,34,36,38,40,42,44,46,48,50,52,54,56,58,60,62,64,66,68,70,72,74,76,78,80,82,-1,84,86,88,90,92,94,96,98,100,102,-1,104,-1,-1,106,108,-1,110,112,114,116,-1,-1,-1,-1,-1,-1,-1,-1,-1,-1,-1,-1,-1,-1,-1,-1,-1,-1,-1,-1,-1,-1,-1,-1,-1,-1,-1,-1,-1,-1,-1,-1,-1,-1,-1,-1,-1,-1,-1,-1,-1,-1,-1,-1,-1,-1,-1,-1,-1,-1,-1,-1,-1,-1],"split_conditions":[-5.8104724E-1,-1.3596907E0,1.3644087E-1,-1.5795147E0,1.357649E-1,-6.486281E-2,-2.197472E0,1.4042866E0,8.6433065E-1,2.0056441E-2,-6.9900453E-1,-3.7083793E-1,1.9128042E-1,1.5106924E-1,-4.8730004E-1,4.4800323E-1,3.2054636E0,2.4103802E-1,1.3858838E0,-7.480873E-1,-5.348749E-1,-1.2631928E0,1.2173927E-1,5.608618E-1,-9.395704E-1,1.0210004E0,2.1602154E-2,2.7969497E-1,-8.088355E-1,1.9143E0,-4.7889012E-1,-5.554226E-1,-5.054748E-2,-3.1098938E-1,1.038456E-2,-1.9120075E0,-5.646831E-1,-6.319969E-1,-1.9724455E0,5.3542244E-1,-5.9680617E-1,4.3427134E-1,-7.3630846E-1,-2.1709527E-1,1.0430519E-1,-2.5372493E-1,9.3633074E-1,9.8313E-1,5.609839E-1,1.0249734E-2,-6.8099666E-1,2.8422117E-2,4.6663666E0,-1.5459342E0,4.990425E0,2.4953856E0,-2.337147E-1,6.725215E-1,6.327852E0,1.8585982E0,-6.2406343E-1,4.975608E-2,-6.0746205E-1,1.7076101E0,2.2136903E0,1.6213931E0,2.7617152E0,1.6638565E0,2.038091E0,1.6309677E0,2.0018516E0,2.384887E0,2.9372194E0,3.602696E0,2.9868164E0,2.5442202E0,3.0736048E0,1.3447176E0,2.1553972E0,4.235027E0,4.3502012E-1,3.5378149E0,3.9946778E0,4.423595E0,1.8164618E0,1.1844813E0,3.3231454E0,2.7695506E0,6.726688E-1,3.776072E0,3.3935528E0,3.4379463E0,2.8825889E0,4.7845263E0,8.768016E-1,7.5552076E-1,4.4680667E0,3.9207063E0,4.5970345E0,1.8279809E0,3.6408641E0,5.4187517E0,5.133712E0,1.80264E0,4.7129507E0,5.97392E0,5.355992E0,5.861202E0,7.0831436E-1,5.475967E0,1.571063E0,5.9462376E0,5.660215E0,4.005373E0,1.4995166E0,4.7954636E0,5.3783092E0],"split_indices":[39,151,84,133,145,150,12,145,89,118,85,145,147,95,41,15,139,21,139,145,57,120,58,116,9,169,85,2,75,16,157,117,161,161,143,151,170,135,151,164,85,0,103,165,38,180,145,113,116,39,93,113,0,5,0,0,130,29,0,43,162,103,114,0,0,0,0,0,0,0,0,0,0,0,0,0,0,0,0,0,0,0,0,0,0,0,0,0,0,0,0,0,0,0,0,0,0,0,0,0,0,0,0,0,0,0,0,0,0,0,0,0,0,0,0,0,0],"split_type":[0,0,0,0,0,0,0,0,0,0,0,0,0,0,0,0,0,0,0,0,0,0,0,0,0,0,0,0,0,0,0,0,0,0,0,0,0,0,0,0,0,0,0,0,0,0,0,0,0,0,0,0,0,0,0,0,0,0,0,0,0,0,0,0,0,0,0,0,0,0,0,0,0,0,0,0,0,0,0,0,0,0,0,0,0,0,0,0,0,0,0,0,0,0,0,0,0,0,0,0,0,0,0,0,0,0,0,0,0,0,0,0,0,0,0,0,0],"sum_hessian":[2.1275E4,5.946E3,1.5329E4,2.209E3,3.737E3,7.85E3,7.479E3,9.03E2,1.306E3,2.179E3,1.558E3,3.619E3,4.231E3,3.488E3,3.991E3,2.32E2,6.71E2,7.69E2,5.37E2,1.454E3,7.25E2,2.33E2,1.325E3,3.156E3,4.63E2,2.567E3,1.664E3,1.297E3,2.191E3,3.503E3,4.88E2,1.31E2,1.01E2,4.19E2,2.52E2,5.41E2,2.28E2,4.54E2,8.3E1,7.38E2,7.16E2,1E0,7.24E2,1.34E2,9.9E1,1.061E3,2.64E2,2.096E3,1.06E3,3.45E2,1.18E2,2.403E3,1.64E2,6.27E2,1.037E3,3E0,1.294E3,3.03E2,1.888E3,1.371E3,2.132E3,2.1E1,4.67E2,3.4E1,9.7E1,1.4E1,8.7E1,8.3E1,3.36E2,2.26E2,2.6E1,8.1E1,4.6E2,9.7E1,1.31E2,3.62E2,9.2E1,7E0,7.6E1,7.37E2,1E0,2.13E2,5.03E2,7.21E2,3E0,3E0,1.31E2,9.8E1,1E0,7.24E2,3.37E2,1.65E2,9.9E1,2.094E3,2E0,1E0,1.059E3,2.1E2,1.35E2,7E0,1.11E2,1.346E3,1.057E3,2E0,6.25E2,1.172E3,1.22E2,3.02E2,1E0,1.368E3,3E0,9.3E2,1.202E3,1.7E1,4E0,2.4E2,2.27E2],"tree_param":{"num_deleted":"0","num_feature":"192","num_nodes":"117","size_leaf_vector":"0"}},{"base_weights":[4.3169117E1,4.8026646E1,3.0013266E1,4.3789867E1,5.263643E1,3.45083E1,2.2009026E1,4.1604103E1,4.6352142E1,5.523745E1,5.0356617E1,3.0987E1,3.7092144E1,1.7645704E1,2.4987741E1,4.002381E1,4.3283665E1,4.524055E1,4.8638386E1,5.612796E1,5.2442547E1,5.1628956E1,4.757506E1,3.2538303E1,2.8528297E1,3.647877E1,4.48244E1,1.5910356E1,1.9310951E1,2.3867086E1,2.8250383E1,3.784438E1,4.199273E1,4.0706688E1,4.4484215E1,4.3729736E1,4.63613E1,4.9553535E1,4.5335968E1,5.6144302E1,6.7289863E0,5.2480427E1,1.0102587E1,5.2727222E1,4.9549713E1,4.6247845E1,5.1160374E1,3.1218048E1,3.4692547E1,2.8868206E1,1.5707514E1,3.8264687E1,3.4528328E1,4.7319576E1,3.5539284E1,2.7180973E1,1.57358055E1,1.8848873E1,2.8192806E1,2.0675196E1,2.48184E1,2.9154873E1,2.231626E1,3.8411755E1,3.1126055E1,4.266388E1,3.7527046E1,3.7462757E1,4.157246E1,4.1218628E1,4.536238E1,4.3750393E1,1.0616034E1,1.9037943E1,4.6405434E1,1.2200832E1,4.958055E1,1.0072491E1,4.5428585E1,5.6175797E1,2.157448E1,5.310549E1,4.6457382E1,5.3408512E1,4.974431E1,4.993132E1,4.072325E1,1.2468601E1,4.630721E1,2.9256365E1,3.3013058E1,1.4880009E1,3.4877518E1,2.7347153E1,3.1566765E1,3.593101E1,3.963162E1,3.5744637E1,3.237347E1,4.809332E1,2.0523817E1,1.1350974E1,3.6628273E1,8.262091E0,3.703953E1,1.54597E1,2.0951273E1,1.6580997E1,1.9963253E1,3.29543E1,1.7526466E1,1.9691551E1,2.5390356E1,2.1423899E1,2.5487318E1,2.9327623E1,1.4340877E1,2.275014E1,8.658562E0],"categories":[],"categories_nodes":[],"categories_segments":[],"categories_sizes":[],"default_left":[1,1,1,1,1,1,1,1,1,1,1,1,1,1,1,1,1,1,1,1,1,1,1,1,1,1,1,1,1,1,1,1,1,1,1,1,1,1,1,1,0,1,0,1,1,1,0,1,1,1,0,1,1,1,1,1,1,1,1,1,1,1,1,0,0,0,0,0,0,0,0,0,0,0,0,0,0,0,0,0,0,0,0,0,0,0,0,0,0,0,0,0,0,0,0,0,0,0,0,0,0,0,0,0,0,0,0,0,0,0,0,0,0,0,0,0,0,0,0],"id":3,"left_children":[1,3,5,7,9,11,13,15,17,19,21,23,25,27,29,31,33,35,37,39,41,43,45,47,49,51,53,55,57,59,61,63,65,67,69,71,73,75,77,79,-1,81,-1,83,85,87,-1,89,91,93,-1,95,97,99,101,103,105,107,109,111,113,115,117,-1,-1,-1,-1,-1,-1,-1,-1,-1,-1,-1,-1,-1,-1,-1,-1,-1,-1,-1,-1,-1,-1,-1,-1,-1,-1,-1,-1,-1,-1,-1,-1,-1,-1,-1,-1,-1,-1,-1,-1,-1,-1,-1,-1,-1,-1,-1,-1,-1,-1,-1,-1,-1,-1,-1,-1],"loss_changes":[1.358196E6,3.01144E5,2.05762E5,4.3447E4,4.1314E4,3.2278E4,2.6424062E4,9.898E3,7.2565E3,5.675E3,1.1608E4,5.025625E3,8.39125E3,2.1259688E3,3.8083125E3,8.156E3,4.7235E3,2.236E3,1.39225E3,1.731E3,8.3625E2,3.5875E3,3.62975E3,1.6189375E3,2.213625E3,5.51975E3,1.816625E3,3.9460938E2,1.2128594E3,2.2774062E3,1.0025156E3,2.951625E3,1.9475E3,3.60875E2,2.231E3,2.81125E2,8.3975E2,3.355E2,4.340625E2,1.6305E3,0E0,7.3675E2,0E0,9.22E2,1.18325E3,1.2875E3,0E0,1.1433125E3,7.71E2,1.5789688E3,0E0,1.817E3,1.330125E3,1.4179844E3,5.325039E2,6.265408E2,2.7227344E2,6.9759375E2,3.8739355E2,5.0648438E2,1.0501875E3,2.5503125E2,6.967578E1,0E0,0E0,0E0,0E0,0E0,0E0,0E0,0E0,0E0,0E0,0E0,0E0,0E0,0E0,0E0,0E0,0E0,0E0,0E0,0E0,0E0,0E0,0E0,0E0,0E0,0E0,0E0,0E0,0E0,0E0,0E0,0E0,0E0,0E0,0E0,0E0,0E0,0E0,0E0,0E0,0E0,0E0,0E0,0E0,0E0,0E0,0E0,0E0,0E0,0E0,0E0,0E0,0E0,0E0,0E0,0E0],"parents":[2147483647,0,0,1,1,2,2,3,3,4,4,5,5,6,6,7,7,8,8,9,9,10,10,11,11,12,12,13,13,14,14,15,15,16,16,17,17,18,18,19,19,20,20,21,21,22,22,23,23,24,24,25,25,26,26,27,27,28,28,29,29,30,30,31,31,32,32,33,33,34,34,35,35,36,36,37,37,38,38,39,39,41,41,43,43,44,44,45,45,47,47,48,48,49,49,51,51,52,52,53,53,54,54,55,55,56,56,57,57,58,58,59,59,60,60,61,61,62,62],"right_children":[2,4,6,8,10,12,14,16,18,20,22,24,26,28,30,32,34,36,38,40,42,44,46,48,50,52,54,56,58,60,62,64,66,68,70,72,74,76,78,80,-1,82,-1,84,86,88,-1,90,92,94,-1,96,98,100,102,104,106,108,110,112,114,116,118,-1,-1,-1,-1,-1,-1,-1,-1,-1,-1,-1,-1,-1,-1,-1,-1,-1,-1,-1,-1,-1,-1,-1,-1,-1,-1,-1,-1,-1,-1,-1,-1,-1,-1,-1,-1,-1,-1,-1,-1,-1,-1,-1,-1,-1,-1,-1,-1,-1,-1,-1,-1,-1,-1,-1,-1],"split_conditions":[7.329024E-1,1.3644087E-1,1.2532015E0,7.845789E-3,-2.1979284E0,5.2007693E-1,-1.6212964E0,-3.3702648E-1,4.2822003E-1,-2.7853408E-1,4.4893622E-2,9.1671336E-1,-2.6254857E-1,-9.129858E-2,-9.859046E-1,-1.4817157E-1,3.331095E-1,1.3841354E0,-1.7311625E0,4.6240568E-1,1.8619696E0,-4.3289912E-1,3.060091E-1,2.5877154E-1,3.3433313E0,-3.2516557E-1,-9.329766E-1,1.2385369E-1,-5.545971E-1,-1.969244E0,2.6049817E-1,1.0829606E0,1.7954943E0,-8.349031E-1,-7.940415E-1,2.9289702E-1,-1.6487213E0,-1.4507062E0,-2.2431749E-1,1.2511181E0,6.7289865E-1,3.3681253E-1,1.0102587E0,-1.007292E0,6.8318284E-1,2.5378412E-1,5.1160374E0,-3.5334444E-1,-2.389431E-3,-1.0117664E0,1.5707514E0,-3.1353712E-2,4.989465E-1,1.1044629E0,-5.389497E-1,-2.3075426E-1,-4.1108418E-1,-1.8410113E0,4.9027956E-1,-4.629097E-1,-1.1585951E-2,3.1209319E0,9.688006E-2,3.8411756E0,3.1126056E0,4.266388E0,3.7527046E0,3.7462757E0,4.157246E0,4.121863E0,4.536238E0,4.3750396E0,1.0616034E0,1.9037943E0,4.6405435E0,1.2200832E0,4.958055E0,1.0072491E0,4.5428586E0,5.61758E0,2.157448E0,5.3105493E0,4.645738E0,5.3408513E0,4.974431E0,4.993132E0,4.072325E0,1.2468601E0,4.630721E0,2.9256365E0,3.3013058E0,1.4880009E0,3.4877517E0,2.7347152E0,3.1566765E0,3.5931013E0,3.963162E0,3.5744636E0,3.2373471E0,4.809332E0,2.0523818E0,1.1350974E0,3.6628273E0,8.2620907E-1,3.7039533E0,1.54597E0,2.0951273E0,1.6580998E0,1.9963254E0,3.29543E0,1.7526467E0,1.9691552E0,2.5390356E0,2.14239E0,2.5487318E0,2.9327624E0,1.4340876E0,2.275014E0,8.658562E-1],"split_indices":[35,84,145,150,12,21,133,107,189,164,123,145,24,161,71,39,178,15,12,5,79,162,61,51,11,145,9,13,170,23,6,33,97,144,149,61,74,102,30,39,0,83,0,33,89,21,0,80,15,173,0,178,33,122,45,0,63,133,6,80,161,75,65,0,0,0,0,0,0,0,0,0,0,0,0,0,0,0,0,0,0,0,0,0,0,0,0,0,0,0,0,0,0,0,0,0,0,0,0,0,0,0,0,0,0,0,0,0,0,0,0,0,0,0,0,0,0,0,0],"split_type":[0,0,0,0,0,0,0,0,0,0,0,0,0,0,0,0,0,0,0,0,0,0,0,0,0,0,0,0,0,0,0,0,0,0,0,0,0,0,0,0,0,0,0,0,0,0,0,0,0,0,0,0,0,0,0,0,0,0,0,0,0,0,0,0,0,0,0,0,0,0,0,0,0,0,0,0,0,0,0,0,0,0,0,0,0,0,0,0,0,0,0,0,0,0,0,0,0,0,0,0,0,0,0,0,0,0,0,0,0,0,0,0,0,0,0,0,0,0,0],"sum_hessian":[2.1275E4,1.5536E4,5.739E3,8.101E3,7.435E3,3.673E3,2.066E3,4.381E3,3.72E3,3.462E3,3.973E3,1.56E3,2.113E3,8.41E2,1.225E3,2.27E3,2.111E3,2.517E3,1.203E3,2.611E3,8.51E2,2.714E3,1.259E3,9.49E2,6.11E2,1.963E3,1.5E2,4.17E2,4.24E2,9.18E2,3.07E2,1.087E3,1.183E3,6.82E2,1.429E3,1.089E3,1.428E3,9.31E2,2.72E2,2.61E3,1E0,8.5E2,1E0,1.76E3,9.54E2,9.29E2,3.3E2,5.98E2,3.51E2,5.94E2,1.7E1,1.015E3,9.48E2,1.15E2,3.5E1,4E0,4.13E2,4.06E2,1.8E1,2.16E2,7.02E2,2.63E2,4.4E1,9.98E2,8.9E1,1.021E3,1.62E2,1.53E2,5.29E2,3.13E2,1.116E3,1.088E3,1E0,3E0,1.425E3,1E0,9.3E2,1E0,2.71E2,2.607E3,3E0,7.63E2,8.7E1,1.419E3,3.41E2,9.1E2,4.4E1,2E0,9.27E2,2.94E2,3.04E2,4E0,3.47E2,3.87E2,2.07E2,3.85E2,6.3E2,5.96E2,3.52E2,1.11E2,4E0,2E0,3.3E1,2E0,2E0,3.96E2,1.7E1,1.39E2,2.67E2,1.1E1,7E0,1.83E2,3.3E1,1.21E2,5.81E2,2.59E2,4E0,4.2E1,2E0],"tree_param":{"num_deleted":"0","num_feature":"192","num_nodes":"119","size_leaf_vector":"0"}},{"base_weights":[3.886082E1,2.7567318E1,4.3456017E1,2.0094719E1,3.175029E1,3.9583424E1,4.7316723E1,1.6495695E1,2.3077753E1,3.4342075E1,2.8832443E1,4.107552E1,3.6794827E1,4.949755E1,4.5030125E1,1.9553055E1,1.5112227E1,2.1028952E1,2.4506788E1,3.2773335E1,3.5660477E1,2.7643139E1,3.1060078E1,4.2101303E1,3.8692997E1,3.0784145E1,3.7335983E1,4.8474457E1,5.1749405E1,4.572946E1,4.07261E1,1.8348677E1,2.3279354E1,2.3746386E1,1.4900478E1,2.1688728E1,1.59862E1,2.3800829E1,2.9376122E1,3.080068E1,3.4015175E1,3.6963905E1,3.267133E1,2.4194294E1,2.8313885E1,4.6520123E1,3.0765844E1,4.0377575E1,4.3469894E1,3.7172787E1,4.0214348E1,2.2181444E1,3.1801765E1,3.4984882E1,3.826486E1,4.414222E1,4.886055E1,5.1860485E1,2.8827353E1,4.4739166E1,4.753E1,4.162889E1,3.413037E1,1.4517582E1,1.9023151E1,1.6385527E1,2.5441565E1,3.3019325E1,1.3895612E1,1.6081867E1,1.3938715E1,2.22072E1,1.7278343E1,1.275674E1,1.8804153E1,2.3346914E1,2.9975983E1,1.9001509E1,3.0985405E1,6.7140393E0,3.0909498E1,7.7430797E0,3.409242E1,3.781672E1,3.3376957E1,3.2797375E1,1.36008835E1,2.4675495E1,1.5152181E1,2.3586191E1,2.8769314E1,2.560451E1,3.1323444E1,3.5555023E1,4.077789E1,4.3491467E1,1.3053331E0,3.8204277E1,3.4014954E1,3.834369E0,4.0308636E1,2.48521E1,1.273212E1,1.2935588E1,3.212408E1,4.372734E0,3.5066685E1,3.7383102E1,4.036653E1,9.321088E0,4.4254063E1,3.9147614E1,4.8985416E1,5.18893E1,8.869875E0,1.0851911E1,3.3010513E1,4.572018E1,4.2614704E1,7.699339E0,4.7558918E1,4.3569744E1,3.8378513E1,1.7890366E1,3.5675365E1],"categories":[],"categories_nodes":[],"categories_segments":[],"categories_sizes":[],"default_left":[1,1,1,1,1,1,1,1,1,1,1,1,1,1,1,1,1,1,1,1,1,1,1,1,1,1,1,1,1,1,1,1,1,1,1,1,1,1,1,1,1,1,1,1,1,0,1,1,1,1,1,1,1,1,1,1,1,1,1,1,1,1,1,0,0,0,0,0,0,0,0,0,0,0,0,0,0,0,0,0,0,0,0,0,0,0,0,0,0,0,0,0,0,0,0,0,0,0,0,0,0,0,0,0,0,0,0,0,0,0,0,0,0,0,0,0,0,0,0,0,0,0,0,0,0],"id":4,"left_children":[1,3,5,7,9,11,13,15,17,19,21,23,25,27,29,31,33,35,37,39,41,43,45,47,49,51,53,55,57,59,61,63,65,67,69,71,73,75,77,79,81,83,85,87,89,-1,91,93,95,97,99,101,103,105,107,109,111,113,115,117,119,121,123,-1,-1,-1,-1,-1,-1,-1,-1,-1,-1,-1,-1,-1,-1,-1,-1,-1,-1,-1,-1,-1,-1,-1,-1,-1,-1,-1,-1,-1,-1,-1,-1,-1,-1,-1,-1,-1,-1,-1,-1,-1,-1,-1,-1,-1,-1,-1,-1,-1,-1,-1,-1,-1,-1,-1,-1,-1,-1,-1,-1,-1,-1],"loss_changes":[1.102942E6,1.91784E5,2.242E5,2.3367375E4,2.884375E4,2.9925E4,3.5504E4,3.9596562E3,3.0184375E3,3.1415E3,4.0745E3,1.0378E4,7.4475E3,6.392E3,9.29E3,9.6410156E2,9.2046875E2,1.3268125E3,1.7242812E3,1.3138125E3,3.159875E3,2.1440625E3,1.48E3,6.32E3,1.95325E3,1.2555469E3,3.9465E3,2.312E3,1.53975E3,3.5415E3,1.71725E3,3.4139844E2,6.5635156E2,9.113613E2,5.51875E2,6.269844E2,3.2434863E2,1.0408125E3,8.303672E2,7.9634375E2,9.171875E2,1.102375E3,3.9284375E2,5.224297E2,1.5133125E3,0E0,1.014E3,1.502E3,1.66725E3,1.17275E3,2.359875E3,3.6494922E2,7.884531E2,1.592E3,1.68575E3,4.793125E2,1.0465E3,1.00775E3,2.4332617E2,2.36175E3,9.1475E2,1.2235E3,1.0930078E3,0E0,0E0,0E0,0E0,0E0,0E0,0E0,0E0,0E0,0E0,0E0,0E0,0E0,0E0,0E0,0E0,0E0,0E0,0E0,0E0,0E0,0E0,0E0,0E0,0E0,0E0,0E0,0E0,0E0,0E0,0E0,0E0,0E0,0E0,0E0,0E0,0E0,0E0,0E0,0E0,0E0,0E0,0E0,0E0,0E0,0E0,0E0,0E0,0E0,0E0,0E0,0E0,0E0,0E0,0E0,0E0,0E0,0E0,0E0,0E0,0E0,0E0],"parents":[2147483647,0,0,1,1,2,2,3,3,4,4,5,5,6,6,7,7,8,8,9,9,10,10,11,11,12,12,13,13,14,14,15,15,16,16,17,17,18,18,19,19,20,20,21,21,22,22,23,23,24,24,25,25,26,26,27,27,28,28,29,29,30,30,31,31,32,32,33,33,34,34,35,35,36,36,37,37,38,38,39,39,40,40,41,41,42,42,43,43,44,44,46,46,47,47,48,48,49,49,50,50,51,51,52,52,53,53,54,54,55,55,56,56,57,57,58,58,59,59,60,60,61,61,62,62],"right_children":[2,4,6,8,10,12,14,16,18,20,22,24,26,28,30,32,34,36,38,40,42,44,46,48,50,52,54,56,58,60,62,64,66,68,70,72,74,76,78,80,82,84,86,88,90,-1,92,94,96,98,100,102,104,106,108,110,112,114,116,118,120,122,124,-1,-1,-1,-1,-1,-1,-1,-1,-1,-1,-1,-1,-1,-1,-1,-1,-1,-1,-1,-1,-1,-1,-1,-1,-1,-1,-1,-1,-1,-1,-1,-1,-1,-1,-1,-1,-1,-1,-1,-1,-1,-1,-1,-1,-1,-1,-1,-1,-1,-1,-1,-1,-1,-1,-1,-1,-1,-1,-1,-1,-1,-1],"split_conditions":[-5.318121E-1,-1.3596907E0,1.1651121E-1,-1.938216E0,-1.382376E-1,3.824437E-1,-2.148859E0,-5.4272592E-2,-7.154944E-1,-4.315877E-1,-2.8039694E-1,-1.4675745E0,-6.2536275E-1,2.9026139E0,-5.545429E-1,-6.5652823E-1,-9.997232E-1,-5.514618E-1,-9.269173E-1,-9.169837E-1,1.1117263E0,-1.0212468E0,-4.311809E-1,2.6511252E-1,-2.246429E-1,-1.503884E0,-2.0183599E-1,-1.4748396E-1,1.2510633E0,2.1005821E0,2.7975118E-1,-1.9710896E0,-1.8376603E0,5.373459E-1,1.7840195E0,-2.8041008E-1,7.0340633E-3,1.1407732E0,-1.1413784E0,-2.5700268E-1,-1.1553529E-1,9.9049425E-1,9.029057E-1,7.1165895E-1,-8.314614E-1,4.6520123E0,-1.290005E0,2.2736579E-1,2.5326495E0,1.1721265E-1,-2.6325114E0,-1.9243714E-1,-1.3712797E0,1.1099439E-1,-8.048713E-1,5.126598E-1,1.0485892E0,7.4743676E-1,5.916288E-1,4.5965675E-2,-3.0000806E-2,2.2881228E-2,2.593904E-1,1.4517583E0,1.9023151E0,1.6385527E0,2.5441566E0,3.3019326E0,1.3895612E0,1.6081867E0,1.3938715E0,2.22072E0,1.7278343E0,1.275674E0,1.8804153E0,2.3346915E0,2.9975984E0,1.9001509E0,3.0985405E0,6.7140394E-1,3.0909498E0,7.7430797E-1,3.409242E0,3.781672E0,3.3376958E0,3.2797375E0,1.3600883E0,2.4675496E0,1.5152181E0,2.3586192E0,2.8769314E0,2.560451E0,3.1323445E0,3.5555024E0,4.077789E0,4.349147E0,1.3053332E-1,3.8204277E0,3.4014955E0,3.834369E-1,4.030864E0,2.4852102E0,1.273212E0,1.2935588E0,3.212408E0,4.372734E-1,3.5066686E0,3.7383103E0,4.036653E0,9.321088E-1,4.4254065E0,3.9147613E0,4.898542E0,5.18893E0,8.869875E-1,1.0851911E0,3.3010514E0,4.572018E0,4.2614703E0,7.699339E-1,4.755892E0,4.3569746E0,3.8378513E0,1.7890366E0,3.5675366E0],"split_indices":[39,151,84,151,145,47,12,12,85,107,80,177,44,16,41,85,43,46,136,7,105,44,90,11,20,133,80,106,39,16,76,151,5,49,3,154,16,169,173,128,51,153,163,76,149,0,44,39,21,76,120,4,184,61,75,2,21,34,0,123,15,74,115,0,0,0,0,0,0,0,0,0,0,0,0,0,0,0,0,0,0,0,0,0,0,0,0,0,0,0,0,0,0,0,0,0,0,0,0,0,0,0,0,0,0,0,0,0,0,0,0,0,0,0,0,0,0,0,0,0,0,0,0,0,0],"split_type":[0,0,0,0,0,0,0,0,0,0,0,0,0,0,0,0,0,0,0,0,0,0,0,0,0,0,0,0,0,0,0,0,0,0,0,0,0,0,0,0,0,0,0,0,0,0,0,0,0,0,0,0,0,0,0,0,0,0,0,0,0,0,0,0,0,0,0,0,0,0,0,0,0,0,0,0,0,0,0,0,0,0,0,0,0,0,0,0,0,0,0,0,0,0,0,0,0,0,0,0,0,0,0,0,0,0,0,0,0,0,0,0,0,0,0,0,0,0,0,0,0,0,0,0,0],"sum_hessian":[2.1275E4,6.155E3,1.512E4,2.211E3,3.944E3,7.554E3,7.566E3,1.005E3,1.206E3,2.083E3,1.861E3,4.912E3,2.642E3,3.862E3,3.704E3,3.09E2,6.96E2,5.02E2,7.04E2,9.63E2,1.12E3,1.222E3,6.39E2,3.422E3,1.49E3,2.23E2,2.419E3,2.671E3,1.191E3,3.178E3,5.26E2,2.38E2,7.1E1,1.4E1,6.82E2,4.41E2,6.1E1,6.2E2,8.4E1,3.82E2,5.81E2,7.72E2,3.48E2,2.05E2,1.017E3,9E0,6.3E2,1.528E3,1.894E3,7.58E2,7.32E2,2.6E1,1.97E2,6.96E2,1.723E3,2.28E2,2.443E3,1.184E3,7E0,2.067E3,1.111E3,4.58E2,6.8E1,3.9E1,1.99E2,1.9E1,5.2E1,6E0,8E0,2.99E2,3.83E2,3.91E2,5E1,3.1E1,3E1,5.82E2,3.8E1,1.3E1,7.1E1,2E0,3.8E2,2E0,5.79E2,6.16E2,1.56E2,3.45E2,3E0,1.93E2,1.2E1,9.4E1,9.23E2,6.6E1,5.64E2,1.24E2,1.404E3,1.893E3,1E0,5.63E2,1.95E2,2E0,7.3E2,1.9E1,7E0,4E0,1.93E2,2E0,6.94E2,1.227E3,4.96E2,1E0,2.27E2,3.5E1,2.408E3,1.183E3,1E0,2E0,5E0,1.4E3,6.67E2,1E0,1.11E3,2.79E2,1.79E2,7E0,6.1E1],"tree_param":{"num_deleted":"0","num_feature":"192","num_nodes":"125","size_leaf_vector":"0"}},{"base_weights":[3.4982643E1,2.4573109E1,3.9018555E1,1.8182436E1,2.8465908E1,3.5277245E1,4.2352795E1,2.0313805E1,1.3864049E1,3.0453403E1,2.5590435E1,3.3759262E1,3.744691E1,4.017878E1,4.4442677E1,2.173804E1,1.7873402E1,2.197518E1,1.357642E1,2.9464037E1,3.2392914E1,2.493312E1,2.9175728E1,3.18211E1,3.5327274E1,3.6175465E1,3.879185E1,3.851207E1,4.2205612E1,4.6288464E1,4.310776E1,2.1184801E1,2.716973E1,2.4768396E1,1.7450989E1,3.336113E1,1.6326466E1,1.2084122E1,1.4341151E1,2.6773066E1,3.0245718E1,3.301733E1,2.7897926E1,2.5680525E1,2.2471638E1,7.853102E0,2.9519894E1,3.2872406E1,2.9247234E1,3.488294E1,3.9084686E1,3.6774517E1,3.2270687E1,8.039168E0,3.8829346E1,3.9104465E1,3.332857E1,3.6611786E1,4.249474E1,4.238646E1,4.6755108E1,4.314675E1,8.907089E0,2.792219E1,2.0806585E1,7.6223316E0,2.7799604E1,2.5855713E1,6.363981E0,1.9488792E1,1.6371279E1,1.2893622E1,1.0866634E1,3.6860424E1,1.4215613E1,2.6922682E1,7.624133E0,3.1008709E1,2.6734339E1,3.590611E1,3.1787495E1,2.8475475E1,7.6398373E0,3.0839952E1,2.5175615E1,2.5955683E1,2.1156374E1,9.481329E0,6.700964E-1,2.821344E1,3.770411E1,3.3115257E1,2.6290796E1,1.6069271E1,2.95529E1,7.8674045E0,3.4917686E1,1.1195857E1,3.915453E1,3.679407E1,5.41372E0,3.2549374E1,1.9127871E0,1.08186865E1,1.2400665E0,6.001025E0,3.884817E1,3.8045208E1,4.085593E1,3.5557858E1,2.7661398E1,6.315958E0,3.686689E1,8.783199E0,4.2509483E1,4.2565216E1,3.943266E0,2.0408327E1,4.6793682E1,4.051431E1,4.3834564E1],"categories":[],"categories_nodes":[],"categories_segments":[],"categories_sizes":[],"default_left":[1,1,1,1,1,1,1,1,1,1,1,1,1,1,1,1,1,1,1,1,1,1,1,1,1,1,1,1,1,1,1,1,1,1,1,0,0,1,1,1,1,1,1,1,1,1,1,1,1,1,1,1,1,1,1,1,1,1,1,1,1,1,0,0,0,0,0,0,0,0,0,0,0,0,0,0,0,0,0,0,0,0,0,0,0,0,0,0,0,0,0,0,0,0,0,0,0,0,0,0,0,0,0,0,0,0,0,0,0,0,0,0,0,0,0,0,0,0,0,0,0],"id":5,"left_children":[1,3,5,7,9,11,13,15,17,19,21,23,25,27,29,31,33,35,37,39,41,43,45,47,49,51,53,55,57,59,61,63,65,67,69,-1,-1,71,73,75,77,79,81,83,85,87,89,91,93,95,97,99,101,103,105,107,109,111,113,115,117,119,-1,-1,-1,-1,-1,-1,-1,-1,-1,-1,-1,-1,-1,-1,-1,-1,-1,-1,-1,-1,-1,-1,-1,-1,-1,-1,-1,-1,-1,-1,-1,-1,-1,-1,-1,-1,-1,-1,-1,-1,-1,-1,-1,-1,-1,-1,-1,-1,-1,-1,-1,-1,-1,-1,-1,-1,-1,-1,-1],"loss_changes":[8.92886E5,1.4742975E5,1.8974E5,2.0464312E4,2.0332E4,2.2548E4,3.502E4,4.849375E3,1.4467344E3,3.226875E3,2.8451875E3,1.1834E4,3.67025E3,1.1823E4,8.1585E3,2.2702188E3,1.2017031E3,9.989131E2,6.540781E2,2.248625E3,1.1165625E3,1.7925E3,1.4487031E3,4.22575E3,2.55675E3,2.415625E3,1.3345E3,5.44E3,1.333E3,1.143E3,2.824E3,1.620625E3,8.2234375E2,4.3579492E2,8.514531E2,0E0,0E0,1.0825E2,8.160156E2,7.5740625E2,2.1690625E3,1.1039375E3,8.939531E2,1.7790625E3,8.622656E2,5.212445E1,1.342E3,1.291875E3,1.8009688E3,1.70475E3,2.9125E1,6.15125E2,1.7397812E3,4.3278778E1,6.4825E2,2.09125E3,1.9474531E3,5.013672E2,4.675E2,1.1653438E3,5.9275E2,2.575E3,0E0,0E0,0E0,0E0,0E0,0E0,0E0,0E0,0E0,0E0,0E0,0E0,0E0,0E0,0E0,0E0,0E0,0E0,0E0,0E0,0E0,0E0,0E0,0E0,0E0,0E0,0E0,0E0,0E0,0E0,0E0,0E0,0E0,0E0,0E0,0E0,0E0,0E0,0E0,0E0,0E0,0E0,0E0,0E0,0E0,0E0,0E0,0E0,0E0,0E0,0E0,0E0,0E0,0E0,0E0,0E0,0E0,0E0,0E0],"parents":[2147483647,0,0,1,1,2,2,3,3,4,4,5,5,6,6,7,7,8,8,9,9,10,10,11,11,12,12,13,13,14,14,15,15,16,16,17,17,18,18,19,19,20,20,21,21,22,22,23,23,24,24,25,25,26,26,27,27,28,28,29,29,30,30,31,31,32,32,33,33,34,34,37,37,38,38,39,39,40,40,41,41,42,42,43,43,44,44,45,45,46,46,47,47,48,48,49,49,50,50,51,51,52,52,53,53,54,54,55,55,56,56,57,57,58,58,59,59,60,60,61,61],"right_children":[2,4,6,8,10,12,14,16,18,20,22,24,26,28,30,32,34,36,38,40,42,44,46,48,50,52,54,56,58,60,62,64,66,68,70,-1,-1,72,74,76,78,80,82,84,86,88,90,92,94,96,98,100,102,104,106,108,110,112,114,116,118,120,-1,-1,-1,-1,-1,-1,-1,-1,-1,-1,-1,-1,-1,-1,-1,-1,-1,-1,-1,-1,-1,-1,-1,-1,-1,-1,-1,-1,-1,-1,-1,-1,-1,-1,-1,-1,-1,-1,-1,-1,-1,-1,-1,-1,-1,-1,-1,-1,-1,-1,-1,-1,-1,-1,-1,-1,-1,-1,-1],"split_conditions":[-5.8104724E-1,-1.321315E0,1.8024951E-2,1.3808953E0,1.357649E-1,6.451209E-1,9.2742157E-1,-8.314812E-2,-2.817862E-1,2.0056441E-2,8.785712E-1,-2.6607174E-2,3.1461275E-1,4.0991703E-1,-2.440178E0,-9.7881323E-1,-1.2891081E-1,1.0131868E0,-2.9817462E-1,-1.0364025E0,-9.095312E-1,1.421994E-1,-5.5946314E-1,-7.7925766E-1,2.3289417E-1,1.5516405E0,-4.6769118E-1,-8.7588346E-1,5.671745E-1,-8.069742E-1,2.0304885E0,-6.77951E-2,-1.4048424E0,1.8119985E0,8.699297E-1,3.336113E0,1.6326466E0,1.1024592E-1,1.2385363E-1,-1.1820289E-1,5.2323854E-1,3.433298E-2,-7.797118E-1,3.567083E-2,5.767281E-1,-1.4078107E-1,-3.2018766E-2,1.9785419E0,-5.0057393E-1,-5.051893E-1,2.260158E-1,3.145551E-1,7.5354797E-1,-1.779888E-1,-1.5724597E0,-7.729995E-1,-1.295886E0,-1.8076079E-1,-1.5974331E0,4.447391E-1,-1.154891E0,1.2860732E0,8.907089E-1,2.792219E0,2.0806587E0,7.622332E-1,2.7799604E0,2.5855713E0,6.363981E-1,1.9488792E0,1.6371279E0,1.2893623E0,1.0866635E0,3.6860425E0,1.4215614E0,2.6922681E0,7.624133E-1,3.1008708E0,2.673434E0,3.590611E0,3.1787496E0,2.8475475E0,7.639837E-1,3.0839953E0,2.5175617E0,2.5955684E0,2.1156375E0,9.4813293E-1,6.700964E-2,2.8213441E0,3.770411E0,3.3115258E0,2.6290796E0,1.6069272E0,2.95529E0,7.867405E-1,3.4917686E0,1.1195858E0,3.915453E0,3.6794071E0,5.41372E-1,3.2549374E0,1.9127871E-1,1.0818686E0,1.2400665E-1,6.0010254E-1,3.8848171E0,3.8045208E0,4.085593E0,3.555786E0,2.7661397E0,6.315958E-1,3.6866891E0,8.783199E-1,4.2509484E0,4.2565217E0,3.943266E-1,2.0408328E0,4.6793685E0,4.051431E0,4.3834567E0],"split_indices":[39,151,84,139,145,39,84,177,148,118,21,54,189,125,12,136,112,122,161,136,177,58,97,145,118,97,31,25,15,75,43,182,106,3,89,0,0,10,13,70,33,156,103,156,145,0,54,97,179,19,3,189,47,0,42,75,12,13,47,5,50,178,0,0,0,0,0,0,0,0,0,0,0,0,0,0,0,0,0,0,0,0,0,0,0,0,0,0,0,0,0,0,0,0,0,0,0,0,0,0,0,0,0,0,0,0,0,0,0,0,0,0,0,0,0,0,0,0,0,0,0],"split_type":[0,0,0,0,0,0,0,0,0,0,0,0,0,0,0,0,0,0,0,0,0,0,0,0,0,0,0,0,0,0,0,0,0,0,0,0,0,0,0,0,0,0,0,0,0,0,0,0,0,0,0,0,0,0,0,0,0,0,0,0,0,0,0,0,0,0,0,0,0,0,0,0,0,0,0,0,0,0,0,0,0,0,0,0,0,0,0,0,0,0,0,0,0,0,0,0,0,0,0,0,0,0,0,0,0,0,0,0,0,0,0,0,0,0,0,0,0,0,0,0,0],"sum_hessian":[2.1275E4,5.946E3,1.5329E4,2.253E3,3.693E3,7.229E3,8.1E3,1.506E3,7.47E2,2.178E3,1.515E3,4.263E3,2.966E3,3.98E3,4.12E3,9.46E2,5.6E2,2.3E1,7.24E2,1.453E3,7.25E2,1.287E3,2.28E2,1.916E3,2.347E3,1.539E3,1.427E3,2.195E3,1.785E3,1.715E3,2.405E3,8.63E2,8.3E1,2.9E1,5.31E2,6E0,1.7E1,2.51E2,4.73E2,3.35E2,1.118E3,6.31E2,9.4E1,9.8E2,3.07E2,4E0,2.24E2,1.352E3,5.64E2,2.108E3,2.39E2,1.327E3,2.12E2,2E0,1.425E3,1.964E3,2.31E2,9.4E1,1.691E3,1.93E2,1.522E3,2.402E3,3E0,4.2E1,8.21E2,3E0,8E1,2.7E1,2E0,1.78E2,3.53E2,1.45E2,1.06E2,1E0,4.72E2,3.32E2,3E0,9.12E2,2.06E2,1.8E2,4.51E2,9.1E1,3E0,8.2E1,8.98E2,7.9E1,2.28E2,3E0,1E0,1.97E2,2.7E1,1.3E3,5.2E1,1.4E1,5.5E2,3E0,2.105E3,1E0,2.38E2,1.326E3,1E0,2.1E2,2E0,1E0,1E0,1E0,1.424E3,1.238E3,7.26E2,1.62E2,6.9E1,1E0,9.3E1,1E0,1.69E3,1.92E2,1E0,3E0,1.519E3,5.1E2,1.892E3],"tree_param":{"num_deleted":"0","num_feature":"192","num_nodes":"121","size_leaf_vector":"0"}},{"base_weights":[3.1491089E1,3.5908848E1,2.3743217E1,3.3480423E1,3.9168697E1,2.7129366E1,1.7099247E1,3.241438E1,3.636829E1,4.1141388E1,3.7733776E1,2.4284954E1,2.9029783E1,1.3159853E1,1.936549E1,3.074886E1,3.32818E1,3.2213398E1,3.6905983E1,4.183221E1,3.844955E1,3.4625465E1,3.8370506E1,2.241522E1,2.5785376E1,2.9820894E1,2.6593275E1,1.5641192E1,1.2187026E1,1.8167969E1,2.2105698E1,3.010586E1,3.3532528E1,3.362628E1,2.9658897E1,2.9461557E1,3.4463432E1,3.558574E1,3.8246826E1,2.7519316E1,4.1907963E1,1.60779E0,3.8519184E1,1.5420748E1,3.486668E1,2.984707E1,3.851266E1,2.145052E1,2.577374E1,1.8904282E1,2.607871E1,2.6804516E1,3.0467442E1,2.4601967E1,2.765277E1,1.6353434E1,1.0636499E1,2.093317E1,1.1988745E1,1.5726263E1,1.9299032E1,2.6838163E1,2.127094E1,6.727966E0,3.0160168E1,3.4262474E1,2.6031534E1,3.513248E1,3.2645195E1,2.9739326E1,1.5184412E0,2.9878214E1,1.4069457E1,3.458262E1,9.544193E0,3.574402E1,2.152547E1,3.828675E1,1.1780634E0,5.738764E0,4.1923954E1,3.861912E1,8.889919E0,4.527098E0,2.0113056E1,3.4949795E1,7.425219E0,3.0913883E1,9.850256E0,3.8532913E1,7.2712903E0,2.2047707E1,1.7845728E1,1.8571293E1,2.6832108E1,1.7029816E1,3.6203197E1,2.7818666E1,2.4989021E1,2.8513968E1,2.3843483E1,2.9216848E1,3.217179E1,1.4918194E1,2.5028778E1,4.682792E0,2.7737661E1,1.3674772E1,1.7480408E1,1.2939818E1,8.1468525E0,1.3450532E1,3.1711817E1,1.0524393E1,1.2691288E1,1.49209175E1,1.8874638E1,1.7025484E1,2.010767E1,2.7264597E1,8.084142E0,2.1667528E1,1.2077345E1],"categories":[],"categories_nodes":[],"categories_segments":[],"categories_sizes":[],"default_left":[1,1,1,1,1,1,1,1,1,1,1,1,1,1,1,1,1,1,1,1,1,1,1,1,1,1,1,1,1,1,1,1,1,1,1,1,1,1,1,0,1,0,1,1,1,1,1,1,1,1,1,1,1,1,1,1,1,1,1,1,1,1,1,0,0,0,0,0,0,0,0,0,0,0,0,0,0,0,0,0,0,0,0,0,0,0,0,0,0,0,0,0,0,0,0,0,0,0,0,0,0,0,0,0,0,0,0,0,0,0,0,0,0,0,0,0,0,0,0,0,0,0,0],"id":6,"left_children":[1,3,5,7,9,11,13,15,17,19,21,23,25,27,29,31,33,35,37,39,41,43,45,47,49,51,53,55,57,59,61,63,65,67,69,71,73,75,77,-1,79,-1,81,83,85,87,89,91,93,95,97,99,101,103,105,107,109,111,113,115,117,119,121,-1,-1,-1,-1,-1,-1,-1,-1,-1,-1,-1,-1,-1,-1,-1,-1,-1,-1,-1,-1,-1,-1,-1,-1,-1,-1,-1,-1,-1,-1,-1,-1,-1,-1,-1,-1,-1,-1,-1,-1,-1,-1,-1,-1,-1,-1,-1,-1,-1,-1,-1,-1,-1,-1,-1,-1,-1,-1,-1,-1],"loss_changes":[7.27388E5,1.05938E5,1.734195E5,2.2745E4,1.4803E4,2.696025E4,2.3064188E4,7.189E3,3.47375E3,2.89525E3,5.3155E3,5.189875E3,5.11125E3,2.1194844E3,5.0324375E3,2.498625E3,3.65275E3,5.140156E2,1.898E3,9.24E2,1.2388125E3,2.1538125E3,2.21525E3,2.4375938E3,1.796E3,3.676625E3,9.23125E2,7.7423047E2,9.4910156E2,2.8945625E3,1.4003906E3,1.831E3,1.07375E3,3.87025E3,7.0628125E2,3.3639062E2,5.6046875E1,1.327E3,1.28675E3,0E0,8.605E2,0E0,1.1549375E3,3.689934E2,1.0473125E3,7.621328E2,1.446E3,1.1629688E3,1.033875E3,1.00477734E3,1.362E3,1.4207812E3,3.088375E3,7.5496875E2,8.2165625E2,4.5829688E2,1.01020996E2,7.0259717E2,5.6496875E2,6.6159375E2,1.1045625E3,3.4740234E2,1.3024844E3,0E0,0E0,0E0,0E0,0E0,0E0,0E0,0E0,0E0,0E0,0E0,0E0,0E0,0E0,0E0,0E0,0E0,0E0,0E0,0E0,0E0,0E0,0E0,0E0,0E0,0E0,0E0,0E0,0E0,0E0,0E0,0E0,0E0,0E0,0E0,0E0,0E0,0E0,0E0,0E0,0E0,0E0,0E0,0E0,0E0,0E0,0E0,0E0,0E0,0E0,0E0,0E0,0E0,0E0,0E0,0E0,0E0,0E0,0E0,0E0],"parents":[2147483647,0,0,1,1,2,2,3,3,4,4,5,5,6,6,7,7,8,8,9,9,10,10,11,11,12,12,13,13,14,14,15,15,16,16,17,17,18,18,19,19,20,20,21,21,22,22,23,23,24,24,25,25,26,26,27,27,28,28,29,29,30,30,31,31,32,32,33,33,34,34,35,35,36,36,37,37,38,38,40,40,42,42,43,43,44,44,45,45,46,46,47,47,48,48,49,49,50,50,51,51,52,52,53,53,54,54,55,55,56,56,57,57,58,58,59,59,60,60,61,61,62,62],"right_children":[2,4,6,8,10,12,14,16,18,20,22,24,26,28,30,32,34,36,38,40,42,44,46,48,50,52,54,56,58,60,62,64,66,68,70,72,74,76,78,-1,80,-1,82,84,86,88,90,92,94,96,98,100,102,104,106,108,110,112,114,116,118,120,122,-1,-1,-1,-1,-1,-1,-1,-1,-1,-1,-1,-1,-1,-1,-1,-1,-1,-1,-1,-1,-1,-1,-1,-1,-1,-1,-1,-1,-1,-1,-1,-1,-1,-1,-1,-1,-1,-1,-1,-1,-1,-1,-1,-1,-1,-1,-1,-1,-1,-1,-1,-1,-1,-1,-1,-1,-1,-1,-1,-1],"split_conditions":[5.503665E-1,5.4842836E-1,1.0643766E0,4.7389036E-1,-2.3339438E0,8.6380786E-1,-1.5511292E0,3.4881407E-1,5.459107E-1,4.3088794E-1,-4.7589672E-1,-3.5340726E-1,1.113153E0,1.4042866E0,2.3995662E-1,2.8364107E-1,-1.1675475E0,-8.584121E-3,3.1951314E-1,-3.113781E-2,2.9461432E-1,-5.200869E-2,-6.3082945E-1,2.660759E-1,-1.3069826E-1,1.0762411E0,-1.0229139E0,1.5896788E0,-8.365325E-1,-1.8768167E0,-5.1676756E-1,-7.315991E-1,1.4037896E0,-2.736696E-1,1.4265833E0,7.403145E-1,3.2395053E-1,9.5057255E-1,2.5326495E0,2.7519317E0,-8.001268E-2,1.60779E-1,4.9933708E-1,-1.7390098E-2,1.0762819E0,3.482793E-2,7.17615E-1,7.1335244E-1,-9.111315E-1,8.367419E-3,-7.069675E-1,-1.5911009E0,4.278348E-1,-1.2329651E0,-6.3440824E-1,3.1301212E-1,-1.6814857E0,3.5146444E0,-1.9737813E0,-9.413791E-1,7.75733E-2,3.8488343E0,7.412982E-1,6.727966E-1,3.0160167E0,3.4262474E0,2.6031535E0,3.5132482E0,3.2645195E0,2.9739327E0,1.5184413E-1,2.9878213E0,1.4069457E0,3.458262E0,9.544193E-1,3.5744019E0,2.1525471E0,3.828675E0,1.1780634E-1,5.738764E-1,4.1923957E0,3.8619123E0,8.8899195E-1,4.5270982E-1,2.0113056E0,3.4949796E0,7.4252194E-1,3.0913885E0,9.850256E-1,3.8532913E0,7.2712904E-1,2.2047708E0,1.7845728E0,1.8571293E0,2.6832108E0,1.7029816E0,3.6203198E0,2.7818668E0,2.498902E0,2.8513968E0,2.3843484E0,2.921685E0,3.217179E0,1.4918194E0,2.502878E0,4.682792E-1,2.7737663E0,1.3674773E0,1.7480408E0,1.2939819E0,8.146853E-1,1.3450532E0,3.1711817E0,1.0524393E0,1.2691288E0,1.4920918E0,1.8874638E0,1.7025484E0,2.010767E0,2.7264597E0,8.0841416E-1,2.1667528E0,1.2077345E0],"split_indices":[47,84,145,189,12,21,133,39,15,98,114,80,105,145,21,182,25,104,61,64,15,2,167,51,51,15,46,171,107,151,176,85,44,162,17,34,5,94,21,0,14,0,62,6,112,121,29,19,27,107,24,9,178,131,53,137,162,11,23,44,16,55,76,0,0,0,0,0,0,0,0,0,0,0,0,0,0,0,0,0,0,0,0,0,0,0,0,0,0,0,0,0,0,0,0,0,0,0,0,0,0,0,0,0,0,0,0,0,0,0,0,0,0,0,0,0,0,0,0,0,0,0,0],"split_type":[0,0,0,0,0,0,0,0,0,0,0,0,0,0,0,0,0,0,0,0,0,0,0,0,0,0,0,0,0,0,0,0,0,0,0,0,0,0,0,0,0,0,0,0,0,0,0,0,0,0,0,0,0,0,0,0,0,0,0,0,0,0,0,0,0,0,0,0,0,0,0,0,0,0,0,0,0,0,0,0,0,0,0,0,0,0,0,0,0,0,0,0,0,0,0,0,0,0,0,0,0,0,0,0,0,0,0,0,0,0,0,0,0,0,0,0,0,0,0,0,0,0,0],"sum_hessian":[2.1275E4,1.3547E4,7.728E3,7.77E3,5.777E3,5.117E3,2.611E3,5.684E3,2.086E3,2.421E3,3.356E3,2.055E3,3.062E3,9.56E2,1.655E3,1.959E3,3.725E3,2.46E2,1.84E3,1.915E3,5.06E2,5.8E2,2.776E3,9.22E2,1.133E3,2.303E3,7.59E2,2.65E2,6.91E2,1.157E3,4.98E2,1.601E3,3.58E2,3.394E3,3.31E2,1.17E2,1.29E2,9.41E2,8.99E2,1.2E1,1.903E3,1E0,5.05E2,8E0,5.72E2,4.9E1,2.727E3,7.22E2,2E2,4.9E1,1.084E3,4.14E2,1.889E3,2.72E2,4.87E2,2.3E2,3.5E1,1.3E1,6.78E2,3.71E2,7.86E2,7E1,4.28E2,4E0,1.597E3,3.23E2,3.5E1,1.325E3,2.069E3,3.3E2,1E0,1.13E2,4E0,1.28E2,1E0,9.29E2,1.2E1,8.98E2,1E0,1E0,1.902E3,5.03E2,2E0,3E0,5E0,5.7E2,2E0,4.6E1,3E0,2.725E3,2E0,6.15E2,1.07E2,2.8E1,1.72E2,4.6E1,3E0,4.08E2,6.76E2,2.57E2,1.57E2,1.1E3,7.89E2,1.3E1,2.59E2,2E0,4.85E2,7.2E1,1.58E2,1.6E1,1.9E1,9E0,4E0,2.25E2,4.53E2,3E2,7.1E1,2.12E2,5.74E2,6.8E1,2E0,4.09E2,1.9E1],"tree_param":{"num_deleted":"0","num_feature":"192","num_nodes":"123","size_leaf_vector":"0"}},{"base_weights":[2.8348076E1,3.2322826E1,2.1377151E1,3.0137283E1,3.5256638E1,2.4686787E1,1.586361E1,2.8825754E1,3.2077938E1,3.703238E1,3.3964973E1,2.2348577E1,2.6281046E1,1.23932495E1,1.8160791E1,3.0103926E1,2.7899433E1,3.3480927E1,3.0986391E1,3.404127E1,3.7538082E1,3.1174452E1,3.453657E1,2.0874695E1,2.3757174E1,2.7026995E1,2.3965933E1,1.4763946E1,1.1157678E1,1.7346169E1,2.1510431E1,2.7045246E1,3.0660173E1,2.5550379E1,2.883823E1,3.215028E1,3.510174E1,2.7385546E1,3.1463717E1,3.4198967E1,1.1417206E1,2.9556057E1,3.7693443E1,2.4092958E1,3.1854353E1,2.6943892E1,3.4663074E1,1.9909939E1,2.3655731E1,2.2725264E1,2.5386873E1,2.1915958E1,2.7338318E1,2.1275005E1,2.4720448E1,1.5585533E1,1.08067875E1,1.0034818E1,1.2265989E1,1.4918611E1,1.809017E1,3.838868E1,2.119241E1,1.0279405E1,2.7459452E1,-2.1292448E0,3.0681557E1,2.570504E1,9.410574E0,2.9584576E1,2.5821001E1,3.0397238E1,3.3709007E1,3.528752E1,1.8981417E1,2.8121422E1,1.9651659E1,8.237569E0,3.1518234E1,3.426903E1,4.5931644E0,1.527401E0,3.0172365E1,3.8464924E1,3.642128E1,2.5221457E1,3.3992457E0,3.2743065E1,2.8015757E1,2.7697376E1,5.906833E0,3.5118958E1,3.2802353E1,2.035297E1,1.5098338E1,2.4191147E1,1.3131705E1,1.5938432E1,2.3153402E1,2.5568897E1,6.6941543E0,2.3686695E1,1.6046947E1,2.5120306E1,2.802164E1,1.6502455E1,2.2755766E1,8.002447E0,2.4829062E1,2.642231E1,1.52979765E1,1.6446133E1,9.498805E0,1.971771E1,9.881809E0,1.1896282E1,3.0319427E1,8.130008E0,1.5299852E1,1.6739586E1,1.9111172E1,2.1408665E1,1.1028417E1],"categories":[],"categories_nodes":[],"categories_segments":[],"categories_sizes":[],"default_left":[1,1,1,1,1,1,1,1,1,1,1,1,1,1,1,1,1,1,1,1,1,1,1,1,1,1,1,1,1,1,1,1,1,1,1,1,1,1,1,1,0,1,1,1,1,1,1,1,1,1,1,1,1,1,1,1,1,1,1,1,1,0,1,0,0,0,0,0,0,0,0,0,0,0,0,0,0,0,0,0,0,0,0,0,0,0,0,0,0,0,0,0,0,0,0,0,0,0,0,0,0,0,0,0,0,0,0,0,0,0,0,0,0,0,0,0,0,0,0,0,0,0,0],"id":7,"left_children":[1,3,5,7,9,11,13,15,17,19,21,23,25,27,29,31,33,35,37,39,41,43,45,47,49,51,53,55,57,59,61,63,65,67,69,71,73,75,77,79,-1,81,83,85,87,89,91,93,95,97,99,101,103,105,107,109,111,113,115,117,119,-1,121,-1,-1,-1,-1,-1,-1,-1,-1,-1,-1,-1,-1,-1,-1,-1,-1,-1,-1,-1,-1,-1,-1,-1,-1,-1,-1,-1,-1,-1,-1,-1,-1,-1,-1,-1,-1,-1,-1,-1,-1,-1,-1,-1,-1,-1,-1,-1,-1,-1,-1,-1,-1,-1,-1,-1,-1,-1,-1,-1,-1],"loss_changes":[5.88818E5,8.5806E4,1.40646E5,1.88545E4,1.1995E4,1.741E4,2.2909812E4,4.66225E3,3.74825E3,2.38575E3,4.278E3,3.5815625E3,4.3E3,3.2301719E3,4.38575E3,2.4715E3,5.23525E3,1.79375E3,2.18225E3,8.9746875E2,1.44325E3,2.029875E3,1.73325E3,2.1261875E3,1.09975E3,2.836125E3,9.095E2,1.1125234E3,8.301875E2,2.273125E3,9.953594E2,1.8497031E3,1.211E3,1.710125E3,3.575375E3,1.0411875E3,1.1270625E3,6.7096875E2,1.711875E3,5.851875E2,0E0,7.139844E2,5.805E2,1.1986699E3,8.804375E2,6.289531E2,1.16225E3,1.2381875E3,1.0572031E3,1.4324688E3,1.115E3,9.6053125E2,2.37425E3,7.693281E2,7.9275E2,6.054375E2,3.6748926E2,3.7703906E2,2.182289E3,7.4521094E2,1.1597188E3,0E0,4.9584375E2,0E0,0E0,0E0,0E0,0E0,0E0,0E0,0E0,0E0,0E0,0E0,0E0,0E0,0E0,0E0,0E0,0E0,0E0,0E0,0E0,0E0,0E0,0E0,0E0,0E0,0E0,0E0,0E0,0E0,0E0,0E0,0E0,0E0,0E0,0E0,0E0,0E0,0E0,0E0,0E0,0E0,0E0,0E0,0E0,0E0,0E0,0E0,0E0,0E0,0E0,0E0,0E0,0E0,0E0,0E0,0E0,0E0,0E0,0E0,0E0],"parents":[2147483647,0,0,1,1,2,2,3,3,4,4,5,5,6,6,7,7,8,8,9,9,10,10,11,11,12,12,13,13,14,14,15,15,16,16,17,17,18,18,19,19,20,20,21,21,22,22,23,23,24,24,25,25,26,26,27,27,28,28,29,29,30,30,31,31,32,32,33,33,34,34,35,35,36,36,37,37,38,38,39,39,41,41,42,42,43,43,44,44,45,45,46,46,47,47,48,48,49,49,50,50,51,51,52,52,53,53,54,54,55,55,56,56,57,57,58,58,59,59,60,60,62,62],"right_children":[2,4,6,8,10,12,14,16,18,20,22,24,26,28,30,32,34,36,38,40,42,44,46,48,50,52,54,56,58,60,62,64,66,68,70,72,74,76,78,80,-1,82,84,86,88,90,92,94,96,98,100,102,104,106,108,110,112,114,116,118,120,-1,122,-1,-1,-1,-1,-1,-1,-1,-1,-1,-1,-1,-1,-1,-1,-1,-1,-1,-1,-1,-1,-1,-1,-1,-1,-1,-1,-1,-1,-1,-1,-1,-1,-1,-1,-1,-1,-1,-1,-1,-1,-1,-1,-1,-1,-1,-1,-1,-1,-1,-1,-1,-1,-1,-1,-1,-1,-1,-1,-1,-1],"split_conditions":[5.503665E-1,5.4842836E-1,9.140295E-1,3.3166647E-1,-2.3339438E0,-4.440645E-1,-1.3413479E0,1.4022067E-1,4.4802582E-1,-7.997103E-1,-4.7589672E-1,-2.730024E-1,1.113153E0,7.554811E-1,-6.278128E-1,-5.560601E-1,1.2253182E0,3.1296924E-1,9.829649E-1,2.989076E0,-5.747129E-1,-6.7218196E-1,-6.3082945E-1,2.631138E-1,-6.8174573E-3,-7.711605E-1,-9.690174E-1,1.1402812E0,4.6342027E-1,7.484245E-2,-3.8764524E-1,-7.7980125E-1,-2.6389492E0,3.544431E-1,3.3932358E-1,-1.8553037E-2,4.963048E-1,-1.7687841E-1,-7.0401084E-1,7.476026E-1,1.1417207E0,3.2431638E-1,1.2308943E-1,-6.760273E-1,-1.0712569E0,1.6883143E0,7.2462237E-1,8.81778E-1,-2.5201613E-1,-2.3284653E-1,-4.4584477E-1,1.0207608E-1,-8.5588026E-1,-7.0678496E-1,-8.0276597E-1,-3.0498582E-1,6.5870965E-1,1.2385379E-1,1.5809747E0,-3.7002567E-2,-1.0779994E0,3.838868E0,-4.3018782E-1,1.0279405E0,2.7459452E0,-2.1292448E-1,3.0681558E0,2.570504E0,9.410574E-1,2.9584577E0,2.5821002E0,3.0397239E0,3.3709009E0,3.528752E0,1.8981417E0,2.8121421E0,1.965166E0,8.237569E-1,3.1518235E0,3.4269032E0,4.5931646E-1,1.527401E-1,3.0172365E0,3.8464925E0,3.642128E0,2.5221457E0,3.3992457E-1,3.2743065E0,2.8015757E0,2.7697377E0,5.9068334E-1,3.511896E0,3.2802353E0,2.0352972E0,1.5098338E0,2.4191148E0,1.3131706E0,1.5938432E0,2.3153403E0,2.5568898E0,6.694154E-1,2.3686695E0,1.6046947E0,2.5120306E0,2.802164E0,1.6502455E0,2.2755766E0,8.0024475E-1,2.482906E0,2.642231E0,1.5297977E0,1.6446133E0,9.4988054E-1,1.9717711E0,9.8818094E-1,1.1896282E0,3.0319428E0,8.130008E-1,1.5299853E0,1.6739587E0,1.9111172E0,2.1408665E0,1.1028417E0],"split_indices":[47,84,145,189,12,85,133,175,98,75,114,80,105,76,155,85,15,22,44,80,114,110,167,51,118,44,114,41,49,16,20,79,120,168,41,54,33,119,42,34,0,15,113,110,33,158,34,140,148,128,85,132,75,24,143,26,19,13,183,54,44,0,46,0,0,0,0,0,0,0,0,0,0,0,0,0,0,0,0,0,0,0,0,0,0,0,0,0,0,0,0,0,0,0,0,0,0,0,0,0,0,0,0,0,0,0,0,0,0,0,0,0,0,0,0,0,0,0,0,0,0,0,0],"split_type":[0,0,0,0,0,0,0,0,0,0,0,0,0,0,0,0,0,0,0,0,0,0,0,0,0,0,0,0,0,0,0,0,0,0,0,0,0,0,0,0,0,0,0,0,0,0,0,0,0,0,0,0,0,0,0,0,0,0,0,0,0,0,0,0,0,0,0,0,0,0,0,0,0,0,0,0,0,0,0,0,0,0,0,0,0,0,0,0,0,0,0,0,0,0,0,0,0,0,0,0,0,0,0,0,0,0,0,0,0,0,0,0,0,0,0,0,0,0,0,0,0,0,0],"sum_hessian":[2.1275E4,1.3547E4,7.728E3,7.77E3,5.777E3,4.827E3,2.901E3,4.646E3,3.124E3,2.421E3,3.356E3,1.963E3,2.864E3,1.158E3,1.743E3,1.939E3,2.707E3,1.354E3,1.77E3,3.6E2,2.061E3,5.8E2,2.776E3,9.67E2,9.96E2,2.158E3,7.06E2,3.93E2,7.65E2,1.407E3,3.36E2,3.06E2,1.633E3,7.81E2,1.926E3,7.55E2,5.99E2,2.14E2,1.556E3,3.57E2,3E0,4.3E1,2.018E3,5.4E1,5.26E2,4.9E1,2.727E3,7.24E2,2.43E2,6.19E2,3.77E2,1.28E2,2.03E3,1.61E2,5.45E2,3.23E2,7E1,3.85E2,3.8E2,3.35E2,1.072E3,4E0,3.32E2,8E0,2.98E2,1E0,1.632E3,7.73E2,8E0,1.537E3,3.89E2,3.65E2,3.9E2,5.91E2,8E0,1.93E2,2.1E1,4E0,1.552E3,3.56E2,1E0,1E0,4.2E1,1.238E3,7.8E2,5.1E1,3E0,4.21E2,1.05E2,4.7E1,2E0,2.176E3,5.51E2,6.6E2,6.4E1,2.3E2,1.3E1,3.9E1,5.8E2,3.73E2,4E0,9.6E1,3.2E1,4.87E2,1.543E3,4.1E1,1.2E2,4E0,5.41E2,6E0,3.17E2,1.1E1,5.9E1,4E0,3.81E2,3.74E2,6E0,1.9E1,3.16E2,4.69E2,6.03E2,3.24E2,8E0],"tree_param":{"num_deleted":"0","num_feature":"192","num_nodes":"123","size_leaf_vector":"0"}},{"base_weights":[2.551933E1,1.9042946E1,2.8998323E1,1.3847114E1,2.1890577E1,2.6609268E1,3.132728E1,1.0973219E1,1.5910956E1,2.320088E1,1.9734037E1,2.8030848E1,2.54277E1,2.998041E1,3.2970486E1,1.3065345E1,9.87623E0,1.484723E1,1.7645811E1,2.2828169E1,2.6647806E1,1.940044E1,2.7245914E1,2.5959352E1,2.878505E1,2.6440434E1,2.4084404E1,3.0363506E1,2.5832783E1,3.0164742E1,3.3598763E1,1.4416569E1,1.1335227E1,9.664554E0,1.5450464E1,1.5890831E1,1.34602E1,2.0554094E1,1.6585325E1,2.1153076E1,2.3393238E1,6.966584E0,2.6903173E1,1.4626417E1,1.9678186E1,1.7484446E1,3.047764E1,2.467453E1,2.7344854E1,2.814572E1,3.0949873E1,2.3472025E1,2.711938E1,9.839931E0,2.4220274E1,2.9635427E1,3.1970566E1,2.627163E1,1.1904354E1,1.7676537E1,3.0417662E1,3.3619514E1,4.70463E0,3.0141264E1,1.37189865E1,1.4269043E1,1.0411766E1,9.171688E0,1.1286053E1,9.940609E0,2.591633E1,1.8274986E1,1.4986022E1,1.3916582E1,9.571307E0,3.3155323E1,1.9610676E1,1.7393667E1,1.19703245E1,1.3377763E1,2.1364893E1,2.2583937E1,2.4822056E1,2.7002375E1,-4.3633842E-1,1.841697E1,1.2006127E1,2.0261763E1,1.7102345E1,2.6685373E1,1.2025049E1,2.4395617E1,3.8491783E1,7.3165603E0,2.48157E1,2.7474304E1,1.1804649E1,2.695294E0,2.8187761E1,3.1056807E1,2.704052E0,2.0356619E1,2.5277542E1,2.780357E1,2.466939E1,1.2851218E1,-3.1595569E0,2.4554344E1,1.9362333E1,3.0246468E1,2.7667156E1,9.044427E0,3.204689E1,2.74098E1,2.0844791E1,5.136625E0,1.7815979E1,5.188814E0,2.2152744E1,2.5059223E1,3.0973557E1,3.4061924E1,3.1668205E1,-1.1335974E0,8.190542E0],"categories":[],"categories_nodes":[],"categories_segments":[],"categories_sizes":[],"default_left":[1,1,1,1,1,1,1,1,1,1,1,1,1,1,1,1,1,1,1,1,1,1,1,1,1,1,1,1,1,1,1,1,1,1,1,1,1,1,1,1,1,0,1,1,1,1,1,1,1,1,1,1,1,1,1,1,1,1,1,1,1,1,1,0,0,0,0,0,0,0,0,0,0,0,0,0,0,0,0,0,0,0,0,0,0,0,0,0,0,0,0,0,0,0,0,0,0,0,0,0,0,0,0,0,0,0,0,0,0,0,0,0,0,0,0,0,0,0,0,0,0,0,0,0,0],"id":8,"left_children":[1,3,5,7,9,11,13,15,17,19,21,23,25,27,29,31,33,35,37,39,41,43,45,47,49,51,53,55,57,59,61,63,65,67,69,71,73,75,77,79,81,-1,83,85,87,89,91,93,95,97,99,101,103,105,107,109,111,113,115,117,119,121,123,-1,-1,-1,-1,-1,-1,-1,-1,-1,-1,-1,-1,-1,-1,-1,-1,-1,-1,-1,-1,-1,-1,-1,-1,-1,-1,-1,-1,-1,-1,-1,-1,-1,-1,-1,-1,-1,-1,-1,-1,-1,-1,-1,-1,-1,-1,-1,-1,-1,-1,-1,-1,-1,-1,-1,-1,-1,-1,-1,-1,-1,-1],"loss_changes":[4.78824E5,1.0974825E5,7.6166E4,1.5460219E4,1.311425E4,1.0773E4,1.4508E4,2.4069844E3,2.5651875E3,3.222625E3,4.03725E3,4.0865E3,4.45775E3,5.3475E3,4.52875E3,7.179258E2,7.1085156E2,1.1699375E3,1.4386719E3,2.059E3,1.2449844E3,2.0299375E3,1.8330938E3,8.135E2,2.2555E3,3.64625E3,2.8989375E3,3.17925E3,1.7226875E3,1.3100625E3,1.377E3,1.8681016E3,3.120078E2,4.5990625E2,1.1840112E3,8.9103125E2,6.0689844E2,1.1330352E3,1.3884531E3,8.5221875E2,1.76125E3,0E0,7.738594E2,7.721172E2,2.13225E3,7.3396924E2,1.741793E3,9.0640625E2,4.6625E2,1.80175E3,1.4413125E3,1.7522812E3,2.20225E3,7.060724E2,2.129375E3,2.09875E3,1.612375E3,1.4175312E3,3.8858533E2,6.676206E2,9.276875E2,1.1295E3,7.0339424E1,0E0,0E0,0E0,0E0,0E0,0E0,0E0,0E0,0E0,0E0,0E0,0E0,0E0,0E0,0E0,0E0,0E0,0E0,0E0,0E0,0E0,0E0,0E0,0E0,0E0,0E0,0E0,0E0,0E0,0E0,0E0,0E0,0E0,0E0,0E0,0E0,0E0,0E0,0E0,0E0,0E0,0E0,0E0,0E0,0E0,0E0,0E0,0E0,0E0,0E0,0E0,0E0,0E0,0E0,0E0,0E0,0E0,0E0,0E0,0E0,0E0,0E0],"parents":[2147483647,0,0,1,1,2,2,3,3,4,4,5,5,6,6,7,7,8,8,9,9,10,10,11,11,12,12,13,13,14,14,15,15,16,16,17,17,18,18,19,19,20,20,21,21,22,22,23,23,24,24,25,25,26,26,27,27,28,28,29,29,30,30,31,31,32,32,33,33,34,34,35,35,36,36,37,37,38,38,39,39,40,40,42,42,43,43,44,44,45,45,46,46,47,47,48,48,49,49,50,50,51,51,52,52,53,53,54,54,55,55,56,56,57,57,58,58,59,59,60,60,61,61,62,62],"right_children":[2,4,6,8,10,12,14,16,18,20,22,24,26,28,30,32,34,36,38,40,42,44,46,48,50,52,54,56,58,60,62,64,66,68,70,72,74,76,78,80,82,-1,84,86,88,90,92,94,96,98,100,102,104,106,108,110,112,114,116,118,120,122,124,-1,-1,-1,-1,-1,-1,-1,-1,-1,-1,-1,-1,-1,-1,-1,-1,-1,-1,-1,-1,-1,-1,-1,-1,-1,-1,-1,-1,-1,-1,-1,-1,-1,-1,-1,-1,-1,-1,-1,-1,-1,-1,-1,-1,-1,-1,-1,-1,-1,-1,-1,-1,-1,-1,-1,-1,-1,-1,-1,-1,-1,-1],"split_conditions":[-2.0184773E-1,-9.971235E-1,2.3004511E-1,-1.9248788E0,-3.250143E-1,1.9454795E-1,2.3876956E0,-5.4272592E-2,1.2476663E-1,2.0760858E-1,-3.577093E-1,-6.263355E-1,-1.9110998E0,-5.7896835E-1,-3.877759E-2,6.6365266E-1,1.692488E0,1.3407793E0,6.83881E-1,-1.4078975E-2,-8.4834313E-1,-8.314614E-1,-2.1897504E-1,-2.1878174E-1,3.017332E-1,1.501719E0,-4.5926836E-1,1.8393031E-1,7.6676095E-1,-8.229761E-1,1.6945916E0,-1.4616104E0,1.605883E-1,5.8819354E-1,-2.5331575E-1,-1.0183614E0,-5.550146E-1,1.2559079E-1,-7.0204365E-1,-1.2278978E0,1.735717E0,6.9665843E-1,7.923302E-2,-1.3230303E-1,-1.6960627E-1,-7.264224E-1,-8.438606E-1,-1.2921841E0,1.02323085E-1,-1.0436382E0,2.897158E-2,5.910221E-1,3.955673E-1,-2.5721164E-2,-9.121278E-1,5.3208804E-1,-1.091633E0,5.4000974E-1,6.2104785E-1,-9.128844E-1,-6.9590056E-1,4.3153453E-1,4.8627955E-1,3.0141265E0,1.3718987E0,1.4269043E0,1.0411767E0,9.171688E-1,1.1286052E0,9.9406093E-1,2.591633E0,1.8274987E0,1.4986023E0,1.3916582E0,9.5713073E-1,3.3155324E0,1.9610676E0,1.7393668E0,1.1970325E0,1.3377763E0,2.1364894E0,2.2583938E0,2.4822056E0,2.7002375E0,-4.3633845E-2,1.841697E0,1.2006128E0,2.0261762E0,1.7102345E0,2.6685374E0,1.202505E0,2.4395616E0,3.8491783E0,7.31656E-1,2.48157E0,2.7474306E0,1.180465E0,2.695294E-1,2.8187761E0,3.1056807E0,2.704052E-1,2.035662E0,2.5277543E0,2.7803571E0,2.466939E0,1.2851218E0,-3.159557E-1,2.4554346E0,1.9362334E0,3.0246468E0,2.7667158E0,9.044427E-1,3.204689E0,2.74098E0,2.084479E0,5.136625E-1,1.781598E0,5.1888144E-1,2.2152746E0,2.5059223E0,3.0973556E0,3.4061925E0,3.1668205E0,-1.1335974E-1,8.1905425E-1],"split_indices":[39,151,84,151,145,175,16,12,141,118,191,79,9,41,114,58,183,145,147,178,86,149,128,148,61,161,157,112,99,149,158,7,101,15,0,46,46,77,46,8,15,0,40,31,180,24,130,145,148,167,57,38,27,70,9,98,175,98,4,27,114,98,0,0,0,0,0,0,0,0,0,0,0,0,0,0,0,0,0,0,0,0,0,0,0,0,0,0,0,0,0,0,0,0,0,0,0,0,0,0,0,0,0,0,0,0,0,0,0,0,0,0,0,0,0,0,0,0,0,0,0,0,0,0,0],"split_type":[0,0,0,0,0,0,0,0,0,0,0,0,0,0,0,0,0,0,0,0,0,0,0,0,0,0,0,0,0,0,0,0,0,0,0,0,0,0,0,0,0,0,0,0,0,0,0,0,0,0,0,0,0,0,0,0,0,0,0,0,0,0,0,0,0,0,0,0,0,0,0,0,0,0,0,0,0,0,0,0,0,0,0,0,0,0,0,0,0,0,0,0,0,0,0,0,0,0,0,0,0,0,0,0,0,0,0,0,0,0,0,0,0,0,0,0,0,0,0,0,0,0,0,0,0],"sum_hessian":[2.1275E4,7.437E3,1.3838E4,2.635E3,4.802E3,6.837E3,7.001E3,1.104E3,1.531E3,2.981E3,1.821E3,3.093E3,3.744E3,3.858E3,3.143E3,3.76E2,7.28E2,9.55E2,5.76E2,2.697E3,2.84E2,1.747E3,7.4E1,8.35E2,2.258E3,2.124E3,1.62E3,3.526E3,3.32E2,5.84E2,2.559E3,2.07E2,1.69E2,7.04E2,2.4E1,5.39E2,4.16E2,1.49E2,4.27E2,6.9E2,2.007E3,4E0,2.8E2,9.9E1,1.648E3,2E1,5.4E1,4.43E2,3.92E2,1.754E3,5.04E2,4.02E2,1.722E3,1.6E1,1.604E3,2.44E3,1.086E3,3.21E2,1.1E1,1.3E1,5.71E2,2.557E3,2E0,7E0,2E2,3.7E1,1.32E2,5.45E2,1.59E2,1.7E1,7E0,1.43E2,3.96E2,3.7E2,4.6E1,8E0,1.41E2,3.61E2,6.6E1,2E1,6.7E2,1.292E3,7.15E2,2.79E2,1E0,3.8E1,6.1E1,1.338E3,3.1E2,6E0,1.4E1,3.3E1,2.1E1,4E0,4.39E2,3.88E2,4E0,3E0,1.751E3,5.02E2,2E0,1.52E2,2.5E2,1.338E3,3.84E2,1.3E1,3E0,1.497E3,1.07E2,1.851E3,5.89E2,4E0,1.082E3,2.62E2,5.9E1,6E0,5E0,4E0,9E0,5.8E1,5.13E2,2.071E3,4.86E2,1E0,1E0],"tree_param":{"num_deleted":"0","num_feature":"192","num_nodes":"125","size_leaf_vector":"0"}},{"base_weights":[2.2972862E1,2.5567816E1,1.5929741E1,2.2584352E1,2.7586868E1,1.8343239E1,1.1610085E1,2.1159817E1,2.387009E1,2.622286E1,2.9393812E1,1.6602194E1,2.0124123E1,9.262138E0,1.3213337E1,2.2090662E1,1.894425E1,2.2749928E1,2.5171291E1,2.7113674E1,2.4493711E1,2.80829E1,3.0489733E1,1.784763E1,1.5290977E1,1.965302E1,2.2975668E1,8.458279E0,1.0697929E1,1.205756E1,1.4488847E1,1.6750402E1,2.2285837E1,2.0129856E1,1.5644421E1,2.2933165E1,1.6914314E1,2.5302961E1,1.2088014E1,2.7479103E1,2.4021902E1,2.3139893E1,2.5661636E1,2.148467E1,2.8314507E1,2.6087887E1,3.0764055E1,2.0117891E1,1.699917E1,1.5646437E1,9.964892E0,2.0308266E1,1.794137E1,1.5929642E1,2.4081375E1,6.9193354E0,9.062309E0,2.0881765E1,1.0487632E1,1.1882774E1,2.6315517E1,3.8807604E0,1.4688862E1,1.7352663E1,-4.0903187E0,2.3310701E1,2.1056059E1,2.0260536E1,5.1942887E0,1.8280447E1,1.3073032E1,2.2311731E1,2.4514288E1,1.7655901E1,-2.5667336E0,2.537944E1,9.830014E0,1.5100392E1,-1.4773145E0,2.3618418E1,2.767107E1,1.9640703E1,2.5331928E1,1.5296469E0,2.3214806E1,2.2601881E1,2.650159E1,9.1895075E0,2.3022116E1,1.2620695E1,2.8379002E1,5.339674E0,2.6525618E1,3.0841629E1,1.9105875E1,2.14398E1,1.5964683E1,1.708801E1,1.2681434E0,1.4805233E1,1.7967855E1,1.3993429E1,8.046786E0,2.0834057E1,1.7993265E1,1.7522951E1,2.5872942E1,1.689801E1,6.352478E0,2.4456505E1,1.3945604E1,8.954968E0,6.4469576E0,1.7526295E1,8.743876E0,1.1980834E1,9.273068E0,2.5175922E1,1.1738457E1,3.945813E1,1.3166845E1,3.817365E-1,7.3161616E0,1.2878131E1,1.56407995E1],"categories":[],"categories_nodes":[],"categories_segments":[],"categories_sizes":[],"default_left":[1,1,1,1,1,1,1,1,1,1,1,1,1,1,1,1,1,1,1,1,1,1,1,1,1,1,1,1,1,1,1,1,1,1,1,1,1,1,1,1,1,1,1,1,1,1,1,1,1,1,1,1,1,1,1,1,1,0,1,1,1,1,1,0,0,0,0,0,0,0,0,0,0,0,0,0,0,0,0,0,0,0,0,0,0,0,0,0,0,0,0,0,0,0,0,0,0,0,0,0,0,0,0,0,0,0,0,0,0,0,0,0,0,0,0,0,0,0,0,0,0,0,0,0,0],"id":9,"left_children":[1,3,5,7,9,11,13,15,17,19,21,23,25,27,29,31,33,35,37,39,41,43,45,47,49,51,53,55,57,59,61,63,65,67,69,71,73,75,77,79,81,83,85,87,89,91,93,95,97,99,101,103,105,107,109,111,113,-1,115,117,119,121,123,-1,-1,-1,-1,-1,-1,-1,-1,-1,-1,-1,-1,-1,-1,-1,-1,-1,-1,-1,-1,-1,-1,-1,-1,-1,-1,-1,-1,-1,-1,-1,-1,-1,-1,-1,-1,-1,-1,-1,-1,-1,-1,-1,-1,-1,-1,-1,-1,-1,-1,-1,-1,-1,-1,-1,-1,-1,-1,-1,-1,-1,-1],"loss_changes":[3.88445E5,9.3023E4,5.9535375E4,1.0997E4,2.20695E4,1.1060625E4,7.620875E3,5.74375E3,4.227125E3,7.48425E3,4.85875E3,2.7710625E3,1.982625E3,8.7671094E2,1.6238281E3,1.8135E3,3.1709688E3,1.515375E3,2.302375E3,3.274E3,2.2665E3,2.179125E3,1.799625E3,1.4879062E3,1.5763594E3,1.3875E3,1.5719062E3,4.411211E2,4.170664E2,1.2971953E3,1.1630234E3,1.049998E3,2.0563125E3,1.1673125E3,1.3878008E3,1.146E3,8.832363E2,1.52325E3,7.169946E2,1.64925E3,1.6605E3,1.33725E3,1.873375E3,1.0360449E3,1.422125E3,1.0662812E3,1.24025E3,1.0467344E3,9.5384375E2,1.4055625E3,3.5102734E2,9.9084375E2,1.0102031E3,2.3580273E2,4.7641406E2,9.323633E1,8.8710547E2,0E0,4.2028125E2,9.3227344E2,6.901157E2,1.4145375E2,7.707344E2,0E0,0E0,0E0,0E0,0E0,0E0,0E0,0E0,0E0,0E0,0E0,0E0,0E0,0E0,0E0,0E0,0E0,0E0,0E0,0E0,0E0,0E0,0E0,0E0,0E0,0E0,0E0,0E0,0E0,0E0,0E0,0E0,0E0,0E0,0E0,0E0,0E0,0E0,0E0,0E0,0E0,0E0,0E0,0E0,0E0,0E0,0E0,0E0,0E0,0E0,0E0,0E0,0E0,0E0,0E0,0E0,0E0,0E0,0E0,0E0,0E0,0E0],"parents":[2147483647,0,0,1,1,2,2,3,3,4,4,5,5,6,6,7,7,8,8,9,9,10,10,11,11,12,12,13,13,14,14,15,15,16,16,17,17,18,18,19,19,20,20,21,21,22,22,23,23,24,24,25,25,26,26,27,27,28,28,29,29,30,30,31,31,32,32,33,33,34,34,35,35,36,36,37,37,38,38,39,39,40,40,41,41,42,42,43,43,44,44,45,45,46,46,47,47,48,48,49,49,50,50,51,51,52,52,53,53,54,54,55,55,56,56,58,58,59,59,60,60,61,61,62,62],"right_children":[2,4,6,8,10,12,14,16,18,20,22,24,26,28,30,32,34,36,38,40,42,44,46,48,50,52,54,56,58,60,62,64,66,68,70,72,74,76,78,80,82,84,86,88,90,92,94,96,98,100,102,104,106,108,110,112,114,-1,116,118,120,122,124,-1,-1,-1,-1,-1,-1,-1,-1,-1,-1,-1,-1,-1,-1,-1,-1,-1,-1,-1,-1,-1,-1,-1,-1,-1,-1,-1,-1,-1,-1,-1,-1,-1,-1,-1,-1,-1,-1,-1,-1,-1,-1,-1,-1,-1,-1,-1,-1,-1,-1,-1,-1,-1,-1,-1,-1,-1,-1,-1,-1,-1,-1],"split_conditions":[8.9591026E-1,-1.4218038E-1,1.2532015E0,-8.6862326E-2,2.230794E0,-5.045036E-1,-1.6212964E0,7.040689E-1,-8.372388E-1,4.6397917E-2,2.3873688E-1,3.864891E-1,9.6144855E-1,-2.5343657E-2,2.4756128E-1,-9.2080367E-1,1.962105E-1,1.2090058E0,2.1423407E0,-6.4976525E-1,4.314853E-1,-6.961229E-1,-6.6189027E-1,-2.294483E-1,7.0387495E-1,5.0628835E-1,-9.5546615E-1,9.6175075E-2,-3.2971635E0,8.421327E-1,-1.9709234E0,9.117911E-1,5.292381E-1,1.6636215E0,2.0833927E-1,-1.7086947E-1,6.586987E-1,1.7975047E0,4.657255E-2,-5.0071263E-1,-5.384095E-1,-1.5048726E0,1.1195595E0,-6.1256266E-1,-1.6501491E0,-1.0870825E0,1.4773488E0,1.0132849E0,2.0998614E0,2.5899756E-1,-1.1281905E0,1.4817772E0,-5.571394E-1,-6.726589E-1,-1.0441415E0,-3.5873234E-2,1.054374E-1,2.0881765E0,-2.781241E-1,-1.2681186E0,-1.2520215E-1,2.4525082E-1,7.021433E-1,1.7352663E0,-4.0903187E-1,2.3310702E0,2.1056058E0,2.0260537E0,5.194289E-1,1.8280448E0,1.3073033E0,2.2311733E0,2.451429E0,1.7655901E0,-2.5667337E-1,2.537944E0,9.830014E-1,1.5100392E0,-1.4773145E-1,2.361842E0,2.767107E0,1.9640703E0,2.5331929E0,1.529647E-1,2.3214805E0,2.260188E0,2.6501591E0,9.1895074E-1,2.3022115E0,1.2620696E0,2.8379002E0,5.3396744E-1,2.652562E0,3.084163E0,1.9105875E0,2.14398E0,1.5964683E0,1.7088012E0,1.2681435E-1,1.4805233E0,1.7967856E0,1.3993429E0,8.046786E-1,2.0834057E0,1.7993265E0,1.7522951E0,2.5872943E0,1.6898011E0,6.352478E-1,2.4456506E0,1.3945605E0,8.9549685E-1,6.4469576E-1,1.7526295E0,8.743877E-1,1.1980834E0,9.2730683E-1,2.5175922E0,1.1738456E0,3.945813E0,1.3166846E0,3.817365E-2,7.316162E-1,1.2878131E0,1.56408E0],"split_indices":[41,84,145,85,16,85,133,147,75,123,95,4,157,16,16,130,33,33,97,33,11,66,94,188,76,33,114,15,112,51,179,32,98,3,187,55,4,110,92,107,114,184,21,190,184,160,44,52,97,51,29,133,43,144,132,54,15,0,148,8,6,26,15,0,0,0,0,0,0,0,0,0,0,0,0,0,0,0,0,0,0,0,0,0,0,0,0,0,0,0,0,0,0,0,0,0,0,0,0,0,0,0,0,0,0,0,0,0,0,0,0,0,0,0,0,0,0,0,0,0,0,0,0,0,0],"split_type":[0,0,0,0,0,0,0,0,0,0,0,0,0,0,0,0,0,0,0,0,0,0,0,0,0,0,0,0,0,0,0,0,0,0,0,0,0,0,0,0,0,0,0,0,0,0,0,0,0,0,0,0,0,0,0,0,0,0,0,0,0,0,0,0,0,0,0,0,0,0,0,0,0,0,0,0,0,0,0,0,0,0,0,0,0,0,0,0,0,0,0,0,0,0,0,0,0,0,0,0,0,0,0,0,0,0,0,0,0,0,0,0,0,0,0,0,0,0,0,0,0,0,0,0,0],"sum_hessian":[2.1275E4,1.5545E4,5.73E3,6.279E3,9.266E3,3.674E3,2.056E3,2.987E3,3.292E3,5.289E3,3.977E3,1.863E3,1.811E3,8.37E2,1.219E3,2.097E3,8.9E2,1.779E3,1.513E3,3.481E3,1.808E3,1.823E3,2.154E3,9.49E2,9.14E2,1.561E3,2.5E2,5.41E2,2.96E2,6.45E2,5.74E2,7.7E1,2.02E3,6.51E2,2.39E2,1.722E3,5.7E1,1.497E3,1.6E1,3.106E3,3.75E2,8.47E2,9.61E2,6.5E1,1.758E3,1.32E2,2.022E3,2.52E2,6.97E2,8.55E2,5.9E1,1.121E3,4.4E2,3.6E1,2.14E2,1.56E2,3.85E2,4E0,2.92E2,6.39E2,6E0,1.1E1,5.63E2,7.5E1,2E0,1.092E3,9.28E2,6.45E2,6E0,1.15E2,1.24E2,1.247E3,4.75E2,5.5E1,2E0,1.489E3,8E0,1.3E1,3E0,1.53E2,2.953E3,9E1,2.85E2,3E0,8.44E2,2.13E2,7.48E2,8E0,5.7E1,8E0,1.75E3,3E0,1.29E2,2.007E3,1.5E1,1.88E2,6.4E1,6.93E2,4E0,6.33E2,2.22E2,1.7E1,4.2E1,9.07E2,2.14E2,4.21E2,1.9E1,3.2E1,4E0,2.05E2,9E0,2.6E1,1.3E2,1.2E1,3.73E2,1.27E2,1.65E2,5E0,6.34E2,2E0,4E0,6E0,5E0,1.99E2,3.64E2],"tree_param":{"num_deleted":"0","num_feature":"192","num_nodes":"125","size_leaf_vector":"0"}},{"base_weights":[2.0680344E1,2.359839E1,1.5580318E1,2.1708754E1,2.543009E1,1.7992447E1,1.1547808E1,2.1174187E1,2.4306618E1,2.6920223E1,2.391416E1,1.6723232E1,1.9781898E1,1.3221086E1,8.900702E0,1.9912077E1,2.2015427E1,2.091637E1,2.5225357E1,2.75431E1,2.5394228E1,2.3454107E1,2.666208E1,1.5421931E1,1.79213E1,2.4475088E1,1.9507042E1,1.2258985E1,1.5040022E1,7.761756E0,1.0836046E1,1.7522142E1,2.0354897E1,2.0610899E1,2.3379929E1,3.870786E0,2.1181026E1,2.5399033E1,1.34589815E1,2.7562105E1,2.9097488E0,1.22165365E1,2.5473698E1,2.4188341E1,2.2085707E1,2.6826313E1,1.5050064E1,1.6229229E1,1.3165241E1,1.7125809E1,1.9786259E1,2.5225744E1,-1.1606998E0,1.5854176E1,1.988266E1,9.47112E0,1.2818867E1,2.9816471E1,1.4868619E1,7.519559E0,1.2847523E1,1.59314E1,1.0265168E1,1.8304987E1,1.2002541E1,2.1104631E1,1.8418104E1,1.8895075E1,2.1647804E1,2.2914082E1,2.6715324E1,1.0392404E1,-3.9410942E0,2.169843E1,1.1167913E1,2.556411E1,1.61559E1,8.741203E0,2.4247574E1,2.66337E1,2.838194E1,6.906248E0,2.55223E1,1.6204622E1,2.4320992E1,-4.062491E0,2.2140265E1,6.600752E0,2.689803E1,-3.5022125E0,2.085103E1,1.6433044E1,9.734142E0,1.0225931E0,1.3468494E1,1.5026079E1,1.7972673E1,2.8588556E1,1.9291971E1,1.3860569E1,2.6156544E1,2.9609158E0,-6.7627735E0,8.393166E0,1.6522747E1,1.841076E1,2.0656122E1,1.491167E1,8.813996E0,1.2528643E1,1.9992472E1,1.5104986E1,9.653015E0,8.212652E0,6.4926686E0,8.152409E0,1.731215E1,2.8896265E1,1.3688186E1,1.1847463E1,9.126431E0],"categories":[],"categories_nodes":[],"categories_segments":[],"categories_sizes":[],"default_left":[1,1,1,1,1,1,1,1,1,1,1,1,1,1,1,1,1,1,1,1,1,1,1,1,1,1,1,1,1,1,1,1,1,1,1,1,1,1,1,1,0,0,1,1,1,1,1,1,1,1,1,1,1,1,1,1,1,0,1,1,1,1,1,0,0,0,0,0,0,0,0,0,0,0,0,0,0,0,0,0,0,0,0,0,0,0,0,0,0,0,0,0,0,0,0,0,0,0,0,0,0,0,0,0,0,0,0,0,0,0,0,0,0,0,0,0,0,0,0,0,0],"id":10,"left_children":[1,3,5,7,9,11,13,15,17,19,21,23,25,27,29,31,33,35,37,39,41,43,45,47,49,51,53,55,57,59,61,63,65,67,69,71,73,75,77,79,-1,-1,81,83,85,87,89,91,93,95,97,99,101,103,105,107,109,-1,111,113,115,117,119,-1,-1,-1,-1,-1,-1,-1,-1,-1,-1,-1,-1,-1,-1,-1,-1,-1,-1,-1,-1,-1,-1,-1,-1,-1,-1,-1,-1,-1,-1,-1,-1,-1,-1,-1,-1,-1,-1,-1,-1,-1,-1,-1,-1,-1,-1,-1,-1,-1,-1,-1,-1,-1,-1,-1,-1,-1,-1],"loss_changes":[3.16264E5,4.6282E4,7.5137125E4,8.744E3,1.4864E4,1.0673125E4,1.273625E4,5.4405E3,2.995125E3,2.5835E3,3.688E3,4.152875E3,2.108875E3,2.923625E3,2.400086E3,1.998125E3,5.867625E3,1.0322812E3,1.4666875E3,1.06275E3,7.506875E2,2.410875E3,5.154375E2,2.2804375E3,1.8464062E3,2.0883477E3,2.290375E3,1.7001406E3,1.101625E3,7.816367E2,1.0436211E3,1.3142422E3,2.328125E3,2.5105E3,1.98725E3,2.9568796E2,1.0166094E3,9.160625E2,5.515198E2,1.100625E3,0E0,0E0,7.325E2,1.61475E3,1.5664375E3,5.1003125E2,1.0416149E3,1.169125E3,1.3339453E3,1.57925E3,1.33675E3,7.376406E2,1.1238239E2,7.691758E2,1.5755625E3,5.800137E2,1.7669219E3,0E0,6.0003125E2,4.3278906E2,5.0868408E2,7.6778125E2,5.6935547E2,0E0,0E0,0E0,0E0,0E0,0E0,0E0,0E0,0E0,0E0,0E0,0E0,0E0,0E0,0E0,0E0,0E0,0E0,0E0,0E0,0E0,0E0,0E0,0E0,0E0,0E0,0E0,0E0,0E0,0E0,0E0,0E0,0E0,0E0,0E0,0E0,0E0,0E0,0E0,0E0,0E0,0E0,0E0,0E0,0E0,0E0,0E0,0E0,0E0,0E0,0E0,0E0,0E0,0E0,0E0,0E0,0E0,0E0],"parents":[2147483647,0,0,1,1,2,2,3,3,4,4,5,5,6,6,7,7,8,8,9,9,10,10,11,11,12,12,13,13,14,14,15,15,16,16,17,17,18,18,19,19,20,20,21,21,22,22,23,23,24,24,25,25,26,26,27,27,28,28,29,29,30,30,31,31,32,32,33,33,34,34,35,35,36,36,37,37,38,38,39,39,42,42,43,43,44,44,45,45,46,46,47,47,48,48,49,49,50,50,51,51,52,52,53,53,54,54,55,55,56,56,58,58,59,59,60,60,61,61,62,62],"right_children":[2,4,6,8,10,12,14,16,18,20,22,24,26,28,30,32,34,36,38,40,42,44,46,48,50,52,54,56,58,60,62,64,66,68,70,72,74,76,78,80,-1,-1,82,84,86,88,90,92,94,96,98,100,102,104,106,108,110,-1,112,114,116,118,120,-1,-1,-1,-1,-1,-1,-1,-1,-1,-1,-1,-1,-1,-1,-1,-1,-1,-1,-1,-1,-1,-1,-1,-1,-1,-1,-1,-1,-1,-1,-1,-1,-1,-1,-1,-1,-1,-1,-1,-1,-1,-1,-1,-1,-1,-1,-1,-1,-1,-1,-1,-1,-1,-1,-1,-1,-1,-1],"split_conditions":[5.472373E-1,5.5888015E-1,9.140295E-1,1.7875116E-1,-6.123111E-1,-2.84554E-1,2.4742842E-2,1.2850128E0,1.0517299E0,-1.3059329E-2,2.8790265E-1,-7.935561E-1,-1.8741099E0,-3.9643985E-1,5.6330216E-1,-5.525496E-1,9.004563E-1,-2.6296954E0,5.635071E-1,1.9922247E0,4.8269057E-1,5.3896034E-1,1.2762074E0,-2.1082932E-1,5.591621E-1,4.2478338E-2,-1.336484E-1,-1.9692444E0,-3.7450713E-1,-5.6906052E-2,-2.3066026E-1,-5.1057334E-3,-1.477415E-1,-3.359977E-1,3.0576497E-1,5.5651075E-1,7.144601E-1,1.6006105E0,3.234706E-1,5.216569E-1,2.909749E-1,1.2216537E0,-6.4037573E-1,7.9238725E-1,-4.8849605E-2,-7.4921805E-1,5.4286635E-1,1.6847196E0,-1.2340446E0,-1.1366297E0,-1.3726528E0,5.691518E-1,4.3323293E-2,7.088895E-1,-8.4978914E-1,-5.8425847E-2,1.1407013E0,2.9816473E0,8.2181966E-1,-1.5452257E-2,4.5981467E-1,4.5593715E-1,8.925195E-1,1.8304987E0,1.2002541E0,2.1104631E0,1.8418105E0,1.8895075E0,2.1647804E0,2.2914083E0,2.6715324E0,1.0392404E0,-3.9410943E-1,2.169843E0,1.1167914E0,2.556411E0,1.61559E0,8.7412035E-1,2.4247575E0,2.66337E0,2.8381941E0,6.9062483E-1,2.5522301E0,1.6204623E0,2.432099E0,-4.062491E-1,2.2140265E0,6.600752E-1,2.689803E0,-3.5022125E-1,2.085103E0,1.6433045E0,9.7341424E-1,1.02259316E-1,1.3468494E0,1.502608E0,1.7972673E0,2.8588557E0,1.9291972E0,1.3860569E0,2.6156545E0,2.960916E-1,-6.7627734E-1,8.3931655E-1,1.6522747E0,1.8410761E0,2.0656123E0,1.491167E0,8.8139963E-1,1.2528642E0,1.9992472E0,1.5104986E0,9.653015E-1,8.212652E-1,6.492669E-1,8.1524086E-1,1.7312149E0,2.8896265E0,1.3688186E0,1.1847463E0,9.1264313E-1],"split_indices":[47,86,145,112,162,85,177,15,21,123,176,32,48,135,113,85,178,120,33,107,178,98,80,132,178,28,44,23,20,64,176,18,162,110,61,2,147,114,0,30,0,0,95,3,134,93,0,33,72,172,157,3,1,19,75,182,169,0,186,82,49,36,140,0,0,0,0,0,0,0,0,0,0,0,0,0,0,0,0,0,0,0,0,0,0,0,0,0,0,0,0,0,0,0,0,0,0,0,0,0,0,0,0,0,0,0,0,0,0,0,0,0,0,0,0,0,0,0,0,0,0],"split_type":[0,0,0,0,0,0,0,0,0,0,0,0,0,0,0,0,0,0,0,0,0,0,0,0,0,0,0,0,0,0,0,0,0,0,0,0,0,0,0,0,0,0,0,0,0,0,0,0,0,0,0,0,0,0,0,0,0,0,0,0,0,0,0,0,0,0,0,0,0,0,0,0,0,0,0,0,0,0,0,0,0,0,0,0,0,0,0,0,0,0,0,0,0,0,0,0,0,0,0,0,0,0,0,0,0,0,0,0,0,0,0,0,0,0,0,0,0,0,0,0,0],"sum_hessian":[2.1275E4,1.353E4,7.745E3,6.666E3,6.864E3,4.844E3,2.901E3,5.536E3,1.13E3,3.453E3,3.411E3,2.84E3,2.004E3,1.775E3,1.126E3,2.224E3,3.312E3,2.46E2,8.84E2,2.44E3,1.013E3,2.93E3,4.81E2,1.368E3,1.472E3,1.06E2,1.898E3,1.166E3,6.09E2,7.12E2,4.14E2,3.54E2,1.87E3,1.64E3,1.672E3,4E0,2.42E2,8.7E2,1.4E1,2.438E3,2E0,7E0,1.006E3,1.896E3,1.034E3,4.73E2,8E0,1.003E3,3.65E2,1.039E3,4.33E2,1.03E2,3E0,1.81E2,1.717E3,1.98E2,9.68E2,5E0,6.04E2,6.82E2,3E1,3.9E1,3.75E2,3.08E2,4.6E1,1.341E3,5.29E2,6.25E2,1.015E3,1.474E3,1.98E2,2E0,2E0,2.29E2,1.3E1,8.53E2,1.7E1,1.1E1,3E0,1.159E3,1.279E3,3E0,1.003E3,3.3E1,1.863E3,2E0,1.032E3,2E0,4.71E2,2E0,6E0,9.71E2,3.2E1,9E0,3.56E2,3.04E2,7.35E2,2E1,4.13E2,9E0,9.4E1,2E0,1E0,1.6E1,1.65E2,6E2,1.117E3,1.9E1,1.79E2,9.33E2,3.5E1,5.76E2,2.8E1,4.03E2,2.79E2,1.6E1,1.4E1,4E0,3.5E1,1.53E2,2.22E2],"tree_param":{"num_deleted":"0","num_feature":"192","num_nodes":"121","size_leaf_vector":"0"}},{"base_weights":[1.8616644E1,2.0978758E1,1.3478039E1,1.932446E1,2.321566E1,1.5411433E1,9.637089E0,2.0525162E1,1.780183E1,2.4196545E1,2.1950926E1,1.4283139E1,1.7325933E1,1.12223015E1,7.828953E0,1.7028421E1,2.0726118E1,1.5708893E1,1.8295496E1,2.4859463E1,2.2570835E1,2.2432947E1,1.9958744E1,1.3603723E1,1.6043308E1,2.7406305E1,1.7153774E1,1.1899026E1,9.079147E0,7.1161027E0,9.706746E0,1.7893888E1,8.551006E0,2.1809456E1,1.9943487E1,1.630615E1,9.889512E0,1.9528442E1,1.7712934E1,2.5006485E1,1.8868654E1,2.5247082E1,2.192623E1,-3.6783543E0,2.2458637E1,1.2509117E1,2.038957E1,1.1591818E1,1.417449E1,1.7766906E0,1.6152027E1,3.0788486E1,1.1000953E1,1.9987898E1,1.6777494E1,1.3692599E1,1.1122935E1,8.8714905E0,2.6057007E1,1.0379913E1,6.8244357E0,1.7113646E1,9.087827E0,9.90659E0,1.8590815E1,-6.2042007E0,1.0039115E1,2.2135052E1,1.9519363E1,1.7338463E1,2.0159945E1,1.6824831E1,1.1239237E1,1.040337E1,-4.883158E0,1.8588543E1,2.1582773E1,1.9209581E1,1.7140022E1,2.4177183E1,2.5703594E1,9.432818E-1,1.9440908E1,2.5633963E1,5.728296E0,-4.983391E0,2.1964794E1,1.9241064E1,2.2714794E1,1.4077163E1,-7.341044E0,2.0528841E1,7.509018E0,1.2050005E1,5.7492895E0,1.4835428E1,1.2062866E1,9.716343E0,-3.342439E0,1.017909E1,1.6422237E1,9.092785E0,3.141863E1,3.3830097E0,1.3964172E1,2.4102486E1,1.7612394E1,1.6089685E1,1.9161188E1,1.7349094E1,1.2671776E1,1.0845078E1,2.0618574E1,1.0135672E1,6.752934E0,1.3134476E1,7.8061595E0,9.258721E0,6.503469E0,2.3609472E1,9.062033E0,7.0499454E0,9.876599E0],"categories":[],"categories_nodes":[],"categories_segments":[],"categories_sizes":[],"default_left":[1,1,1,1,1,1,1,1,1,1,1,1,1,1,1,1,1,1,1,1,1,1,1,1,1,1,1,1,1,1,1,1,1,1,1,1,1,1,1,1,1,1,1,0,1,1,1,1,1,1,1,1,1,1,1,1,1,1,0,1,1,1,1,0,0,0,0,0,0,0,0,0,0,0,0,0,0,0,0,0,0,0,0,0,0,0,0,0,0,0,0,0,0,0,0,0,0,0,0,0,0,0,0,0,0,0,0,0,0,0,0,0,0,0,0,0,0,0,0,0,0,0,0],"id":11,"left_children":[1,3,5,7,9,11,13,15,17,19,21,23,25,27,29,31,33,35,37,39,41,43,45,47,49,51,53,55,57,59,61,63,65,67,69,71,73,75,77,79,81,83,85,-1,87,89,91,93,95,97,99,101,103,105,107,109,111,113,-1,115,117,119,121,-1,-1,-1,-1,-1,-1,-1,-1,-1,-1,-1,-1,-1,-1,-1,-1,-1,-1,-1,-1,-1,-1,-1,-1,-1,-1,-1,-1,-1,-1,-1,-1,-1,-1,-1,-1,-1,-1,-1,-1,-1,-1,-1,-1,-1,-1,-1,-1,-1,-1,-1,-1,-1,-1,-1,-1,-1,-1,-1,-1],"loss_changes":[2.579645E5,5.34825E4,4.96285E4,1.496225E4,7.14925E3,9.38025E3,6.352672E3,2.9365E3,3.53975E3,3.186125E3,2.1595E3,3.1421875E3,2.389875E3,1.6250938E3,1.3404531E3,1.7545859E3,3.31425E3,2.320375E3,1.802375E3,1.69475E3,1.202625E3,1.543625E3,1.4716562E3,2.1714062E3,1.1764844E3,1.1039277E3,1.3954688E3,1.1074375E3,7.9477344E2,6.593086E2,1.1601621E3,1.1239766E3,6.331759E2,9.42875E2,1.1046875E3,1.5086562E3,5.745845E2,1.4331562E3,1.421625E3,7.65E2,6.279082E2,1.2954844E3,9.6875E2,0E0,1.3565E3,1.0993716E3,7.553594E2,1.1487461E3,2.0261562E3,3.1698505E2,1.0771719E3,1.4179688E0,8.820093E1,1.3837266E3,2.0509688E3,7.842344E2,1.4570625E3,7.0556445E2,0E0,3.299336E2,4.921797E2,8.8438965E2,3.5955273E2,0E0,0E0,0E0,0E0,0E0,0E0,0E0,0E0,0E0,0E0,0E0,0E0,0E0,0E0,0E0,0E0,0E0,0E0,0E0,0E0,0E0,0E0,0E0,0E0,0E0,0E0,0E0,0E0,0E0,0E0,0E0,0E0,0E0,0E0,0E0,0E0,0E0,0E0,0E0,0E0,0E0,0E0,0E0,0E0,0E0,0E0,0E0,0E0,0E0,0E0,0E0,0E0,0E0,0E0,0E0,0E0,0E0,0E0,0E0,0E0],"parents":[2147483647,0,0,1,1,2,2,3,3,4,4,5,5,6,6,7,7,8,8,9,9,10,10,11,11,12,12,13,13,14,14,15,15,16,16,17,17,18,18,19,19,20,20,21,21,22,22,23,23,24,24,25,25,26,26,27,27,28,28,29,29,30,30,31,31,32,32,33,33,34,34,35,35,36,36,37,37,38,38,39,39,40,40,41,41,42,42,44,44,45,45,46,46,47,47,48,48,49,49,50,50,51,51,52,52,53,53,54,54,55,55,56,56,57,57,59,59,60,60,61,61,62,62],"right_children":[2,4,6,8,10,12,14,16,18,20,22,24,26,28,30,32,34,36,38,40,42,44,46,48,50,52,54,56,58,60,62,64,66,68,70,72,74,76,78,80,82,84,86,-1,88,90,92,94,96,98,100,102,104,106,108,110,112,114,-1,116,118,120,122,-1,-1,-1,-1,-1,-1,-1,-1,-1,-1,-1,-1,-1,-1,-1,-1,-1,-1,-1,-1,-1,-1,-1,-1,-1,-1,-1,-1,-1,-1,-1,-1,-1,-1,-1,-1,-1,-1,-1,-1,-1,-1,-1,-1,-1,-1,-1,-1,-1,-1,-1,-1,-1,-1,-1,-1,-1,-1,-1,-1],"split_conditions":[5.1861155E-1,1.8710382E0,1.1995564E0,4.4268984E-1,-1.3607912E-2,-3.2936656E-1,9.2932034E-1,9.661887E-1,-6.370648E-1,4.3347597E-1,-4.5589352E-1,1.330551E0,-6.7586607E-1,1.4127232E0,1.6401148E-1,-6.98632E-3,4.9669552E-1,-4.5717168E-1,-2.4018764E-1,7.527393E-1,-1.0124323E0,-2.5879793E0,-6.072855E-1,-8.558717E-1,-1.2015009E0,6.047087E-1,-1.546607E0,3.973873E-2,5.5265656E0,-6.272483E-1,-1.6643E0,-1.9378096E-1,8.132727E-2,-1.2493806E0,9.50694E-2,-7.913867E-1,4.9465716E-1,-5.6960976E-1,-2.652625E-1,5.2155733E-1,-3.4656495E-2,1.25103E0,-6.9232595E-1,-3.6783543E-1,-1.1963296E0,-1.009942E0,-4.7581744E-1,-1.7907119E-1,-2.645809E-1,-1.1932318E0,-1.3112894E0,9.812097E-1,1.6164635E-1,-7.9600704E-1,-1.057291E0,-3.0775392E-1,4.4291976E-1,2.7779058E-1,2.6057007E0,-1.4606369E0,1.5037766E-1,2.663201E-1,-2.7562905E-2,9.9065906E-1,1.8590815E0,-6.204201E-1,1.0039115E0,2.2135053E0,1.9519364E0,1.7338463E0,2.0159945E0,1.6824831E0,1.1239237E0,1.040337E0,-4.8831582E-1,1.8588543E0,2.1582773E0,1.9209582E0,1.7140023E0,2.4177184E0,2.5703595E0,9.432819E-2,1.9440908E0,2.5633962E0,5.728296E-1,-4.983391E-1,2.1964796E0,1.9241065E0,2.2714794E0,1.4077163E0,-7.341044E-1,2.052884E0,7.509018E-1,1.2050005E0,5.7492894E-1,1.4835428E0,1.2062867E0,9.716343E-1,-3.342439E-1,1.0179089E0,1.6422237E0,9.092785E-1,3.141863E0,3.3830097E-1,1.3964173E0,2.4102485E0,1.7612394E0,1.6089686E0,1.9161189E0,1.7349094E0,1.2671776E0,1.0845078E0,2.0618575E0,1.0135672E0,6.752934E-1,1.3134476E0,7.80616E-1,9.2587215E-1,6.5034693E-1,2.3609474E0,9.0620327E-1,7.0499456E-1,9.8765993E-1],"split_indices":[41,16,145,147,123,85,186,21,107,98,47,16,26,145,16,160,98,46,113,89,187,120,78,155,86,116,112,112,55,134,172,6,1,25,1,177,24,167,111,30,54,39,159,0,131,33,144,70,180,32,45,16,0,166,160,86,115,6,0,7,165,181,65,0,0,0,0,0,0,0,0,0,0,0,0,0,0,0,0,0,0,0,0,0,0,0,0,0,0,0,0,0,0,0,0,0,0,0,0,0,0,0,0,0,0,0,0,0,0,0,0,0,0,0,0,0,0,0,0,0,0,0,0],"split_type":[0,0,0,0,0,0,0,0,0,0,0,0,0,0,0,0,0,0,0,0,0,0,0,0,0,0,0,0,0,0,0,0,0,0,0,0,0,0,0,0,0,0,0,0,0,0,0,0,0,0,0,0,0,0,0,0,0,0,0,0,0,0,0,0,0,0,0,0,0,0,0,0,0,0,0,0,0,0,0,0,0,0,0,0,0,0,0,0,0,0,0,0,0,0,0,0,0,0,0,0,0,0,0,0,0,0,0,0,0,0,0,0,0,0,0,0,0,0,0,0,0,0,0],"sum_hessian":[2.1275E4,1.4573E4,6.702E3,8.383E3,6.19E3,4.456E3,2.246E3,4.68E3,3.703E3,3.476E3,2.714E3,2.809E3,1.647E3,1.194E3,1.052E3,2.59E2,4.421E3,7.13E2,2.99E3,2.459E3,1.017E3,2.177E3,5.37E2,2.033E3,7.76E2,2.5E1,1.622E3,9.04E2,2.9E2,7.66E2,2.86E2,2.34E2,2.5E1,1.843E3,2.578E3,6.45E2,6.8E1,9.49E2,2.041E3,2.397E3,6.2E1,1.9E2,8.27E2,2E0,2.175E3,3.1E1,5.06E2,4.54E2,1.579E3,6E0,7.7E2,2E1,5E0,1.84E2,1.438E3,2.68E2,6.36E2,2.88E2,2E0,6E1,7.06E2,2E1,2.66E2,2E1,2.14E2,2E0,2.3E1,1.606E3,2.37E2,2.04E2,2.374E3,5.83E2,6.2E1,6.6E1,2E0,6.58E2,2.91E2,5.56E2,1.485E3,1.111E3,1.286E3,2E0,6E1,1.86E2,4E0,1E0,8.26E2,1.66E2,2.009E3,2.9E1,2E0,5E2,6E0,4.2E2,3.4E1,1.198E3,3.81E2,2E0,4E0,3.5E1,7.35E2,1E0,1.9E1,2E0,3E0,6.4E1,1.2E2,1.122E3,3.16E2,5.5E1,2.13E2,6.2E2,1.6E1,1.78E2,1.1E2,2.7E1,3.3E1,7.9E1,6.27E2,1E1,1E1,7.7E1,1.89E2],"tree_param":{"num_deleted":"0","num_feature":"192","num_nodes":"123","size_leaf_vector":"0"}},{"base_weights":[1.6758818E1,1.8459867E1,1.0978459E1,1.6332884E1,2.0127943E1,1.2834089E1,8.482815E0,1.5310992E1,1.7355629E1,2.116971E1,1.8505144E1,1.2460463E1,1.6523882E1,6.696434E0,9.58949E0,1.3822436E1,1.5735085E1,1.5439314E1,1.8196127E1,2.0574602E1,2.2671202E1,1.823723E1,2.1409115E1,9.005773E0,1.2838157E1,2.3688795E1,1.5594782E1,6.5043616E0,1.3140771E1,1.17814665E1,9.120784E0,1.39653635E1,-4.6092944E0,1.6090158E1,1.3446239E1,8.177214E0,1.5662013E1,1.9050158E1,1.6472433E1,1.9688467E1,2.1807024E1,2.0701447E1,2.3176636E1,1.5624401E1,1.8493408E1,2.1556065E1,-2.7539954E-1,1.1443361E1,7.432363E0,1.2510215E1,1.630593E1,1.6175533E1,3.0535728E1,1.7638302E1,1.2891038E1,5.990364E0,8.405979E0,1.7911188E1,7.6728225E0,8.494284E0,1.2819423E1,8.976181E0,1.4713589E1,1.2113069E1,1.4795744E1,-9.202411E0,4.582331E0,1.5790029E1,1.9005447E1,-7.536443E-1,1.3635562E1,1.3887199E1,2.0129378E0,2.4259884E0,1.5771795E1,1.7881369E1,2.0263245E1,1.809359E1,1.53246765E1,1.8126375E1,2.0205368E1,2.0712873E1,2.253543E1,7.417657E0,2.0840828E1,1.0947436E1,2.3266502E1,1.5898495E1,-5.4725903E-1,1.8724041E1,1.5230416E1,2.1653486E1,-3.6401138E0,-1.3144875E0,9.0138817E-1,1.3358952E1,7.1348524E0,4.323251E0,8.733326E0,1.155192E1,1.3616193E1,1.6671192E1,2.1433632E0,5.3255434E0,1.8444235E1,1.371558E1,2.0782452E1,-6.796851E-1,1.3313403E1,1.5494872E1,5.9023495E0,1.740741E1,7.9481845E0,1.0873564E1,2.4181625E1,2.7664177E0,9.780223E0,1.5539925E1,6.996261E0,8.391724E0,1.3814159E1,8.824083E0,1.4737524E1,3.436898E1,1.151012E1],"categories":[],"categories_nodes":[],"categories_segments":[],"categories_sizes":[],"default_left":[1,1,1,1,1,1,1,1,1,1,1,1,1,1,1,1,1,1,1,1,1,1,1,1,1,1,1,1,1,1,1,1,1,1,1,1,1,1,1,1,1,1,1,1,1,1,1,1,1,1,1,1,0,1,1,1,1,1,1,1,1,1,1,0,0,0,0,0,0,0,0,0,0,0,0,0,0,0,0,0,0,0,0,0,0,0,0,0,0,0,0,0,0,0,0,0,0,0,0,0,0,0,0,0,0,0,0,0,0,0,0,0,0,0,0,0,0,0,0,0,0,0,0,0,0],"id":12,"left_children":[1,3,5,7,9,11,13,15,17,19,21,23,25,27,29,31,33,35,37,39,41,43,45,47,49,51,53,55,57,59,61,63,65,67,69,71,73,75,77,79,81,83,85,87,89,91,93,95,97,99,101,103,-1,105,107,109,111,113,115,117,119,121,123,-1,-1,-1,-1,-1,-1,-1,-1,-1,-1,-1,-1,-1,-1,-1,-1,-1,-1,-1,-1,-1,-1,-1,-1,-1,-1,-1,-1,-1,-1,-1,-1,-1,-1,-1,-1,-1,-1,-1,-1,-1,-1,-1,-1,-1,-1,-1,-1,-1,-1,-1,-1,-1,-1,-1,-1,-1,-1,-1,-1,-1,-1],"loss_changes":[2.08997E5,5.79895E4,2.2305188E4,7.290625E3,1.51745E4,3.618375E3,4.022125E3,2.0709375E3,5.527125E3,4.5385E3,2.41675E3,3.1764375E3,1.308125E3,8.973242E2,1.2014453E3,2.2035E3,2.070625E3,1.660625E3,3.3679375E3,3.963E3,1.0933125E3,1.926625E3,9.587344E2,8.814512E2,2.37975E3,8.9502344E2,1.0213086E3,7.051953E2,4.364275E2,6.4514844E2,7.203281E2,1.0604844E3,3.3769592E2,1.826875E3,1.0426016E3,1.2039734E3,1.5194375E3,1.99975E3,1.2782656E3,1.53125E3,8.66625E2,4.60125E2,1.117875E3,1.3473281E3,1.9793125E3,8.0784375E2,4.853221E0,7.052588E2,5.932383E2,2.04725E3,9.6266797E2,2.7100537E2,0E0,1.2689961E3,5.8796094E2,4.2050195E2,5.2921484E2,2.2247827E2,9.7020935E1,4.8233228E2,6.152051E2,7.7253125E2,1.1785435E3,0E0,0E0,0E0,0E0,0E0,0E0,0E0,0E0,0E0,0E0,0E0,0E0,0E0,0E0,0E0,0E0,0E0,0E0,0E0,0E0,0E0,0E0,0E0,0E0,0E0,0E0,0E0,0E0,0E0,0E0,0E0,0E0,0E0,0E0,0E0,0E0,0E0,0E0,0E0,0E0,0E0,0E0,0E0,0E0,0E0,0E0,0E0,0E0,0E0,0E0,0E0,0E0,0E0,0E0,0E0,0E0,0E0,0E0,0E0,0E0,0E0,0E0],"parents":[2147483647,0,0,1,1,2,2,3,3,4,4,5,5,6,6,7,7,8,8,9,9,10,10,11,11,12,12,13,13,14,14,15,15,16,16,17,17,18,18,19,19,20,20,21,21,22,22,23,23,24,24,25,25,26,26,27,27,28,28,29,29,30,30,31,31,32,32,33,33,34,34,35,35,36,36,37,37,38,38,39,39,40,40,41,41,42,42,43,43,44,44,45,45,46,46,47,47,48,48,49,49,50,50,51,51,53,53,54,54,55,55,56,56,57,57,58,58,59,59,60,60,61,61,62,62],"right_children":[2,4,6,8,10,12,14,16,18,20,22,24,26,28,30,32,34,36,38,40,42,44,46,48,50,52,54,56,58,60,62,64,66,68,70,72,74,76,78,80,82,84,86,88,90,92,94,96,98,100,102,104,-1,106,108,110,112,114,116,118,120,122,124,-1,-1,-1,-1,-1,-1,-1,-1,-1,-1,-1,-1,-1,-1,-1,-1,-1,-1,-1,-1,-1,-1,-1,-1,-1,-1,-1,-1,-1,-1,-1,-1,-1,-1,-1,-1,-1,-1,-1,-1,-1,-1,-1,-1,-1,-1,-1,-1,-1,-1,-1,-1,-1,-1,-1,-1,-1,-1,-1,-1,-1,-1],"split_conditions":[-3.7093955E-1,8.257326E-1,1.2532015E0,1.0817545E-2,-4.5799035E-1,-9.641117E-2,-1.6494668E0,-6.667989E-1,4.2365605E-1,2.7413657E-1,2.8859365E-1,4.5767802E-1,-2.8060558E-1,-5.5459476E-1,-1.2952456E-1,5.2983123E-1,1.5809904E0,-6.1887395E-1,2.234236E-1,1.3852167E0,1.7288404E0,-4.266636E-1,1.4759173E0,-5.2230376E-1,2.877615E-1,-1.222996E0,6.108776E-1,6.4550424E-1,-1.1805537E0,-7.1340734E-1,4.4291976E-1,-1.0695546E0,1.3077044E0,-1.4188348E-1,-2.0970392E0,4.4439423E-1,1.5697339E-1,5.084801E-1,-2.2039473E-2,1.0678768E-3,-1.2599556E0,-8.2651734E-1,-1.4045933E-1,-1.2523307E0,1.0150567E0,2.3315263E0,3.2619518E-1,-9.533803E-1,2.4160254E-1,2.502662E-1,3.1835984E-2,-7.402325E-1,3.053573E0,-6.3142383E-1,-9.130438E-1,1.2385369E-1,6.455146E-1,-1.3458217E0,-6.47347E-2,-1.3817357E0,-8.849895E-1,4.213939E-2,-2.7966965E-2,1.2113069E0,1.4795744E0,-9.2024106E-1,4.5823312E-1,1.5790029E0,1.9005448E0,-7.536443E-2,1.3635563E0,1.3887199E0,2.0129378E-1,2.4259885E-1,1.5771796E0,1.7881368E0,2.0263245E0,1.809359E0,1.5324677E0,1.8126376E0,2.020537E0,2.0712874E0,2.2535431E0,7.417657E-1,2.0840828E0,1.0947436E0,2.3266504E0,1.5898495E0,-5.4725904E-2,1.8724041E0,1.5230416E0,2.1653488E0,-3.6401138E-1,-1.3144875E-1,9.0138815E-2,1.3358952E0,7.1348524E-1,4.323251E-1,8.733326E-1,1.155192E0,1.3616194E0,1.6671193E0,2.1433632E-1,5.325543E-1,1.8444235E0,1.3715581E0,2.0782452E0,-6.796851E-2,1.3313403E0,1.5494872E0,5.9023494E-1,1.740741E0,7.9481846E-1,1.0873564E0,2.4181626E0,2.766418E-1,9.780223E-1,1.5539925E0,6.9962615E-1,8.3917236E-1,1.381416E0,8.824083E-1,1.4737524E0,3.436898E0,1.1510121E0],"split_indices":[145,39,145,118,162,152,133,39,178,176,176,15,148,170,185,164,97,85,113,189,21,32,30,70,179,190,147,47,136,133,115,7,3,55,177,116,51,11,175,85,145,149,22,9,102,83,0,180,49,165,185,4,0,142,155,13,47,7,174,172,144,156,54,0,0,0,0,0,0,0,0,0,0,0,0,0,0,0,0,0,0,0,0,0,0,0,0,0,0,0,0,0,0,0,0,0,0,0,0,0,0,0,0,0,0,0,0,0,0,0,0,0,0,0,0,0,0,0,0,0,0,0,0,0,0],"split_type":[0,0,0,0,0,0,0,0,0,0,0,0,0,0,0,0,0,0,0,0,0,0,0,0,0,0,0,0,0,0,0,0,0,0,0,0,0,0,0,0,0,0,0,0,0,0,0,0,0,0,0,0,0,0,0,0,0,0,0,0,0,0,0,0,0,0,0,0,0,0,0,0,0,0,0,0,0,0,0,0,0,0,0,0,0,0,0,0,0,0,0,0,0,0,0,0,0,0,0,0,0,0,0,0,0,0,0,0,0,0,0,0,0,0,0,0,0,0,0,0,0,0,0,0,0],"sum_hessian":[2.1275E4,1.6436E4,4.839E3,7.229E3,9.207E3,2.773E3,2.066E3,3.624E3,3.605E3,5.6E3,3.607E3,2.522E3,2.51E2,7.93E2,1.273E3,8.11E2,2.813E3,1.105E3,2.5E3,4.021E3,1.579E3,3.309E3,2.98E2,2.51E2,2.271E3,2.6E1,2.25E2,7.72E2,2.1E1,2.2E2,1.053E3,8.05E2,6E0,2.43E3,3.83E2,3.4E1,1.071E3,1.665E3,8.35E2,2.349E3,1.672E3,3.31E2,1.248E3,3.01E2,3.008E3,2.96E2,2E0,9.6E1,1.55E2,2.079E3,1.92E2,1.4E1,1.2E1,1.25E2,1E2,6.11E2,1.61E2,1E1,1.1E1,5.5E1,1.65E2,1.029E3,2.4E1,2.54E2,5.51E2,4E0,2E0,2.209E3,2.21E2,5E0,3.78E2,1.7E1,1.7E1,9E0,1.062E3,8.56E2,8.09E2,3.4E2,4.95E2,5.93E2,1.756E3,6.8E2,9.92E2,4E0,3.27E2,1E1,1.238E3,2.96E2,5E0,2.805E3,2.03E2,2.95E2,1E0,1E0,1E0,6.5E1,3.1E1,4.7E1,1.08E2,1.12E3,9.59E2,1.87E2,5E0,3E0,1.1E1,5.8E1,6.7E1,3E0,9.7E1,4E0,6.07E2,6E0,1.55E2,6E0,4E0,4E0,7E0,8E0,4.7E1,3.2E1,1.33E2,1.005E3,2.4E1,2E0,2.2E1],"tree_param":{"num_deleted":"0","num_feature":"192","num_nodes":"125","size_leaf_vector":"0"}},{"base_weights":[1.5086574E1,1.7008263E1,1.0906088E1,1.5655792E1,1.883758E1,8.041713E0,1.260035E1,1.6751623E1,1.4526509E1,2.023631E1,1.8190487E1,9.22384E0,6.209112E0,1.168453E1,1.4162879E1,1.7224876E1,1.5420539E1,1.5122972E1,1.3062653E1,1.7900192E1,2.0586916E1,1.5568911E1,1.843476E1,1.6503332E1,8.979368E0,8.697356E0,5.8355985E0,1.0706924E1,1.260555E1,1.2444322E1,1.4828004E1,1.7637638E1,1.5310355E1,5.0491867E0,1.55943E1,1.860644E0,1.51631565E1,1.1348927E1,1.3731399E1,1.0288318E1,1.8320799E1,2.0738642E1,1.55150585E1,1.5884702E1,5.723505E0,1.8714342E1,1.6455946E1,2.2491648E1,1.2160622E1,9.777441E0,7.5831094E0,8.033604E0,2.315344E1,5.7505064E0,1.5334542E1,1.0457144E1,1.5000735E1,1.3849516E1,1.18441E1,1.30046835E1,7.3741693E0,1.5468714E1,1.2600292E1,1.7675953E1,3.1817083E0,1.1742675E1,1.6038567E1,-7.711117E0,7.7546E0,1.6692036E1,1.4652748E1,4.1406355E0,-4.8395476E0,1.54039345E1,1.2897173E1,7.1268263E0,1.2643146E1,6.904283E0,1.3918685E1,1.5118854E1,-7.9830036E0,1.2587878E0,1.8454943E1,2.0158339E1,2.185399E1,7.372774E0,1.8535097E1,1.675406E1,1.2025857E1,-6.196327E0,1.3947941E1,1.8985828E1,1.6792404E1,8.754337E0,1.6783524E1,8.055133E0,2.469505E1,1.2855745E1,1.6192608E0,1.7560598E1,9.507439E0,2.0319698E1,7.3769403E0,6.541355E0,1.0720236E1,5.68344E0,1.5948042E1,5.597967E0,2.1237482E1,8.987039E0,1.1142641E1,9.663784E0,1.9624502E1,1.13359585E1,1.4765006E1,1.0399447E1,1.3301798E1,1.1117448E1,1.4387329E1,-7.449057E-1,9.103051E0,1.4913289E1,1.8706343E1,1.0070168E1,1.4287377E1],"categories":[],"categories_nodes":[],"categories_segments":[],"categories_sizes":[],"default_left":[1,1,1,1,1,1,1,1,1,1,1,1,1,1,1,1,1,1,1,1,1,1,1,1,1,1,1,1,1,1,1,1,1,1,1,1,1,1,1,1,1,1,1,1,1,1,1,1,1,1,1,1,0,1,1,1,1,1,1,1,1,1,1,0,0,0,0,0,0,0,0,0,0,0,0,0,0,0,0,0,0,0,0,0,0,0,0,0,0,0,0,0,0,0,0,0,0,0,0,0,0,0,0,0,0,0,0,0,0,0,0,0,0,0,0,0,0,0,0,0,0,0,0,0,0],"id":13,"left_children":[1,3,5,7,9,11,13,15,17,19,21,23,25,27,29,31,33,35,37,39,41,43,45,47,49,51,53,55,57,59,61,63,65,67,69,71,73,75,77,79,81,83,85,87,89,91,93,95,97,99,101,103,-1,105,107,109,111,113,115,117,119,121,123,-1,-1,-1,-1,-1,-1,-1,-1,-1,-1,-1,-1,-1,-1,-1,-1,-1,-1,-1,-1,-1,-1,-1,-1,-1,-1,-1,-1,-1,-1,-1,-1,-1,-1,-1,-1,-1,-1,-1,-1,-1,-1,-1,-1,-1,-1,-1,-1,-1,-1,-1,-1,-1,-1,-1,-1,-1,-1,-1,-1,-1,-1],"loss_changes":[1.70737E5,3.57625E4,3.2428312E4,1.013325E4,5.23425E3,5.3456562E3,5.8589375E3,2.411E3,3.414625E3,1.227875E3,2.429375E3,2.5461562E3,8.6098047E2,2.260125E3,1.588375E3,2.20025E3,1.9468438E3,1.534875E3,1.2251562E3,6.5033594E2,9.771875E2,1.0532266E3,1.836E3,9.747529E2,1.5605547E3,1.0229971E3,6.03709E2,1.2341719E3,1.1279531E3,1.1513594E3,1.3936875E3,1.3645E3,1.2717656E3,7.502345E2,8.975E2,1.7280258E2,1.3966875E3,1.7896211E3,1.0060781E3,1.5328583E3,5.4208594E2,6.183125E2,1.1666152E3,9.928047E2,1.3608667E3,1.448875E3,1.08425E3,4.0545703E2,1.9900977E2,1.7874219E3,1.262834E3,4.189878E2,0E0,4.906836E2,2.834342E2,1.1383906E3,1.5130547E3,1.0108047E3,1.6579688E3,8.681406E2,6.5247925E2,1.2675312E3,9.4033203E2,0E0,0E0,0E0,0E0,0E0,0E0,0E0,0E0,0E0,0E0,0E0,0E0,0E0,0E0,0E0,0E0,0E0,0E0,0E0,0E0,0E0,0E0,0E0,0E0,0E0,0E0,0E0,0E0,0E0,0E0,0E0,0E0,0E0,0E0,0E0,0E0,0E0,0E0,0E0,0E0,0E0,0E0,0E0,0E0,0E0,0E0,0E0,0E0,0E0,0E0,0E0,0E0,0E0,0E0,0E0,0E0,0E0,0E0,0E0,0E0,0E0,0E0],"parents":[2147483647,0,0,1,1,2,2,3,3,4,4,5,5,6,6,7,7,8,8,9,9,10,10,11,11,12,12,13,13,14,14,15,15,16,16,17,17,18,18,19,19,20,20,21,21,22,22,23,23,24,24,25,25,26,26,27,27,28,28,29,29,30,30,31,31,32,32,33,33,34,34,35,35,36,36,37,37,38,38,39,39,40,40,41,41,42,42,43,43,44,44,45,45,46,46,47,47,48,48,49,49,50,50,51,51,53,53,54,54,55,55,56,56,57,57,58,58,59,59,60,60,61,61,62,62],"right_children":[2,4,6,8,10,12,14,16,18,20,22,24,26,28,30,32,34,36,38,40,42,44,46,48,50,52,54,56,58,60,62,64,66,68,70,72,74,76,78,80,82,84,86,88,90,92,94,96,98,100,102,104,-1,106,108,110,112,114,116,118,120,122,124,-1,-1,-1,-1,-1,-1,-1,-1,-1,-1,-1,-1,-1,-1,-1,-1,-1,-1,-1,-1,-1,-1,-1,-1,-1,-1,-1,-1,-1,-1,-1,-1,-1,-1,-1,-1,-1,-1,-1,-1,-1,-1,-1,-1,-1,-1,-1,-1,-1,-1,-1,-1,-1,-1,-1,-1,-1,-1,-1,-1,-1,-1],"split_conditions":[5.1861155E-1,1.8710814E0,4.8542237E-1,3.3090356E-1,-2.4142034E0,1.4055011E0,-3.2936656E-1,3.076166E-2,-8.386866E-1,-3.299638E-1,-1.1963296E0,-1.7908045E0,2.1507888E0,-3.598131E-1,1.6025233E-1,2.5588345E-2,9.430759E-1,-8.321345E-1,-6.1837757E-1,1.921941E-1,1.0115377E0,-6.819166E-1,-4.351499E-1,-3.3519748E-1,8.865185E-1,3.9194755E-2,5.7955065E0,1.6802254E-1,-7.069675E-1,1.04781836E-1,1.1351624E0,2.3391047E0,1.2173004E0,-1.1262882E-1,-7.268447E-1,7.134963E-1,-1.6148424E0,2.5490057E-1,-1.1986452E0,2.6244092E-1,9.950966E-2,2.2944297E-1,4.1062057E-2,-6.274137E-1,-1.0995564E0,5.3231335E-1,-7.0317733E-1,1.0390494E0,9.0334886E-1,-1.673269E0,-4.2129514E-1,8.949975E-1,2.315344E0,8.194598E-1,-2.78282E-1,1.2535146E-1,-1.1024859E0,7.124423E-3,-3.8376594E-1,-2.1438125E-1,-2.6843858E-1,2.043775E0,-6.4427197E-1,1.7675953E0,3.1817085E-1,1.1742675E0,1.6038567E0,-7.7111167E-1,7.7546E-1,1.6692036E0,1.4652748E0,4.1406354E-1,-4.8395476E-1,1.5403935E0,1.2897173E0,7.1268266E-1,1.2643145E0,6.904283E-1,1.3918685E0,1.5118854E0,-7.983004E-1,1.2587878E-1,1.8454943E0,2.0158339E0,2.185399E0,7.3727745E-1,1.8535098E0,1.6754061E0,1.2025857E0,-6.196327E-1,1.3947941E0,1.8985828E0,1.6792405E0,8.7543374E-1,1.6783524E0,8.055133E-1,2.469505E0,1.2855746E0,1.6192608E-1,1.7560599E0,9.5074385E-1,2.0319698E0,7.37694E-1,6.541355E-1,1.0720236E0,5.6834406E-1,1.5948042E0,5.5979675E-1,2.1237483E0,8.987039E-1,1.1142641E0,9.663784E-1,1.9624503E0,1.1335958E0,1.4765006E0,1.0399448E0,1.3301798E0,1.1117448E0,1.438733E0,-7.449057E-2,9.1030514E-1,1.491329E0,1.8706343E0,1.0070168E0,1.4287378E0],"split_indices":[41,16,133,147,12,145,85,160,180,66,131,48,11,80,11,156,21,149,107,11,102,67,47,20,186,28,55,48,24,4,105,94,161,150,147,19,9,56,50,179,128,112,186,35,41,98,142,10,45,180,90,140,0,51,20,13,172,146,56,188,79,21,110,0,0,0,0,0,0,0,0,0,0,0,0,0,0,0,0,0,0,0,0,0,0,0,0,0,0,0,0,0,0,0,0,0,0,0,0,0,0,0,0,0,0,0,0,0,0,0,0,0,0,0,0,0,0,0,0,0,0,0,0,0,0],"split_type":[0,0,0,0,0,0,0,0,0,0,0,0,0,0,0,0,0,0,0,0,0,0,0,0,0,0,0,0,0,0,0,0,0,0,0,0,0,0,0,0,0,0,0,0,0,0,0,0,0,0,0,0,0,0,0,0,0,0,0,0,0,0,0,0,0,0,0,0,0,0,0,0,0,0,0,0,0,0,0,0,0,0,0,0,0,0,0,0,0,0,0,0,0,0,0,0,0,0,0,0,0,0,0,0,0,0,0,0,0,0,0,0,0,0,0,0,0,0,0,0,0,0,0,0,0],"sum_hessian":[2.1275E4,1.4573E4,6.702E3,8.384E3,6.189E3,2.493E3,4.209E3,4.248E3,4.136E3,1.948E3,4.241E3,1.513E3,9.8E2,2.659E3,1.55E3,3.125E3,1.123E3,2.932E3,1.204E3,2.61E2,1.687E3,3.67E2,3.874E3,4.7E1,1.466E3,1.25E2,8.55E2,1.296E3,1.363E3,4.38E2,1.112E3,2.564E3,5.61E2,1.9E1,1.104E3,9E0,2.923E3,3.43E2,8.61E2,1.5E1,2.46E2,1.635E3,5.2E1,3.55E2,1.2E1,3.387E3,4.87E2,1.8E1,2.9E1,9.29E2,5.37E2,1.21E2,4E0,8.49E2,6E0,1.228E3,6.8E1,5.11E2,8.52E2,3.93E2,4.5E1,8.59E2,2.53E2,2.557E3,7E0,9.8E1,4.63E2,3E0,1.6E1,5.02E2,6.02E2,7E0,2E0,2.637E3,2.86E2,8.2E1,2.61E2,2.4E1,8.37E2,1.2E1,3E0,2E0,2.44E2,1.088E3,5.47E2,1.5E1,3.7E1,2.87E2,6.8E1,5E0,7E0,2.96E3,4.27E2,2.1E1,4.66E2,3E0,1.5E1,2.7E1,2E0,2.9E1,9E2,7E0,5.3E2,8E1,4.1E1,8.45E2,4E0,3E0,3E0,3.95E2,8.33E2,3.3E1,3.5E1,1.4E2,3.71E2,4.32E2,4.2E2,1.7E2,2.23E2,8E0,3.7E1,7.38E2,1.21E2,1.04E2,1.49E2],"tree_param":{"num_deleted":"0","num_feature":"192","num_nodes":"125","size_leaf_vector":"0"}},{"base_weights":[1.3581313E1,1.5560928E1,1.0284964E1,1.6766401E1,1.4291674E1,1.1836387E1,7.5863867E0,1.719181E1,1.4314561E1,1.3503848E1,1.5160989E1,1.2800848E1,1.0712372E1,8.720536E0,5.776286E0,1.7660494E1,1.5820851E1,7.479718E0,1.4566005E1,1.3077401E1,1.5412381E1,1.4862472E1,1.7516827E1,1.3534595E1,1.1385528E1,1.1079618E1,7.615304E0,8.026477E0,1.0048945E1,4.56427E0,6.767147E0,1.5028691E1,1.7888412E1,1.5880131E1,-1.4578972E0,-1.9472177E-1,8.924761E0,1.48961525E1,1.0278064E1,1.340724E1,1.1418625E1,1.1439722E1,1.6069117E1,-6.891852E0,1.488092E1,-8.564992E-1,1.768293E1,1.2459724E1,1.4499689E1,1.1430677E1,-6.4664664E0,1.2188694E1,1.0115214E1,6.000163E0,1.0406925E1,7.363283E0,9.633843E0,1.845819E1,9.820826E0,1.5562578E1,4.468496E0,6.644457E0,2.3938982E1,2.0835627E1,1.4459033E1,1.8484371E1,1.7028183E1,2.5514941E0,1.595074E1,-6.8059883E0,6.158857E0,5.0798645E0,-5.4206276E0,9.447692E0,7.205289E-1,1.5283243E1,1.2239797E1,-1.4770501E0,1.09809265E1,1.1834629E1,1.3835131E1,8.041301E0,1.2186447E1,1.5097003E0,1.2249251E1,-2.0104012E0,1.6211235E1,-1.5028231E1,4.6904526E0,1.0249894E1,1.4986392E1,9.149227E-1,-1.7519474E0,1.7794199E1,-6.365655E-1,1.2680692E1,2.6224189E0,1.0934047E1,1.4894175E1,1.1278113E1,1.8567942E1,1.4295399E1,1.1573442E1,2.5090002E1,1.0012682E1,6.4075193E0,-8.072339E0,5.6665983E0,1.22158785E1,9.245621E0,6.285971E0,1.6391264E1,8.931555E0,9.040924E0,2.3731823E1,6.8708854E0,1.0149845E1,5.145524E-1,3.0353329E1,5.820473E0,3.8566294E0,7.501085E0,5.4219904E0],"categories":[],"categories_nodes":[],"categories_segments":[],"categories_sizes":[],"default_left":[1,1,1,1,1,1,1,1,1,1,1,1,1,1,1,1,1,1,1,1,1,1,1,1,1,1,1,1,1,1,1,1,1,1,1,1,1,1,1,1,1,1,1,1,1,1,1,1,1,1,0,1,1,1,1,1,1,1,1,1,1,1,0,0,0,0,0,0,0,0,0,0,0,0,0,0,0,0,0,0,0,0,0,0,0,0,0,0,0,0,0,0,0,0,0,0,0,0,0,0,0,0,0,0,0,0,0,0,0,0,0,0,0,0,0,0,0,0,0,0,0,0,0],"id":14,"left_children":[1,3,5,7,9,11,13,15,17,19,21,23,25,27,29,31,33,35,37,39,41,43,45,47,49,51,53,55,57,59,61,63,65,67,69,71,73,75,77,79,81,83,85,87,89,91,93,95,97,99,-1,101,103,105,107,109,111,113,115,117,119,121,-1,-1,-1,-1,-1,-1,-1,-1,-1,-1,-1,-1,-1,-1,-1,-1,-1,-1,-1,-1,-1,-1,-1,-1,-1,-1,-1,-1,-1,-1,-1,-1,-1,-1,-1,-1,-1,-1,-1,-1,-1,-1,-1,-1,-1,-1,-1,-1,-1,-1,-1,-1,-1,-1,-1,-1,-1,-1,-1,-1,-1],